1575 128
呗 -0.076841 -0.060909 -0.005844 -0.245154 -0.039587 0.021697 -0.138676 0.179871 -0.029121 -0.225002 0.075966 0.088514 0.079699 0.005915 -0.319621 0.107441 0.194948 -0.060261 -0.136080 -0.040082 0.168195 0.045005 0.071304 0.126041 0.039795 -0.117453 0.090574 -0.200034 -0.062258 0.160748 -0.209417 0.023243 0.056979 0.230688 0.075846 0.105479 0.144131 0.217692 0.007802 0.075630 0.064392 -0.034482 -0.166393 -0.219366 0.127170 0.020788 -0.024732 -0.015891 -0.020148 -0.014194 0.038419 0.031230 -0.009563 0.045001 -0.187822 -0.129390 -0.180905 -0.185832 0.027399 -0.077823 0.080665 -0.091063 -0.184013 0.026501 -0.226431 -0.013122 -0.187786 0.068893 -0.232786 0.073239 -0.235893 0.080644 0.046196 0.008403 -0.077206 -0.021785 -0.015316 -0.061694 -0.015205 0.190187 0.140079 0.023378 -0.010110 0.328752 -0.203178 0.005559 -0.008723 -0.108366 0.065702 -0.010313 0.048904 -0.132736 0.030306 0.003046 0.048751 -0.045772 0.002986 -0.183109 0.138302 -0.105799 -0.049864 0.084227 0.137952 0.025214 -0.025844 0.053796 0.042373 -0.054551 -0.043314 0.075281 -0.015545 0.163762 0.071442 -0.142717 -0.014917 -0.058919 0.068749 -0.165363 0.111038 0.114847 -0.253235 0.106495 -0.236880 0.213634 0.131048 -0.093437 -0.009365 0.034921
花 0.045051 -0.028097 0.048220 0.208386 -0.133708 0.193150 -0.023212 0.015331 0.030295 -0.156915 0.196933 0.001977 0.149827 0.323314 0.158082 -0.149248 0.098155 0.209063 0.049981 -0.040989 0.247378 -0.040596 -0.000754 -0.064216 0.079087 -0.315780 -0.071583 0.209381 -0.091660 0.040346 -0.025776 0.034432 0.160224 0.210196 0.028990 0.122955 0.066928 0.056954 0.162343 -0.227746 -0.056028 0.116994 -0.048335 -0.006826 0.058206 -0.056618 -0.202998 0.112713 -0.147404 0.091348 -0.181390 -0.406785 0.112570 0.098217 0.051852 -0.176558 0.195003 -0.076091 -0.135521 -0.104043 -0.093836 -0.042703 0.093341 -0.027045 0.068194 0.128562 -0.182210 0.201589 0.089306 -0.198996 0.089648 -0.030652 -0.125800 -0.082543 0.015672 0.214923 0.124901 -0.003283 0.150465 -0.334105 0.168776 0.095335 0.142282 0.156888 -0.093396 -0.043329 -0.172170 -0.302686 0.145330 0.053073 0.035592 -0.358733 -0.014356 -0.157269 -0.305516 0.142709 0.202060 0.163038 0.257812 -0.231191 0.167867 0.032800 0.351320 0.119090 0.009630 0.036838 0.135283 -0.055129 0.226408 0.077350 0.074499 0.087044 0.369580 0.273408 -0.075755 -0.110979 0.179338 -0.301913 -0.125834 0.160383 -0.036925 0.155658 -0.138986 -0.126130 -0.009771 0.104173 0.056822 -0.138850
么 -0.239533 -0.059448 -0.116986 -0.149420 -0.283892 -0.052860 0.007964 0.207518 -0.003522 -0.295684 0.089614 0.169015 0.008559 0.234680 -0.037512 -0.206617 0.156263 0.118416 0.403270 0.129928 -0.004868 -0.096071 0.010533 -0.015511 -0.051275 -0.131127 0.039037 0.014057 0.216540 -0.000698 0.017671 -0.010913 0.058060 0.110522 0.020967 0.085586 0.100399 -0.139728 0.068541 -0.228632 0.316270 0.035818 -0.025748 0.200506 -0.100890 0.049024 -0.182236 0.181071 0.122482 0.062667 0.341236 0.123111 -0.185493 0.031068 -0.060977 -0.064200 -0.081728 -0.033765 -0.216187 -0.092079 0.131415 -0.012491 0.153979 -0.076126 -0.127413 0.201555 -0.547650 -0.054915 -0.153514 -0.124946 -0.027231 0.379001 -0.040675 0.210117 -0.236283 -0.036856 -0.227738 0.064001 0.113625 0.485040 -0.021069 0.013601 0.199893 0.193432 -0.026766 -0.031000 -0.079859 -0.458560 0.210777 -0.216527 0.075345 -0.260056 -0.143276 -0.021379 -0.020292 -0.147822 -0.476582 0.090430 0.176602 -0.024470 -0.155051 0.073233 0.282599 -0.083744 -0.018192 0.082918 0.051698 -0.017131 0.224991 0.067155 0.361958 -0.119619 0.265117 -0.118095 -0.052345 0.089547 0.191130 -0.187499 0.109303 0.107498 0.093838 0.026479 -0.074524 -0.064481 0.284426 -0.132713 0.042908 -0.193665
还 0.098992 0.099617 -0.043536 -0.080851 -0.091103 0.103017 -0.033010 0.264000 -0.244345 -0.143426 0.070525 -0.010356 0.053951 -0.171915 -0.042926 -0.062373 -0.089963 -0.037453 -0.136395 0.166366 0.063507 -0.128538 0.041364 0.167733 0.131577 0.083543 0.143309 0.185286 -0.245015 0.312928 -0.110713 0.104887 0.143412 -0.004865 0.069122 0.152811 0.007514 0.251176 0.438191 -0.043808 0.266228 0.042089 -0.159060 -0.008672 0.296290 0.035593 0.073683 0.136830 -0.126285 0.067657 -0.057401 0.068737 0.364888 -0.003432 -0.018286 -0.149009 -0.252385 -0.255084 -0.126304 -0.006878 0.066303 0.235803 -0.138436 -0.050031 -0.365317 0.109778 -0.128391 -0.143328 -0.289365 -0.114112 0.292036 0.074439 -0.102765 -0.128113 -0.009671 -0.000405 0.233574 -0.102594 0.174195 0.033147 0.098941 0.093122 -0.196110 -0.126293 0.103662 -0.122421 0.066678 -0.072786 0.176230 0.170962 0.063046 -0.021015 -0.259155 0.183567 -0.243036 0.063446 -0.034032 -0.211682 -0.021072 -0.156863 -0.070194 -0.064678 0.043169 -0.108776 -0.013820 -0.087720 -0.063428 -0.002291 0.052923 0.226136 0.347975 -0.181651 0.005285 -0.135099 0.089936 0.178394 0.187134 -0.314672 -0.185255 0.168646 0.107317 0.105130 -0.231758 -0.013952 0.141478 -0.116612 0.007781 0.123186
借 -0.081999 0.046390 -0.097742 0.070370 -0.253506 -0.104027 0.008695 0.054119 -0.185015 -0.297131 0.208289 -0.055979 0.006234 0.000790 0.037250 -0.216500 -0.089054 0.226216 -0.068893 0.091617 0.165620 -0.094836 -0.167784 -0.245444 0.362926 -0.231620 -0.183822 0.173174 0.178907 0.204077 -0.174098 0.109940 0.289990 -0.286406 -0.021254 -0.092542 -0.017607 0.181485 0.522843 -0.151033 0.037115 0.167908 0.180390 0.064823 0.194680 0.293051 0.019722 0.215016 -0.148146 0.010821 -0.145814 0.051910 0.017933 -0.093675 -0.201832 -0.215833 -0.220909 -0.013482 -0.177940 0.049426 -0.258409 -0.258099 -0.154045 0.146667 -0.284898 -0.217546 0.241219 0.090536 -0.182839 -0.139101 0.330242 -0.266440 -0.180540 -0.232251 -0.087946 0.067094 -0.044622 -0.206226 0.282908 -0.029697 0.328902 0.262995 -0.021166 0.088347 -0.171995 0.134004 -0.216555 -0.117522 0.160693 -0.005240 -0.090837 -0.142185 -0.025034 0.365319 -0.127721 -0.224960 -0.224076 0.068292 0.377124 0.037504 -0.057461 0.224819 0.472133 0.006217 0.027699 -0.088160 0.176385 0.186905 0.225741 0.051457 -0.022788 -0.277669 0.307737 0.088035 -0.016692 0.041087 0.126844 -0.367449 0.015526 0.119991 0.137094 -0.005406 -0.357138 0.038795 0.082160 0.251654 0.321494 0.083283
我 -0.200595 0.172082 0.009645 -0.076199 -0.151294 0.122163 -0.152027 0.160191 -0.258796 -0.118983 0.237968 0.154890 -0.169324 0.089948 -0.226998 -0.079604 0.244517 0.125365 -0.085440 0.005371 0.196991 0.166504 0.207611 -0.006402 -0.063529 -0.124672 -0.113360 0.021351 0.144633 0.140016 -0.118466 0.102998 -0.048418 0.096892 -0.053081 0.304322 0.166965 0.190528 0.054852 -0.070459 0.164547 0.286763 0.056253 -0.079614 0.064371 0.006276 -0.039121 -0.002354 0.007531 -0.040623 -0.046193 -0.002063 0.029243 -0.093349 0.030058 0.011525 -0.188246 -0.024891 -0.123631 -0.228015 0.231215 0.103374 0.136240 0.067343 0.094130 0.160695 -0.074823 0.158120 -0.192801 0.109492 0.061780 0.079607 -0.108742 -0.098686 0.013177 0.097387 -0.137563 -0.096821 0.128715 0.260073 0.139878 -0.031660 0.041869 0.204815 -0.119585 0.096744 -0.142869 -0.008319 0.201339 0.054496 0.167774 -0.211239 -0.021680 -0.103971 -0.129956 0.158271 0.018588 -0.053650 0.154844 0.054923 0.125278 0.213943 -0.001049 -0.063263 -0.135721 0.069797 0.051216 0.090770 0.134118 0.083656 0.137921 0.092609 -0.054736 -0.148749 -0.067994 0.117827 0.237601 0.050576 -0.283495 0.120762 0.214500 -0.071247 -0.198306 -0.219099 -0.040350 -0.208905 -0.093592 -0.033231
款 -0.217488 -0.115087 -0.246011 -0.109001 -0.031174 -0.079010 0.094075 0.174819 -0.053303 -0.122053 0.170033 -0.061667 0.225713 -0.034576 -0.354264 -0.131891 0.010389 0.214142 0.045950 0.133729 0.148761 -0.156890 0.067279 0.040294 0.020815 0.055137 0.115254 0.269941 0.189980 0.114561 -0.074237 0.053856 0.490025 0.352475 0.182979 0.148742 0.097358 -0.013278 0.185600 0.111233 0.172173 0.336590 -0.327205 0.060725 0.061342 -0.067276 0.065945 0.186937 -0.253598 -0.033833 -0.075038 -0.245026 0.148448 -0.052573 -0.132375 -0.364921 0.040205 -0.096026 0.031525 0.002696 0.027608 -0.151459 -0.049193 -0.042931 -0.529789 0.093266 -0.267516 -0.115629 -0.156509 -0.110724 -0.070276 -0.139237 -0.000569 -0.009781 0.051213 0.015376 0.072784 -0.160467 0.358123 0.156803 -0.038389 -0.028093 -0.138541 -0.329634 0.013095 -0.028597 -0.086464 0.058207 0.273245 -0.024910 0.051604 -0.145143 0.011385 0.094761 -0.235900 0.291223 0.085519 -0.039552 -0.017257 -0.118163 0.119579 0.097105 -0.110972 -0.134740 0.202114 0.063299 -0.260200 -0.325525 -0.087971 0.059854 0.026898 -0.184331 -0.025202 -0.165090 0.025172 0.163653 0.140891 -0.142661 -0.117631 -0.081016 -0.079248 0.313868 -0.058893 0.005683 -0.114449 -0.026445 0.017936 -0.049376
的 -0.312609 -0.114168 -0.035746 0.106316 -0.169785 -0.047181 0.112265 0.113992 -0.256506 -0.126726 -0.155300 0.067119 0.196570 0.021798 -0.100250 -0.032084 0.040379 0.081390 -0.068195 -0.045323 0.020793 0.039398 0.110632 0.052886 -0.138272 -0.151677 0.077537 0.012406 0.163894 0.069005 0.032576 -0.115099 -0.025101 0.094735 0.001184 0.052632 0.119080 0.122581 0.026393 -0.098954 -0.025341 0.053104 -0.016098 -0.061966 0.013413 -0.136023 0.072082 0.197223 -0.053598 0.094849 0.053779 -0.011355 0.135437 -0.000578 0.030318 -0.111994 0.016914 -0.070949 -0.091635 0.071204 0.000452 -0.091636 0.067643 -0.198629 0.014107 0.009766 -0.210443 0.001712 -0.063068 0.101831 -0.188801 0.063313 0.034093 0.119777 -0.085238 0.168706 0.133321 -0.061723 -0.089754 0.006748 0.182302 -0.081260 0.158743 0.322629 -0.122807 0.030989 -0.022925 -0.096339 0.260118 0.101219 0.067948 -0.168250 0.021132 0.114274 0.010965 0.031744 -0.062115 -0.183626 0.108189 -0.061098 -0.014023 0.009827 0.059489 0.052442 0.000775 0.120496 0.119027 0.034329 -0.168088 0.043641 -0.045819 -0.046695 0.083386 -0.062563 0.176242 -0.013291 0.266759 -0.262479 0.029728 0.174988 0.090216 0.155600 -0.004895 -0.009736 0.097803 -0.149217 -0.084836 0.085667
了 -0.307547 -0.091690 -0.071263 0.064023 -0.080746 0.092007 0.142436 0.098368 -0.188474 -0.205022 0.250193 0.213675 -0.088544 0.254205 -0.228564 -0.092716 -0.105457 -0.259024 -0.098458 -0.029438 0.231291 -0.191412 0.275569 -0.070743 -0.014605 -0.146636 0.033072 0.059084 0.006847 0.259489 -0.170984 0.048715 0.038519 0.122918 0.087208 0.304505 -0.078660 0.129212 0.124096 -0.064248 -0.158929 0.065592 0.196606 -0.021063 -0.013403 0.007643 -0.062557 -0.008782 0.012588 -0.014500 0.063750 -0.067899 0.010370 0.060190 0.083058 -0.016144 -0.036005 0.068930 -0.093424 -0.011496 -0.075834 0.033327 -0.018912 -0.037391 0.010555 0.227128 -0.048870 -0.037607 -0.149219 -0.103413 -0.053647 0.152451 -0.041389 -0.059878 0.022632 0.141865 -0.132935 0.037700 0.111956 0.089855 0.260200 0.082172 0.010431 0.179580 0.012086 -0.036365 -0.009115 0.090968 0.175681 -0.053812 0.136787 -0.249228 -0.069191 0.054504 -0.126846 -0.052422 0.012347 -0.060608 0.141187 0.016938 -0.005564 0.075392 0.013549 -0.184262 -0.035288 0.029082 0.157613 -0.126933 -0.007927 0.062649 0.266010 0.139657 0.258233 -0.067578 0.101466 -0.203550 0.158769 -0.103921 0.101533 0.104510 0.029024 0.220109 -0.066365 -0.086634 0.073398 -0.373419 -0.146812 0.024227
用 -0.070691 -0.006154 0.150881 -0.193786 -0.198617 0.083386 0.069725 0.149442 0.190643 -0.212637 -0.071096 0.063903 0.065566 -0.025281 0.000967 0.035325 0.046343 -0.008572 0.034761 -0.165700 0.160607 -0.210037 0.059839 -0.090595 0.052780 0.131094 -0.008626 0.253901 -0.032582 0.255150 -0.042840 0.058532 0.027336 0.154818 0.046472 0.312527 -0.019728 0.056941 0.005010 -0.124713 -0.076883 0.140022 -0.239692 -0.049849 0.066618 0.097436 0.192526 0.397433 -0.060785 0.035111 -0.312002 0.086669 -0.069933 0.086887 -0.138015 -0.012966 -0.048404 0.029690 0.084143 -0.315208 0.255947 0.087170 -0.047021 -0.041905 0.230714 0.014266 -0.066133 -0.005740 -0.153238 -0.028311 -0.126669 -0.084877 -0.014481 0.077250 -0.214337 -0.329097 0.248559 0.024236 -0.143099 -0.116954 0.294094 0.224011 0.423769 -0.013093 -0.113356 -0.064819 -0.151215 -0.115754 0.211952 0.000863 -0.029945 -0.448774 0.452459 -0.015317 -0.074958 0.132857 0.159179 0.202119 0.002662 -0.083045 0.369466 0.113040 0.246137 0.048124 -0.024698 -0.062368 0.054238 -0.107157 -0.248031 0.255841 0.035096 0.095999 -0.122906 0.166098 0.123264 0.002818 0.056128 -0.112943 0.094864 -0.058895 0.086712 -0.253700 0.128712 0.309773 0.135143 -0.308624 -0.318130 -0.199020
不 0.050997 0.102775 0.129985 0.036109 0.062333 0.035195 -0.116813 -0.002712 -0.201445 -0.020648 0.007491 0.205952 0.047230 -0.093630 -0.441205 -0.077372 0.341401 -0.183489 0.017365 0.259524 0.188405 0.059159 0.107764 -0.192339 0.095002 0.005056 -0.017189 0.183176 0.104505 0.375744 0.005530 -0.021497 0.213657 0.108717 0.010029 -0.059543 -0.234132 0.124720 0.080383 -0.340421 -0.023735 0.186031 -0.145986 -0.022654 -0.227985 -0.108766 0.019921 0.176458 -0.035437 0.120600 -0.333175 -0.020551 -0.199060 0.092463 0.017207 -0.192967 -0.053002 0.069129 0.003202 -0.103330 0.171158 -0.011792 0.210490 0.134518 -0.070294 -0.052818 -0.390976 -0.275445 0.025036 0.302268 -0.240260 -0.063019 -0.063810 0.061666 -0.134920 -0.254577 0.109508 -0.007913 0.055374 0.028369 0.084177 0.150551 -0.112795 0.223656 -0.200920 -0.059258 -0.024009 -0.141407 0.414078 -0.068453 0.366929 -0.155153 -0.038339 0.169367 0.286405 0.214369 0.025289 0.082351 -0.026458 -0.167143 0.054160 0.017057 0.173057 0.179390 -0.006484 0.032508 0.174498 -0.083525 0.203324 -0.013736 0.163783 -0.009668 0.089586 -0.083255 -0.167915 -0.277322 -0.056177 -0.059083 -0.176899 0.276742 0.036528 -0.004632 0.049028 -0.164063 0.160102 -0.004695 0.275829 -0.007779
怎 -0.152799 -0.236285 -0.068500 -0.470643 -0.234768 -0.043540 0.238992 -0.316489 -0.008531 -0.230496 0.288855 0.370794 0.003655 -0.098722 -0.217481 -0.164022 -0.036418 0.020313 -0.205492 0.223726 -0.121385 -0.070783 -0.065722 0.143988 -0.031410 -0.420716 0.222842 0.121688 -0.177836 0.360476 -0.251916 0.148480 0.013973 -0.110039 -0.054443 -0.156882 0.115868 0.308675 -0.536614 -0.024330 -0.172245 0.197010 -0.410691 0.055653 0.053761 0.088660 0.104366 -0.520930 0.250057 0.070212 -0.115266 -0.274213 0.186990 -0.042049 0.188366 0.268915 -0.140696 -0.062837 -0.649871 0.103695 -0.012198 -0.042052 -0.201535 -0.061614 0.024095 0.225219 -0.264630 0.129479 0.170156 -0.234334 -0.075770 0.025191 0.144241 -0.134128 -0.332027 0.121708 -0.042027 -0.087142 0.263507 0.137031 -0.144828 0.217622 0.341495 0.107197 -0.095645 0.023954 -0.277754 0.098163 0.189350 0.139856 0.136843 0.178323 0.006271 0.084587 0.005826 0.015024 -0.120055 0.107360 -0.058592 0.095567 0.249601 0.047686 0.301923 -0.071373 0.414317 0.264884 0.177969 -0.219700 -0.003163 0.402911 -0.096083 -0.219866 0.311020 -0.067063 -0.120303 -0.385132 0.106350 0.007119 -0.280637 0.196184 0.158175 0.109428 0.040698 -0.049020 0.236704 -0.026542 0.150396 0.105493
吗 -0.477718 -0.024647 -0.023550 -0.313322 -0.189028 -0.051116 -0.310495 0.264383 0.247054 -0.190334 -0.165390 0.015174 -0.009303 -0.218126 0.092241 -0.276999 0.169737 0.064458 0.053069 0.061940 -0.194788 -0.002396 -0.243067 0.238710 -0.094294 -0.198739 0.257647 0.255430 -0.021045 -0.141640 -0.121954 -0.218513 0.484219 0.142859 -0.043572 0.254258 -0.321471 0.405060 -0.305812 -0.201828 0.010239 0.010460 -0.364560 0.145564 -0.018355 -0.053703 0.008396 0.261078 0.268023 0.348409 -0.022642 -0.084475 0.076332 -0.011832 -0.080002 0.199827 0.165241 0.083849 -0.140320 0.222359 -0.015053 -0.171492 -0.086984 -0.158130 -0.345655 0.356209 -0.057859 0.207749 -0.092776 -0.075511 0.077691 -0.069367 0.074740 -0.170567 -0.387948 -0.434993 0.391763 -0.072750 0.005275 -0.105935 -0.091263 0.300095 0.226711 -0.009801 -0.100749 -0.270826 -0.116270 -0.202583 0.411859 -0.137841 -0.192443 -0.062201 -0.006678 0.339406 -0.110898 -0.045187 0.150402 0.109455 0.055613 -0.404498 -0.198847 0.016716 0.185900 0.189861 0.144626 -0.060429 0.080314 -0.118702 0.231463 0.139284 -0.069702 0.186596 0.209776 0.021618 -0.075242 -0.095259 -0.172578 0.159334 -0.115978 0.254551 -0.034095 0.140111 0.025152 -0.007930 0.454058 -0.304978 0.303356 0.191540
什 0.046196 -0.218612 -0.108884 -0.222748 -0.292917 -0.234989 0.682508 0.076804 -0.286981 -0.488458 -0.152663 0.264543 -0.002310 0.151717 0.106094 -0.013025 -0.007990 0.241860 -0.062480 0.060701 0.172615 -0.034870 -0.223819 0.129473 -0.069773 -0.283170 0.366864 0.128841 0.128803 0.172471 -0.068992 0.043229 0.040112 0.071071 -0.178077 -0.058296 0.234541 0.106606 -0.013220 0.029715 0.005397 0.450191 -0.579667 -0.309159 -0.032965 -0.203698 -0.144228 -0.217464 -0.222521 -0.044364 0.008152 0.237809 0.206123 0.050444 0.300364 0.108902 -0.359264 -0.082530 -0.183135 0.041626 0.111682 -0.141889 -0.047780 -0.097828 0.205902 -0.142176 -0.238052 0.015065 -0.055492 0.037803 -0.031589 0.084269 0.367083 -0.152581 -0.243564 -0.056102 -0.004429 -0.082109 -0.186737 0.112902 -0.270875 0.192237 -0.022397 0.301873 -0.490733 -0.062952 -0.032407 0.046648 0.036541 -0.187349 0.039957 -0.412805 0.170176 0.325580 -0.099725 0.223309 -0.005035 0.264743 -0.047073 0.106541 0.125007 0.213068 0.123056 -0.210641 -0.142153 0.018897 0.212164 -0.129311 -0.113362 0.340028 0.085295 -0.190679 0.053050 0.229462 -0.224403 0.048111 -0.051726 0.075886 -0.323870 0.566198 0.098864 0.036363 -0.157621 -0.530361 0.035398 -0.204545 -0.002344 0.228127
期 0.060873 0.444558 -0.324664 0.020733 -0.367184 -0.006550 -0.034343 -0.141101 -0.025751 -0.056021 -0.040880 -0.494990 -0.231894 -0.126879 -0.261471 -0.114074 -0.330136 -0.202445 -0.042105 -0.158720 0.019003 -0.191843 -0.289236 0.104933 -0.178166 -0.222876 0.146281 -0.004035 -0.005092 0.153683 -0.130335 0.199678 0.146834 -0.017315 0.305534 -0.288990 0.374449 0.614797 0.266512 -0.363118 0.202144 -0.013505 -0.143846 0.259187 0.176589 0.256746 0.092317 0.107469 -0.226888 -0.114497 -0.077698 0.273991 -0.012232 0.089114 -0.242670 -0.228318 0.267849 -0.075455 -0.375350 -0.505947 0.012795 -0.107797 -0.110458 0.130801 -0.504616 0.223157 0.027387 -0.272856 -0.220916 -0.221772 -0.081345 0.164473 0.282264 -0.078332 -0.123706 0.070158 0.206808 0.119928 0.209279 -0.261666 0.157359 0.249043 0.110287 -0.056682 -0.301139 -0.435539 0.062598 0.214733 0.263510 0.257361 0.253455 -0.000814 0.171490 0.054576 0.028776 0.365714 0.032888 -0.106380 -0.103861 -0.062518 -0.105531 0.091487 0.072824 -0.270816 0.120488 -0.138846 -0.140439 -0.003951 0.118263 0.034972 0.369003 0.029180 0.114062 -0.213281 -0.066887 0.239933 0.184253 -0.214780 0.156833 -0.061984 0.050857 0.113243 -0.227702 0.195549 0.299627 0.015360 0.155332 0.004942
是 -0.362395 0.097670 -0.044155 -0.313346 -0.185316 0.280439 0.003598 0.119705 -0.184102 -0.114850 0.005534 -0.090898 0.155332 0.232991 0.015809 -0.280126 -0.082062 -0.016890 -0.001685 -0.069430 0.000553 0.029521 0.067231 0.017770 0.007531 0.007578 -0.061808 -0.093189 0.214738 0.072237 -0.131634 -0.009609 0.246002 -0.002835 0.054148 -0.148503 -0.041481 -0.044438 0.157799 0.097425 0.015687 -0.142410 -0.241814 -0.382960 0.090804 -0.058634 -0.087474 0.139334 -0.443773 0.167366 -0.018216 -0.134492 0.100425 -0.002428 -0.212700 0.156029 0.046613 -0.141762 0.066690 -0.006627 0.110731 0.067964 0.073026 -0.243693 0.011858 0.271444 -0.023824 0.089175 -0.212424 -0.071939 -0.267876 -0.065426 0.044121 -0.129985 -0.082031 0.166452 0.022901 -0.184083 -0.070341 0.067824 0.115542 0.155841 -0.000484 0.115872 -0.038571 0.005402 -0.110834 0.127885 0.001000 0.050059 0.032982 0.050607 -0.003934 0.078864 -0.247311 -0.000295 -0.071344 -0.119238 0.014271 -0.117443 0.066680 0.123534 0.211122 -0.040710 0.118333 0.015624 0.023224 0.032050 0.038732 -0.145272 0.064371 0.176403 0.223090 -0.116478 0.034992 0.184845 0.322490 0.006254 -0.156750 0.210084 0.223778 0.187181 -0.104466 -0.181506 0.148106 0.082639 -0.189768 0.078007
额 -0.106905 -0.307933 0.101386 -0.201090 -0.152458 0.108325 -0.085778 0.388318 -0.209149 -0.405200 0.354031 0.103473 0.058618 0.196477 0.270217 -0.504417 -0.505494 -0.031471 0.176926 -0.135173 0.337694 -0.055085 0.031420 0.276107 0.012844 -0.067756 0.167206 -0.289020 0.129935 0.444019 -0.156977 0.406198 0.069002 0.329787 -0.237059 -0.032875 0.333337 0.298165 0.057195 0.023864 0.172537 0.112488 -0.318349 -0.189716 0.057382 -0.088853 -0.157139 0.356453 0.023826 -0.129193 -0.086087 0.273603 -0.040495 -0.187367 -0.349496 -0.205570 -0.016259 0.048414 -0.162091 0.051882 0.093161 -0.207216 -0.184320 -0.387099 -0.117904 -0.112204 0.292812 -0.165842 0.089367 -0.026718 0.083288 0.318983 -0.280491 -0.038473 -0.236645 0.103298 -0.195393 -0.005441 0.058445 0.272251 0.257275 -0.394809 0.049621 -0.041530 0.272243 -0.398330 -0.283515 -0.084191 0.270093 0.120409 0.093245 0.068952 0.343376 -0.060086 0.356430 0.158292 -0.065036 -0.090231 0.092817 -0.502910 0.089790 -0.184312 -0.019016 -0.044348 -0.110428 0.271919 0.025788 0.239020 0.069994 -0.106593 -0.219689 -0.116766 0.278379 0.105899 -0.161957 -0.239158 -0.114544 -0.340777 -0.021929 -0.218354 0.297031 -0.165649 -0.140798 -0.128243 0.010081 0.116089 0.171010 0.124545
能 -0.385746 0.286356 0.173857 -0.125451 -0.097308 -0.151045 0.082292 -0.238657 0.139331 -0.216700 0.270482 -0.071969 0.274300 -0.080073 -0.338767 -0.160241 -0.101695 -0.028524 -0.127421 -0.066399 0.386324 -0.058167 0.467159 -0.096353 0.309283 0.080140 0.027748 0.089108 -0.021031 0.416653 0.035896 -0.030621 0.253591 0.064260 -0.018060 0.054058 0.098803 0.308370 -0.018170 -0.284687 -0.119518 -0.047142 0.049843 -0.211594 -0.138134 0.306919 -0.141802 0.028422 -0.118997 0.111003 0.224958 0.233489 0.117303 -0.214002 0.086558 -0.141969 -0.045616 -0.034949 -0.140783 -0.330882 0.132829 0.011546 0.028617 -0.001163 0.089285 0.196129 -0.404479 0.250902 -0.192322 -0.249107 -0.008967 -0.010343 0.063967 0.051231 0.046381 0.184500 -0.181534 -0.093883 -0.141813 -0.125899 -0.129888 0.150546 0.114390 0.038919 -0.066242 -0.300106 -0.287092 0.189832 0.058745 -0.163645 -0.002232 -0.406148 0.076711 0.097443 0.079159 -0.161774 -0.035699 -0.117306 0.130404 -0.159636 0.054409 0.244018 0.066896 0.117143 -0.077648 -0.202226 -0.027492 -0.014939 0.155398 0.266923 0.103506 -0.069689 0.160800 -0.098399 -0.287422 -0.203921 -0.188703 0.081543 0.093038 -0.195714 -0.091598 0.125209 -0.213618 -0.035878 0.011959 -0.226764 0.011129 -0.179248
可 -0.459597 0.441708 0.247335 0.025972 -0.007194 -0.131346 -0.366898 -0.056474 -0.053128 -0.163795 0.216308 -0.087354 0.169789 -0.133395 0.086221 -0.322929 0.042502 0.060337 -0.220207 -0.369438 0.201264 0.104999 -0.056046 -0.002209 0.219913 -0.046455 0.136972 0.394777 -0.185685 0.065025 -0.252388 -0.133220 0.050730 0.166475 0.005041 0.075292 -0.156945 0.420564 0.094638 -0.212653 -0.064978 0.187145 -0.180845 -0.292420 0.072132 0.036559 0.218344 -0.053996 0.134433 -0.009787 0.097158 0.217241 0.043068 -0.308822 -0.173204 -0.310780 0.389284 -0.037123 0.269726 0.057539 0.034313 -0.145408 -0.208441 0.085318 0.027801 0.486653 -0.140023 0.104596 -0.054125 -0.074397 0.012527 0.011989 -0.008471 -0.171100 -0.189398 -0.011797 0.191249 -0.238931 -0.059623 0.243197 -0.171595 0.426919 0.220211 -0.162229 0.226453 -0.243557 -0.270052 0.133076 0.107096 -0.135464 -0.143917 -0.185269 0.006266 -0.089415 -0.154403 0.021601 -0.019214 -0.284687 0.028105 0.016039 -0.113646 0.073034 0.110639 0.250576 -0.179268 0.068633 0.116025 0.087495 0.174106 0.089181 0.008878 0.118497 -0.133674 -0.043352 -0.063050 -0.461130 -0.039829 -0.161583 -0.058083 -0.108373 -0.166710 0.330839 -0.366070 0.056921 0.056107 -0.324776 -0.313023 -0.036279
以 -0.380948 0.244621 0.046993 0.103269 -0.200840 -0.020649 -0.092652 0.009255 0.165365 -0.188856 0.085513 0.339016 0.121151 -0.272121 0.016722 -0.025336 -0.333515 -0.061720 -0.169036 0.215835 -0.026359 0.107447 -0.105902 -0.120434 0.039799 0.220124 0.337614 0.133721 -0.328784 0.100322 -0.075577 -0.109497 0.238706 0.323635 -0.001153 0.216591 -0.088752 0.303690 0.223460 -0.048372 0.157722 0.008587 -0.271550 -0.087068 -0.064615 0.111114 0.031984 0.139569 -0.052354 0.359203 0.128757 -0.067849 0.020966 -0.098023 0.193394 -0.225215 0.114175 -0.002297 0.127454 -0.095985 -0.070505 -0.029006 0.135007 -0.050839 -0.335057 0.147041 0.004345 0.206364 -0.286618 0.011165 -0.323659 -0.066937 0.290543 -0.019093 -0.056055 0.180168 0.092985 -0.337092 -0.206619 -0.269366 -0.071002 0.278974 0.104023 0.179697 -0.084641 -0.354296 -0.521794 -0.152520 -0.011314 0.056387 0.156389 -0.014156 0.245192 -0.108373 -0.047996 -0.260324 0.261451 -0.274682 0.225079 -0.294996 -0.115967 0.289330 -0.096626 0.332908 -0.154836 -0.168844 -0.074323 0.026368 -0.055765 0.270548 -0.016062 -0.120470 0.358914 -0.024280 -0.359280 -0.369504 -0.133270 -0.142222 0.133126 -0.174156 0.103086 0.156145 -0.035166 0.290865 0.072383 -0.189460 0.065690 0.044689
有 -0.310715 -0.124501 -0.161234 -0.119725 -0.232360 -0.170788 0.295546 0.141725 -0.059897 -0.315784 -0.138181 -0.136671 0.122617 -0.045405 -0.047779 -0.068746 0.087007 0.071706 -0.039048 -0.005949 0.089189 -0.074352 0.027858 0.114841 0.041852 -0.137511 0.044781 -0.085137 0.432435 0.000018 -0.068894 0.364474 0.252309 -0.008522 -0.191819 -0.288157 0.079516 0.149571 0.269238 -0.429372 0.026555 -0.025277 -0.242837 -0.134887 0.239797 -0.121965 0.181614 0.172201 0.033511 0.284852 -0.069810 0.247415 0.211508 -0.028003 0.215730 0.129332 -0.014380 -0.004135 0.383025 -0.019305 -0.052037 -0.039358 0.157186 0.060360 -0.168532 0.014786 0.047876 0.102983 -0.197650 0.254084 0.000024 0.149421 -0.066554 -0.097923 0.248238 0.011152 -0.130214 0.084451 0.040299 0.060443 0.425510 -0.226758 0.176187 0.014916 -0.165421 0.149137 -0.120690 0.061174 0.387286 0.120425 0.134128 0.069629 0.034304 -0.100446 -0.082192 -0.056620 -0.133251 0.186337 0.187816 -0.348597 -0.020430 -0.037699 0.401475 -0.160964 0.167212 0.022285 0.107408 -0.091207 -0.133174 0.018655 0.159538 -0.236794 0.128430 -0.350034 0.215179 -0.265247 0.167833 0.136036 -0.227419 0.084626 -0.242971 0.153497 -0.101132 0.034476 0.019314 -0.102200 -0.008985 -0.059899
为 -0.093994 -0.000333 0.060776 -0.237676 0.007960 0.093485 -0.264535 0.008988 -0.006548 0.042015 0.246474 -0.111045 0.137356 0.098411 -0.353050 -0.176486 -0.051575 0.037055 0.439877 -0.020023 0.122429 -0.192469 0.150441 -0.148831 -0.137788 -0.170918 -0.174721 -0.229058 0.052749 0.181093 -0.077763 0.059009 -0.033776 -0.128686 0.148157 0.117601 0.237351 0.070523 -0.109238 -0.036951 -0.238624 -0.007784 -0.235818 -0.234885 -0.003695 0.090687 0.198876 0.139621 0.167495 -0.065954 -0.005136 0.059501 0.116953 0.082369 0.149131 0.258251 -0.260338 0.042045 -0.319843 0.106299 -0.253610 0.118253 0.074463 -0.004467 -0.137361 0.274404 -0.329488 0.227775 -0.258804 0.045584 -0.254043 -0.345047 -0.167374 0.090702 -0.348019 -0.010403 -0.110880 0.120194 0.096981 -0.204075 0.268196 -0.221690 -0.018780 0.263422 -0.203094 0.304471 -0.398514 0.125274 0.283858 0.017282 -0.245210 -0.089330 0.113187 0.135283 0.093111 -0.215038 0.024085 0.218947 0.061312 -0.205438 0.420997 0.117898 -0.492004 -0.112405 -0.130317 -0.069339 -0.067258 -0.291662 0.040664 0.349546 0.209159 -0.400356 0.085824 -0.292018 0.029095 -0.268845 0.358585 -0.187116 -0.139900 0.588213 0.174889 0.023135 -0.214040 -0.284185 0.018343 -0.130866 -0.007454 0.044818
付 -0.168143 -0.025650 0.106388 0.117164 -0.113635 0.452931 -0.251667 0.174672 0.044695 -0.060713 -0.229267 0.031511 0.070098 0.128113 -0.006604 -0.128019 0.228136 0.327632 -0.051193 0.050616 -0.023420 0.109872 0.427164 -0.278351 -0.066743 -0.017247 0.049276 0.286821 -0.151790 -0.004915 0.251463 0.035215 0.131809 0.188446 0.086470 0.150602 0.414396 0.277237 0.106740 -0.082407 -0.146626 -0.137094 -0.303715 -0.080148 0.092944 -0.096073 0.214778 0.071364 0.164587 -0.051033 -0.161893 -0.081077 0.238625 0.284880 -0.070484 0.112710 -0.233989 -0.024324 0.150782 -0.141959 0.218698 0.081164 -0.027599 0.092333 0.076114 0.233441 -0.284552 0.114517 0.033186 -0.107821 -0.067756 0.191191 -0.017794 0.163041 0.198448 0.007418 0.033287 0.001102 -0.117256 0.045618 0.008898 0.051246 0.061350 0.118132 -0.077320 -0.201351 -0.350155 -0.235937 -0.128437 0.116748 -0.015327 -0.186303 0.021576 0.241527 -0.275699 0.036865 0.158832 0.204469 -0.218180 -0.414077 -0.170292 -0.120497 0.348090 -0.056593 0.106578 0.199520 0.173306 -0.120296 -0.282998 -0.047135 0.151319 0.141709 -0.083440 -0.051609 -0.195966 -0.403212 0.031669 -0.178394 -0.240148 0.018293 0.107364 -0.089189 -0.099672 -0.064303 -0.107603 -0.016278 -0.050648 0.150947
蚂 -0.001182 -0.213080 0.142334 0.086909 -0.265426 -0.150506 0.027229 0.012611 -0.146548 -0.079104 0.181340 0.206388 0.001632 -0.186356 -0.392511 -0.357519 0.091243 0.158128 -0.106212 -0.206386 0.150299 -0.051175 -0.003447 0.067287 -0.021816 0.021674 -0.128511 0.004706 0.186488 -0.072139 0.021694 0.032810 0.023123 -0.154303 -0.155456 -0.045300 0.022461 0.335792 0.268613 -0.019820 0.262717 0.060029 0.000830 -0.167111 -0.079995 0.347057 -0.052481 0.147994 -0.120437 -0.213325 0.084895 -0.103967 -0.020665 0.024904 -0.267642 0.110145 -0.407165 -0.279327 0.007180 0.184285 -0.025479 -0.381063 -0.193127 0.091786 -0.311590 -0.292809 -0.007338 -0.194710 -0.076949 -0.157725 0.014172 0.189552 -0.223843 -0.043344 0.071968 -0.264000 -0.018669 -0.345314 -0.064292 0.315847 0.163128 0.385361 0.108710 0.227506 -0.206715 0.167960 -0.305314 0.081331 0.287233 -0.067411 -0.012110 -0.058616 0.074466 0.203978 -0.282007 -0.072239 -0.046461 -0.045157 0.338575 0.000584 0.018190 0.160369 0.171732 -0.112680 0.004327 0.076816 -0.091411 0.310599 0.026287 0.122490 -0.004563 -0.189482 0.103218 0.103611 -0.023298 -0.158010 0.000289 -0.457850 0.217615 0.156121 0.159400 0.253251 -0.247101 0.252053 0.006820 0.145559 0.369222 -0.021572
蚁 -0.322189 0.100729 -0.291611 -0.082887 -0.240995 -0.393519 0.026238 0.071382 -0.124278 -0.284047 0.006164 -0.023282 -0.079853 0.065721 -0.038564 0.182355 0.023064 0.055683 -0.202464 -0.123387 0.256826 -0.149398 -0.088873 -0.206910 0.266379 -0.118957 0.105743 0.103929 0.185747 0.195026 -0.334244 0.160004 0.120786 -0.031931 0.247463 0.003542 0.013639 0.178050 0.140194 0.126292 0.039151 0.196384 0.080904 -0.025169 0.176055 0.149128 0.051163 0.103433 0.104835 0.057627 0.036485 -0.085182 -0.112182 -0.112071 -0.176430 -0.043538 -0.352995 0.234561 -0.050376 -0.163727 -0.183308 -0.082560 -0.173657 -0.048961 -0.413005 -0.270077 -0.070256 -0.023775 -0.293938 0.031521 0.209172 -0.360678 -0.080687 0.055222 -0.274567 -0.012721 0.041666 0.189124 0.266235 0.402260 0.202496 0.115084 -0.093217 0.141937 -0.120671 -0.043270 -0.158053 -0.088650 0.120004 0.003796 0.184865 0.074978 0.057303 0.251540 0.143606 -0.171070 0.040835 -0.068497 0.295331 0.101601 0.059353 0.286400 0.145025 0.232704 0.164545 0.052911 0.154475 0.423432 0.188183 0.087023 -0.187363 -0.301151 0.106389 -0.161439 -0.080707 0.127015 0.152525 -0.200033 0.066898 0.209922 -0.095276 0.033603 -0.326291 0.100016 0.063040 0.183519 -0.000133 0.032309
分 -0.195382 0.205134 -0.045902 -0.326286 0.008440 -0.076649 -0.237621 -0.055840 -0.025046 -0.169824 0.376500 -0.255464 -0.089466 -0.183275 0.005727 -0.053445 -0.230873 0.077583 0.017692 -0.138828 0.057513 -0.103844 -0.100443 -0.068039 -0.183992 -0.337590 0.327293 0.062459 -0.067660 0.569387 0.060128 0.076780 0.001165 0.294280 0.204459 0.138348 0.005181 0.333767 0.474809 -0.553391 0.074542 -0.104770 -0.135339 0.179312 0.168789 -0.003994 0.201399 0.309395 -0.159463 0.003095 0.072603 0.001476 0.152051 0.521383 0.131853 -0.292803 -0.048832 -0.120019 0.272057 -0.551167 -0.219334 -0.384894 -0.093362 -0.245082 -0.077654 -0.429525 0.194083 -0.084502 -0.330249 -0.774069 -0.157138 0.068317 0.360744 -0.139218 -0.121316 -0.066270 0.274201 0.140151 -0.119065 0.037159 -0.006457 -0.416963 0.161352 -0.169766 -0.265146 -0.169106 -0.168101 -0.107741 0.418164 0.176447 0.179315 0.223056 -0.154260 0.309192 -0.184552 0.158169 0.084839 -0.172499 -0.344811 0.171332 0.206683 -0.116758 -0.177459 -0.024996 -0.300099 0.124566 -0.025706 0.030247 0.090953 0.044467 -0.113113 0.092800 -0.010362 0.024229 0.106966 -0.101428 -0.029215 -0.241689 0.154996 0.064712 0.040124 -0.013733 -0.228568 0.048123 0.121399 -0.087397 0.103331 -0.470002
度 -0.031065 -0.347204 -0.400525 0.086883 -0.419776 -0.014096 -0.089698 -0.015508 0.122860 -0.554543 0.351337 0.011176 -0.021107 -0.112681 0.161678 -0.034136 -0.306393 -0.200825 0.115302 0.063930 0.501056 -0.000526 0.069359 0.311342 -0.524084 -0.018786 -0.008810 -0.040093 -0.025215 0.545989 -0.224658 0.172027 0.247320 -0.086748 0.181172 0.114861 0.073775 0.120968 0.377715 0.079545 0.034219 0.008117 -0.258096 -0.038824 0.127148 0.135998 0.166841 -0.125288 -0.064897 -0.203729 -0.074454 0.127270 -0.306861 0.068170 -0.389817 -0.043454 -0.604786 0.110150 0.097319 -0.049257 -0.110281 -0.266576 -0.118463 -0.559185 0.163665 0.022167 -0.073362 -0.187498 0.043165 0.151575 0.091101 0.490418 -0.062710 -0.063570 0.043264 0.343218 0.233919 0.023784 -0.021936 0.147369 -0.163619 -0.047702 -0.083524 -0.157591 -0.192815 -0.020140 -0.120683 0.028450 0.571497 -0.132263 -0.098281 -0.004867 0.462998 -0.192494 -0.013836 0.134103 -0.157056 -0.293889 0.078763 -0.248813 -0.151609 0.086573 -0.042326 0.079537 -0.359269 0.121510 0.001869 0.474665 0.270462 -0.085520 -0.083666 -0.048355 0.408650 0.024638 0.088098 -0.268387 0.084539 -0.131648 -0.165105 -0.062041 0.065252 -0.429249 -0.335445 0.002110 0.132759 0.134122 0.088348 -0.691631
开 -0.487345 -0.085326 -0.165356 -0.008128 -0.132828 0.195533 -0.338334 -0.133143 0.326340 0.075751 0.377285 -0.080837 0.155526 0.503483 -0.455251 0.171523 0.345838 0.229363 -0.000234 -0.199026 -0.039542 -0.067844 -0.271280 0.093677 0.277332 -0.098542 -0.062040 0.077713 0.198650 0.142291 0.095884 -0.213305 0.083456 0.317507 0.140408 0.223672 0.390864 -0.027141 0.315581 0.053178 0.203709 0.113660 -0.177911 -0.031216 0.333625 0.043225 0.060772 0.212780 0.020933 -0.033357 -0.277420 0.182726 0.197781 -0.178665 0.008213 0.159574 -0.264542 0.150112 0.165865 -0.167156 0.200236 0.221792 0.069157 0.302337 -0.082351 -0.301502 -0.109684 0.149719 -0.032280 -0.057528 -0.284629 0.391399 0.036937 0.263174 0.115416 -0.126011 0.098502 -0.213224 -0.021960 0.154830 -0.180012 0.148708 -0.240686 0.321285 0.088848 -0.013317 -0.263613 0.330056 0.070015 0.293515 0.028480 -0.533834 0.148886 0.050561 0.206896 -0.187941 0.450863 0.025806 -0.181045 0.088159 0.005275 -0.152332 0.583933 -0.212544 0.082431 -0.308597 0.309792 0.018368 0.032118 0.221037 -0.030583 -0.372939 0.061699 0.296761 0.095392 -0.309442 0.146856 0.028048 -0.106997 0.062631 0.343921 -0.354241 0.078706 -0.098042 -0.232855 0.084677 -0.198028 -0.153099
没 -0.028294 -0.029641 -0.147440 0.419578 -0.244726 -0.324951 0.074873 0.075846 -0.283524 -0.202887 0.309434 -0.041858 -0.231925 -0.153136 -0.111033 -0.104704 0.145940 -0.108897 -0.032925 0.022517 0.113462 -0.439639 0.031453 -0.023102 -0.169733 -0.115639 -0.419199 -0.056150 0.290072 0.087950 -0.060688 -0.016794 0.131021 0.238939 -0.342610 0.044676 -0.035886 0.196785 0.137707 -0.267198 0.151056 0.158364 -0.200353 -0.209765 0.028451 -0.070509 0.065253 0.347863 0.038474 -0.023161 -0.242320 -0.185010 -0.043770 -0.132117 -0.104399 0.237586 -0.010398 -0.021412 0.127926 -0.114312 -0.068077 0.128707 0.196904 0.038599 -0.076409 0.116801 -0.084427 -0.336804 0.026246 -0.133658 -0.214765 -0.075644 -0.236296 -0.016801 -0.097969 0.133221 -0.108183 -0.136761 -0.210224 0.191267 -0.056103 -0.066440 -0.123961 0.133982 -0.145504 0.018798 0.237067 -0.075365 0.301412 0.096309 0.363226 0.011577 -0.003977 -0.209087 -0.005210 -0.108930 -0.367009 -0.054574 -0.044240 -0.443661 0.074798 0.084468 0.377583 -0.233508 0.207428 0.125772 0.175828 0.106467 -0.200677 -0.131289 -0.104429 -0.045829 0.217894 -0.288316 0.116762 -0.404362 0.275033 0.211539 -0.199822 0.264266 0.024354 0.521604 0.055363 -0.464482 -0.129244 -0.233989 -0.030080 0.191189
钱 -0.298599 0.026411 -0.162714 -0.150719 -0.352492 0.039448 -0.027026 0.088560 0.058777 -0.185178 0.274220 0.199806 -0.017317 0.069040 -0.342471 0.137605 -0.086428 0.225563 0.010691 0.090422 0.124690 0.002203 0.427190 0.211753 0.000581 -0.003343 -0.051696 0.374203 0.315446 -0.059873 0.122420 0.119527 0.171115 0.418533 -0.064033 0.067167 -0.232462 -0.248434 0.274369 0.098732 -0.152107 0.273590 -0.181742 -0.068548 0.052409 -0.032956 -0.138189 0.056119 -0.175977 -0.088635 -0.069206 -0.241241 0.213252 -0.194501 -0.411731 0.076865 -0.007532 -0.050858 0.074750 0.098536 -0.238914 0.124385 -0.130708 -0.132612 -0.330806 0.095242 0.189793 -0.285542 0.101603 0.201955 -0.159521 0.086234 -0.190173 0.007936 0.024934 0.185737 -0.158342 -0.023931 0.159398 0.046831 0.238511 0.054925 0.140708 0.008622 0.212428 -0.152294 -0.083025 0.081108 0.192385 -0.232188 -0.022618 -0.095285 -0.036325 -0.030057 -0.098029 0.475827 -0.011078 -0.142539 -0.078668 -0.015905 0.456965 0.152519 -0.189753 0.135981 0.023191 -0.031239 -0.190924 0.127196 -0.082608 0.269080 0.332749 -0.045108 -0.008870 -0.191050 0.021381 -0.111317 0.092193 -0.090233 -0.504290 0.072227 0.100738 0.005733 -0.049744 0.075928 -0.288777 -0.257456 0.044873 -0.048470
支 -0.313663 0.133289 0.070224 0.122302 -0.183670 0.464986 -0.014699 0.207878 -0.237787 -0.301369 -0.164185 -0.118534 0.031976 0.244639 -0.121847 -0.092449 -0.012915 0.008145 -0.188397 -0.318612 0.210762 0.124908 0.287558 -0.666436 0.042106 0.014467 0.244967 0.442195 0.167039 -0.159375 0.062595 0.295348 0.117696 0.169942 0.328630 0.140885 0.426564 -0.114693 -0.126168 0.071955 -0.047789 0.186709 -0.239732 -0.113130 -0.075210 0.130132 0.232038 0.195516 0.511876 0.060769 0.053419 -0.119845 -0.126548 0.079225 -0.212476 0.095571 -0.075235 0.047171 0.122721 -0.053782 0.009142 0.098087 0.145143 -0.282160 -0.012075 0.066544 -0.294760 0.160859 -0.005041 0.050532 -0.009798 -0.116211 0.222284 0.252710 0.002433 0.019937 0.146707 0.008428 0.055850 0.226516 -0.050223 -0.037792 0.259716 0.276632 -0.018460 -0.288049 0.025898 -0.277692 0.030572 0.073899 0.284887 -0.032876 0.244808 0.165834 -0.246281 0.187071 0.246745 -0.011099 -0.013099 -0.227199 0.441692 0.436223 0.254292 0.224804 0.211493 0.122192 0.083292 -0.068586 -0.131850 -0.085828 0.058745 0.054701 -0.025616 -0.086100 0.007485 -0.230971 -0.163896 0.074591 -0.054697 0.196115 -0.208333 -0.118580 -0.192966 -0.052935 -0.124862 0.253420 -0.474526 0.091692
通 -0.271889 -0.228734 0.372727 -0.179848 -0.096253 0.108521 -0.157431 -0.026442 0.123302 -0.012524 0.027266 -0.130208 -0.281766 0.369517 -0.283517 -0.142679 0.241249 -0.082032 0.177891 -0.459922 0.335920 -0.298127 -0.050180 -0.012317 0.714368 0.079432 -0.236633 0.269157 0.128439 -0.198715 0.042529 0.171705 0.147543 0.045247 -0.135090 0.421686 0.359048 -0.192712 0.111996 -0.218759 0.546250 -0.236954 -0.126774 0.050029 0.329351 0.054630 0.218954 -0.215766 -0.310955 0.253930 -0.156069 0.252527 -0.171575 -0.111437 -0.127418 0.343481 -0.028366 -0.048829 -0.147175 -0.279645 -0.084085 0.201477 0.250086 -0.185307 -0.029960 -0.240400 0.089016 0.044816 0.192529 0.002333 -0.172791 0.128754 0.006685 -0.097709 0.227652 -0.151216 0.016317 -0.268856 -0.112532 0.214682 -0.000879 0.285293 -0.003418 0.114568 0.010811 0.148922 -0.375869 0.086705 0.094267 0.250538 0.509127 -0.340923 0.282410 0.090028 0.205699 0.063750 0.223278 -0.092595 -0.529814 0.236549 0.262366 0.168695 0.205807 0.211739 -0.034687 -0.054510 0.511103 -0.024898 -0.310839 0.361889 0.100492 -0.183994 0.127862 0.150976 0.120483 -0.094073 0.228913 -0.203024 0.130661 0.220564 0.014988 -0.330581 -0.098206 0.035380 0.171212 0.029019 0.153100 -0.111170
一 -0.030164 0.027127 -0.268286 -0.285190 -0.142457 0.341261 -0.160374 -0.035445 -0.367364 -0.212211 0.079622 -0.067152 0.164888 0.123959 -0.003681 0.100384 0.252095 0.013802 0.040106 -0.303921 0.073467 -0.022539 0.154738 0.116893 0.071225 -0.071546 0.153004 0.257941 0.249202 0.194451 0.147467 0.073814 -0.108346 0.316417 0.318368 -0.000853 0.058853 0.028564 -0.292707 -0.556572 -0.143717 0.087521 -0.378601 -0.030302 0.046010 0.443030 0.036495 0.094979 -0.075254 0.097470 0.038805 -0.140119 -0.048960 -0.103199 0.053003 -0.232388 0.125246 -0.059523 -0.131968 0.053136 0.221193 0.120721 0.017327 -0.062538 -0.459341 0.216329 0.188531 0.253716 -0.347477 -0.089592 0.068268 -0.139138 0.323103 -0.337606 0.475650 -0.156636 -0.023176 -0.355229 0.073095 0.093214 0.121892 0.183847 -0.034279 0.262420 -0.204874 -0.307291 0.103469 -0.202649 0.127507 0.276825 -0.169054 0.234131 0.041681 -0.036716 0.121590 -0.102933 0.010155 -0.441210 0.118992 -0.146902 -0.350485 -0.130671 0.241240 -0.218269 -0.213122 0.083577 0.315945 0.392480 -0.145837 0.295779 -0.011032 -0.115191 0.073730 0.163004 -0.126142 -0.316775 0.390249 -0.014139 0.015480 0.143665 0.034463 0.043021 -0.074274 -0.007997 0.234565 -0.135564 -0.076277 -0.168437
个 -0.415290 -0.204201 -0.005167 0.175823 -0.462445 -0.104331 -0.267771 -0.155249 -0.091998 0.072454 0.069131 -0.168592 -0.330515 0.216306 -0.055498 -0.449780 -0.022373 0.107375 -0.463974 0.179499 -0.030413 0.065050 0.183868 -0.073346 -0.000679 0.039350 -0.091053 -0.127822 0.185258 0.251037 0.174313 0.352959 0.152162 0.437398 0.251677 0.164700 0.299408 0.127048 -0.079109 -0.235310 -0.282006 0.143237 -0.036767 -0.157977 0.347444 0.096714 -0.310390 -0.056699 0.152036 -0.157331 -0.444569 -0.016740 -0.035025 0.086371 0.020490 -0.158689 0.059653 -0.313450 -0.073149 -0.073079 -0.123328 0.048561 0.108424 -0.009690 -0.085091 0.283353 -0.178804 0.049690 -0.319191 0.260118 0.085553 0.056932 0.287077 0.143646 0.297282 -0.230397 0.308559 -0.146365 -0.421058 0.219343 0.184887 0.123897 0.163129 0.102157 -0.475493 -0.194744 -0.134445 -0.138791 0.092930 0.252610 -0.006985 0.159990 -0.220564 0.029481 -0.009001 0.094838 0.126826 -0.371473 -0.088843 -0.039594 0.098061 0.026943 0.229658 -0.210737 -0.534223 -0.332473 0.177793 0.227715 -0.230777 0.055207 -0.137419 -0.181140 0.251568 -0.270898 0.165597 0.202910 0.138235 -0.210125 -0.083168 0.212971 0.002354 0.270552 0.024349 -0.123394 0.101568 -0.125120 0.133917 -0.150218
在 -0.318702 0.021812 -0.262555 -0.093782 0.011006 0.005842 0.154794 0.029397 -0.037422 -0.371092 -0.010932 0.240809 -0.081837 0.081848 -0.058613 -0.118585 0.348657 0.018465 -0.096684 -0.283268 0.010848 0.042445 0.185862 -0.403095 0.001794 -0.327846 -0.005746 0.615880 0.008493 -0.193335 -0.044042 0.098525 -0.062146 0.437990 -0.167553 0.111276 -0.046377 0.119187 0.045245 0.013074 -0.296039 0.252557 -0.120446 -0.144925 -0.077914 -0.075363 0.157637 -0.092265 -0.260021 -0.068927 -0.012376 0.266230 0.244177 0.223844 -0.007595 -0.109125 0.010309 0.067554 -0.121854 -0.106124 -0.153486 -0.017868 -0.106744 0.212739 0.135709 0.092278 -0.113314 0.069538 -0.110408 0.141579 -0.141599 0.071352 -0.385608 0.067036 0.060838 0.107263 0.120176 -0.205540 -0.053499 -0.049731 0.187094 0.190003 -0.017155 0.375030 -0.157368 0.072669 -0.193347 -0.074659 0.253733 0.044318 -0.270165 0.216917 0.118988 -0.081091 -0.111015 0.246444 -0.037312 -0.173331 0.120294 -0.256484 0.181649 -0.028397 -0.094364 0.202997 0.000440 0.009363 0.095056 0.109695 0.236474 -0.041227 0.122425 0.000787 0.162726 -0.396989 0.084420 -0.009774 0.119051 0.021619 0.494386 0.027599 0.269897 0.135647 0.211917 0.068887 0.280655 -0.250348 -0.015670 0.135847
宝 -0.267989 0.154415 -0.221292 0.110536 -0.479076 0.072455 -0.093572 0.021563 -0.166490 -0.086695 -0.013529 0.071829 0.110217 0.414326 -0.347822 -0.342557 0.113416 0.019377 -0.481557 0.191372 0.346550 0.241355 0.082880 -0.050954 -0.064833 -0.414804 0.493036 0.421238 0.152510 -0.029030 0.187712 -0.133439 0.019043 -0.026743 0.053385 -0.097840 0.107284 -0.199484 -0.273344 -0.204494 0.100190 -0.222186 -0.128751 -0.084260 0.133092 -0.359272 0.159272 0.363862 -0.094640 -0.066681 -0.100057 -0.195575 -0.006074 0.132409 -0.391312 -0.206697 -0.383125 -0.624112 0.091354 -0.016757 -0.244839 -0.093440 0.191748 0.082867 0.106993 0.386743 -0.113764 0.245163 0.292115 -0.196471 0.137045 -0.250247 -0.235195 0.268991 0.090169 0.000674 0.107022 0.153233 -0.129673 0.253972 -0.080116 -0.121629 -0.272465 0.628978 -0.250851 0.082634 -0.379137 -0.261259 0.020821 0.194239 0.039613 -0.200304 0.698745 -0.011868 -0.221412 -0.175822 0.156672 0.235508 -0.304661 -0.129252 -0.142276 0.093897 0.223111 0.087978 0.199648 0.061993 -0.049814 0.112570 0.083046 0.389097 -0.208444 0.168841 0.034396 -0.436804 -0.036035 -0.109181 0.313879 0.050623 -0.154282 -0.004360 -0.216282 -0.164941 0.158449 0.107505 -0.121518 0.077051 -0.230533 0.144360
提 -0.023490 0.086695 -0.090059 -0.368526 0.112046 -0.208715 -0.336328 -0.078731 -0.243692 -0.487264 0.066635 0.055529 0.287740 -0.248604 -0.303441 -0.077251 -0.115994 0.276203 -0.081155 -0.011865 0.082550 -0.390614 0.034588 0.172690 -0.096533 -0.024939 -0.128768 0.428252 -0.291483 0.026781 -0.162267 0.001690 0.008093 0.086710 0.345397 -0.262980 0.144992 0.769020 0.486987 -0.304091 0.096071 0.379376 -0.080153 0.368934 0.101533 0.334180 -0.188183 -0.406948 -0.312958 -0.065416 -0.057243 0.101042 -0.112082 -0.153640 0.025912 0.247820 0.110377 0.091104 0.209058 -0.086418 -0.087026 0.455258 0.033865 -0.188717 -0.107496 -0.397447 0.041761 -0.047559 -0.241023 -0.121673 -0.070522 0.132457 -0.224509 0.416260 -0.131307 -0.198281 0.334088 -0.209997 -0.079472 -0.213434 0.402603 -0.213390 -0.184756 0.158214 0.093939 0.095353 -0.031568 -0.079828 0.235127 0.411473 0.148810 -0.192098 0.121014 0.008679 -0.203274 -0.137699 -0.595921 -0.178104 0.014051 -0.271031 -0.031000 -0.117513 0.018543 0.122898 -0.196816 0.138834 0.028721 0.017666 -0.076988 0.065977 -0.166477 0.192286 0.488068 0.128450 0.246347 0.138021 0.246828 -0.000303 -0.409265 0.221883 0.079575 -0.260544 -0.109066 0.204217 0.128159 0.261500 -0.051378 0.189937
到 -0.408961 -0.244669 -0.142927 -0.110361 -0.125843 -0.010062 0.152562 0.464508 -0.314375 -0.201968 -0.101172 0.053874 0.027306 0.008716 -0.302029 0.160362 -0.106676 0.335633 0.170604 -0.168242 0.293379 0.264742 0.052193 0.242289 0.268158 -0.147861 -0.307449 0.374953 -0.194730 -0.099009 -0.185292 -0.200639 -0.371192 0.500757 -0.115249 0.002347 -0.126361 -0.230883 0.224509 0.014807 0.032194 0.013396 0.149259 -0.494041 0.167942 0.064700 -0.033045 0.244157 -0.141255 0.119163 -0.187855 -0.147581 0.379799 -0.002968 0.086715 -0.176922 -0.140732 -0.109295 -0.338067 -0.217987 -0.144073 0.254412 0.070408 -0.201520 -0.208080 0.311707 0.097376 -0.154720 -0.029366 0.128186 0.220406 0.095633 -0.094916 0.345577 -0.193462 -0.101639 0.072447 0.035260 0.036711 0.054636 -0.029755 0.070645 0.356337 0.155958 -0.051051 0.023180 -0.204193 0.130759 0.341001 0.152580 0.109836 0.111191 -0.100509 0.047104 -0.208260 0.298911 -0.316909 -0.303283 -0.059460 -0.279600 0.136026 -0.076793 0.185893 -0.056027 0.093037 0.147714 -0.039373 0.102083 -0.347574 0.117487 0.065226 -0.292317 0.247804 -0.170831 0.044814 -0.272821 0.002263 0.126478 -0.009226 -0.116303 0.167459 0.166373 0.068444 0.125503 -0.119498 0.079889 0.011994 -0.095480
时 0.182424 -0.123053 0.298513 0.128204 0.054471 -0.091561 0.178727 0.049571 -0.004622 -0.264079 0.533802 -0.202983 0.065329 -0.053265 0.027519 -0.231259 0.238975 0.053139 0.322462 0.134508 0.035649 -0.211376 0.083104 -0.096588 -0.101670 -0.494111 0.147343 -0.132508 0.170945 -0.011690 -0.318942 0.124500 -0.345153 0.224054 -0.108200 0.028645 0.128717 0.363100 0.340770 -0.010261 -0.012217 -0.316416 -0.860009 -0.056851 0.317235 -0.053192 0.032392 -0.003987 -0.214339 0.133499 0.058005 -0.079379 -0.339968 -0.318401 -0.006505 -0.553799 -0.199902 -0.125027 0.143454 -0.034801 -0.086741 -0.051822 0.155925 0.036384 -0.119914 0.779461 0.226905 -0.214169 -0.069089 0.230601 0.235784 0.102071 0.012110 0.114759 -0.438786 0.285691 -0.058442 -0.061147 0.208882 0.029298 0.158100 0.083042 -0.075638 0.302911 -0.092325 -0.312173 0.051618 -0.098847 0.469436 0.071785 0.036338 -0.040302 0.230454 0.211812 0.589809 -0.115572 0.034315 -0.233315 -0.098136 -0.202450 -0.263671 0.214911 0.141151 0.023957 -0.349294 -0.151942 -0.116477 -0.214674 -0.126313 0.439532 -0.163406 -0.088225 0.340593 -0.097078 -0.034883 0.118399 -0.230808 -0.019179 -0.023927 0.230454 0.274987 -0.246953 -0.173612 -0.110196 0.209950 0.203997 -0.183362 -0.393354
号 -0.165639 -0.164002 0.078302 0.330174 -0.417243 0.294309 -0.250351 0.201222 -0.119275 -0.185038 0.328518 0.083098 -0.139672 0.248009 -0.332889 -0.128773 0.009636 0.162018 -0.269512 0.447536 0.040213 -0.172995 0.055998 -0.014346 -0.212649 -0.112230 0.078993 0.239176 0.276727 0.203257 0.291308 0.008394 0.273101 0.136329 0.315152 0.062834 -0.055617 0.175528 0.073270 0.195798 -0.416120 -0.012164 0.495604 0.045585 0.368519 0.312211 -0.204777 -0.155346 0.026150 -0.235622 -0.587753 -0.030996 -0.009291 0.278274 0.189872 0.019209 0.144570 -0.521416 0.206928 0.115556 -0.401465 0.002658 0.178494 0.018442 0.045952 0.105832 -0.094118 0.348132 -0.069718 0.083870 0.069305 -0.158343 0.182408 -0.176023 -0.127310 -0.156016 -0.391436 -0.628283 -0.190111 0.276056 -0.099816 0.106606 0.561381 0.598045 -0.038179 -0.505793 -0.220596 0.308266 0.309753 -0.002349 0.104080 0.130665 -0.038819 0.235197 0.268016 0.197657 0.316618 -0.222356 -0.232608 -0.145677 -0.241757 0.054152 0.172536 0.341320 -0.110741 0.117465 0.369900 0.031821 -0.325134 0.131861 0.141671 -0.210958 0.141504 -0.376231 0.457465 0.634244 0.143060 -0.012495 0.173093 -0.040057 0.094534 -0.064548 -0.366882 0.129754 0.152375 0.062800 -0.458135 -0.232063
月 -0.134543 0.283650 0.010510 -0.143109 0.187419 -0.115888 -0.092390 -0.013224 -0.028953 0.311095 -0.072355 -0.242965 -0.301537 -0.342492 -0.063760 -0.271893 -0.242475 0.064144 -0.097356 0.196982 0.612373 -0.080871 0.042339 -0.048805 -0.126860 0.038602 0.153219 -0.209474 0.196911 0.370665 -0.136725 0.428406 0.236188 0.229119 0.101768 -0.285970 0.175573 0.228560 0.558020 -0.077468 -0.256637 -0.106382 -0.072473 -0.045423 0.325081 -0.183687 -0.035938 0.251078 -0.188292 0.081423 -0.329468 -0.069013 -0.071805 0.134600 0.109643 0.019740 -0.330520 -0.034126 -0.244891 0.084931 0.042389 0.212151 0.301217 -0.245478 -0.318335 0.294794 0.308833 0.018709 -0.152977 -0.110433 0.506244 0.076057 0.192959 -0.095446 0.125785 -0.248904 -0.017960 -0.326433 -0.085917 0.180706 -0.362948 -0.255627 -0.303090 0.170450 -0.421065 -0.515656 0.175668 -0.184673 0.274929 0.335846 -0.381612 -0.160623 -0.139175 0.187926 -0.364898 0.228537 0.009592 -0.715089 -0.072393 -0.020913 0.191513 -0.157556 0.207023 -0.113807 0.070191 -0.177153 -0.445832 0.239448 0.042759 0.679988 0.377702 -0.215614 0.255354 -0.026075 0.497981 0.314607 0.300207 -0.352576 -0.009007 0.067708 0.268350 0.258819 -0.168163 0.104766 0.562649 -0.398922 -0.289197 -0.201409
多 -0.633785 -0.072896 -0.347781 -0.375203 0.034990 -0.148202 0.047326 -0.086073 -0.067079 -0.477896 0.086355 0.034817 0.010903 -0.413046 -0.002082 -0.159896 0.195780 0.078081 -0.005643 -0.153603 -0.041250 -0.276877 -0.377974 -0.165365 -0.169762 -0.369468 0.002003 0.485503 0.372703 0.322268 -0.121863 0.042067 0.052364 -0.019101 0.151480 -0.045353 0.146430 0.245380 -0.232358 -0.259379 0.326657 0.146184 -0.128334 -0.365754 0.331398 -0.051024 0.116800 0.518463 -0.061609 0.024304 -0.203203 -0.494213 -0.370801 0.212138 -0.563126 -0.078007 -0.092920 -0.290341 -0.174324 -0.335593 0.244871 -0.149422 -0.084929 -0.258605 -0.155687 0.168596 0.265872 0.076463 0.122770 0.298415 0.125067 0.572216 -0.023256 -0.320212 -0.268592 0.142021 -0.065513 0.159825 -0.598650 -0.383310 -0.119034 -0.242804 -0.196620 -0.014815 0.044615 -0.281297 -0.008008 0.398710 -0.032762 -0.108506 -0.077758 0.201358 -0.428895 0.058320 0.057763 -0.088042 0.286015 -0.092783 -0.095808 0.039565 0.046672 0.232236 0.259752 0.208321 -0.413329 -0.181319 -0.050288 -0.193023 0.203680 0.100690 0.222280 -0.284584 0.223381 0.400839 0.165877 -0.143427 0.061166 -0.079183 -0.106603 0.154045 0.323093 0.140296 -0.449622 0.268828 0.232076 -0.411201 0.310652 0.148422
账 -0.177162 -0.269649 0.191742 0.404271 -0.078241 -0.046052 -0.163388 -0.080004 -0.200310 -0.323952 -0.068671 -0.221315 0.040658 0.466899 -0.115213 -0.595830 0.043801 0.078778 -0.365968 0.032713 0.096323 0.146040 0.009125 -0.144915 0.074839 -0.081803 0.106182 -0.038585 0.002881 0.447124 -0.184913 0.299350 0.343326 0.319135 0.168835 -0.084402 0.316876 -0.031259 -0.229628 -0.094218 -0.138867 0.542123 -0.106829 -0.157862 0.217270 0.081185 -0.236339 -0.142038 -0.010204 0.229692 0.183271 -0.198001 0.276040 0.343379 0.031495 -0.146481 -0.223707 -0.207747 -0.080222 -0.243597 -0.058107 0.341847 0.382591 0.142569 -0.146233 0.216731 -0.139123 -0.131103 -0.369411 0.004209 -0.129744 0.051506 -0.311168 0.033183 0.127539 -0.006956 0.242938 -0.291768 -0.309478 0.312311 0.004649 0.011367 0.464656 0.305904 0.274053 -0.377291 0.203652 0.101366 -0.170360 0.313156 -0.154310 -0.013034 0.097157 0.137905 -0.128808 0.218343 -0.187951 -0.208311 0.085627 -0.121948 -0.461842 0.199752 -0.163779 0.025706 0.263946 0.246247 0.185118 0.081519 -0.146224 0.533856 0.292331 -0.327280 -0.029700 -0.426452 0.278022 0.168470 0.091506 -0.199783 -0.129975 -0.000635 -0.004918 -0.288492 -0.008346 0.255720 -0.272486 0.073121 0.298767 -0.285064
收 -0.449113 -0.205786 0.276214 0.102950 -0.203339 0.083874 -0.168803 0.449982 0.324580 0.148203 -0.032644 0.323499 -0.166466 0.044819 -0.434660 0.399670 0.242504 0.107542 0.370540 0.158984 -0.139394 -0.256012 0.082517 -0.197902 0.135192 -0.542466 0.023538 0.418709 0.234326 0.348021 0.083784 0.323424 0.457197 -0.035741 -0.476743 0.038869 0.515051 0.058171 0.419591 -0.114321 0.155736 0.189783 -0.369963 -0.124477 0.133603 0.138199 0.057150 0.199469 -0.250159 -0.292488 -0.229040 -0.066461 0.164984 0.323324 -0.316497 0.473842 -0.049736 0.070411 0.286146 -0.208203 -0.105148 -0.186428 0.138522 -0.484033 -0.021086 0.208606 -0.220819 0.083571 0.115701 -0.234511 -0.203211 -0.068799 0.291189 0.458940 0.201435 0.104817 0.010328 0.031412 0.322587 -0.153164 0.105979 0.222311 0.102732 -0.371190 0.274648 0.318497 -0.168741 0.101920 -0.146442 0.240757 -0.331494 -0.225760 -0.230474 0.232041 0.288050 -0.099663 -0.032371 -0.064238 -0.489504 0.155586 -0.089248 0.444714 0.083143 0.126939 0.136387 0.319414 0.208330 0.260050 -0.365026 0.140496 0.106958 -0.254045 0.126213 0.103163 0.223664 -0.091896 0.169572 0.098729 -0.126978 0.010108 -0.230779 -0.163709 -0.281309 0.050223 0.093411 0.239288 0.119954 -0.047318
退 0.252323 0.234892 -0.320553 -0.227734 -0.204854 0.102281 -0.446933 0.454261 -0.144155 0.005680 0.113987 0.279174 -0.096456 -0.132098 -0.242500 0.064249 -0.090010 0.439229 -0.037855 0.501432 0.037777 -0.063250 0.508348 -0.487354 -0.366762 -0.177777 0.073656 0.551880 0.083152 0.448023 -0.324406 -0.065110 -0.350466 -0.096661 -0.412468 0.297192 0.256583 0.013833 0.693685 -0.357729 -0.005348 0.185116 0.026986 -0.269360 0.120681 -0.166930 0.024655 0.291212 -0.392612 -0.186740 0.125212 -0.121316 0.128543 -0.015062 -0.134111 0.044501 -0.041451 -0.257520 -0.187074 -0.048061 -0.484226 0.309380 -0.150137 -0.336176 0.129700 0.261881 0.102659 -0.037432 0.181722 0.021521 -0.149341 0.032400 -0.122968 -0.269598 0.174063 0.391883 0.045883 0.359625 0.056510 0.027163 -0.068492 0.046349 0.523807 -0.156965 0.144686 -0.214553 0.380920 -0.108430 0.190085 0.414850 0.193836 -0.095026 -0.074014 0.149234 -0.005781 0.418280 -0.380109 0.244762 -0.239624 -0.268726 -0.119622 0.090969 -0.597846 -0.223063 0.480850 0.110586 0.321677 0.169547 -0.589366 0.115951 0.314634 -0.243122 0.106864 -0.113869 0.082892 -0.155696 0.237577 -0.151316 0.128903 0.087965 0.159676 0.019749 0.253318 -0.297663 -0.159563 -0.220909 -0.183596 -0.062982
要 -0.462799 0.121748 0.296441 -0.169187 -0.224045 0.094244 -0.146585 -0.031061 -0.145611 -0.272205 0.183401 0.329444 0.090084 -0.080842 -0.140891 0.058916 -0.037839 0.087751 -0.208914 -0.174654 0.160578 -0.403165 0.119811 -0.146687 0.025338 -0.347193 0.409668 -0.103461 -0.121842 0.203064 0.335583 -0.089574 0.217721 -0.010909 0.289684 -0.109452 0.515126 0.280511 0.304204 -0.170639 -0.025428 -0.067073 -0.135489 0.075651 -0.232995 0.195798 0.166214 0.132005 -0.272477 0.020532 0.198754 -0.484985 0.143364 -0.352888 -0.476265 0.194709 0.155174 -0.077205 0.015928 -0.300298 0.026474 0.055903 0.275952 -0.067712 0.223117 -0.068053 -0.389684 0.037988 0.048089 0.083855 -0.003274 -0.172148 0.196934 -0.068631 -0.130878 0.108572 -0.279559 0.058415 -0.358294 0.079040 0.206007 0.194331 -0.194609 -0.001566 0.143946 0.017472 -0.008688 0.045992 0.329077 0.226659 0.131562 -0.143836 -0.253639 -0.115566 -0.277380 0.013804 -0.253066 -0.180295 0.120448 0.079651 0.007974 -0.397329 0.213172 0.069517 -0.030616 -0.320546 0.224567 -0.078224 -0.173829 0.130081 -0.086321 -0.419600 -0.021049 0.048497 0.136894 0.144765 0.135362 0.209600 0.128711 -0.014866 0.281918 0.048667 -0.191163 -0.007044 -0.036460 -0.111208 0.063624 0.035576
费 -0.239593 -0.076170 0.366597 -0.200735 0.429707 -0.011659 -0.203196 0.311527 0.566237 -0.528668 0.110472 -0.236029 0.003983 -0.011444 0.103102 0.308677 -0.072998 -0.038759 -0.272844 -0.034431 0.044442 0.027004 0.392136 0.046828 -0.078146 -0.206574 0.387511 0.209547 0.180433 -0.123652 -0.122827 0.155140 0.138489 0.230650 0.051296 0.210790 -0.124098 0.009211 0.303609 0.018144 0.081986 0.103237 0.141149 -0.406753 0.042255 0.130786 0.093993 -0.270589 -0.505518 -0.395395 0.148653 -0.020823 -0.149288 -0.119933 -0.533290 0.008066 -0.220680 -0.097456 -0.191013 0.037354 -0.192643 -0.056182 0.412492 -0.156933 -0.070583 0.042982 -0.466596 0.016668 0.164954 -0.245187 -0.278145 -0.102340 0.040429 -0.219011 -0.211229 -0.233233 0.183414 -0.335526 -0.055852 -0.277498 0.425555 -0.881236 0.157182 0.029401 -0.143423 -0.524372 -0.023190 -0.010716 0.295187 0.184196 -0.178002 0.192897 -0.462127 -0.101052 0.119664 0.680499 0.007571 0.436325 0.185351 -0.378448 0.040648 0.379438 0.603274 0.119892 0.479268 -0.326518 0.025949 -0.322410 -0.282213 0.019940 0.105660 -0.182082 0.099433 0.323216 -0.540149 -0.054019 0.240557 -0.404893 0.216216 0.206020 -0.314060 0.205810 0.334767 -0.016304 0.052198 -0.336440 0.081606 -0.216543
使 -0.272844 -0.115050 0.177524 -0.111585 -0.033696 -0.249410 -0.223251 -0.052159 0.227850 -0.099170 0.125459 -0.073606 0.094383 0.128913 0.497831 -0.113974 0.019824 0.022025 -0.041982 -0.377913 0.099199 -0.111643 0.139301 -0.013662 -0.028061 0.064141 0.302885 0.310431 0.170344 -0.047093 0.138012 -0.204708 0.183441 0.079551 0.002293 0.408798 -0.209054 -0.058477 0.090719 0.003785 -0.268507 0.027788 -0.170248 -0.156041 0.146889 0.004231 0.207928 -0.127821 -0.182293 0.032155 -0.079032 0.276341 -0.183508 0.153001 0.135705 0.085410 -0.145146 -0.438937 -0.069986 -0.475255 0.248673 -0.163481 0.263308 0.131484 -0.075724 0.035373 -0.348308 -0.078938 -0.314947 -0.193195 -0.196632 -0.037170 0.209154 0.170864 0.111885 0.091791 0.208734 0.161833 0.108532 -0.109351 0.133425 0.348869 -0.242853 0.075517 0.194426 -0.236434 -0.190659 -0.061362 0.371485 0.310716 -0.027870 -0.205920 0.393865 -0.100906 0.098707 0.006062 0.133843 -0.219282 -0.262342 -0.351033 0.212289 0.306533 0.307889 -0.085743 0.117334 -0.045699 0.031050 0.201170 -0.032381 -0.096965 0.150358 -0.035335 0.021176 0.282500 -0.134254 -0.008957 -0.189453 -0.225441 0.234529 0.138407 0.064402 0.033104 -0.308297 0.049414 -0.136853 -0.430786 -0.194532 0.275245
后 -0.242590 -0.033936 -0.106401 0.068514 0.037631 0.094041 -0.031070 -0.085122 -0.343983 -0.122027 0.089804 -0.236330 0.120382 0.052252 -0.217447 -0.044017 0.144745 -0.465985 -0.015551 0.180565 -0.031570 -0.262217 -0.059902 0.155771 -0.062840 -0.134572 0.222032 0.330590 0.053317 0.164617 0.297868 0.045633 0.044777 0.370797 0.177959 -0.007352 0.002403 0.421044 0.460623 -0.023483 0.095997 0.078869 -0.330134 -0.152268 0.126881 0.031130 -0.081570 0.137040 -0.060185 0.172832 -0.175392 -0.040283 0.025909 0.070627 -0.138058 0.223952 -0.160746 0.055620 -0.334006 0.084451 -0.261393 -0.199381 0.012505 0.105858 -0.421663 -0.028797 0.014076 -0.308567 -0.065202 -0.193436 0.081002 -0.075273 0.001257 -0.144808 0.082200 0.120619 0.234822 0.334602 0.078892 0.197530 0.212595 0.266697 0.397392 -0.065984 0.098590 0.050333 0.021735 -0.062896 0.295080 0.407855 -0.159668 -0.274429 -0.087100 0.120616 -0.226474 0.086928 0.139327 -0.099376 -0.120850 -0.180236 -0.611574 -0.080765 -0.294248 -0.091148 -0.013031 -0.191343 0.290253 -0.360411 0.185306 0.133540 0.034204 0.161665 0.272148 0.119840 -0.091839 -0.097041 -0.179190 -0.083717 0.026284 -0.198926 -0.034282 0.364718 -0.194826 0.021979 0.042714 -0.342235 -0.308766 0.017012
前 -0.000660 0.075474 -0.293950 -0.022904 -0.137252 0.486314 -0.068900 0.198501 0.020466 0.134084 0.165438 0.064316 -0.175246 0.227503 -0.241964 -0.063802 -0.234413 -0.274039 -0.021077 -0.206519 0.166708 -0.233565 0.208156 -0.068459 -0.176807 -0.173798 0.178443 0.101641 -0.021656 0.036666 -0.245443 0.068459 -0.044344 0.161714 -0.062420 0.142034 -0.051107 0.538128 -0.066135 -0.484115 -0.107922 0.161206 -0.169099 0.200771 0.793311 -0.029910 0.181541 -0.012498 0.043285 -0.041336 -0.494009 0.081483 -0.098219 0.274681 -0.192864 -0.017591 -0.060062 -0.087472 0.165832 0.101119 -0.274642 -0.160113 0.080237 0.304224 -0.282908 -0.268112 -0.384783 0.036565 -0.125417 -0.512135 0.048764 -0.390584 -0.240665 0.097235 0.179740 0.086610 -0.083188 0.118243 -0.222823 0.240123 0.162154 0.312486 -0.137457 0.047777 0.026858 -0.044322 0.040715 0.003620 0.151746 0.451082 0.141854 -0.043263 -0.494407 0.169908 -0.298872 0.602497 -0.302921 -0.418111 0.173854 -0.166998 -0.681851 -0.032827 -0.153533 0.074718 -0.187255 -0.102267 -0.194569 0.085964 -0.092737 0.144902 0.028471 -0.195109 0.097017 0.168795 0.088189 0.097704 -0.364645 -0.031825 -0.288568 0.456231 0.274583 0.048504 0.075192 0.013552 0.247224 -0.163178 0.019522 -0.003763
卡 -0.138881 -0.227200 0.447856 0.170500 -0.259723 0.047152 -0.351032 0.139785 -0.164437 -0.400633 -0.037465 0.028455 -0.473434 0.359672 -0.308903 0.073782 -0.164096 0.379501 0.154750 0.049719 -0.188066 -0.158477 0.140758 0.028713 0.261336 0.126958 -0.003008 0.155487 0.610164 0.310024 0.174866 0.176326 0.116737 0.261863 0.183259 0.048426 -0.529222 -0.459811 0.007239 -0.061703 0.323245 -0.100857 -0.341171 -0.074149 -0.354535 -0.289818 -0.025217 0.104180 -0.197997 -0.188264 -0.269793 -0.254178 0.163809 -0.008653 -0.278262 -0.109345 -0.244292 0.344073 0.227636 -0.510873 -0.529404 -0.033181 -0.141102 -0.242698 -0.003663 -0.147358 -0.501607 0.488681 0.387202 -0.206704 -0.098486 0.006156 0.025375 0.119805 -0.004339 0.046044 -0.318123 -0.074289 0.556717 -0.135126 -0.080539 -0.032486 -0.295088 0.428274 -0.146742 -0.462394 -0.001377 0.073570 0.239938 0.269172 -0.253543 -0.465364 0.152392 0.221933 -0.082245 0.171858 -0.035658 -0.239889 0.209107 0.059027 0.141176 -0.117977 0.255346 0.184808 0.103606 0.509308 -0.186836 -0.102371 -0.191075 0.445395 0.194900 0.241554 -0.342447 -0.268958 0.206198 -0.455572 0.307923 0.269263 -0.300341 -0.123798 -0.090945 0.055975 -0.571066 0.183584 0.145745 -0.165994 0.473813 0.532542
会 -0.348243 -0.392793 0.067008 -0.260301 -0.323866 -0.293603 -0.153305 0.217144 -0.222163 -0.383615 -0.116178 -0.429867 0.128147 0.092085 -0.031805 -0.087373 -0.380184 0.005355 -0.365303 0.066508 -0.025006 -0.475554 -0.231466 0.606511 0.199516 -0.176605 -0.078658 0.363960 0.034777 0.311933 -0.315131 -0.034409 0.080458 -0.103861 0.018166 0.055070 0.084753 0.219490 0.094326 -0.104047 -0.207847 0.061568 -0.115931 -0.049409 -0.060162 0.340767 -0.434497 0.304034 -0.097854 -0.088168 0.245598 -0.152110 -0.181954 -0.133329 0.175351 0.211248 -0.311643 -0.017968 0.346151 0.203497 0.047217 -0.043227 0.180699 -0.073450 -0.157053 0.094705 0.084038 -0.129122 -0.045773 -0.388579 0.056807 -0.278551 -0.113595 -0.100580 -0.057986 0.356126 0.042314 -0.097661 -0.073120 0.039204 0.071930 -0.015459 -0.092893 0.074328 -0.158583 -0.042978 0.092842 0.076363 0.564146 -0.198987 0.247383 -0.381792 -0.240212 -0.007246 -0.028013 0.146010 -0.180520 0.089202 0.193053 -0.574626 -0.122116 0.001978 -0.028176 -0.296669 0.243286 -0.093114 0.121073 -0.160734 0.101940 -0.001728 -0.180693 0.073847 -0.110229 -0.147108 -0.241134 -0.167222 0.126510 -0.047342 0.177664 -0.161701 -0.198571 0.051428 -0.152438 -0.081010 0.552375 -0.195325 -0.080576 0.110613
信 -0.402472 -0.421298 0.272378 -0.312629 -0.452783 -0.199068 -0.255655 0.238945 0.493946 -0.417442 -0.227358 -0.317066 -0.095825 -0.060329 -0.147161 0.058867 0.075460 -0.171171 -0.501477 0.278479 0.017898 -0.043774 -0.062984 -0.391243 0.128176 -0.062702 -0.307357 -0.236487 -0.582311 -0.105130 0.322109 0.097989 0.023372 0.430815 -0.373981 -0.066656 -0.315554 0.317816 0.268089 -0.512335 0.380464 0.370901 -0.054382 0.064665 0.261384 0.310403 -0.053520 -0.045522 -0.108807 0.048115 -0.057160 -0.119695 -0.225616 -0.495025 -0.242551 0.182876 0.098337 -0.338342 0.132414 -0.076034 0.124146 -0.573102 0.233977 -0.306786 -0.072300 0.080094 -0.178038 -0.038954 0.010058 -0.168847 -0.126452 -0.168297 0.058319 -0.018918 0.214881 -0.053471 -0.419803 0.486954 0.357695 -0.238814 0.221789 0.158756 -0.485669 0.271789 -0.137147 -0.053422 -0.291046 0.073309 0.105076 -0.138711 0.056142 -0.629362 -0.002565 0.534985 0.702622 0.307552 0.221608 -0.270236 -0.102448 -0.130460 0.087924 0.051837 0.190868 -0.308400 0.436672 0.520540 0.041469 -0.006187 0.201659 -0.061511 0.160387 -0.314233 0.044592 0.196134 0.656623 -0.256165 0.079138 -0.235685 -0.436046 0.151092 -0.165082 -0.358994 -0.159715 0.104414 0.084402 0.030657 0.040878 0.358522
手 -0.505111 -0.450051 -0.018087 0.027893 -0.040259 0.257319 -0.392754 0.207883 0.379129 -0.036156 -0.041695 0.325339 -0.325233 0.371923 -0.274221 0.095431 -0.413957 0.292560 -0.693210 -0.192673 0.144324 -0.417502 -0.281773 0.412933 0.057993 0.278482 0.495268 0.035901 -0.237158 0.278974 0.438660 0.017624 -0.109491 0.204433 0.083830 0.072612 0.029919 0.453397 -0.026805 -0.066580 -0.376497 -0.276260 0.083095 0.617657 0.038824 -0.002200 0.218855 0.458672 -0.532473 -0.135416 -0.213482 0.118214 -0.201213 0.165620 -0.193096 0.188610 -0.351836 0.004287 0.185760 -0.155214 0.261039 -0.247312 0.105212 -0.102321 -0.276399 0.580743 -0.534168 0.158735 0.038161 -0.335533 0.123237 -0.451523 -0.013997 -0.121675 -0.070672 -0.244601 -0.468852 -0.147612 -0.341699 -0.104408 -0.058405 0.142197 0.342082 0.463916 0.175338 -0.115090 0.294810 0.062826 0.330503 0.511718 0.026835 0.080061 -0.010828 -0.078098 -0.096439 0.457982 -0.218631 0.240787 0.106465 0.061608 0.097178 0.255809 -0.099915 0.526246 -0.191559 0.634729 0.308281 -0.085933 0.200143 0.166762 0.326115 0.126210 0.408023 -0.190126 0.159337 0.123111 0.123854 0.143000 -0.293519 0.344244 0.061318 0.108032 0.145705 -0.269061 -0.033678 0.167299 -0.288595 -0.108700
里 -0.125162 0.201593 0.052180 0.019229 0.143280 -0.509397 0.181054 -0.103640 0.023624 -0.372480 0.145879 0.385117 -0.064933 0.003874 -0.472218 -0.110855 -0.034253 0.290782 -0.196713 -0.248519 -0.192549 0.481823 0.385715 0.151902 -0.074134 -0.328087 -0.358958 0.634681 0.028611 0.435312 0.034148 -0.207866 0.039891 0.430687 -0.269521 0.077053 0.146547 -0.181779 0.211143 0.096694 0.381669 -0.257405 -0.433002 -0.210085 0.031658 0.092504 0.127992 0.268418 0.024294 0.057718 0.300035 -0.077135 0.146800 0.256245 -0.190280 0.007653 0.252792 -0.235876 0.032879 0.183498 -0.230683 -0.023312 -0.163263 -0.167621 -0.242788 0.262715 -0.020333 -0.167161 0.536826 0.084128 0.024919 -0.174172 -0.164192 0.127363 -0.173619 0.274586 0.070595 0.173293 0.037211 0.199598 0.717563 -0.229484 0.013343 0.626718 0.113982 0.039743 0.159607 -0.026464 -0.018659 -0.125612 0.145270 0.212557 -0.196419 -0.101746 -0.360223 0.343244 -0.119562 -0.263280 -0.282391 -0.094572 0.194995 -0.058213 0.104394 0.133725 0.098476 0.160302 0.115515 -0.108591 0.039101 0.088345 0.056214 -0.180170 0.181326 -0.064534 -0.046059 -0.191762 0.325016 -0.131453 -0.224711 -0.021823 0.341961 -0.305893 0.247990 -0.198690 -0.067008 -0.266787 -0.081568 -0.030408
码 -0.281850 -0.331229 0.093456 0.433536 -0.107523 0.129408 -0.131324 -0.097693 0.188713 -0.044762 0.125154 0.354075 -0.068571 0.441291 -0.564236 -0.298365 0.060562 -0.109744 0.281438 0.147944 -0.081806 -0.031333 -0.136988 -0.220681 0.405786 -0.164349 0.126476 0.279573 -0.090647 0.224947 -0.148491 -0.015269 0.165258 0.111272 0.342694 0.139152 0.468822 0.113800 0.166173 0.227864 0.082562 -0.144470 -0.141844 0.113072 0.338879 0.525879 0.189828 0.388178 -0.242063 -0.408161 -0.539681 0.457475 -0.093696 -0.156064 -0.112944 0.257842 0.152194 0.030048 -0.027327 -0.072360 -0.034581 0.201368 0.555718 -0.373321 0.200853 0.397105 -0.467126 0.376989 0.241069 -0.000033 -0.178405 0.453464 0.148926 0.129316 0.174653 -0.338373 -0.304714 -0.121703 0.124693 -0.305875 0.185402 -0.121470 0.274074 0.211194 -0.220301 -0.066739 0.124123 -0.584477 0.098773 0.421357 -0.140227 -0.244796 0.198403 0.609969 -0.078661 0.620069 0.308849 -0.062976 -0.054324 0.535213 -0.051387 0.495082 0.392036 0.489420 0.254625 0.619459 0.307717 0.294386 -0.290470 -0.152697 0.186555 -0.128026 0.127270 -0.281607 -0.075923 -0.190991 -0.091890 -0.056223 -0.171550 -0.432791 -0.083733 -0.232273 -0.277372 0.231333 -0.052066 0.309452 -0.218000 0.907699
天 -0.418494 0.111647 -0.354395 0.471167 -0.152951 -0.238251 -0.095376 0.112349 0.135881 -0.221022 -0.051278 0.148826 0.082834 -0.298141 0.065484 -0.001228 0.066380 -0.195629 0.227403 0.341325 0.083922 -0.156296 0.032036 0.392755 0.077822 -0.421116 -0.235499 0.324812 0.154127 0.064416 0.019318 0.471118 -0.037530 0.063890 0.379824 -0.133917 -0.195625 0.431636 0.111846 -0.107217 -0.049752 -0.229958 0.024391 0.103532 0.566714 -0.000263 0.146215 0.057241 -0.256052 -0.040497 0.085861 -0.069771 0.126824 0.213333 -0.052965 -0.195849 0.053921 -0.396022 0.275413 0.039155 -0.278401 -0.088060 0.004412 0.079327 -0.417657 0.133079 0.416531 0.026932 -0.340967 0.238516 0.066838 0.075495 0.380244 -0.285024 -0.081521 -0.002998 0.139692 -0.145441 0.000569 0.322662 0.037029 0.428717 -0.031977 0.209586 -0.420962 -0.177101 0.084943 0.165579 0.393852 0.552327 0.131458 -0.146536 -0.459479 0.008738 -0.331618 0.134408 -0.030445 -0.106028 0.135968 -0.406505 0.792773 0.120186 0.085002 -0.278575 0.155555 0.207139 -0.279105 -0.091918 0.101097 0.155212 0.217774 0.153151 -0.300115 -0.167547 -0.144675 -0.005285 -0.075793 -0.454377 0.240295 0.159522 0.216340 -0.364208 0.196967 0.151404 0.047598 -0.382435 0.043996 0.253183
现 -0.167151 0.168615 -0.078159 0.092341 0.167621 -0.160468 0.112367 0.241365 -0.027524 0.060136 0.351102 0.079531 -0.421194 0.188443 -0.503392 0.026011 0.035084 -0.258951 -0.231528 0.325310 -0.017861 0.078260 -0.059466 0.129813 -0.067053 -0.153482 0.286307 -0.073958 0.238779 0.246947 0.206339 -0.103931 0.091561 -0.057075 -0.024081 0.191012 0.103840 0.130593 0.035085 -0.203234 -0.240645 0.010288 -0.136601 -0.233695 0.249104 0.164862 -0.250018 -0.181378 -0.347028 0.106792 -0.065902 0.060900 0.008356 0.196479 -0.170363 -0.231629 0.011459 -0.038558 -0.237723 -0.135331 -0.110259 -0.050136 0.314268 -0.127323 -0.052923 -0.051103 -0.131227 -0.050137 -0.020448 -0.151402 -0.051438 -0.309313 -0.233410 -0.123838 -0.246850 0.218699 0.004962 -0.194660 0.141923 0.356618 0.312952 -0.182713 0.483561 0.027199 0.110685 0.081335 -0.006540 -0.034322 0.229045 -0.116271 0.098183 -0.197219 0.248712 0.077529 -0.329809 -0.009693 0.165043 -0.473875 0.176786 -0.205159 0.049794 -0.078960 0.221435 0.153709 -0.283690 -0.124842 -0.173580 0.368225 -0.127522 -0.115629 0.578925 -0.207286 0.065857 0.233781 0.010772 -0.329894 0.103122 0.249381 -0.048569 0.456620 -0.004520 -0.178295 -0.076117 0.034382 0.071328 -0.095005 -0.267200 -0.215067
示 -0.006133 -0.210200 -0.054991 -0.115878 -0.326141 -0.272313 0.042960 0.128163 -0.360667 -0.172772 0.038534 -0.256127 -0.329527 0.378945 -0.015281 -0.155400 -0.182428 -0.080019 0.072183 0.020841 0.102365 0.183890 -0.315926 -0.089964 0.030003 -0.036637 0.008347 -0.081554 0.319828 -0.023055 -0.367226 -0.382515 -0.020135 0.049522 0.277489 -0.217807 0.283391 0.024715 0.381955 -0.259719 0.400101 0.045059 -0.322978 -0.033178 -0.117934 -0.439139 -0.259005 -0.258864 0.002636 -0.055533 -0.474191 0.177362 0.322779 -0.013736 -0.483462 0.013905 0.172086 -0.303958 0.026987 -0.059258 -0.112864 0.209215 0.212335 -0.207103 -0.131292 0.008084 -0.789013 0.121619 -0.383443 -0.039311 -0.389653 -0.675386 -0.367409 0.032184 0.324129 0.264386 0.087081 0.017204 -0.320119 0.306455 0.078958 -0.081178 0.333914 0.332804 -0.075518 -0.044404 -0.041531 0.181134 0.029208 -0.141175 -0.330662 0.039327 -0.209423 0.059987 -0.263524 -0.179777 -0.095405 0.039506 -0.123826 -0.055520 0.306568 0.201092 -0.272602 -0.233176 -0.117474 0.288397 0.362852 -0.408521 0.063416 0.467225 0.512050 -0.149701 -0.156190 -0.244346 0.216973 -0.532189 -0.189655 -0.206400 -0.132011 0.250116 0.418907 -0.012224 0.035781 -0.063748 0.115560 0.527804 -0.196097 -0.098819
扣 -0.019674 0.239197 0.424680 -0.131009 -0.703332 -0.027276 -0.384997 0.142568 -0.271622 -0.006380 -0.090418 0.086389 0.167307 0.187519 0.103699 0.311319 -0.172118 0.098769 -0.184717 0.288754 -0.087631 -0.168685 -0.006057 0.110846 0.292841 0.190300 0.238878 0.494687 0.243601 0.416644 -0.278592 -0.010569 0.289503 0.096788 -0.447632 0.316769 -0.141358 -0.060949 0.215481 -0.241218 0.072550 -0.168132 -0.382014 -0.340269 -0.398885 0.077456 0.184200 0.265946 -0.005621 -0.266459 0.556437 -0.302565 0.516771 -0.084645 -0.118298 0.074488 -0.384372 -0.086679 0.319790 -0.372619 -0.068410 0.104278 -0.260486 -0.094417 -0.027881 0.119322 0.021938 -0.171016 0.332184 0.209980 0.324515 -0.168623 0.006764 0.333381 0.124823 0.268542 0.100853 -0.139614 -0.077473 -0.048504 0.447095 -0.146090 -0.183807 -0.232392 -0.103677 -0.366767 -0.040430 0.234518 0.323517 0.268924 -0.020299 -0.021572 -0.155891 0.153613 -0.301766 0.208608 -0.071132 -0.136826 -0.137313 -0.124673 0.041916 -0.176496 0.362711 -0.438028 0.055709 0.174709 -0.286516 -0.589161 -0.178662 0.264109 0.438723 0.133324 0.051233 -0.543787 -0.115723 0.286716 0.135676 -0.537079 -0.216466 0.302662 0.037065 -0.140024 0.325385 0.025230 0.288185 0.214341 -0.355936 0.272076
少 -0.068634 0.072544 -0.593405 -0.284246 -0.766320 -0.300942 -0.676316 0.026698 0.042625 -0.316788 -0.124951 0.350386 -0.180915 -0.387553 0.332584 0.121487 0.034945 -0.195068 -0.169487 -0.187223 0.148364 0.197941 -0.220511 0.077760 0.162172 -0.786680 0.345083 0.279969 0.162794 0.345240 -0.073733 0.241798 0.153813 0.436977 -0.133598 -0.019904 -0.012038 0.132590 -0.141145 -0.150683 0.220490 0.089275 -0.028593 0.137216 0.265686 0.096563 0.103002 0.592416 -0.268945 0.255919 -0.111762 -0.332667 -0.071741 -0.097904 -0.639294 0.064508 -0.074938 -0.235959 -0.271397 -0.019372 -0.120120 -0.217392 0.263618 -0.203060 0.277939 0.049102 0.033809 -0.390269 -0.448607 0.079698 -0.035579 0.169355 0.125606 -0.232765 -0.160609 -0.104662 0.056282 0.210657 -0.866165 0.038756 -0.140177 -0.608037 0.114920 -0.097566 0.303324 0.279187 0.213664 0.609958 0.226725 0.592079 -0.348668 0.341096 -0.033296 0.289664 0.384087 -0.106391 0.448133 0.063239 0.050936 0.239418 0.036997 -0.173706 0.601934 0.272761 -0.261637 0.370004 -0.430292 -0.343791 -0.096299 0.269593 0.363559 -0.046487 0.284186 0.533998 -0.020840 -0.326244 0.302662 -0.137631 -0.292900 -0.153719 0.271729 0.486372 -0.642656 0.069420 0.413789 0.066346 0.344319 -0.129565
商 -0.134674 -0.198880 0.113257 -0.054704 0.242231 -0.086487 -0.361443 0.196193 0.447599 -0.268562 -0.137016 -0.162940 -0.243582 -0.116390 -0.482000 -0.016820 -0.075504 0.215925 0.184511 -0.377090 -0.298082 0.216402 0.803534 -0.101852 -0.105830 -0.370483 -0.039642 -0.174767 0.360397 0.265254 -0.628662 0.160119 0.707937 0.137357 0.445999 0.105121 0.666383 -0.047133 0.009228 0.012100 -0.365607 0.064397 -0.107921 -0.411956 -0.216735 -0.244482 -0.096013 -0.104360 -0.646755 -0.137624 -0.023702 0.180883 -0.003798 -0.248639 -0.137025 -0.368536 -0.180303 -0.045142 0.695461 0.050294 0.108206 -0.560996 -0.216972 -0.028388 0.023680 0.249023 0.307218 0.116456 0.301247 -0.350331 0.087450 0.050277 -0.030527 0.383627 0.429316 0.106814 0.209844 0.297749 0.067494 0.475047 -0.172315 0.534231 0.101375 -0.106094 0.181059 -0.110397 -0.046591 -0.554724 0.067506 0.859502 0.085282 -0.143425 0.454282 0.245709 0.208211 -0.042735 0.045413 0.426241 0.317463 0.197767 0.271091 0.131439 -0.196699 0.146144 -0.339501 0.069954 0.188769 -0.187278 0.103167 0.186180 0.177902 -0.016182 0.158370 0.072621 -0.012981 -0.379742 0.414837 0.328915 -0.637742 0.318190 0.280409 0.147421 0.080249 0.437568 0.250635 -0.146574 0.238011 -0.092992
这 -0.156936 0.062816 -0.090693 -0.200431 -0.224919 0.193370 -0.128164 0.044836 -0.314671 -0.086341 -0.074927 -0.031484 -0.198723 0.148632 -0.215046 -0.442249 0.077401 -0.048693 0.055360 0.086137 0.271942 0.053634 -0.216980 -0.446609 -0.138271 0.068920 -0.056803 0.190502 0.297362 0.295722 -0.159201 0.096444 -0.115276 0.183467 0.189328 0.194023 -0.030137 -0.090374 0.128602 -0.172957 -0.397011 0.053672 -0.026884 -0.174905 0.140620 0.032024 0.009865 -0.113378 0.063295 0.016647 -0.044176 -0.377832 0.250243 0.134742 0.181683 0.036070 -0.183003 -0.226620 0.000157 0.210378 0.183587 0.177581 0.263742 0.019123 0.065591 0.060129 -0.120585 -0.088257 -0.080198 -0.200459 0.146225 0.016964 0.239748 0.151480 0.141263 -0.077872 -0.373688 -0.109029 -0.295302 -0.104612 0.269948 -0.068667 0.107689 0.428327 0.009226 -0.251060 0.132145 -0.164368 0.296926 0.225817 0.011635 0.111553 -0.080470 0.003301 0.035681 -0.016853 -0.229066 -0.299693 -0.072372 0.186804 -0.066561 -0.179087 0.066174 -0.148161 0.127009 -0.110782 0.192569 -0.047605 -0.178398 0.251628 0.282356 -0.273846 0.442476 0.077454 0.136960 -0.068094 0.402986 -0.068771 -0.086850 0.152296 -0.215521 0.109256 -0.051207 0.033088 -0.232266 -0.447192 0.007551 -0.293478
行 -0.125535 -0.265954 0.112515 -0.223707 -0.394646 0.554286 0.083548 -0.236438 0.055762 -0.653538 0.208546 -0.077494 -0.108674 0.122654 0.121441 0.141545 -0.489594 0.087758 -0.379810 0.347156 -0.079410 0.045451 0.037890 0.168321 0.224910 -0.068018 -0.350435 -0.054624 0.424887 -0.012246 -0.316384 -0.053442 0.387542 0.232359 0.352026 0.596350 0.072845 -0.258371 0.142954 -0.248959 0.362226 -0.089653 -0.399559 -0.014538 -0.669773 0.175698 0.137543 0.162689 -0.004450 -0.371803 0.015701 0.149389 -0.101047 0.000435 -0.406826 -0.507538 -0.026870 -0.216635 0.019858 -0.131062 0.064665 0.044770 -0.014126 0.283958 0.128263 -0.192712 0.121074 0.044176 0.254341 0.152993 0.108941 -0.455871 -0.197868 0.305468 -0.098967 -0.181233 -0.389665 0.042871 0.292919 -0.203584 0.177461 0.322175 -0.211130 -0.033323 -0.238248 0.085048 0.105600 0.401007 -0.143373 0.008804 -0.277750 -0.204058 0.017065 0.538406 -0.418251 0.010300 0.049317 -0.228359 0.056518 -0.303408 -0.162857 0.165179 0.204657 0.445076 0.202170 0.672897 -0.136108 -0.134425 -0.200444 0.444757 0.390026 0.250818 0.082574 -0.454841 0.463107 -0.442892 0.182992 -0.016148 -0.035993 0.268659 -0.177064 0.034735 -0.027799 -0.203315 -0.013896 -0.267806 -0.158096 0.442436
关 -0.097239 -0.179267 0.247684 0.187724 -0.169121 0.169435 -0.369166 -0.489255 0.307610 -0.152191 0.206071 -0.438586 -0.295169 0.448494 -0.741300 -0.026021 0.035632 0.025657 0.135403 -0.183206 -0.208157 -0.104061 -0.567299 0.044806 0.050278 0.211745 0.046665 0.393517 -0.113760 0.311769 -0.633760 0.242009 0.087215 0.370360 -0.053625 0.122343 -0.224410 -0.307705 0.031629 0.132857 0.239190 0.026469 0.130911 -0.374829 0.136514 -0.272114 0.107047 -0.056171 -0.181086 0.429327 0.297018 0.388333 -0.137340 -0.276757 -0.165959 0.096627 -0.328212 -0.282867 -0.231905 -0.036560 -0.148805 0.071935 -0.471825 0.062810 0.235478 -0.237299 -0.185064 0.181949 -0.398670 -0.067379 0.469498 0.043051 -0.045143 0.007203 0.523837 -0.406944 -0.100375 -0.238148 -0.165394 -0.123066 0.344156 0.093172 -0.216304 0.469741 0.231656 0.143817 0.284633 -0.186584 0.621349 0.079976 0.336006 -0.300699 -0.049788 0.524359 -0.344626 -0.094382 0.440443 -0.101357 -0.553946 -0.361956 0.412498 -0.192408 0.119527 0.093837 -0.082562 -0.371667 0.601456 0.227346 -0.162685 -0.287929 0.008893 -0.581355 0.233896 -0.067244 -0.352319 -0.052140 0.418892 0.066063 0.020954 -0.168580 0.356422 -0.196850 0.385584 -0.093611 0.094087 -0.146896 -0.106238 -0.242192
逾 -0.088718 -0.037302 -0.617444 0.095144 -0.121840 -0.099027 -0.190956 0.165483 -0.062546 -0.260647 0.294403 -0.307573 0.035068 0.007086 -0.414671 -0.261279 -0.585537 -0.455271 -0.116798 0.365144 0.072434 -0.070305 -0.184282 0.363910 0.008948 0.468112 -0.271351 0.383233 -0.030240 -0.077319 -0.193508 0.267496 0.299961 -0.171799 0.333679 0.231634 -0.141645 0.188264 0.088852 -0.465455 -0.213478 0.324505 -0.251519 0.092788 0.497564 -0.037602 0.284857 0.250396 -0.577404 0.245143 0.416831 -0.117042 -0.031193 0.028702 0.333732 0.152502 -0.571599 0.107234 0.133410 -0.427162 -0.014825 -0.067078 -0.074308 0.269470 0.407803 -0.227786 0.193865 -0.678644 -0.390350 -0.650796 0.305659 -0.003871 -0.008581 -0.484954 -0.100377 0.377971 0.006660 -0.023864 0.243360 0.591193 -0.104749 0.255915 -0.024682 -0.250357 -0.001687 0.005855 -0.490602 0.091135 0.289014 0.128254 -0.012906 0.205644 -0.595257 0.288910 0.132861 0.004128 -0.140001 0.305106 -0.616697 -0.353463 0.072347 -0.204570 0.401859 -0.026718 -0.238057 -0.127531 0.030613 -0.053694 -0.319430 0.129950 0.266630 -0.215625 0.103830 -0.055275 0.137015 0.190256 -0.067626 -0.324021 0.383927 0.360832 0.208196 -0.536752 -0.320125 0.409447 0.087070 -0.224205 0.019212 0.289717
上 -0.055125 0.267576 -0.135203 -0.118063 -0.196536 -0.295389 -0.032564 0.175739 -0.091558 -0.167533 0.245066 0.478692 -0.077407 0.302083 -0.007795 -0.148315 -0.048986 -0.021098 -0.142070 -0.116992 0.073167 0.095492 0.271028 -0.072896 -0.112295 -0.059449 -0.127451 0.142432 -0.089329 0.190296 -0.032662 -0.351552 0.069563 0.110913 0.373921 0.067593 0.383737 -0.118850 -0.024208 -0.418948 0.102095 -0.101673 -0.235215 -0.198228 0.264472 0.120046 0.258845 0.044480 0.321409 -0.070418 -0.176566 0.094628 0.070648 0.012091 0.140739 -0.196724 0.178960 -0.197101 -0.116274 0.369251 0.073391 -0.006231 0.404359 0.201017 0.066250 0.095607 0.130040 -0.121380 0.231779 0.056476 -0.155525 -0.302499 0.038031 0.200097 0.362485 0.049860 -0.000893 -0.156246 0.051563 0.130769 0.408462 0.059636 0.484803 0.362481 0.144207 -0.060975 -0.002891 0.428765 0.153976 -0.013719 -0.108917 -0.076070 0.046075 0.049708 -0.249806 -0.021065 0.152575 -0.070360 -0.000484 -0.339266 0.308036 0.025297 0.303203 -0.110534 0.090552 0.157122 0.065419 0.158712 0.042052 -0.119532 0.188435 0.046855 0.176098 -0.294336 0.054045 -0.017628 0.115908 0.096353 -0.103332 0.044695 0.091898 0.105184 0.074824 0.115109 0.217979 -0.581519 0.061941 -0.221289
动 -0.014435 -0.224438 -0.073851 -0.231659 -0.327858 -0.214791 -0.104364 0.043463 0.052129 -0.159715 0.279629 -0.285326 -0.007523 0.554673 0.072493 -0.369171 -0.381198 0.482393 0.060759 0.314940 -0.206140 -0.150145 0.135976 0.288854 0.074614 -0.748923 0.326407 0.139121 0.117684 -0.051658 -0.344765 -0.267929 0.617607 -0.152472 -0.149804 0.500019 -0.038654 -0.012442 0.514820 -0.083138 0.342365 0.124191 -0.092157 -0.405452 -0.060513 0.430076 0.284050 -0.088060 -0.011849 -0.582181 0.044618 -0.020908 0.305519 0.124916 -0.109611 0.085576 0.062515 0.541215 0.335599 -0.209407 -0.009584 0.439264 -0.177424 -0.513950 -0.230669 -0.221449 -0.287962 -0.129350 0.332625 0.465820 0.631206 -0.370326 -0.465503 -0.029004 0.051365 0.085487 -0.278536 0.046211 -0.539288 0.294466 0.388483 0.094996 -0.247140 0.296305 -0.223984 -0.450417 0.033152 0.218740 0.101509 0.307722 -0.050742 -0.009382 -0.424368 0.449673 0.061229 0.316173 -0.092938 -0.312472 -0.103922 -0.161327 -0.073038 -0.069137 -0.125970 -0.022842 0.166584 0.202799 -0.229922 -0.366793 0.208999 0.014371 -0.414816 0.582637 -0.019938 -0.212312 -0.545980 -0.179863 0.113504 -0.035765 0.168585 0.183537 0.393424 0.134027 -0.143223 0.659313 0.096900 -0.189391 0.030561 0.030944
如 -0.023132 -0.110634 0.333247 -0.267541 0.076689 -0.285212 -0.287411 -0.243600 -0.089828 0.200768 -0.061119 0.206141 0.117303 0.073488 -0.240078 -0.221684 -0.087836 0.219573 -0.463426 0.318152 0.360496 -0.183361 0.033220 0.058028 -0.118871 0.028576 -0.087115 0.310790 0.399735 -0.132820 -0.213939 -0.208444 0.124497 0.167192 0.107159 -0.002879 0.605616 0.867390 -0.472491 -0.209448 0.253944 0.112114 -0.012015 -0.629472 -0.025214 0.007209 0.388369 0.011897 0.652911 0.416794 0.224831 -0.161743 -0.039683 -0.045328 -0.360414 -0.024147 -0.219851 -0.179117 -0.448981 -0.002677 0.204228 -0.090696 -0.076469 -0.234755 -0.281786 0.541100 -0.055923 0.495646 0.088755 -0.652170 -0.408127 -0.029213 -0.329369 0.394372 -0.205132 0.157664 -0.104472 0.041226 0.341778 -0.171964 -0.264376 0.228343 0.192346 -0.042882 0.039071 0.251819 -0.218654 -0.036269 0.679335 0.613754 -0.259431 -0.323796 -0.521407 -0.013597 0.493315 0.206257 0.167210 -0.325666 0.296371 -0.217302 0.206714 0.034093 -0.022508 0.208757 0.006127 0.122142 0.607286 -0.350815 0.414575 -0.070594 -0.296001 -0.266497 0.206877 -0.243975 -0.183385 0.061780 0.115529 0.189792 0.422076 0.313634 0.398399 0.320698 -0.330403 0.491138 -0.301422 0.025960 0.208239 -0.577172
已 -0.112746 -0.134127 0.095802 0.014940 -0.562283 -0.027177 0.419765 0.147151 -0.174858 0.008939 0.092029 0.194976 -0.474652 0.118224 -0.728860 -0.619724 0.409943 -0.040987 -0.073230 0.001655 0.072723 -0.298019 -0.123365 -0.400887 -0.125012 -0.164792 -0.180321 -0.164133 0.099755 0.185527 -0.541758 -0.049533 0.150773 0.386878 0.194248 0.162979 -0.015823 -0.163592 -0.052281 0.181543 0.331949 0.413634 0.126092 -0.070419 -0.134471 0.092295 0.171807 0.346952 -0.285228 0.197344 0.030187 -0.089710 -0.126355 -0.020082 0.173552 0.348888 -0.194883 -0.318765 -0.198385 -0.215163 -0.338384 0.113760 -0.063075 -0.299394 0.060848 0.221144 -0.070473 -0.066478 -0.159905 0.165362 -0.135041 0.023663 0.401180 -0.099916 0.138390 0.129327 0.025825 0.133565 0.323740 -0.023350 0.076272 -0.096564 0.090135 0.296685 0.265161 -0.289687 0.045878 0.129743 -0.105394 0.200974 0.108414 -0.253604 -0.537732 0.203739 -0.359990 -0.263416 -0.327150 -0.111431 0.169213 -0.690658 -0.191937 -0.265657 -0.361107 -0.020880 0.051922 -0.139443 0.450792 -0.400897 0.064804 0.200677 0.317036 -0.127442 -0.295783 0.086890 0.210053 -0.171642 0.199341 -0.016693 0.065696 0.359488 0.410663 0.172315 0.133857 -0.044774 -0.023142 -0.148969 -0.370823 -0.252865
机 0.020341 0.184980 0.436917 0.168858 -0.140861 0.194331 -0.137274 -0.018532 0.292543 -0.275798 0.064732 0.024348 0.152469 0.716734 -0.388596 -0.089227 0.061288 -0.426917 -0.354010 0.238836 -0.128669 -0.839852 0.317305 0.076490 0.030379 -0.382487 0.210321 0.061619 0.158180 0.065277 0.070877 -0.487781 -0.408973 0.343759 0.340551 0.287652 -0.222849 0.431370 -0.234789 0.304874 -0.381893 0.165010 -0.136301 0.116027 -0.220980 0.160309 0.377997 0.117425 -0.058882 0.190269 -0.511140 0.112068 -0.244636 0.065467 0.231255 -0.051046 -0.212966 -0.084778 0.315022 0.008534 0.061893 0.004678 0.362288 -0.329016 -0.264984 0.073029 -0.168302 0.625414 -0.042095 -0.115473 -0.026578 0.135096 -0.022666 -0.445874 0.503653 -0.239071 0.006277 -0.017869 -0.453344 0.323903 -0.044114 0.066373 0.472560 0.216085 -0.219368 0.034356 -0.209167 -0.069522 0.110440 0.230414 -0.039961 -0.135599 0.087171 -0.062526 -0.259265 0.541000 -0.165113 0.311708 -0.203494 0.163698 -0.051362 -0.127634 0.063583 0.543496 0.016351 0.340257 -0.082772 0.548608 -0.058875 -0.144413 0.686686 -0.269173 0.562928 -0.227667 0.385435 0.211687 0.317285 0.053168 -0.303268 0.139539 0.102092 0.033672 0.106082 0.331210 0.061219 0.184640 -0.223213 0.074414
显 -0.233999 0.275883 -0.173787 -0.600875 -0.077401 -0.386925 0.415823 0.295774 -0.327807 -0.396120 0.184692 0.307502 -0.076127 0.160385 -0.071097 -0.262053 0.258957 0.583839 0.159827 0.083192 -0.138411 -0.274407 -0.399876 -0.285673 -0.036873 0.040987 -0.189756 0.167229 0.021321 -0.092628 -0.270511 0.116533 0.072384 -0.044003 0.303124 0.028377 0.337646 -0.213703 0.233135 -0.310572 0.090367 0.217885 -0.024814 -0.361562 0.310159 -0.302007 -0.166173 -0.094251 0.178498 -0.256616 -0.301910 -0.049838 -0.224826 -0.043197 0.189105 0.428105 0.320887 -0.397881 0.196020 -0.221652 -0.164624 -0.157894 0.363484 0.038395 -0.003213 0.105148 -0.365755 -0.016104 -0.208120 -0.063587 -0.489667 0.181094 -0.249771 0.119714 0.225150 -0.041020 0.410557 -0.140330 -0.169573 0.267760 0.388553 -0.120776 -0.171301 0.203220 0.066117 -0.180450 0.107050 0.240547 -0.054320 0.214856 -0.399252 -0.119822 0.195899 -0.118422 -0.379580 -0.081969 -0.096241 0.338164 -0.177906 -0.397879 0.215080 -0.117499 -0.507178 0.194093 -0.499377 0.340821 0.031965 -0.112846 0.193321 0.395187 0.500126 -0.169850 0.057641 -0.223614 0.079096 -0.253708 0.431349 -0.234934 0.066728 0.424065 0.269664 0.014921 0.127549 -0.061992 -0.136524 0.264858 -0.529905 0.375715
单 0.267641 -0.139997 -0.529991 -0.333938 0.016841 -0.045806 -0.252760 0.283612 0.197591 0.323842 0.215642 -0.100634 -0.412108 -0.196680 -0.035348 -0.092133 -0.256839 0.468991 0.023354 0.218279 0.304944 0.224309 0.294066 -0.374140 -0.266654 -0.071038 0.038762 -0.125366 0.028181 -0.321221 -0.106931 -0.386488 0.303610 0.254773 0.063557 0.090432 0.193474 0.237604 0.296073 -0.408152 -0.300164 0.053650 0.157903 -0.313433 0.226578 0.186532 -0.153725 0.181540 -0.252001 0.332573 0.175306 0.047326 0.151330 0.012101 -0.043203 -0.194549 -0.378246 -0.097241 -0.618735 -0.046667 0.064426 -0.282582 -0.176094 -0.111811 -0.362322 -0.161258 -0.197481 -0.070937 -0.171112 0.323832 -0.103185 0.157944 0.266811 -0.177244 0.285506 0.312771 0.026461 -0.396740 0.167171 0.108283 0.118392 -0.232921 0.567344 -0.028222 -0.228473 -0.665053 0.055220 -0.137344 -0.025449 0.197558 -0.139525 -0.083666 -0.093707 -0.074951 -0.321902 0.783369 -0.402188 -0.167382 -0.635508 -0.524543 -0.044668 0.075278 0.221758 -0.000566 0.013968 0.246282 0.036641 -0.323377 -0.018701 0.420096 -0.157783 -0.085646 -0.037267 -0.209770 0.113317 -0.287633 0.207018 -0.260049 0.059304 0.116243 -0.003354 0.221619 -0.127794 -0.221599 -0.268711 0.185930 -0.612705 -0.239020
银 -0.128666 -0.156761 0.331137 -0.080171 -0.380923 0.269173 0.145199 0.355231 -0.141828 -0.770741 0.244486 -0.114527 -0.054848 -0.008723 -0.041691 0.489689 -0.568379 0.275626 -0.141873 0.255027 -0.582488 0.048614 -0.083184 -0.243531 0.130601 0.191049 -0.250100 0.169486 0.364141 0.426893 0.328419 -0.168987 0.124920 0.093470 0.281670 0.352886 0.030152 -0.060809 -0.611104 -0.042515 0.550282 0.019102 -0.020678 -0.479668 -0.223514 -0.243524 0.402113 0.198640 -0.080980 -0.029264 -0.191173 0.041136 0.033523 -0.469131 -0.396275 -0.251434 -0.264734 -0.156408 0.423967 0.264943 -0.551179 -0.181635 -0.039178 0.076999 -0.204865 -0.305611 -0.162594 -0.405074 0.167982 -0.244732 -0.065966 0.112392 0.215079 0.166789 -0.469345 -0.252020 -0.386454 0.089956 0.851709 -0.383535 0.320896 0.266274 -0.514582 0.208956 -0.288245 -0.368460 -0.186900 -0.067341 -0.070505 0.526709 -0.203251 -0.339710 0.247182 0.374680 -0.749359 0.359602 -0.201247 -0.059347 0.237332 0.114311 -0.024716 0.003500 0.333288 -0.062932 0.025550 0.408130 -0.058703 0.254785 0.017312 0.251689 0.439054 0.235715 -0.002006 -0.772115 0.516361 -0.343207 0.025899 0.215214 -0.056928 0.369200 0.093306 -0.271889 -0.089565 -0.279101 0.027075 -0.321663 -0.013364 0.093911
自 -0.419761 0.040734 0.408192 -0.127726 -0.289957 -0.155908 0.135171 0.365939 -0.093390 0.355161 0.348869 -0.061565 -0.163279 0.414368 -0.187890 -0.082014 0.175020 0.550055 -0.116292 -0.065209 -0.373873 -0.303695 0.213322 0.351645 -0.250435 0.111763 0.546438 0.479288 0.260895 0.612064 -0.314355 0.099438 0.278000 -0.205901 -0.143867 0.190176 0.398038 0.082901 -0.091618 -0.149863 0.226706 0.378825 0.079564 -0.473948 0.053635 0.456850 0.114685 0.242494 0.205199 0.105589 -0.177325 -0.279635 0.123036 -0.236005 -0.440571 0.055774 -0.138065 -0.091302 -0.012261 0.226859 -0.262349 0.200565 0.065914 0.048048 -0.232204 -0.204755 -0.073860 -0.342421 0.014999 0.196605 0.613742 -0.042054 -0.140565 -0.184173 -0.135792 0.205981 0.028628 -0.198159 -0.218862 0.049540 0.244276 0.356193 -0.314934 0.137548 -0.229452 -0.555791 -0.133748 0.221037 0.368338 0.058291 -0.025234 -0.330468 -0.310209 0.273206 0.093942 0.428328 -0.411692 -0.294748 -0.209996 0.179997 -0.044554 -0.327170 -0.106437 0.074522 -0.006411 0.436614 -0.631298 -0.653836 0.564357 -0.001201 0.036652 0.464108 0.518028 -0.124393 -0.238783 0.137681 0.358163 -0.305713 0.225411 0.219973 -0.252086 -0.308225 0.551006 0.328514 -0.134751 0.244862 -0.033585 0.399453
请 -0.191966 -0.020059 -0.071610 -0.277601 -0.051138 -0.538135 -0.199593 -0.194476 0.126173 -0.110404 0.331980 -0.047710 0.235050 0.193575 -0.449517 -0.327851 0.763269 0.463622 0.184451 0.150217 0.255725 -0.344169 0.172347 0.241762 0.203572 0.067966 -0.045320 0.303611 -0.363339 -0.135951 -0.002933 0.468385 -0.051835 -0.088951 0.302243 0.428987 0.240334 0.348170 0.230484 -0.173437 0.443686 0.242048 0.149758 -0.182686 0.284909 -0.386053 -0.017896 -0.207640 -0.148175 0.152616 0.023635 -0.125361 0.033389 -0.397645 -0.551723 -0.150929 -0.268501 0.503609 -0.013581 0.465685 0.059888 -0.320501 0.317724 -0.228528 -0.523499 -0.437977 -0.150492 0.048312 0.036173 0.092776 -0.213955 -0.067018 0.179127 0.056412 -0.336341 0.160479 -0.217081 -0.200395 0.022615 -0.474274 0.172766 0.468418 0.106642 -0.080827 -0.113625 -0.054244 -0.111461 -0.084263 0.096794 0.204424 0.491372 -0.272558 -0.042098 -0.287104 -0.046021 -0.249152 0.325999 -0.120779 0.059316 0.187943 -0.175835 0.136016 -0.197885 -0.194863 -0.037208 -0.051726 0.300461 0.313076 -0.846141 0.164087 0.200695 0.229359 0.327676 -0.220749 -0.041928 -0.271269 -0.019493 -0.368059 0.037312 -0.061903 0.215749 -0.096577 -0.333740 0.005122 0.291800 0.385692 -0.095110 -0.260547
何 -0.035715 -0.100413 0.037516 -0.345332 -0.847646 -0.488979 -0.085218 -0.254649 0.294608 -0.348642 0.007719 0.197241 -0.297114 -0.058534 -0.649838 -0.276578 0.217738 0.403037 -0.243882 0.126190 0.181727 0.127790 -0.025767 0.084382 0.156078 0.094113 0.217394 -0.060848 0.039116 -0.062105 -0.004599 -0.239245 0.497626 0.198924 0.224866 0.140038 0.301735 0.215630 -0.180950 0.233815 0.310261 0.265569 -0.361265 -0.416496 -0.170723 -0.142644 -0.072057 -0.412433 0.227817 0.436910 0.218819 0.320511 0.088834 0.541129 -0.063111 -0.008151 -0.035981 -0.271240 -0.242909 0.103352 0.067266 0.122873 0.185236 -0.031996 -0.305362 0.078059 -0.208489 0.379956 0.187934 -0.481408 0.236353 0.430924 -0.117503 -0.023278 -0.057964 0.054675 0.390289 0.188517 -0.177939 0.103868 0.167816 0.354366 0.235636 -0.092712 -0.177944 -0.416596 -0.533092 -0.547401 0.327481 0.527295 0.016185 -0.428257 -0.684095 -0.058927 0.228382 0.032862 0.110875 -0.332996 0.559305 0.030039 -0.018515 -0.047707 0.155963 0.023036 0.398860 0.965813 0.165500 -0.149123 0.319381 -0.057637 -0.506954 -0.153652 0.371977 0.373356 -0.178307 0.193116 -0.214266 0.549275 0.247927 0.130245 0.023075 0.123796 -0.401378 -0.408722 0.239198 -0.024829 -0.036230 -0.116595
消 -0.277271 -0.019190 0.074176 0.050674 0.365011 -0.146133 -0.388478 -0.004168 0.204823 -0.460525 0.084473 -0.120102 -0.050009 0.277040 0.034565 -0.005104 0.275341 0.179731 0.262419 0.186232 -0.187861 -0.113441 -0.442392 -0.252545 -0.023870 0.211543 -0.092641 0.054294 -0.134566 0.369713 0.011562 0.224057 0.294541 -0.072351 -0.167819 0.259498 0.439435 0.212798 0.170575 -0.306874 0.103520 0.088857 -0.432496 0.331725 0.023060 -0.399518 0.268529 -0.155118 -0.433865 -0.081367 -0.025092 -0.381138 0.018807 0.007327 -0.238662 0.005882 -0.539848 -0.178095 0.081331 0.205764 0.733401 -0.193298 -0.150605 -0.180191 -0.022144 0.070299 0.235712 0.147304 -0.289003 0.088505 0.185972 0.209545 -0.124275 0.177709 0.364496 0.044641 0.315217 -0.096946 0.056132 -0.051247 0.685043 -0.293093 0.316242 0.262206 0.312756 -0.095442 -0.141135 0.409414 0.309003 -0.131263 0.242665 -0.029468 -0.181354 -0.216052 -0.046849 0.565848 0.021119 -0.395148 -0.211234 -0.197731 0.248959 -0.068893 0.296905 0.284965 0.353979 0.025447 -0.089639 0.163195 0.416659 0.492846 -0.261225 -0.100203 0.072928 -0.314250 -0.456913 -0.237505 -0.002483 0.236028 0.525308 0.495206 0.114889 0.331175 -0.021590 0.100103 0.304671 -0.045063 -0.039935 0.112881
馀 0.146731 -0.056818 0.248326 -0.237861 -0.320289 -0.275945 -0.092903 0.021196 -0.396406 0.093139 0.307139 0.048296 0.098168 -0.004209 0.083056 0.165835 -0.346699 0.270298 -0.522059 0.111346 0.011103 -0.012795 0.141667 0.301002 -0.239874 -0.246052 0.094275 0.429193 0.157591 0.206452 0.081515 0.179339 0.798220 0.068897 -0.095863 0.256513 0.536185 -0.560507 -0.229980 -0.315947 -0.176111 -0.200382 -0.477242 -0.210878 0.126441 0.029924 0.225969 -0.048043 0.312964 -0.035351 -0.001784 0.039332 0.076278 0.375794 -0.549991 -0.375239 -0.406827 -0.009572 0.377798 0.096113 -0.396402 0.283161 -0.355280 -0.295260 -0.143025 0.483258 0.067925 -0.581566 -0.080863 0.131715 -0.166160 0.095490 -0.593611 -0.015166 0.037175 0.106660 0.267911 -0.123470 0.294213 0.020768 0.008968 -0.254500 -0.174189 0.504634 -0.149878 -0.177671 -0.300202 0.062240 0.291319 -0.107277 0.145840 -0.153391 -0.134606 0.293838 -0.133000 0.129865 -0.396699 -0.176196 -0.060591 -0.303743 0.056555 -0.386968 0.036919 -0.235954 0.177533 0.247980 -0.514485 0.392707 0.056930 -0.039691 0.221496 0.222187 0.381422 0.236890 0.004032 -0.104268 -0.003146 -0.354513 -0.443533 -0.053236 0.072302 -0.248357 -0.215881 0.287518 -0.449511 0.210269 -0.194068 0.108509
息 -0.258489 -0.551711 -0.113952 0.151255 -0.203877 -0.014601 -0.062649 -0.193435 0.095423 -0.479869 -0.031464 -0.582371 -0.031465 0.294219 -0.217520 0.067610 -0.608032 -0.014214 -0.551982 0.153354 -0.035298 0.285531 0.022257 0.018293 0.057038 0.130275 -0.495497 0.276198 -0.395939 0.133316 -0.367202 0.316986 0.052658 -0.276569 0.020603 -0.474170 0.182569 0.590246 0.527469 0.026950 -0.167624 -0.010922 0.024170 0.208703 0.620750 0.122446 0.583130 0.578702 0.021457 -0.114431 0.280935 -0.310774 -0.256787 0.065689 -0.318691 -0.093827 -0.204740 -0.196158 -0.494173 -0.535547 -0.225098 0.138389 0.042997 -0.146096 -0.324174 -0.143059 -0.358362 -0.055032 0.006710 0.015846 -0.682926 -0.235499 0.373599 -0.392466 0.213151 0.116350 0.511770 -0.652868 0.385068 0.092568 0.184019 -0.300798 0.036924 -0.198399 0.114994 -0.180647 0.283316 -0.048607 0.348041 0.238685 -0.085869 0.163558 -0.324196 -0.331092 -0.039735 -0.101405 -0.227728 0.165533 0.335900 0.311108 0.086245 -0.471577 0.005162 -0.325554 -0.157911 0.107216 -0.518120 0.514054 0.021979 0.284233 -0.106144 0.231811 0.655791 0.117438 -0.085873 -0.154438 -0.118686 0.128550 -0.222018 0.197997 0.110054 0.131863 -0.470975 0.012082 0.566923 -0.936592 -0.196623 0.239776
样 -0.056587 0.053069 0.487241 -0.291742 -0.297990 -0.141551 -0.102939 0.148044 0.059030 0.096442 0.190085 -0.074602 -0.090210 -0.223929 -0.295402 -0.199624 0.405468 0.123708 -0.312148 0.618940 -0.102438 0.095458 -0.015489 0.407565 0.104503 -0.381296 -0.008238 0.168883 -0.044364 0.441066 -0.137821 0.418699 0.378342 0.364250 0.066007 -0.038639 0.109664 -0.012703 0.011325 -0.065091 -0.146776 0.195456 0.129459 0.087546 0.376152 0.026445 0.214445 0.211541 0.275358 0.068960 0.126525 0.078860 -0.363805 -0.307192 -0.008342 -0.149259 0.083276 -0.246499 -0.236947 -0.221028 0.337022 0.008597 -0.242771 -0.163386 0.058903 -0.070560 -0.557346 0.076628 0.362991 -0.135136 0.110954 -0.025821 0.204766 0.206192 0.131892 -0.140051 0.141179 0.157401 0.176142 0.207917 0.103674 0.123695 0.018089 0.347705 0.233982 0.224224 -0.356903 -0.078192 -0.161049 0.159096 0.351838 -0.023739 -0.052218 -0.195578 -0.216826 -0.149577 -0.328196 0.196960 0.165767 -0.053270 -0.057680 0.479147 0.277693 0.105265 -0.037777 0.281891 0.114666 -0.121773 0.315307 0.213318 -0.020072 0.014420 0.353383 -0.197005 -0.088477 -0.171471 -0.071122 -0.187205 0.172993 -0.274097 0.202743 0.293266 -0.166300 0.284790 0.276481 0.116175 0.416248 -0.308198
候 -0.189575 0.076646 0.424910 0.121321 -0.080329 -0.195198 -0.293126 -0.370108 -0.670758 0.093407 0.419225 0.026988 -0.156596 -0.205641 -0.065182 0.010664 -0.029994 -0.091905 0.571901 -0.013043 0.354497 -0.195732 0.128372 -0.299726 -0.454311 -0.363743 0.112351 0.329584 -0.019353 -0.027250 -0.176425 -0.078908 -0.000667 0.093459 -0.175136 0.164312 0.054079 -0.112909 0.384264 0.263085 -0.084237 0.204965 -0.625239 -0.179895 0.209302 0.715318 0.089618 0.383755 0.242566 -0.129186 0.154124 0.014442 -0.085104 -0.285625 0.246468 -0.222564 -0.406268 0.099149 -0.254469 0.147365 -0.178982 -0.273603 0.038650 0.060544 -0.215600 0.318749 -0.366368 -0.259709 -0.150922 -0.194914 0.076732 0.245246 -0.047744 -0.339540 -0.441873 -0.500086 -0.272038 0.169285 -0.150985 0.123154 -0.086890 -0.127620 -0.054110 0.538893 -0.375659 -0.119852 -0.057297 0.411959 0.086626 0.471211 0.057729 -0.150353 0.004841 -0.340423 -0.452481 -0.306204 0.327540 -0.187172 0.336797 -0.625769 0.074269 0.523088 -0.124957 -0.060563 -0.102970 0.079517 0.012809 -0.285125 0.052954 0.480187 -0.045583 -0.449338 0.007902 0.169176 0.096437 0.084521 -0.156422 -0.001268 0.093788 0.527304 -0.151913 -0.240545 -0.412054 -0.223411 0.509973 0.050878 0.396428 -0.013552
