1619 128
呗 -0.034823 -0.154243 0.106082 -0.134464 0.071400 0.178387 -0.246883 0.006280 0.002191 -0.213610 0.101990 0.238478 -0.026530 0.345619 -0.154505 -0.057806 0.364672 0.017453 -0.039837 0.028977 0.176938 -0.057028 -0.002561 -0.026125 -0.224138 0.022757 0.318867 0.083854 -0.079009 0.236207 0.037760 -0.095849 0.048358 0.026833 0.049014 -0.030159 0.003647 -0.044280 0.136762 -0.114594 -0.163931 -0.040319 -0.361050 0.015993 0.083989 -0.140810 -0.188558 0.320494 0.033631 0.076217 -0.149845 0.118444 -0.106907 -0.015007 0.053912 -0.076634 -0.147353 -0.218616 0.081292 -0.211137 -0.158249 -0.012341 -0.057151 -0.020168 -0.324658 0.304905 0.036255 -0.021426 -0.076663 -0.072190 -0.050437 -0.057417 -0.160391 -0.046106 -0.125180 0.001581 0.001371 0.301711 -0.274486 0.030452 -0.014620 -0.080368 0.075347 0.231248 0.178757 -0.019931 -0.133402 0.165719 -0.100520 -0.081741 -0.001622 0.051860 0.074702 0.211467 0.004287 0.071135 0.046838 -0.004665 -0.237393 -0.170087 0.059508 -0.229660 0.238378 0.071156 0.135134 0.340509 -0.042799 -0.246292 -0.107720 -0.163384 0.115015 -0.103398 0.139148 -0.024199 -0.050464 -0.304949 0.144803 0.133532 -0.060274 0.109086 0.001911 -0.127672 -0.051626 0.125256 0.045161 -0.037739 -0.035803 0.009766
花 -0.185688 0.010180 -0.149568 0.219683 -0.185583 -0.260908 -0.075087 0.002907 -0.169786 0.015349 0.060049 -0.036601 0.116411 0.156664 -0.014392 0.051282 -0.114324 0.023788 -0.029526 -0.095942 0.014030 -0.051297 0.004507 -0.208825 -0.016552 -0.127118 0.212656 0.287809 -0.178019 0.091339 0.125339 -0.067709 0.119098 0.077579 -0.197129 0.076239 0.201252 0.047621 -0.082310 0.335849 -0.150945 0.079423 -0.381976 0.232621 0.014952 0.018627 -0.045746 0.325038 -0.271361 -0.118190 -0.295172 -0.092361 -0.411124 -0.096570 -0.254823 -0.203999 -0.143031 -0.081475 -0.237812 -0.340090 0.023255 -0.092106 -0.044528 -0.057647 0.253930 0.071232 -0.271700 -0.187575 0.133769 -0.086400 0.199232 -0.081499 -0.114580 0.064590 -0.153527 0.052545 -0.017709 0.108617 -0.175041 -0.229355 0.021574 0.004690 -0.174085 0.051669 -0.141693 0.013898 -0.083318 -0.102406 0.277664 -0.060737 0.198523 0.019138 0.165428 0.160817 0.232350 0.404179 -0.187784 -0.145193 -0.099818 0.043800 -0.046884 -0.107337 -0.028576 0.105517 -0.049846 0.137024 0.158444 0.236828 0.022657 0.137475 0.233016 0.240333 0.239313 -0.276593 0.042681 -0.232223 0.086745 0.157715 0.161387 0.421927 0.117238 0.218203 -0.058243 -0.003535 -0.035026 -0.034865 0.219616 0.043418
么 -0.119827 -0.073743 -0.137633 -0.070878 0.204136 -0.283891 -0.182601 -0.122008 0.051882 -0.125990 0.445597 -0.074975 -0.172914 0.210287 -0.063470 -0.190864 0.044870 -0.019263 0.423271 0.127913 0.408980 -0.310331 0.319909 0.044443 -0.012685 -0.009798 -0.007612 0.207803 -0.189099 0.137288 -0.064201 0.075346 -0.126358 0.028741 0.037278 0.318674 -0.057659 -0.189648 0.241273 -0.103764 -0.102085 -0.179558 -0.333973 0.045026 -0.040032 -0.136540 -0.172999 0.512708 -0.022925 0.126341 -0.404382 -0.124369 -0.167928 0.237737 -0.065922 -0.121767 0.067579 -0.399109 0.105541 0.106663 0.299162 -0.303979 -0.171783 0.123515 -0.015636 0.251298 -0.283967 -0.255019 -0.251887 -0.045041 0.121938 0.009079 -0.067334 -0.045912 -0.072713 0.168913 0.080574 -0.016317 -0.005992 0.145043 -0.024287 -0.052901 0.108360 0.333728 -0.110900 -0.296905 -0.000013 0.053696 -0.080858 -0.010042 0.191665 -0.033911 -0.110779 -0.036082 0.257933 0.091120 -0.144842 0.313059 -0.169044 -0.079086 -0.246884 0.029402 -0.018299 0.099582 -0.266364 -0.002520 -0.252269 0.148184 -0.003558 0.254287 0.029379 0.018009 0.323240 -0.167333 0.117685 -0.012853 0.311662 -0.113231 -0.043020 -0.200970 -0.014878 0.068371 -0.353468 0.089473 0.011224 -0.229765 0.223210 0.082690
还 -0.194994 0.279751 -0.265686 -0.351295 -0.143676 0.169423 -0.132967 0.079863 0.002200 -0.218207 0.054044 0.164040 0.011064 -0.042737 -0.126302 0.222746 -0.018462 -0.067317 0.104717 0.283732 0.077772 -0.071360 -0.128937 0.287459 -0.132320 -0.060138 0.180037 0.305238 -0.022313 0.039021 0.321771 0.148712 0.119250 -0.181001 -0.073142 0.159320 -0.009368 -0.157379 0.065826 0.046111 -0.054982 -0.030552 -0.411761 -0.017033 0.124813 0.047039 0.412522 0.207094 0.252338 0.248678 -0.105602 -0.091706 -0.314586 -0.048392 -0.308651 0.077696 -0.280662 -0.151659 -0.216026 -0.203979 -0.046833 -0.068737 0.133610 -0.216231 -0.043229 0.282867 -0.153543 -0.086071 -0.247368 -0.030407 0.142930 -0.177378 0.063262 0.012095 -0.124232 0.078533 -0.019600 0.056732 0.162240 -0.005065 0.049139 0.080379 0.015816 -0.012265 0.174317 0.238792 -0.008840 0.060611 0.083748 0.029974 0.156206 0.016470 -0.263046 0.039123 -0.069350 -0.164639 -0.209433 0.000406 -0.257768 0.167199 0.054552 -0.311362 0.236112 -0.296951 0.189457 -0.005190 -0.143771 -0.175595 -0.000371 0.113477 -0.159537 -0.140874 0.196010 -0.194199 0.400178 -0.181107 0.347402 0.194184 -0.327449 0.137943 -0.051729 0.015464 0.248175 0.075209 -0.104790 -0.034488 0.111270 0.222749
借 0.020419 -0.220952 -0.223061 -0.200414 -0.154767 -0.127348 -0.073294 0.110315 -0.161875 -0.122200 -0.001004 -0.040528 0.192648 0.496701 -0.267586 -0.040768 -0.000850 -0.016811 0.006060 0.309857 0.105372 -0.330153 0.106224 -0.245089 0.137089 -0.146416 -0.022933 0.236326 0.124161 0.018222 0.008372 0.174421 -0.265417 0.122253 -0.147428 -0.007911 0.118515 -0.063850 0.149410 -0.064025 -0.133860 0.032064 -0.261852 -0.273323 0.197348 0.237248 0.152879 0.222580 0.040050 -0.027837 0.000930 -0.064131 -0.596706 0.020854 -0.364990 -0.045743 -0.120403 -0.009226 -0.316944 -0.154275 -0.121800 -0.513538 0.250042 -0.043471 0.200600 -0.058939 -0.149683 0.090181 0.138559 -0.033840 0.443752 -0.047763 -0.010112 -0.398804 -0.075436 -0.175298 -0.039121 -0.124160 -0.096708 -0.073034 -0.012016 0.194397 -0.030519 0.254387 0.259641 0.335033 -0.244597 0.045090 0.448845 -0.174126 0.148047 0.092682 0.090715 0.245834 0.097115 -0.368667 -0.082512 -0.189569 -0.195096 0.062202 -0.288579 -0.038028 0.219197 -0.198005 -0.002580 0.132291 -0.050110 0.139029 -0.160451 -0.151165 -0.301926 0.247937 0.412228 0.194072 0.244916 -0.207005 0.422495 0.065031 -0.188470 -0.030216 0.239905 0.103962 -0.195458 -0.101592 -0.164075 -0.071070 -0.078086 0.146530
我 -0.132882 0.042674 -0.276369 -0.140311 -0.269144 0.136265 0.024519 0.157743 -0.252269 -0.147504 0.099437 0.019498 -0.089907 -0.058197 -0.417648 -0.060795 0.194848 0.135009 0.083810 -0.109524 0.209770 0.021683 -0.029263 0.041907 0.110900 -0.057286 0.093737 0.062968 0.079886 -0.139917 0.005910 -0.028804 0.137058 0.303223 0.059803 0.190345 0.183043 -0.004146 -0.001333 -0.069977 0.138014 0.130520 -0.135149 0.091308 -0.108285 0.125001 0.067207 0.192154 -0.042988 0.141153 -0.310202 0.228473 0.109807 -0.160167 -0.263908 -0.211388 -0.374196 -0.097849 -0.031759 -0.166711 0.235818 -0.160779 0.000536 0.060707 0.046550 0.273840 -0.387080 -0.320524 -0.089409 0.088343 -0.014029 -0.163514 -0.413480 -0.092998 -0.112076 0.086002 -0.047997 0.106490 -0.179993 0.009606 -0.041883 0.216573 0.083118 0.073583 -0.113708 -0.137648 -0.047761 0.081602 0.081339 0.051368 0.013353 -0.107779 -0.161504 -0.246705 -0.101049 0.188846 0.106550 -0.050004 -0.009151 -0.313133 -0.164483 0.032741 0.120267 0.111346 -0.115274 -0.120108 -0.214633 -0.037230 -0.060915 -0.064409 0.298561 -0.045490 -0.005984 0.059880 0.327233 -0.131504 0.333712 -0.023135 -0.107386 0.075068 0.154915 -0.187896 -0.054333 0.060709 -0.254787 -0.245641 0.027713 0.236635
款 -0.054098 0.049454 -0.065317 -0.048161 -0.047971 -0.111827 -0.227687 -0.002842 0.055223 -0.122021 -0.086261 -0.023068 -0.217513 0.061553 -0.126236 -0.060879 -0.082505 0.057615 0.007609 0.420158 -0.075707 0.166821 0.215518 -0.041679 -0.064946 0.341440 0.232897 0.169211 0.133347 -0.038868 0.299442 0.039984 -0.004451 -0.071422 0.061276 -0.037173 -0.151438 -0.126260 0.048430 0.389758 -0.075362 0.246352 -0.271910 0.182116 0.065789 -0.039169 0.144433 0.256464 -0.115290 0.089499 -0.000243 -0.054717 -0.099321 -0.129321 -0.539516 -0.109460 -0.488788 -0.037434 -0.146367 -0.231610 -0.048902 -0.344734 0.062766 -0.123054 -0.209542 0.508111 -0.217661 0.052961 -0.097014 -0.289882 -0.089980 -0.447286 -0.260291 -0.119353 0.120331 -0.121415 0.086904 -0.268776 0.010120 0.089629 0.088859 -0.023304 0.150258 -0.039748 -0.021154 -0.123286 0.117765 0.089961 0.115014 -0.161375 -0.159945 0.004877 -0.310903 0.146015 -0.234955 0.143717 0.029525 0.328004 -0.289618 0.109223 -0.203529 -0.043601 0.105412 0.030844 0.226638 0.303857 0.018060 0.056775 0.012692 -0.082064 -0.189230 -0.012557 -0.018365 -0.109702 0.211097 -0.142301 0.320273 0.046870 -0.133997 0.113897 -0.065639 0.229701 0.034705 0.218101 -0.093783 0.328908 -0.004487 0.014807
的 -0.173633 0.278217 -0.061625 -0.073305 0.047877 -0.083426 0.032067 -0.024433 0.057334 -0.387132 -0.121344 0.013239 -0.029930 0.103838 -0.161238 -0.321961 0.131480 -0.032189 0.124608 0.091930 0.184970 0.081898 -0.071846 0.135149 -0.180008 0.039430 0.312837 0.011418 -0.140777 0.235287 -0.044217 -0.137982 0.153497 0.109731 -0.058200 0.051646 0.112074 -0.008006 0.108017 0.014264 -0.184865 0.031018 -0.254289 -0.148170 -0.147085 -0.181698 0.011807 0.280086 -0.065216 0.048808 -0.147691 0.031781 -0.113367 -0.164848 -0.073581 0.121198 -0.220970 -0.217657 -0.119064 -0.004063 -0.002527 -0.122082 0.092061 -0.091708 0.057031 0.188627 -0.117020 0.150764 0.049426 -0.060431 -0.089761 -0.058879 -0.001576 0.133463 -0.033223 0.011253 0.060451 -0.045961 -0.163226 -0.027999 -0.077640 -0.166271 -0.058034 0.146296 -0.057946 -0.085587 0.298035 0.082200 0.206989 0.015002 0.218373 -0.172268 -0.034842 -0.128700 -0.029847 0.095053 0.161757 -0.007759 -0.049041 -0.001512 0.068285 -0.113849 0.299889 -0.094044 -0.031747 0.145484 0.307889 -0.123874 0.232904 0.209743 -0.019000 0.046695 0.212811 -0.121508 0.047706 0.227176 0.176514 0.027625 0.061019 -0.032918 0.075137 0.030845 -0.107892 0.101852 -0.238848 -0.151681 -0.004678 0.037764
了 -0.149009 0.124072 -0.264185 0.043786 -0.157271 0.045452 -0.163149 -0.214505 0.017030 -0.414228 0.129458 0.186795 -0.238232 -0.086057 -0.300561 0.001487 -0.141453 0.028481 0.072423 0.017050 0.273851 0.056070 -0.205538 -0.010506 -0.056523 0.115415 0.075858 0.090296 -0.020444 0.092844 -0.073550 0.154505 0.021062 0.321703 0.218549 0.200795 0.006811 -0.153406 0.141647 0.062402 -0.096343 -0.096258 0.045915 0.205584 0.017622 -0.003485 0.035391 -0.030628 -0.231214 0.129591 -0.293804 -0.030242 -0.165766 0.033977 -0.252191 -0.007914 -0.462538 -0.095893 -0.086984 -0.072725 0.008522 -0.019996 0.082245 0.191363 0.128029 0.005366 -0.143499 -0.169550 0.120263 -0.100711 -0.066391 -0.088983 -0.264246 0.123457 -0.000440 -0.078239 -0.120775 0.111269 -0.145601 0.264358 0.144057 -0.049666 0.060034 0.271341 0.062477 -0.091510 0.181456 0.032231 -0.102995 -0.166952 0.018694 -0.236362 0.114015 -0.051331 0.107077 0.271792 -0.005424 -0.154238 -0.096788 -0.152667 0.133374 -0.152716 0.153431 -0.121848 -0.066981 0.122400 0.138488 -0.104268 -0.122625 0.018636 0.026301 -0.116716 0.307141 -0.224997 0.181278 -0.206443 0.195772 0.017963 -0.017757 -0.144675 0.003974 -0.023402 -0.105921 0.019822 0.165805 -0.190293 -0.027004 0.283661
用 -0.366939 0.148510 0.182493 0.169735 -0.175286 0.009344 -0.113265 0.114868 -0.343032 -0.324507 0.179529 0.098739 -0.129525 0.052812 -0.115998 -0.022460 -0.229665 -0.037183 -0.363256 -0.026017 -0.011061 0.079834 -0.036714 -0.015892 -0.017168 0.002544 0.208923 0.488566 -0.049848 0.328344 0.066196 -0.208952 -0.016938 0.170887 -0.376047 -0.093415 -0.202955 0.109979 -0.043703 -0.221271 0.081049 0.122634 -0.332674 -0.082806 0.072316 -0.114790 0.162496 0.233974 0.140309 0.012459 -0.209910 0.295765 0.065620 0.044558 -0.264897 -0.128117 -0.201361 -0.178384 -0.246728 0.006460 -0.006403 -0.245455 -0.138725 -0.159172 0.370208 0.069103 -0.185935 -0.048910 0.147245 -0.062571 -0.241328 -0.056844 -0.256480 0.293183 -0.076854 0.119034 0.104281 -0.005997 -0.140331 0.296478 0.055179 0.028527 0.284552 0.080680 -0.005848 -0.060540 0.002004 0.189861 0.048936 0.087013 0.222891 0.216165 0.266100 0.107545 -0.029813 0.158948 0.104870 0.028471 0.112744 -0.105762 0.091773 0.331295 0.044009 0.068700 -0.079216 0.213784 -0.019468 -0.176856 -0.032988 0.151917 0.112776 0.222632 -0.291845 0.116599 0.164595 -0.315039 -0.133989 0.176105 0.111856 0.015116 -0.238477 -0.243550 0.109595 -0.007332 0.335968 -0.019845 0.181927 0.215435
不 -0.360265 0.430835 -0.083299 -0.011670 0.059809 0.005474 -0.008524 -0.132067 0.121566 -0.255526 0.051881 -0.080633 -0.126263 0.075610 -0.211517 -0.102135 -0.110617 -0.337279 -0.025888 -0.094715 0.452155 -0.024425 0.026279 -0.294002 0.019269 0.099999 -0.087772 0.026219 0.029122 0.179426 0.151990 -0.175880 -0.127334 -0.121079 0.049332 -0.302157 0.211241 -0.027146 0.075812 -0.056196 -0.152172 -0.003537 -0.234114 0.121329 0.228099 0.074163 0.196137 0.328197 0.095202 0.047852 -0.110597 0.337268 -0.097902 0.025728 -0.075263 -0.205758 -0.305207 -0.330454 0.171235 -0.014892 0.270476 0.066627 0.279827 0.098678 0.033962 0.085170 -0.288230 -0.159218 -0.076144 0.387856 -0.112713 -0.154007 -0.155632 0.032698 -0.247018 0.018570 -0.047510 -0.145233 0.058591 -0.162523 -0.307787 -0.015034 0.192649 -0.094346 -0.043478 0.037003 -0.003244 0.200763 0.043551 -0.170978 0.279144 -0.095833 0.221671 0.256914 -0.084125 0.034997 0.139339 0.096936 -0.287157 -0.173686 -0.080567 0.358449 -0.155925 0.136733 0.199598 0.322384 0.047630 -0.231201 0.075139 0.204779 0.232392 0.046584 0.169453 -0.129694 0.081883 -0.456257 0.171391 0.212522 -0.196867 0.026299 0.425726 0.233978 0.269870 -0.031596 -0.166451 0.051696 0.068640 0.117188
怎 -0.103936 0.133878 -0.050070 -0.202140 -0.006455 -0.123755 -0.339913 -0.145847 0.113860 -0.163239 -0.424070 -0.100935 -0.171511 0.252348 0.031070 -0.247490 0.002257 0.213989 0.162758 -0.239898 -0.072927 -0.056447 0.260586 0.386248 0.076520 0.002109 0.218028 0.229021 -0.167440 0.200750 -0.473702 0.190691 0.118963 0.346536 0.079435 0.013082 0.158891 -0.072501 -0.037346 0.037848 -0.302850 0.196425 -0.142502 0.174551 0.014448 0.202794 -0.056852 -0.119581 -0.065838 0.112725 -0.056564 -0.066965 -0.087123 -0.077357 -0.039137 0.080600 -0.225584 -0.083819 -0.261317 -0.159989 0.336779 -0.106707 0.252452 -0.224932 0.124756 0.003545 -0.043475 -0.315315 -0.008410 -0.304316 0.280312 0.252354 0.097941 -0.089014 0.009033 -0.213976 0.082199 0.073072 0.264466 0.103761 0.099346 -0.053149 0.195513 0.390471 -0.251306 0.311036 -0.073810 -0.037337 0.030937 0.244214 -0.118603 -0.130347 -0.021061 0.149795 -0.418001 0.012218 -0.166175 0.150367 0.027864 -0.412656 0.332794 -0.099905 -0.241841 0.456198 0.107213 0.553515 0.134308 0.177720 0.184389 0.409722 0.305899 -0.006100 0.353611 -0.180564 0.110517 -0.570302 0.339973 0.039212 -0.071368 -0.361685 0.198495 0.174465 -0.461331 0.138398 0.091909 0.187113 0.015189 0.234348
吗 -0.150852 0.144829 0.190589 0.092648 0.026297 -0.257788 -0.188862 -0.291271 -0.227428 -0.237723 -0.035835 -0.080025 -0.120968 0.031349 -0.028663 -0.024605 -0.116081 -0.133603 -0.121815 0.123398 0.040992 -0.257106 0.265044 -0.136380 0.098021 0.007371 0.196892 0.256313 -0.353752 0.429852 0.200639 0.170754 -0.088728 0.148323 0.110662 0.109008 -0.324890 -0.249351 -0.168888 -0.113154 -0.283787 -0.010164 -0.386638 0.156296 -0.091365 -0.024590 0.058759 0.347718 0.278545 0.285679 0.234795 -0.160813 0.209811 0.005395 -0.100175 -0.380670 0.235983 -0.216298 0.103405 0.177707 -0.055868 -0.251724 0.260454 -0.074576 0.098509 -0.103023 0.066097 0.091722 0.063017 -0.005438 -0.160150 0.025074 -0.000944 -0.370792 0.239951 -0.079350 -0.318570 -0.018854 0.292878 -0.125019 0.073095 -0.180426 -0.075342 -0.088458 0.250836 -0.225037 -0.258923 -0.043211 0.137299 -0.202430 0.490595 0.189627 -0.202873 0.328664 -0.312081 0.063726 -0.222695 0.163964 -0.187798 -0.126247 -0.162912 -0.172144 0.216156 0.375824 0.248410 0.241243 -0.300883 0.042846 -0.239373 0.623657 0.496133 0.062580 0.104406 -0.201085 -0.044637 -0.325192 0.327342 0.314382 -0.016921 0.129201 -0.291986 0.006058 -0.023669 -0.172619 -0.074294 0.073805 0.186178 0.294633
什 -0.234181 0.012892 0.032544 -0.367914 0.036628 -0.169000 -0.474640 0.020123 -0.318090 -0.214030 -0.298296 -0.263622 0.022531 -0.015731 -0.181103 -0.118241 0.250210 0.496962 -0.289745 -0.216562 0.403810 0.072530 0.088114 0.474095 0.108709 0.058667 0.094331 0.311915 -0.304669 -0.222268 -0.113165 -0.269115 0.195641 0.101739 0.164073 0.001377 0.224998 -0.136146 0.218135 0.108451 -0.236051 0.081926 -0.352196 -0.076878 0.029670 -0.031245 0.068207 0.101924 -0.180990 -0.049237 -0.028943 0.207067 -0.140140 0.112808 0.057983 -0.032365 0.166689 -0.271406 0.055246 -0.265760 0.118608 -0.209016 0.058096 -0.121640 0.444681 0.428342 -0.075327 -0.259839 -0.002641 -0.191736 0.438413 0.062367 -0.135545 -0.066741 -0.144596 -0.199414 -0.144245 -0.058028 -0.110586 0.312445 -0.235330 0.058401 0.083385 -0.042293 -0.264281 0.024274 0.301712 -0.047970 -0.116940 -0.073484 0.115797 -0.433531 0.254236 0.066788 -0.217477 0.077342 0.019515 0.280246 -0.437341 -0.336362 -0.220634 -0.003100 0.271432 -0.069740 0.593916 0.124799 -0.357078 -0.071624 -0.213057 0.211419 0.252077 0.070818 0.108498 0.019113 0.132468 0.143520 0.118167 -0.018913 -0.178616 -0.260434 0.102459 -0.258614 -0.407193 -0.119766 -0.179897 0.108672 -0.024201 0.486696
期 -0.099438 0.286172 0.137040 -0.011309 -0.018802 0.112227 -0.256618 0.025287 -0.114953 -0.093054 -0.039587 0.088214 0.186818 0.199266 -0.039691 -0.055218 -0.251704 -0.056068 0.204739 0.232579 0.344554 0.281773 -0.047763 0.135186 -0.294452 0.036599 -0.179863 0.303642 -0.015400 0.201549 0.123825 0.257990 -0.059134 -0.018104 0.383669 -0.189121 0.129880 0.116306 0.200298 -0.095071 -0.370344 0.060892 -0.188056 0.057409 0.172302 0.165844 0.411008 0.421274 0.099504 0.048545 -0.036175 -0.197361 -0.232162 0.418217 -0.669871 -0.050816 -0.194849 0.128076 -0.328375 -0.151591 -0.071389 -0.578668 0.478157 -0.127525 -0.090718 0.300860 0.058505 -0.001556 0.151133 0.077079 -0.159685 -0.188163 0.078771 0.010318 -0.190642 -0.161204 -0.317365 0.148226 0.120499 -0.298697 0.537398 0.205290 0.020417 0.107916 -0.070684 -0.109761 -0.250379 0.029863 0.216104 0.369567 0.113969 0.355014 -0.352896 -0.027067 -0.013682 0.148806 0.128890 0.347756 0.165168 -0.234550 -0.264706 0.096101 0.129671 -0.381175 -0.035579 0.242114 0.199631 -0.137767 -0.068497 -0.228755 -0.120240 -0.309211 0.126555 -0.181941 0.082794 -0.123144 0.034013 0.233964 -0.261105 0.020232 -0.559390 -0.027363 0.145698 -0.143244 0.147521 -0.171211 0.101802 0.122025
是 0.205692 0.108751 -0.014421 0.086459 -0.069616 0.307485 -0.188795 -0.191594 0.152718 -0.583248 0.076186 -0.008718 0.159729 0.217164 0.069087 -0.139736 0.051320 -0.096821 -0.132388 -0.017201 -0.065460 -0.102934 -0.303540 0.099922 0.122932 0.136729 0.280889 0.426005 0.036555 0.026299 -0.340306 -0.077722 0.305216 0.173150 -0.081026 0.008919 0.068003 -0.269245 -0.094513 -0.040157 -0.212463 -0.128792 -0.125229 -0.206310 0.146585 -0.124604 -0.042580 0.186844 -0.245917 0.012299 -0.015905 0.007936 -0.113788 -0.120547 -0.292376 0.000232 0.006903 -0.004416 -0.021855 -0.013057 0.122076 -0.167578 0.052085 -0.352887 -0.011339 0.262395 -0.234191 -0.159267 0.070578 0.028911 -0.023939 -0.154092 -0.175113 -0.102545 0.076558 -0.146314 -0.224435 0.096480 -0.029790 -0.029228 0.178382 -0.099106 -0.270651 -0.080079 0.110002 -0.155142 0.157184 0.002410 -0.006703 0.076568 0.169082 0.026748 -0.184176 -0.087280 0.106020 0.071947 -0.017861 0.036845 -0.280164 -0.143530 -0.233079 0.021694 0.048871 -0.050874 -0.180232 0.215061 -0.026439 -0.061597 -0.150412 -0.235616 0.145174 -0.009659 0.073355 -0.151257 0.291179 0.133568 0.155619 -0.152045 0.035654 0.195983 0.098952 -0.046703 0.067372 0.267931 -0.092157 0.166096 -0.099452 0.090751
额 -0.198511 0.062564 0.135372 -0.270062 -0.247609 0.030284 0.006155 0.158171 -0.097929 -0.468165 0.021586 -0.218543 -0.104684 0.262137 0.328038 -0.285189 -0.069849 0.090679 0.214810 0.173754 0.230724 -0.060876 -0.086552 0.004246 -0.197742 0.147303 0.155263 0.213780 0.141823 0.325284 0.372218 0.418325 0.507025 0.377779 -0.027410 0.029605 0.161786 0.035403 -0.068313 0.224334 -0.144166 -0.126036 -0.215451 -0.107800 0.133684 -0.222154 -0.139997 0.367449 -0.073170 -0.287836 0.005671 0.173263 -0.180153 -0.135596 -0.419774 -0.092576 0.146119 0.061350 -0.143980 -0.091958 0.142811 -0.094867 -0.043953 -0.002603 -0.367896 0.083543 -0.367794 -0.087828 0.186026 -0.012853 0.212684 0.012086 0.083387 0.109895 -0.229498 0.180404 -0.066873 -0.518416 0.127404 -0.004208 -0.271416 -0.384021 0.228526 -0.131294 0.229395 -0.430760 -0.271849 -0.069528 0.116964 0.282838 -0.087390 0.195894 0.324266 0.017082 -0.191479 0.248841 -0.075687 -0.111082 0.150528 -0.243327 0.048859 -0.491264 0.112033 0.047224 -0.144444 -0.083642 -0.002016 0.447176 0.195277 -0.279718 -0.091705 -0.276365 0.350654 0.174357 0.145386 -0.275597 0.155118 0.245937 -0.420514 -0.476203 0.196823 -0.527369 -0.135558 -0.214092 -0.198681 -0.007571 0.098438 0.162795
能 -0.097550 0.527877 0.093305 -0.167550 -0.155544 0.128645 -0.242423 -0.329458 0.187032 -0.088767 0.124796 -0.043696 -0.055088 0.120789 -0.419836 0.053210 0.023424 -0.238449 -0.131478 -0.045614 0.362658 -0.119475 0.099210 0.000829 -0.047332 -0.000409 0.185754 0.116672 -0.201375 0.235149 -0.211570 -0.062629 0.016005 0.582935 -0.039295 -0.046404 0.052034 0.002177 0.439030 0.162302 -0.016647 -0.061939 -0.061491 0.130320 -0.067093 -0.013226 -0.157578 -0.038279 0.004336 0.139477 -0.251803 0.095780 -0.362795 0.273071 -0.327384 0.178618 -0.098999 0.031439 -0.110823 -0.242556 -0.024912 -0.202058 0.243842 0.089975 -0.150757 0.244222 -0.319348 0.209037 0.267136 -0.181867 0.182504 -0.370265 0.095145 -0.067308 -0.313753 0.231001 0.031977 0.052842 -0.186687 -0.249922 0.155764 0.176733 0.381492 0.181549 0.192702 -0.251185 -0.013195 -0.157287 -0.014696 -0.190314 -0.042189 0.090460 0.317051 0.093614 -0.182943 0.061059 -0.046448 0.090911 -0.043312 0.228856 -0.165361 0.157295 0.002466 0.285782 0.172876 -0.035069 -0.219196 -0.027111 0.046613 0.139910 0.157527 0.301733 0.003797 0.140143 -0.074673 -0.318315 0.058372 -0.123694 -0.091655 0.047093 -0.126226 -0.222177 -0.203644 0.362399 0.263404 -0.215562 0.208826 0.117288
可 0.186591 0.306202 0.142185 0.079276 0.230045 -0.097214 0.084399 -0.153709 0.168644 -0.042805 0.030811 0.249268 0.023759 0.255489 0.026975 -0.031959 0.226271 -0.139296 -0.559988 0.215440 -0.170648 0.090422 0.020722 -0.144171 0.118709 -0.065107 0.153256 0.492413 -0.229401 0.584606 -0.104204 0.191387 0.115912 0.421946 -0.132330 0.213331 -0.168049 -0.018550 0.296251 0.023370 0.286718 -0.032148 -0.304161 -0.049136 -0.296589 -0.194625 0.104560 -0.130868 0.139010 0.548761 -0.234259 -0.116243 -0.201600 -0.065358 -0.276830 -0.024691 0.068088 -0.036931 -0.037810 -0.362167 -0.159504 -0.245079 0.388638 0.049247 0.030761 0.131308 -0.249610 0.083800 0.325202 -0.307837 -0.037054 -0.306613 0.490174 -0.154814 -0.285639 -0.000142 -0.174004 0.065906 -0.100110 0.049303 0.016862 -0.065760 -0.100870 0.125247 0.127948 -0.447200 -0.067539 -0.202861 0.024803 -0.038830 -0.140646 -0.033352 -0.091364 0.074358 -0.315284 0.164734 0.215620 -0.160612 -0.040509 0.259189 0.019188 -0.047060 -0.010831 0.167178 0.153980 -0.251790 0.013407 -0.104598 -0.111554 0.106397 0.051822 0.126459 0.041641 0.001678 -0.086594 -0.422754 0.090355 0.414654 -0.089602 0.341104 -0.058265 -0.166672 0.007278 0.134124 -0.048497 -0.091980 0.052249 0.286024
以 -0.218436 0.087054 -0.127711 0.092613 -0.044644 0.078373 -0.581791 -0.247909 0.166827 -0.426918 -0.232957 -0.002078 -0.125067 0.059835 -0.112545 0.220439 0.023046 -0.148371 -0.294460 0.107371 0.315471 -0.121075 0.093505 0.028144 0.239288 0.133153 0.284965 0.153372 -0.200949 0.240213 0.079102 0.125203 -0.022530 0.186166 0.001383 0.077189 -0.158276 0.077920 0.199556 0.045494 -0.209271 0.222123 -0.278593 0.071894 -0.252834 0.084314 0.000039 -0.118172 0.366544 0.390491 0.165644 0.092258 -0.057971 -0.138321 -0.517170 -0.060373 0.017367 -0.074210 -0.105268 0.321023 -0.119506 -0.441192 -0.108113 -0.090094 0.072780 0.109774 0.199015 0.098414 0.186739 -0.144143 -0.013290 -0.467256 0.488730 0.134163 -0.075726 0.098461 -0.023862 -0.063851 -0.078447 -0.305082 -0.142472 0.207604 0.296172 0.147321 0.168778 -0.245043 -0.222673 -0.020894 0.029725 0.188911 0.107966 0.141415 0.152734 -0.023801 -0.173945 0.325738 0.000059 -0.334761 -0.377753 0.338566 -0.208128 -0.264652 -0.140628 0.107226 -0.071790 0.046453 -0.095765 -0.256565 0.049840 0.215202 0.306392 0.389929 0.254190 0.001177 -0.208013 -0.122389 0.062914 0.284109 0.019746 0.292859 0.094517 -0.128205 0.201543 0.153951 0.107974 -0.085435 0.026076 0.290489
有 -0.238720 0.033663 -0.098702 0.259657 0.036508 0.068744 -0.117898 0.322604 0.159840 -0.485722 0.024486 -0.248509 -0.247071 0.164881 0.213487 -0.121623 0.069504 -0.009640 -0.038577 -0.460702 0.065038 0.094467 0.112678 -0.051969 0.110403 -0.126124 0.306823 -0.092843 0.162806 0.135448 -0.048148 0.214839 -0.015026 0.286850 -0.098424 -0.035706 0.244303 0.005219 0.174610 0.064707 -0.128642 -0.062248 -0.319353 0.092203 0.008354 -0.179270 0.206515 0.339944 0.053486 0.125996 -0.008977 -0.190517 0.064279 0.200717 -0.244002 -0.075143 -0.182601 -0.410109 0.139870 -0.170928 -0.226105 -0.291739 0.184223 -0.101177 0.018363 0.079581 -0.245402 0.145465 0.161636 -0.089637 0.272309 0.012307 -0.169538 -0.202446 0.289014 0.125307 -0.148173 0.018357 0.047627 0.098800 0.009761 0.068528 -0.090058 0.213613 0.098584 0.086027 0.016748 0.381507 0.355739 0.015186 0.021614 0.015176 0.211466 -0.205676 -0.130474 0.037882 -0.213145 0.190418 -0.119292 -0.139997 -0.152960 0.100597 0.444322 -0.479018 -0.282476 0.193759 0.085231 0.127758 0.262854 -0.088053 0.165239 0.026086 0.141560 -0.027967 0.019463 0.151725 0.232558 0.092503 0.053676 -0.030503 -0.090899 -0.342991 -0.050635 -0.155401 -0.165221 0.451981 -0.138860 0.086321
为 0.106627 -0.018371 -0.095248 -0.115146 -0.245055 0.147241 -0.218310 0.128246 -0.255896 -0.433071 -0.306431 -0.003808 -0.152256 0.233868 -0.472645 -0.023985 -0.102587 0.199815 0.090916 -0.126722 0.592512 -0.333858 0.132948 -0.332256 -0.382004 0.020577 0.112725 -0.007681 0.253713 -0.084436 0.085093 0.053877 0.218193 0.335871 0.096843 -0.169308 0.002221 -0.060906 -0.159647 -0.024996 0.020207 -0.221882 -0.165920 0.016076 -0.287993 -0.042664 -0.280560 -0.047408 0.012204 0.013216 -0.153524 -0.137638 -0.142031 0.072847 0.175618 0.314745 -0.091785 0.035043 0.006659 -0.310203 0.214802 -0.120153 0.210205 -0.235064 -0.121523 0.412581 -0.379023 -0.393522 -0.045030 0.002591 0.085379 -0.050656 -0.137828 -0.020156 -0.267297 -0.190237 0.048726 0.168659 0.174088 -0.020122 -0.029046 -0.217910 0.062091 0.330474 0.002193 0.264301 0.030230 0.105043 0.216373 -0.040895 0.066825 -0.166669 0.045444 0.170748 -0.105702 0.140444 -0.033348 0.099035 -0.363699 -0.180751 0.318439 0.349066 -0.033800 0.046351 -0.408195 0.113569 -0.048293 -0.056199 0.192017 0.654662 0.358236 0.038628 -0.018014 0.192847 0.216167 -0.139781 -0.068690 0.115075 -0.174957 -0.020103 -0.259801 0.225522 -0.236562 0.244669 0.059655 0.474403 -0.133042 0.282180
付 -0.479055 -0.121246 0.025529 0.396595 -0.264473 0.139955 -0.279802 -0.112709 -0.033640 -0.052404 -0.243053 -0.217601 0.012763 0.104614 0.006705 0.267868 0.042379 -0.140800 -0.064435 -0.334397 -0.038376 0.022700 -0.021233 0.020321 0.206887 -0.109524 -0.020245 0.422678 -0.211267 0.336169 0.153338 0.128756 0.193586 0.214887 -0.340088 -0.099685 0.288005 -0.247452 -0.088445 -0.029468 -0.098018 0.125539 -0.389947 0.059384 -0.027754 -0.279642 -0.210264 0.058126 0.270492 -0.174659 -0.232815 0.106957 -0.195157 -0.210061 0.028773 -0.163242 -0.256992 -0.310739 0.023937 -0.310865 -0.146943 0.130389 0.126161 -0.011828 -0.047843 0.393988 -0.415585 0.341929 -0.112223 0.020113 -0.414514 0.014161 -0.183568 0.396357 -0.094181 0.204098 0.172198 0.068705 0.113915 0.034789 -0.082789 0.062371 -0.182156 0.086709 0.133039 0.033721 0.000093 -0.254668 -0.136236 0.039044 -0.169842 -0.023713 0.080040 0.061434 -0.167875 0.175456 0.011989 -0.088179 -0.266814 0.034727 -0.049496 0.081718 0.236837 -0.121057 -0.168160 0.070622 -0.121240 0.027906 -0.387150 0.373869 0.084963 -0.010818 0.172163 -0.201162 -0.050771 -0.110501 0.112300 -0.067110 0.092758 0.136568 -0.017397 0.118522 0.026006 0.122350 -0.097110 -0.054400 0.146788 0.235277
蚂 -0.158265 -0.187704 0.005706 -0.272452 0.000681 -0.236095 0.212760 -0.409560 0.008961 -0.307563 0.147209 -0.063559 0.135237 0.327834 -0.384214 -0.145284 -0.058519 0.163198 0.224420 0.260777 0.262708 -0.091343 0.039121 -0.079961 -0.069789 -0.338764 0.007471 0.077359 0.128528 0.055241 -0.056297 0.166433 -0.327046 0.068709 -0.005728 0.086942 -0.179516 0.073648 0.198496 -0.156359 -0.331033 -0.096573 -0.438158 0.109241 -0.109116 -0.016387 -0.068256 0.051482 -0.050935 -0.045182 0.154063 -0.275514 -0.130371 0.052280 -0.519322 0.229511 -0.188293 -0.008995 0.024288 0.033655 0.018152 -0.350787 0.282131 -0.160598 -0.118933 -0.116781 -0.312759 -0.483531 0.059051 0.071189 0.421785 -0.390576 0.072210 0.115305 -0.070157 -0.220787 0.083960 -0.042477 -0.436476 0.164346 0.116870 0.143081 -0.160135 0.346492 -0.013371 0.233094 -0.354937 0.389120 -0.071945 -0.038993 -0.195636 0.121262 0.072286 0.139770 -0.177906 0.015182 0.164001 -0.097690 -0.238486 0.210045 -0.148926 -0.089805 0.055466 -0.076802 0.133930 0.193643 -0.137997 0.112440 -0.284003 -0.128068 -0.202317 -0.028403 0.191559 -0.023055 -0.126632 -0.154504 0.337370 0.153890 -0.238656 -0.021111 0.019057 -0.136789 -0.208131 -0.284384 -0.316484 -0.116713 -0.256243 0.052079
蚁 0.029280 -0.315889 -0.136331 -0.242975 -0.227342 -0.088860 -0.262330 0.137552 -0.120199 -0.300643 0.074412 -0.072441 0.010447 0.401563 -0.503373 -0.291277 0.255745 0.005647 0.135222 0.398285 0.205306 -0.018252 0.292626 -0.314890 0.110237 0.018970 -0.009210 0.301038 0.100481 0.156687 0.058338 0.375023 -0.075376 0.068124 0.053834 0.184890 0.202928 0.239373 0.263224 0.032126 -0.119626 -0.012009 0.040199 -0.164088 -0.225937 0.045863 0.240491 0.183405 0.215368 0.035044 0.263100 -0.359688 -0.323971 -0.165342 -0.087583 0.099353 -0.269437 -0.052107 -0.052261 -0.174132 -0.006203 -0.509198 0.154566 -0.021933 -0.018333 -0.018248 0.097810 -0.039310 -0.095530 -0.156308 0.122222 -0.310489 0.064738 -0.141075 -0.057144 -0.156485 -0.018071 0.279325 -0.134648 -0.090127 -0.133954 -0.115813 0.443439 -0.097204 0.173336 0.090234 0.033068 0.185734 0.154495 -0.130436 0.400831 -0.222339 0.078589 0.031183 0.068013 -0.191960 0.052005 -0.233159 -0.032920 -0.312452 -0.383676 0.217514 -0.098024 -0.002592 0.063350 0.154351 0.028539 0.057181 0.161838 -0.139728 -0.247543 -0.185639 0.242323 0.180867 0.256198 -0.276169 0.328725 0.004865 0.046850 -0.031683 -0.156566 -0.173029 -0.153269 -0.069298 -0.003910 -0.056207 0.015398 0.208220
分 -0.316300 0.275466 0.241849 0.128521 -0.053682 -0.265354 -0.237489 0.161320 -0.106603 -0.429597 0.088288 -0.184658 -0.044933 0.338422 -0.168496 0.008462 0.070815 0.098945 0.007553 -0.023498 0.097856 0.055726 0.206338 0.300823 0.035370 0.074339 0.448791 0.059064 -0.159499 0.172472 0.294345 -0.043731 -0.237335 0.108420 0.053430 -0.220228 0.290142 -0.040638 0.010364 -0.426245 -0.308473 -0.160811 -0.002340 -0.089887 0.067780 0.148795 0.147329 0.558609 -0.038884 -0.262611 0.282824 -0.236911 -0.200721 0.494737 -0.390580 0.082480 -0.115198 0.033698 -0.269445 -0.513453 -0.229784 -0.259862 0.276012 0.356901 0.204559 0.070171 0.138774 -0.284717 -0.170993 -0.465414 0.011448 -0.254825 0.130644 -0.183462 -0.307236 0.095048 0.368108 0.109015 0.068411 -0.037505 0.423486 -0.100239 0.230725 -0.251690 -0.107439 -0.502842 -0.048787 0.044490 0.272059 0.053939 0.150011 0.419822 -0.107170 0.084232 -0.098417 0.498297 0.146975 -0.307860 0.222867 0.109212 0.154896 -0.141269 -0.127732 -0.103550 -0.328643 0.108266 -0.036526 -0.596304 -0.215938 0.040452 -0.233552 -0.228245 0.107740 0.126833 -0.028061 -0.053401 -0.121961 0.194522 -0.395192 0.139235 -0.069498 0.111597 0.173882 -0.218688 -0.220560 -0.122989 0.086698 0.167783
度 -0.194215 -0.058234 -0.228614 0.006170 -0.235886 0.010706 -0.226133 0.420881 -0.280235 -0.526773 -0.166730 -0.607843 -0.246545 -0.191717 -0.063005 -0.050085 0.211382 0.027428 0.298241 0.180172 0.281566 0.197748 -0.402645 0.011019 -0.096454 -0.144180 0.206362 0.101518 0.278012 0.053472 0.216006 -0.236429 0.187550 0.059751 -0.009803 0.418334 0.190283 0.428024 0.176570 -0.087965 -0.200481 -0.242685 -0.091915 -0.125706 0.096894 -0.036516 -0.113681 0.432888 -0.113633 -0.290143 -0.218006 0.268780 0.239781 0.366459 -0.610626 -0.198575 -0.229491 0.166856 -0.051179 -0.413172 0.185201 0.179595 -0.051645 0.041981 -0.230681 0.094190 -0.373700 -0.153448 -0.120278 -0.192418 0.253086 0.222255 0.648413 -0.126473 -0.353086 -0.349922 -0.147584 0.031117 -0.117026 -0.065352 0.055421 -0.567680 0.173949 0.149506 0.167603 -0.545915 -0.164814 0.334612 0.116174 0.140456 -0.283941 0.143645 0.040443 0.067213 -0.075453 -0.176080 0.056350 -0.237157 0.144170 0.159238 -0.275566 -0.063662 0.216913 0.388955 -0.097192 0.056767 -0.346682 0.010751 0.038856 -0.319412 -0.254341 0.166773 0.521318 -0.035348 0.306116 -0.422783 -0.193189 0.036458 -0.095643 -0.059828 -0.032100 -0.205368 -0.150057 -0.445657 0.138964 -0.056139 -0.071106 0.196353
开 -0.572165 -0.242436 0.110487 0.054217 -0.051889 -0.120667 -0.488004 0.201177 -0.021942 -0.062094 0.586333 -0.134649 0.062161 0.352101 -0.118206 -0.286710 0.018608 -0.342063 0.067037 0.040996 0.413143 -0.270764 0.168356 0.203926 -0.023958 0.018913 0.049975 0.203737 0.417008 -0.465494 0.017496 -0.226633 0.307834 0.271344 -0.118246 0.096779 0.272340 0.252686 -0.051304 0.125460 -0.299451 0.015383 -0.373646 -0.032101 -0.117548 -0.320005 -0.150458 -0.011472 -0.065276 -0.159440 -0.436136 0.094023 0.039999 -0.122713 0.045151 0.032965 -0.170872 0.110191 -0.101256 -0.232877 -0.167830 0.027278 0.357278 -0.284290 0.247380 -0.051729 -0.086084 -0.150348 0.234835 -0.204897 -0.301587 -0.339089 -0.011377 0.372589 -0.161684 -0.069709 0.049812 -0.169791 0.076069 0.254891 -0.116985 0.225229 -0.028838 -0.264461 -0.004442 0.125109 -0.228681 0.198071 -0.196215 0.067569 -0.056324 -0.127114 -0.118697 -0.097893 0.069685 0.224220 0.112187 -0.143611 0.132802 0.134092 -0.027178 0.270051 0.378070 -0.087756 0.259361 0.020131 -0.070707 -0.292363 -0.329682 0.241810 0.025661 0.170611 0.266340 0.468985 0.108681 -0.454598 0.572525 -0.652736 0.247921 0.369945 0.121662 -0.227620 0.058675 -0.040567 -0.066855 0.206676 -0.014225 0.171202
没 -0.167073 0.168812 -0.429970 0.174086 -0.089803 -0.079629 0.060721 0.297614 0.006907 -0.341262 0.064728 -0.056182 -0.151999 -0.095567 -0.094937 -0.187576 -0.029077 -0.196632 -0.047136 0.019717 0.398370 -0.383422 0.065666 0.092626 -0.233410 0.274172 -0.267681 -0.066161 -0.031363 -0.224744 0.148894 0.426709 0.381520 0.299453 -0.306091 -0.268234 -0.042614 -0.052696 0.351472 0.049751 0.161923 0.055286 -0.144842 -0.109411 0.127246 -0.052014 0.197152 0.099821 -0.093031 -0.148042 0.041162 -0.180350 0.317713 0.066130 -0.305451 0.195588 0.050803 -0.263064 0.264070 -0.127256 0.104205 0.081496 0.445807 0.160920 -0.150489 -0.019048 -0.317912 -0.125512 -0.145805 -0.475237 0.102057 0.058966 -0.245297 0.133287 -0.019695 0.034785 -0.228254 0.213396 -0.263568 0.230840 -0.218615 0.032600 0.039250 0.557722 0.166416 -0.204963 0.061935 0.265148 0.154929 -0.075528 0.198060 -0.258847 -0.149956 0.141045 -0.280684 0.276646 0.065197 0.167928 -0.366630 -0.391994 -0.150121 -0.062809 0.106644 -0.221288 0.101336 0.170867 -0.084689 0.040636 0.153644 -0.090297 -0.021960 0.193971 0.315270 -0.380815 -0.046798 -0.295211 0.103993 0.164705 0.113441 0.110182 0.422269 0.255457 0.071834 -0.223699 -0.175062 0.110212 -0.178109 0.041284
钱 -0.143418 -0.024376 -0.202756 -0.049741 0.082646 -0.016061 -0.308136 0.213702 -0.205497 -0.349345 0.176656 0.092691 -0.072256 -0.101737 -0.300495 0.113239 -0.227870 -0.009266 -0.176717 0.121771 -0.336603 0.070691 0.423746 -0.255397 -0.062122 -0.088903 0.276773 0.176585 0.211490 0.075308 -0.011675 0.053134 0.270078 0.351398 0.235698 0.039928 -0.129481 0.070725 0.179450 0.545219 0.059255 0.376760 -0.261281 -0.099861 -0.014416 -0.051035 -0.060006 0.217788 -0.137246 -0.020249 -0.178190 -0.029504 -0.066611 -0.204200 -0.404171 0.134911 -0.241007 -0.024693 -0.208753 0.375931 0.222382 0.054129 0.137062 -0.232128 -0.295890 0.318425 0.032007 -0.219873 -0.002418 -0.087270 -0.268330 -0.086070 -0.062543 -0.044589 -0.122136 -0.114873 -0.183787 -0.103265 -0.239967 0.152945 0.323708 -0.021271 0.053500 0.066596 0.014715 -0.264180 0.134818 0.280734 -0.123143 -0.111877 -0.193457 -0.083764 0.074796 0.072374 -0.416243 0.007229 0.051162 -0.084667 -0.132980 0.114443 -0.144526 0.147582 0.282212 0.283170 -0.165218 0.043498 -0.255092 0.223986 0.121597 -0.040243 0.076879 -0.325655 0.236349 -0.113228 0.334831 -0.048551 0.071759 0.088832 -0.420184 0.183988 0.300738 0.091790 0.086540 -0.023545 -0.233907 0.248673 0.103571 0.128825
支 -0.234270 -0.033166 0.285544 0.314175 -0.047193 0.170696 0.246263 0.159368 -0.307163 -0.152472 -0.114076 -0.105168 0.293524 0.153897 -0.039776 -0.001091 0.297840 -0.015290 -0.277636 -0.395968 -0.088191 -0.059406 0.533385 -0.037906 0.071895 0.218621 0.224455 0.393205 0.313625 0.369839 0.142815 0.247011 0.198790 -0.138726 -0.235206 0.259122 0.412800 -0.038037 0.072498 0.053733 -0.033945 0.157344 -0.236697 0.110421 0.147005 -0.016554 -0.113732 0.218364 -0.028151 -0.194624 -0.111211 -0.295362 -0.280629 -0.506136 -0.167979 -0.247755 -0.454960 0.016988 -0.082148 0.092526 -0.051281 0.068908 0.014606 -0.177904 -0.038021 0.305739 -0.386116 0.139424 -0.007584 -0.009632 -0.329971 -0.266822 -0.031609 0.602790 -0.039637 0.119553 0.216259 0.015951 -0.065584 -0.174247 -0.110317 -0.128141 0.311707 0.342526 0.236385 -0.273456 0.225610 -0.169060 -0.206848 -0.209307 0.333177 0.048093 0.119263 -0.223504 -0.371866 0.220927 0.191314 0.048940 -0.316979 -0.203266 -0.239987 0.280585 0.046184 0.118761 0.161843 0.270102 0.138356 -0.092586 -0.155330 0.178204 -0.038017 0.032163 0.173559 -0.072746 0.119808 -0.118311 -0.222617 -0.184450 0.326114 0.009225 -0.167831 -0.075315 -0.181487 0.030424 -0.052495 -0.168064 -0.175075 0.344928
通 -0.389118 -0.149365 -0.081289 -0.034668 0.252632 -0.313145 -0.249002 0.363310 0.036345 -0.203953 0.156963 0.114386 0.055645 0.178488 -0.088489 0.063193 0.316005 -0.336807 0.024862 -0.186440 0.206518 -0.440542 0.179174 0.108813 0.098656 0.162074 0.167431 0.249384 0.275848 -0.247469 0.009321 -0.287994 0.490989 0.039485 -0.234252 0.158728 0.171496 0.009909 0.273574 -0.095045 -0.131815 0.342534 -0.443596 -0.073664 -0.005978 -0.119220 0.305343 -0.319386 -0.391032 -0.293469 -0.049261 0.311149 -0.103830 0.156469 -0.099600 0.193094 0.091034 0.100454 0.101771 -0.340775 -0.040088 -0.112617 0.011468 -0.156506 0.332987 0.237511 -0.398878 -0.042204 0.495526 0.121719 -0.175412 0.028691 -0.050639 0.425267 0.066371 0.221885 0.204775 0.119302 -0.281184 0.106651 0.077922 0.169176 0.016890 -0.465132 0.169417 0.223626 -0.382771 0.629376 -0.249062 -0.048739 0.102691 0.206651 0.213965 -0.219875 -0.115353 -0.121232 0.311853 -0.131998 0.150148 -0.482396 0.314812 0.408670 0.045977 0.231670 -0.013799 0.367974 -0.157494 0.078025 0.029412 0.084486 -0.219200 0.051516 0.284348 -0.235769 0.366541 -0.225294 0.329478 -0.085484 0.153182 0.297486 -0.429551 -0.164393 -0.014520 0.382418 -0.332017 -0.148612 0.027573 0.328892
一 -0.198441 0.453900 0.070650 0.272827 0.030694 0.155914 0.136087 -0.004070 0.200164 -0.360802 -0.026929 -0.171520 0.257628 0.144748 -0.204275 0.010356 0.033981 -0.067486 -0.119287 0.004122 0.443202 -0.251412 0.158408 0.366464 0.124836 0.124446 0.379315 0.037959 -0.121784 0.077172 0.422055 0.080827 0.146700 0.410392 0.375196 -0.002116 0.105328 -0.048755 0.044198 -0.455366 -0.249741 -0.116848 -0.324784 0.171530 -0.176646 0.440803 -0.087535 0.047870 0.214710 0.147256 -0.260605 -0.104501 -0.495730 -0.179803 -0.617959 -0.181659 0.392887 -0.020518 0.126263 -0.283110 -0.237491 -0.201364 -0.058506 -0.392468 0.092808 0.201272 -0.019812 0.095233 -0.003962 -0.103766 0.160290 0.121296 0.088433 0.126643 0.063788 -0.485470 -0.170505 0.002813 -0.310210 0.211617 0.233881 0.269086 0.040221 -0.093743 0.058774 -0.263590 0.257904 0.302064 0.282810 0.029054 -0.028765 0.023282 -0.058797 0.039424 -0.156021 -0.115804 -0.073056 -0.370964 0.254935 -0.362939 -0.055530 0.048605 0.288050 0.149337 -0.036772 -0.041298 0.188460 -0.077803 -0.215365 0.178314 -0.075178 -0.348079 -0.154634 0.089284 -0.115597 -0.344835 0.480917 -0.097534 0.326092 0.170983 0.167635 0.200362 0.064112 0.006538 -0.017996 -0.287696 0.364535 -0.091648
个 0.079028 0.217236 -0.176117 0.212556 -0.008539 -0.108741 -0.070124 -0.231604 -0.110108 -0.265139 -0.014215 0.127137 0.150433 -0.199539 -0.405583 -0.176059 0.089528 -0.161723 -0.239358 0.370017 0.155745 -0.122896 -0.128186 0.136648 0.388556 0.210496 -0.022035 0.029313 -0.011762 0.186800 0.422699 0.321380 0.198627 0.635799 0.124342 0.306455 0.552676 0.246192 -0.029046 -0.251384 -0.627189 -0.000263 -0.107639 0.021468 -0.177748 -0.289441 0.020297 0.027238 0.065999 -0.192167 -0.008441 -0.064765 -0.267703 -0.078728 -0.201041 0.131867 -0.119027 -0.325926 -0.252069 -0.234355 -0.156379 0.240101 0.152283 0.012450 0.021804 0.350740 -0.198219 0.192666 -0.186559 -0.042569 -0.180630 0.116088 -0.182015 0.087605 -0.090994 -0.633395 0.112554 -0.263529 -0.345204 -0.255676 0.258836 0.211536 0.123789 0.072323 0.086077 -0.079706 -0.434746 0.423314 0.378401 -0.071544 0.154107 0.198511 -0.049936 -0.293647 -0.216078 0.099045 -0.244537 0.366200 -0.221209 -0.178685 0.204711 0.163442 0.160510 -0.228805 -0.106353 -0.045960 0.024551 -0.261869 0.021154 0.045766 0.095597 0.007703 0.114416 -0.076381 0.089740 -0.075222 0.115619 -0.131044 -0.155857 0.222603 0.225171 0.059315 -0.333568 0.035469 -0.098790 -0.324422 0.442365 0.294154
在 0.226027 0.183146 0.086658 -0.125952 0.057576 0.194148 0.013625 0.099761 -0.289460 -0.398331 -0.099427 -0.024091 -0.238309 0.143983 -0.087879 -0.058000 0.073999 -0.098419 -0.077053 0.147393 0.196849 0.053049 -0.046653 0.087970 0.022202 -0.087557 0.338077 0.299074 0.168767 0.214112 -0.108718 0.105229 -0.086389 0.435878 0.171066 0.025279 -0.065762 0.246224 0.209017 0.115823 -0.010239 0.111139 -0.118121 0.087911 -0.249791 -0.287534 0.131984 0.282010 0.191086 -0.077204 -0.209250 0.128878 -0.156384 -0.017933 0.205187 -0.020823 -0.034184 0.066964 -0.097426 -0.079361 0.176744 -0.248430 -0.030597 -0.072193 0.169183 0.360650 -0.010860 -0.022081 0.102108 0.005895 0.023192 -0.057716 -0.402622 0.050480 0.159871 0.032947 0.210809 0.047829 -0.323376 0.015701 -0.146442 0.235221 -0.063951 0.479910 0.052375 -0.098109 0.117894 -0.074050 0.157604 -0.187534 0.258597 0.312591 -0.034575 -0.501574 -0.284424 0.150705 0.109874 -0.157033 0.176238 0.189172 0.022859 0.008088 0.067297 0.161545 0.069361 0.088150 0.030255 0.182921 -0.310303 0.347824 0.094202 -0.346431 0.496096 -0.285653 0.146491 0.128828 0.091227 0.366727 0.281476 0.276733 0.365774 0.206215 0.043969 0.039141 0.278687 0.140697 -0.144141 0.070893
宝 -0.397570 -0.217035 -0.164948 0.226279 -0.789878 -0.290960 -0.248502 0.054557 0.074693 -0.049545 0.001335 -0.154987 -0.083550 -0.007616 -0.238697 -0.466508 0.155936 0.078023 0.177409 -0.079593 -0.151651 -0.196659 -0.133051 0.044923 0.452087 -0.117961 0.317481 0.375612 0.468276 0.208634 -0.026457 -0.149424 0.085594 0.424448 0.321880 0.239310 0.057300 0.208576 0.061453 -0.350794 -0.154088 0.214347 -0.369210 0.318404 -0.016396 -0.026348 -0.031711 0.356186 -0.248704 -0.213249 -0.231075 -0.032336 -0.059022 -0.104037 0.071614 -0.083147 0.183427 0.077027 0.063455 0.109873 0.070703 -0.080123 -0.278531 -0.017362 -0.162844 0.423959 -0.264408 0.400785 0.187258 0.001712 -0.378338 -0.098607 -0.481736 0.201286 -0.399805 -0.033226 -0.056011 0.589970 -0.056369 -0.024197 0.180383 -0.196431 -0.160765 0.315686 0.437581 -0.198524 0.209972 -0.148965 0.074132 0.213186 0.081432 -0.115389 -0.062318 0.121961 -0.537648 -0.052398 0.231257 0.187074 -0.274440 0.184393 0.095874 0.379555 -0.153528 -0.338968 0.197827 0.488376 0.592480 0.006919 -0.099873 0.174976 0.015810 -0.086980 0.191644 -0.066992 -0.148001 -0.094653 0.097222 0.099584 0.150968 0.229069 0.307301 -0.026788 -0.172733 0.114859 -0.264520 -0.048094 0.180694 0.219001
提 -0.381088 -0.332571 0.109636 -0.321947 0.127475 0.006639 0.033192 0.563762 -0.089945 -0.460099 0.248631 -0.112937 0.133978 -0.179408 0.282112 0.145397 0.033285 0.072963 -0.037830 -0.026869 0.256254 -0.086313 0.295280 0.378953 -0.069836 -0.053414 0.238161 0.237264 -0.258919 -0.221872 -0.009186 0.157133 -0.401909 0.136331 0.194693 0.010133 -0.192254 0.397206 -0.030747 -0.034121 0.169549 -0.026784 -0.199037 -0.093115 0.052334 -0.278662 0.136729 0.256545 -0.009838 0.003298 0.057558 0.189252 -0.143853 0.194487 -0.317651 0.209783 -0.134385 -0.564793 0.136267 -0.219907 0.004962 -0.088930 0.385622 0.096524 0.072148 -0.366332 -0.588410 0.198362 0.006551 -0.045476 0.138072 -0.466179 -0.183782 0.347625 -0.184636 -0.315599 0.004044 0.162224 0.098648 -0.302609 0.034663 -0.011163 -0.007706 0.221881 -0.010514 0.212654 -0.103836 0.057578 0.633421 0.364255 0.175656 -0.091452 -0.280109 0.198606 -0.097359 0.185688 -0.292993 -0.300673 0.130703 -0.071874 -0.400863 -0.201429 0.157116 0.626939 -0.149954 0.238715 0.150013 -0.402285 -0.230520 -0.083479 -0.043463 -0.347500 0.304735 0.099126 0.536632 -0.059020 0.054670 0.258202 -0.291048 0.096621 -0.047150 -0.224375 0.245430 0.342503 -0.334258 0.164570 0.000736 0.162374
到 -0.305462 0.064188 -0.296041 0.288751 -0.159026 0.060243 -0.117880 0.125571 0.116142 -0.254832 -0.010701 0.163652 -0.182070 -0.174166 -0.367297 -0.547164 0.016650 0.160204 -0.097833 -0.214369 -0.022138 -0.126230 0.224742 0.119802 -0.000892 0.131915 0.265449 0.261385 0.329296 0.106210 -0.085384 0.396333 0.092768 0.190542 -0.023152 -0.195484 -0.107894 0.056528 0.135003 -0.147787 0.119713 0.213870 -0.422308 -0.208825 -0.177966 -0.054884 0.041165 0.263566 0.078498 0.013602 -0.259459 0.054044 -0.196004 0.162662 -0.093425 -0.136173 -0.207516 -0.004454 -0.246341 0.064353 0.213829 0.044878 0.214718 -0.360909 -0.398031 0.516620 -0.031721 -0.125537 0.043858 -0.333161 -0.123253 -0.390771 -0.003205 0.211171 0.156706 -0.227734 0.462553 -0.157534 -0.033642 0.214034 -0.237732 0.202611 -0.028785 -0.005538 -0.179529 -0.106641 0.203274 0.459875 0.333205 -0.347151 0.346190 0.052969 0.219971 -0.197534 -0.149361 0.062839 -0.288592 -0.215818 0.216350 0.257692 0.033241 -0.411035 0.167783 -0.083147 -0.122725 0.019737 -0.281305 0.197001 -0.117701 0.015471 0.157889 0.054894 0.241725 -0.412313 0.200644 -0.107351 0.143423 0.032857 -0.054772 0.038565 0.087417 -0.033994 -0.138510 0.178631 -0.300281 -0.071618 0.196100 -0.537127
时 -0.415780 0.090150 -0.054369 -0.055217 0.113428 -0.374491 -0.108773 -0.022279 -0.058293 -0.090925 -0.003230 0.217503 0.304169 0.090316 0.485476 0.146638 -0.154242 0.362309 0.134810 0.322490 0.441130 -0.157852 -0.064706 -0.280835 -0.029227 -0.169223 0.102405 0.360391 0.306733 -0.244199 0.072194 -0.179500 0.597112 0.405207 -0.021299 -0.128101 0.140847 -0.020888 0.267391 -0.120497 -0.158164 -0.383388 -0.263863 0.018897 -0.375980 0.281260 -0.140899 0.265520 0.445326 -0.096455 -0.042850 0.289592 0.070725 0.071695 -0.342914 -0.462303 0.173854 0.034037 -0.022946 -0.501755 -0.139720 -0.158617 0.443534 -0.213353 -0.117964 0.344486 -0.172160 -0.149732 0.492214 -0.110190 0.021165 -0.064841 -0.146907 -0.140618 -0.478715 -0.389322 0.271100 0.170680 0.190499 -0.078216 0.098589 0.065204 0.546403 0.489406 0.277705 -0.384365 -0.193608 0.267968 0.068459 0.098760 0.183069 -0.177433 -0.115596 0.121955 0.359510 -0.116093 0.214149 0.076442 -0.043298 0.080556 0.241470 -0.134190 0.122478 -0.002950 -0.116728 0.098011 -0.173002 -0.371764 -0.153130 -0.132106 -0.095315 0.195863 -0.077697 -0.490941 0.296069 -0.165318 0.023121 0.387038 0.094440 -0.439020 0.124035 -0.234243 -0.189271 -0.022417 -0.085630 0.158620 0.028909 -0.122395
号 0.168980 -0.075568 -0.068425 0.144478 -0.123063 0.279323 -0.220053 0.304758 0.281213 -0.004509 0.330721 0.368043 -0.087401 0.060655 -0.356864 0.001942 -0.146833 0.153635 -0.225645 0.361611 0.262592 -0.338582 -0.266052 0.282089 0.821139 0.141311 0.082507 0.400143 -0.080448 0.386579 -0.020348 -0.157790 0.118464 0.172962 0.170424 0.353113 0.376481 0.331507 -0.150012 -0.032197 -0.237860 -0.045243 -0.225684 0.441879 0.266304 0.118399 0.123104 0.115620 -0.182942 -0.005377 -0.015145 -0.396486 -0.052555 -0.333662 0.181295 0.328195 -0.395682 -0.042230 -0.119462 -0.238784 0.059254 0.415735 0.246732 -0.700415 -0.165676 0.010526 -0.472298 0.152735 0.040889 -0.075321 -0.356969 0.285144 0.018595 0.399504 -0.090180 -0.246178 -0.226785 -0.130491 0.189861 -0.088882 0.213299 0.451821 -0.005480 0.421117 -0.130948 -0.862097 -0.470720 0.318618 0.288854 -0.188081 0.253262 0.248353 0.198557 0.166591 0.024587 0.078662 0.275571 -0.124758 0.008294 0.108583 -0.100261 0.215391 0.259701 -0.274806 0.024065 0.062893 -0.171494 -0.432459 -0.106522 0.013785 -0.036091 -0.139495 -0.070712 -0.250059 0.524976 0.146360 0.493219 0.227857 -0.036940 0.022697 0.182037 0.101888 -0.369588 0.106716 -0.071297 -0.350485 -0.040133 0.341861
月 -0.169590 0.080135 -0.015710 -0.081811 -0.542791 -0.046740 -0.214457 0.045924 -0.053355 -0.526433 0.058911 0.118004 0.086873 -0.197822 0.078052 0.062432 0.059405 -0.234592 -0.133015 0.389481 0.314853 0.234263 0.101330 0.242514 0.275298 0.265424 -0.101243 -0.215974 0.420672 -0.034098 0.120637 0.093753 0.209504 0.504570 -0.378675 0.188692 0.134207 -0.230484 0.681322 -0.457595 -0.145515 -0.124761 -0.476038 -0.042607 0.293170 -0.050192 0.488152 0.575725 -0.121048 -0.021564 0.031626 -0.474232 -0.327900 0.257447 -0.069428 0.206202 0.008685 0.236700 -0.632540 -0.588312 -0.134068 -0.042471 0.285008 -0.509828 -0.111890 0.398346 -0.019772 0.299658 -0.122199 0.260259 0.152820 0.012760 0.070717 -0.112764 -0.082663 -0.527553 -0.246096 -0.068854 -0.214773 -0.340209 0.238658 -0.016854 0.214360 -0.051697 -0.017818 -0.143201 -0.078825 0.771730 0.004777 0.316277 0.158008 0.081368 -0.367070 0.260243 -0.315671 0.348710 -0.426190 -0.001663 -0.301594 -0.059212 -0.177495 -0.530487 -0.206019 -0.247337 -0.075126 -0.037382 0.027694 -0.238346 -0.168017 0.030684 0.135502 -0.447444 -0.228294 -0.310740 -0.115791 -0.028450 0.068834 -0.116575 -0.469838 0.189367 -0.215206 0.355896 0.014040 0.267721 -0.004784 -0.283516 0.085631 0.371495
多 -0.037465 0.033280 -0.105673 -0.571382 -0.082105 -0.252493 -0.468977 0.209252 -0.053578 -0.254016 -0.182951 -0.357053 0.087709 0.099288 -0.185152 -0.262542 -0.218305 0.081949 -0.063832 -0.172778 -0.106886 -0.236978 -0.069965 -0.084510 -0.379673 0.174116 -0.125030 0.066996 0.017883 0.890683 0.490707 0.404737 0.255599 0.177929 -0.066514 0.239240 -0.083665 -0.038223 -0.123968 0.124916 -0.096688 -0.160788 -0.220139 -0.417036 0.579356 -0.150269 -0.161898 0.000817 -0.116129 0.030329 0.148403 -0.313417 0.333322 0.223269 -0.399377 -0.308609 0.052652 -0.085282 -0.212320 -0.408308 0.310696 -0.664343 0.337745 0.035305 0.342855 0.184094 0.351285 -0.058426 0.010422 0.129331 0.178533 0.023839 0.058170 -0.240704 -0.123827 -0.070040 -0.115448 0.217681 -0.451431 -0.137794 0.305511 0.063171 -0.079545 -0.392055 0.159689 -0.513629 -0.300155 0.530102 0.108564 0.258557 0.122204 -0.183187 -0.419070 0.105722 -0.172384 0.041456 0.138447 -0.045259 -0.087966 -0.109817 0.094907 -0.037603 0.616580 0.223442 -0.248795 0.108594 -0.300422 -0.264130 -0.385901 0.472328 0.566255 -0.228815 0.190911 -0.148334 0.112311 -0.071318 -0.119591 -0.260883 0.145068 -0.051674 0.345925 -0.012003 -0.233509 0.261141 -0.227229 -0.124247 0.231205 -0.225549
账 -0.008004 0.247755 -0.073813 0.307289 0.154154 0.129007 -0.447918 -0.224527 0.053113 -0.542346 0.182106 0.033970 -0.104224 0.290205 -0.044584 -0.058810 -0.050436 0.296187 -0.041342 -0.064643 -0.107775 0.034009 -0.062262 0.269429 0.430689 -0.124548 0.115779 0.332563 0.304723 -0.064509 0.166709 0.205923 0.008719 0.204933 0.018121 0.439234 0.199321 0.281822 0.290965 0.051947 -0.066626 0.132883 -0.737827 -0.162618 0.172658 0.182016 0.111158 -0.115958 0.100413 -0.091028 -0.068333 -0.262145 -0.215000 0.107358 -0.111105 -0.117321 -0.168167 0.032214 -0.058905 -0.039120 -0.125692 0.373762 0.329649 0.035786 -0.204511 0.112341 -0.408552 -0.122097 -0.416173 0.257033 -0.393757 -0.107654 -0.344066 0.001953 -0.442582 -0.022046 0.122159 -0.256460 -0.151435 -0.249182 -0.134555 0.089975 0.283582 0.367518 0.073700 -0.156432 -0.161531 0.010760 0.323490 -0.115585 -0.360608 0.099333 -0.005087 0.062054 -0.022435 0.178616 0.047115 0.287623 0.005227 -0.158556 -0.359342 -0.317001 0.178548 -0.072080 0.256691 0.021039 0.516035 -0.125941 0.116862 0.334622 -0.311674 -0.011743 0.036082 -0.009894 0.227729 0.300398 0.537222 0.032947 0.276518 0.331289 0.129357 -0.184840 -0.300756 0.470706 0.013330 -0.272960 0.470189 0.134962
收 -0.383176 0.082855 0.384701 -0.007179 -0.282313 -0.345168 -0.736961 0.031942 -0.097860 -0.305970 0.068262 -0.058516 0.054112 0.312067 -0.261917 0.420535 -0.088050 -0.179293 0.188352 -0.106098 -0.269401 0.174995 0.360441 -0.474739 0.214585 -0.078912 -0.191623 0.023829 0.361718 -0.018345 -0.117055 -0.310274 0.386514 0.210372 -0.443438 -0.313584 0.109008 -0.098782 -0.358210 0.022250 0.036527 0.243488 -0.156190 0.135516 0.401972 0.145643 -0.059842 0.033932 -0.384093 -0.067182 -0.047346 -0.405409 0.096721 0.009391 -0.375384 0.137053 -0.085193 -0.213636 0.236633 0.016837 -0.304867 0.032823 0.252069 -0.113640 0.277061 0.536013 -0.552176 0.228451 0.012317 -0.291177 -0.538641 -0.098455 0.304080 0.324905 0.358425 -0.019521 0.517794 0.162409 -0.378638 -0.031116 -0.162863 0.219029 -0.126956 0.156905 0.024481 0.012654 -0.335041 0.137567 -0.151067 0.238683 0.362781 -0.021095 -0.035955 0.331760 -0.227631 -0.261791 -0.175534 -0.045959 0.191067 -0.075076 0.272829 0.230689 0.486223 0.210699 -0.045729 0.108238 -0.300096 -0.115169 0.049846 0.095168 -0.259592 -0.194169 0.491113 0.054675 0.289771 -0.004079 0.338462 -0.272144 -0.112153 -0.089037 -0.193857 -0.101172 -0.147034 -0.030675 -0.182699 0.233543 0.113611 0.107139
退 0.018349 0.410404 -0.363559 0.082506 -0.186151 0.135739 -0.207941 0.057208 -0.328398 -0.194442 0.204158 0.134569 -0.478055 -0.035161 0.105838 0.615837 -0.213217 0.037071 0.196294 -0.010605 0.034520 -0.046495 -0.169290 -0.260208 -0.345522 -0.289137 0.360458 0.392882 0.196633 -0.101025 -0.133483 -0.159989 0.169291 0.338515 -0.392987 0.075768 0.253137 -0.218037 0.105564 -0.053938 0.305605 0.662119 -0.247209 -0.557919 0.624073 0.031510 -0.063803 0.277713 -0.193751 -0.080753 0.281079 -0.327258 -0.180238 0.283318 -0.481179 0.228715 -0.464802 -0.172335 -0.063985 0.331400 0.111680 -0.090401 0.400469 -0.003467 -0.392007 0.666137 -0.587138 -0.117729 0.161683 -0.327165 -0.635485 0.286215 -0.007657 0.253624 0.121338 0.001476 0.114531 0.161556 0.036769 0.087065 -0.197343 0.125380 0.044923 0.390732 -0.119472 -0.044611 0.749133 0.020308 0.104300 0.218333 -0.172358 -0.032576 -0.024768 -0.228294 -0.275421 0.063206 -0.430762 -0.064069 0.146387 -0.016138 -0.058476 -0.264840 -0.074432 -0.098045 -0.117014 0.013534 -0.018116 -0.555584 0.004664 0.361790 -0.067194 -0.427362 0.194545 -0.115335 0.074826 -0.223569 0.025545 0.062924 -0.177198 -0.315686 0.147901 0.263910 0.126507 -0.328801 -0.395980 -0.187114 0.284644 -0.242137
要 -0.066200 0.124668 0.428637 -0.280698 -0.049791 -0.187214 -0.336935 0.234302 -0.126751 -0.172789 0.225946 0.150895 -0.110789 0.310371 0.051640 0.030876 -0.078043 0.096678 0.071477 -0.240702 0.076827 -0.106007 -0.054802 0.118095 0.100942 0.185392 0.040748 -0.151225 -0.401037 0.198104 -0.098981 0.330214 0.052755 0.065314 -0.067946 -0.077454 0.150936 -0.131665 -0.098050 0.207373 0.004042 -0.159351 -0.476394 -0.299755 -0.170541 0.045135 0.009788 0.089247 -0.079289 -0.113995 0.079850 -0.190820 0.071713 -0.318515 -0.416529 0.390922 -0.066623 -0.038275 0.059728 0.005166 0.056514 -0.192771 -0.095802 0.321279 -0.176387 0.092366 -0.460535 0.303956 0.232941 -0.111963 -0.144789 -0.398046 0.191030 0.037055 0.012339 -0.059556 -0.181855 0.081637 -0.386489 0.038558 0.262382 0.028231 0.125417 0.257613 0.134634 0.173872 0.242209 0.343551 0.200744 0.289462 0.189061 -0.391653 -0.076404 -0.178682 0.018616 0.090864 -0.066420 0.046261 -0.069432 0.371675 0.236766 0.284692 -0.091979 -0.065075 -0.063547 0.139186 -0.174503 -0.198075 -0.169328 -0.181983 0.403367 -0.067415 0.020450 -0.155331 0.506021 -0.182917 0.300046 -0.321610 0.124955 0.154448 0.350446 0.244225 -0.207943 0.203783 -0.029953 -0.408561 0.254215 0.174517
费 -0.175583 -0.247106 0.001893 -0.072530 -0.479161 0.307346 -0.172662 0.423028 0.363331 0.442987 0.066695 0.197071 0.310162 0.178606 0.187982 0.393901 0.293941 -0.084897 -0.271453 -0.287523 -0.157450 0.584952 -0.112457 -0.449476 0.061513 -0.160399 0.484739 0.199630 0.197635 0.229790 0.259645 0.288622 -0.420193 0.166233 -0.074559 -0.092794 -0.087208 -0.124698 -0.343116 0.252891 -0.264268 -0.030600 -0.177992 -0.416667 0.248653 -0.133264 -0.175425 0.309777 -0.020701 -0.093244 0.141519 0.052879 -0.481134 0.472490 0.049532 0.153793 -0.013587 -0.168293 0.121423 0.121125 -0.010665 -0.165495 0.483864 -0.509577 -0.162277 0.461715 -0.287853 -0.497439 0.523127 -0.167888 -0.179818 -0.057782 0.041225 -0.011706 0.371091 0.149160 0.227833 -0.382007 -0.381717 -0.011983 0.335609 -0.250930 0.821061 0.134739 0.068358 -0.515967 0.480390 0.235761 0.076599 -0.100421 0.201437 -0.093458 -0.160066 0.097578 0.277420 0.383588 -0.116262 0.384510 0.096877 -0.214237 0.210570 -0.275012 0.518065 0.313591 0.049212 0.275855 0.001405 0.125624 -0.167574 0.242783 0.473997 0.426129 0.309990 0.086461 -0.077986 -0.030531 0.254567 0.185978 -0.318961 0.352862 -0.045315 0.527360 0.084516 0.035744 -0.128605 -0.059022 0.036682 0.535831
使 -0.211182 0.271195 0.269806 -0.013129 -0.099178 -0.378082 -0.259057 -0.221690 -0.110644 -0.158655 -0.000342 0.542545 -0.085914 0.042168 0.131719 -0.283403 -0.318747 -0.466705 -0.235815 -0.319629 0.118468 0.074539 0.070295 0.068036 0.038537 -0.258395 0.169055 0.528605 -0.016941 -0.047058 0.375829 -0.272314 -0.127218 0.211315 -0.067460 0.154303 -0.189154 -0.174076 -0.041350 -0.123531 -0.466228 0.055091 -0.239768 0.132013 0.141090 -0.076612 -0.015591 0.084398 0.519082 -0.291428 -0.291166 0.262987 0.076540 0.161507 -0.088665 0.135972 -0.091065 0.151784 -0.165396 -0.192703 0.206529 -0.225562 0.111986 0.070203 0.124680 0.206386 -0.359668 -0.151012 -0.071663 -0.300775 -0.171969 -0.159050 0.234840 0.314660 0.111840 -0.137586 0.118018 0.244716 0.075504 -0.054017 0.048677 0.181121 0.296970 -0.218732 0.557800 -0.343780 0.157496 -0.034394 0.216545 -0.027647 0.006386 -0.011800 0.125230 -0.269628 -0.067151 0.268788 -0.068494 -0.069762 -0.379425 -0.273193 0.171529 0.158223 0.330790 0.307146 0.316218 -0.065267 -0.230826 0.245405 -0.195561 -0.023460 -0.023701 -0.044494 0.124862 0.148242 -0.110745 -0.255151 -0.402871 -0.027486 0.216382 0.236652 -0.271521 -0.111640 -0.048863 -0.033795 0.025666 0.027016 -0.090629 0.214899
后 -0.307968 0.064443 -0.088882 0.395788 0.075274 -0.123101 -0.151996 -0.200468 -0.361575 -0.327580 0.247613 -0.039150 -0.094386 0.361819 -0.276205 0.237427 -0.003451 0.163668 -0.238545 0.381286 -0.147631 -0.208250 -0.065001 0.330127 -0.114935 0.174535 0.162047 0.249327 0.206288 0.339756 0.271696 0.359259 0.109127 -0.117385 0.248770 0.204837 0.129977 -0.015609 0.169362 0.116015 -0.452676 0.155341 -0.257981 0.009180 0.018778 -0.004398 0.349719 0.378102 0.069643 0.346846 -0.167045 -0.018901 -0.123496 0.112872 -0.467300 0.249848 -0.306137 0.269310 0.067452 -0.152467 -0.180755 -0.107553 0.324865 0.367137 -0.178084 0.053229 -0.014136 0.094871 0.164989 -0.039802 -0.106403 -0.279000 -0.025333 -0.032814 0.179898 -0.029949 -0.009925 0.177496 0.163011 0.022358 -0.207250 0.165378 -0.480368 0.079821 0.039405 -0.238919 0.177495 0.179556 0.132482 0.037863 0.121444 -0.113828 -0.041494 0.376420 -0.003751 0.090118 -0.063432 0.070540 -0.030185 -0.170791 0.505513 -0.188368 0.236935 0.031162 0.197140 -0.077444 0.146117 -0.249489 -0.268402 0.036305 0.261613 -0.146053 0.231486 -0.346181 0.043274 -0.244660 0.024857 0.044784 -0.015994 -0.250894 -0.108010 0.042482 0.247452 -0.134862 0.267138 -0.080398 0.062794 0.209106
前 0.016200 -0.050462 -0.088930 0.122175 -0.271025 0.055474 0.015551 0.056690 0.259181 -0.244182 0.221955 0.209095 0.258684 0.259664 0.254306 0.123907 -0.092791 0.144586 -0.368149 0.419925 0.028404 0.011101 -0.073573 0.026162 -0.074587 0.383058 0.015312 0.498545 0.096930 -0.266979 0.223199 -0.204101 0.182167 -0.439710 0.173615 0.031674 0.152173 0.216591 -0.029528 -0.175019 -0.411706 0.112846 -0.231469 0.080622 -0.056900 0.225609 0.525094 0.468696 0.051275 0.047017 0.241922 0.100465 -0.200742 0.279650 -0.198357 0.297559 -0.009939 -0.135526 -0.316470 -0.335350 0.145416 0.035825 0.644793 0.320741 -0.094022 0.162614 -0.357783 -0.121370 -0.453069 -0.083627 -0.099165 -0.314455 -0.181478 0.092091 0.011218 -0.142894 -0.004328 0.163476 -0.327524 -0.201268 0.039926 0.146768 -0.134736 0.105045 0.303536 0.046007 -0.200558 0.020102 0.326844 -0.176112 -0.057438 -0.340526 -0.177367 -0.154003 -0.245742 0.082573 -0.255342 -0.282193 -0.030806 0.181099 -0.114476 -0.026011 0.079876 -0.002684 -0.310121 0.028105 -0.116860 -0.090952 0.064106 0.468765 0.547948 -0.792655 0.228076 0.074261 -0.040619 -0.147016 0.501657 0.441529 0.085994 -0.220982 0.005349 0.148452 -0.077338 -0.384982 0.072891 -0.310951 0.067248 0.475594
卡 0.198670 0.145271 0.335589 0.233916 -0.383997 -0.081186 -0.002468 -0.289151 0.134839 -0.389105 0.104748 0.077350 -0.082412 0.009786 -0.323237 0.142783 0.024312 -0.005395 0.536791 -0.529278 0.072832 0.220369 0.873442 -0.131457 0.381312 -0.190932 -0.144323 0.100648 0.569593 0.030902 0.094794 -0.262989 -0.156637 -0.153291 -0.073932 -0.043315 -0.255104 0.383356 -0.133269 0.201852 0.124650 0.164641 -0.142384 -0.434874 0.033049 -0.081331 -0.308073 0.310399 -0.130536 -0.217179 -0.176030 -0.048607 0.090009 -0.379677 -0.376320 0.166254 0.074667 -0.088167 0.197338 -0.131228 -0.066653 0.184252 -0.016966 -0.156403 0.209814 0.225071 0.166963 0.235679 0.530292 -0.069795 -0.396564 -0.025792 -0.020528 0.312924 -0.404084 0.130431 -0.365053 -0.089236 -0.102390 -0.157706 0.384238 0.106548 0.041448 -0.216759 0.099451 -0.115588 0.490352 0.002240 -0.334544 -0.081832 0.385272 0.072751 -0.007699 0.126376 -0.498928 0.086311 -0.271867 -0.216254 -0.408372 -0.333509 -0.146651 -0.230196 0.705162 -0.194265 -0.278695 0.350689 -0.154179 0.180411 -0.066223 -0.013640 -0.014076 -0.068610 0.072601 -0.341631 0.442131 -0.516534 0.701657 0.255886 -0.257141 0.118163 0.137659 0.193797 -0.707301 0.161087 -0.091877 0.073658 -0.032988 0.436998
会 -0.241204 -0.209630 -0.271219 -0.361708 -0.156752 -0.114275 0.253824 0.262438 0.022463 -0.618517 0.116571 -0.260410 -0.444451 -0.248817 0.136417 -0.179622 -0.204894 -0.015936 -0.038568 0.455440 0.055543 0.026377 -0.315656 0.226206 0.333300 -0.209657 0.191436 0.220452 0.139664 0.122904 -0.224972 0.249592 -0.142155 -0.084026 0.201180 -0.163845 -0.272641 -0.447748 -0.137799 0.069497 -0.344152 0.110670 -0.259497 -0.032874 0.058419 0.217780 0.072185 0.521195 0.104397 0.043171 -0.153414 -0.447213 -0.104135 0.107720 -0.378633 0.224717 0.222458 -0.327855 0.213604 -0.127513 -0.211812 -0.150557 0.491036 0.105167 -0.404066 -0.027358 -0.094675 -0.069718 0.498490 -0.398735 0.043846 -0.028754 0.165120 -0.267991 -0.083928 0.170137 -0.172587 -0.050064 -0.079622 0.097272 0.236185 -0.041170 -0.063621 -0.085190 0.347653 0.015595 0.104676 -0.206415 0.246460 -0.316774 0.209964 -0.203012 0.321879 0.087842 0.137999 0.533408 0.032113 0.075889 0.020589 -0.297947 -0.032450 -0.095836 0.239699 0.040286 0.208647 0.264698 -0.244192 -0.165604 0.066808 0.096771 -0.049076 0.236796 0.176552 -0.312148 -0.146380 -0.388451 0.257630 -0.156651 0.111509 0.051807 -0.252769 -0.380224 -0.168763 0.039794 0.215325 0.192859 0.189226 0.019820
信 -0.765005 -0.201305 0.185223 -0.407762 0.141590 -0.256817 -0.045164 0.050085 0.626845 -0.223564 0.168207 0.426632 -0.253798 -0.198962 -0.057535 0.307687 -0.304875 -0.546658 -0.028541 0.191108 -0.301863 -0.122799 0.439071 -0.310182 -0.103619 -0.061790 -0.069579 -0.275521 0.112295 -0.239939 0.035331 0.297773 0.050064 0.331960 0.184261 -0.327184 -0.197757 0.415840 -0.338570 0.013563 -0.215112 0.029451 -0.167275 -0.116501 0.383198 -0.270653 -0.294791 0.410288 -0.047595 -0.264083 -0.017140 -0.181552 0.039267 0.253872 -0.625566 -0.194449 -0.270400 -0.217304 -0.242789 -0.579222 -0.413522 -0.341713 -0.064599 -0.107345 0.488998 -0.016308 -0.338516 -0.197932 0.022690 0.094683 -0.467731 -0.054908 0.304153 0.364381 -0.069505 -0.114679 -0.250757 0.667218 0.250103 -0.405108 -0.200277 -0.035386 -0.350192 0.063597 -0.116616 -0.056010 0.276951 -0.024294 0.171867 -0.166339 0.175676 -0.194503 0.828338 0.207778 -0.309242 -0.219757 0.482275 0.199293 -0.029588 -0.638884 0.256581 -0.268360 -0.087906 0.079565 -0.044193 0.311090 -0.232605 0.362323 -0.053549 -0.072744 0.130274 0.136931 0.261914 0.245970 0.154210 0.019682 0.775924 0.074657 -0.030767 -0.040686 0.105445 -0.300438 -0.319794 0.151063 0.097130 0.221978 -0.071176 0.247678
手 -0.215247 -0.084354 0.176518 0.234785 -0.230696 -0.018782 0.172773 0.191346 0.293212 -0.029870 0.038924 -0.348708 -0.125105 0.402818 -0.140919 -0.055737 -0.124576 0.158867 -0.269214 0.241941 0.106953 -0.015908 0.125192 0.973313 0.080574 -0.240687 0.111606 0.439968 -0.192672 0.029465 0.291909 -0.343186 -0.261057 -0.020359 -0.071728 0.283919 0.227172 -0.258312 -0.627607 0.060875 0.115348 -0.502881 -0.305395 0.198701 0.107659 0.291160 -0.071848 0.271230 -0.528731 -0.139460 -0.115635 -0.169791 0.011321 0.190196 0.115843 -0.094648 0.081338 0.013338 -0.302683 0.409991 0.045879 0.251596 0.795308 -0.136410 0.140846 0.137350 -0.256875 0.110071 -0.207367 -0.085815 -0.726911 -0.091740 -0.002012 0.159902 0.193020 -0.407881 -0.154727 0.202882 -0.655499 -0.096948 -0.220465 0.195768 0.161383 -0.043096 0.374889 -0.183568 0.449630 0.263912 0.036158 0.215113 -0.025681 0.081604 0.320686 -0.075888 -0.412080 0.492819 0.220893 0.049568 -0.253638 0.027648 0.169455 0.178390 -0.110285 0.225761 -0.497880 0.163741 0.023545 -0.114879 0.102156 -0.323602 0.303768 -0.091313 0.442847 -0.457391 0.131991 -0.253444 0.620726 0.442420 -0.556517 0.124194 -0.253342 0.077041 -0.193766 0.249094 0.286835 -0.052972 0.218634 0.281513
里 -0.419810 0.070842 -0.148485 -0.136088 -0.149773 -0.181237 0.017029 0.169956 0.017819 -0.264579 0.188774 -0.059860 -0.407577 -0.095527 -0.246299 -0.337919 0.018342 -0.079184 -0.135243 0.010506 -0.394626 0.339691 0.384739 0.136213 0.001574 -0.168458 -0.262137 0.546278 0.082119 -0.091989 -0.220924 0.416654 0.475028 0.433148 0.112959 -0.006180 0.264030 -0.083277 0.199649 0.283383 0.195498 0.079651 -0.543114 -0.209634 0.194428 -0.005856 -0.337722 0.115576 -0.024269 -0.183984 -0.010104 0.079533 -0.039354 0.027540 -0.000660 -0.031782 0.152908 -0.305463 0.004417 0.142435 0.207121 -0.088030 -0.325639 0.141635 -0.587324 0.335519 -0.176579 -0.354905 0.156659 0.318169 -0.138339 -0.195908 0.032295 -0.184768 0.065022 -0.119475 0.196817 -0.106861 -0.176171 -0.072244 0.377497 -0.134369 -0.113958 0.477285 -0.327582 -0.302504 0.255756 0.127853 0.085545 -0.328540 0.059945 0.072038 -0.085704 -0.088853 -0.379555 -0.084530 0.147527 -0.527335 -0.056921 0.045980 0.424634 0.036803 0.169300 -0.214383 -0.083404 0.432754 0.152898 -0.116984 0.251028 0.402880 0.010884 -0.043447 0.507567 -0.053809 0.217597 0.032541 0.114033 0.131204 -0.027639 0.106281 0.228716 0.083265 0.360363 0.000985 -0.233083 -0.096331 -0.199252 -0.052955
码 0.156429 -0.414212 0.152270 0.453928 0.263663 0.103565 0.125634 0.193559 -0.061443 -0.097704 0.222114 -0.060254 0.187671 0.424053 -0.368547 -0.111576 0.235958 -0.125104 0.430318 -0.430958 0.161047 0.220168 0.149479 0.050740 0.470938 0.089134 -0.290600 0.336476 0.322039 0.074041 -0.312473 -0.043529 0.299581 0.374377 -0.086143 -0.237797 0.281146 0.301602 -0.565180 0.120935 0.427688 -0.074859 -0.292717 0.403675 0.501923 -0.198360 0.295435 0.225166 -0.210928 0.039420 -0.098539 -0.148112 0.331163 -0.193947 -0.335680 -0.157468 0.030247 -0.068471 -0.071431 0.178603 -0.260600 -0.264544 0.252181 -0.061921 0.270907 0.716974 -0.508167 0.064196 -0.318036 0.388753 -0.683877 0.536487 0.340332 0.523803 -0.030524 -0.217315 -0.085597 0.030938 -0.016904 -0.250753 -0.188422 0.471988 0.320475 -0.031401 0.120152 0.171030 0.016016 -0.118218 0.032648 -0.085458 0.325915 0.193995 0.378096 0.448532 -0.341593 0.221382 0.136489 -0.068495 0.081662 0.405059 0.363882 -0.364872 0.448382 0.157718 -0.264222 0.539653 -0.023141 -0.072682 -0.192732 -0.112641 -0.029599 0.293014 0.693696 0.004027 0.239691 -0.435091 0.195601 0.002430 0.306904 -0.237598 -0.373430 0.167286 -0.430119 0.502160 -0.396862 -0.481506 -0.068711 0.544032
天 -0.031502 -0.065642 -0.442310 0.130895 -0.240175 -0.157219 -0.304484 0.558962 -0.072789 -0.415491 -0.236424 0.376153 0.061919 -0.095441 -0.222290 -0.213491 -0.186022 -0.411946 0.084991 0.278150 0.283978 0.131677 0.303592 -0.094355 -0.159978 -0.409818 0.119948 0.265912 -0.148431 0.111738 0.215547 0.020117 -0.094597 0.045343 0.275399 0.234676 -0.080699 -0.056728 0.416864 -0.073489 -0.283792 -0.026527 0.321341 0.004401 0.525416 -0.160185 0.326591 0.580169 0.176789 0.347388 0.327173 0.057518 -0.119265 -0.317343 -0.502040 -0.121067 -0.270336 -0.200857 -0.305529 -0.177036 0.224584 -0.008701 0.431348 -0.483967 -0.319978 0.147040 -0.093513 -0.028951 0.005629 -0.068039 -0.068751 0.149953 0.247235 -0.409178 -0.028184 -0.244801 -0.007543 0.029965 -0.329117 0.261203 0.441776 0.489068 0.004112 0.000897 -0.027086 0.199242 0.003907 0.103901 0.149333 -0.336889 0.070895 0.011300 -0.187257 0.255804 -0.216922 0.572345 -0.107960 -0.036789 -0.040000 -0.046509 0.458937 -0.227908 -0.037854 -0.395412 -0.275483 0.099289 0.130681 0.115600 -0.715243 0.054558 -0.106023 0.101917 -0.050623 -0.392159 -0.139605 0.288824 0.292924 0.127328 0.183944 0.092202 0.073733 -0.596375 0.219002 -0.099459 -0.110528 0.097282 0.075741 0.405061
现 -0.161194 0.275229 -0.120324 -0.064586 -0.048571 0.423532 -0.342636 0.263532 -0.360867 -0.075252 0.455257 -0.079651 -0.192907 0.120329 -0.239832 -0.209338 0.122719 -0.199435 0.059727 0.291977 0.215776 0.043852 -0.093647 -0.124119 0.080246 0.012368 0.204089 0.096526 -0.142851 0.012744 0.068648 -0.145622 0.226341 0.188463 -0.095290 -0.073546 0.163015 0.292931 0.239505 -0.074413 -0.174759 0.153335 -0.324071 -0.038246 0.062872 0.434207 -0.266266 0.022034 -0.468024 -0.042039 -0.340288 -0.040906 -0.060096 0.103376 -0.140547 0.157153 -0.084742 -0.001520 -0.172502 0.195374 -0.238871 -0.078310 0.272001 0.052374 -0.139798 -0.026661 -0.357848 -0.154518 -0.100569 0.120078 -0.085817 -0.354823 0.010019 -0.130212 -0.010216 -0.436802 -0.004811 0.032763 -0.040750 0.133402 0.058707 -0.086565 0.425761 -0.112306 0.022370 -0.247247 -0.134640 -0.119968 0.293208 -0.069792 0.188840 -0.186881 -0.161245 0.072534 -0.138326 -0.286606 0.124320 -0.132995 0.092942 -0.239468 0.197742 -0.245854 0.217247 -0.457248 -0.293139 0.032057 -0.117811 -0.032549 0.118552 0.096660 0.533990 -0.241946 0.051964 -0.338916 -0.174811 0.058165 0.088410 0.267715 -0.013617 0.191790 -0.002520 0.070828 -0.243943 0.018671 0.200204 -0.324904 -0.347982 0.262634
示 0.117959 -0.170028 0.042663 -0.194901 0.128438 -0.183693 -0.253544 0.279628 -0.139890 -0.807556 0.304349 0.347505 -0.069033 0.442076 -0.038077 0.097109 0.473386 0.266823 -0.141932 -0.243848 -0.083844 -0.677538 -0.055562 0.113137 0.367698 0.086846 -0.085727 0.415671 0.461561 -0.246693 0.202989 -0.481855 0.062769 -0.105814 0.483490 0.020365 0.533053 -0.000040 -0.094588 0.328530 -0.113805 -0.329211 -0.267239 -0.385033 -0.136865 -0.189735 -0.304000 -0.231766 -0.053373 -0.062858 -0.383046 0.037498 -0.191966 0.264561 -0.246569 0.015990 0.047676 -0.250203 0.131691 0.033121 -0.078636 -0.359780 0.640230 -0.184968 0.040362 0.021686 -0.453817 0.134485 -0.541668 -0.167021 -0.221192 -0.267641 -0.141651 -0.104417 -0.236253 0.099750 0.009803 -0.122186 -0.059570 -0.093364 -0.040863 -0.490395 -0.286902 0.239313 -0.422081 -0.098747 0.332113 -0.085666 -0.271277 0.105756 -0.031729 -0.074495 0.096886 0.010870 -0.488787 0.145911 -0.501433 0.217189 -0.161435 -0.455987 -0.074878 -0.041269 -0.115798 -0.689208 -0.137066 0.201171 -0.152792 0.349499 -0.014480 0.496816 0.091905 0.060106 -0.101324 -0.435378 0.096623 0.149407 0.006951 0.239700 0.032960 0.244099 0.046330 -0.039388 0.016295 0.091153 0.088935 -0.021308 0.170134 0.374083
扣 -0.084241 -0.020344 -0.276495 0.073744 -0.487887 -0.414156 -0.113317 0.053862 0.026744 -0.282666 0.178064 0.169744 0.004404 -0.161733 -0.053828 0.312285 -0.299423 -0.327386 -0.388925 -0.300683 0.264226 0.260983 0.155077 0.288626 0.050925 -0.405453 0.257444 0.424385 0.084176 0.333126 0.233084 0.339111 -0.000264 0.099748 -0.374014 -0.377129 0.003272 -0.419069 -0.097264 0.219421 0.115915 0.080539 -0.331467 -0.445199 -0.051172 -0.037099 -0.132564 -0.080731 0.111688 -0.218103 0.059505 -0.348584 -0.071519 -0.189680 -0.326555 -0.060799 -0.461021 -0.432713 0.322996 -0.111877 -0.051250 -0.022163 -0.184389 -0.322702 -0.620959 0.331757 -0.203961 -0.455830 0.140668 -0.310598 -0.085884 0.171647 -0.423784 0.021704 -0.702963 0.075855 -0.118107 -0.117472 -0.048841 -0.052072 0.412238 -0.064781 -0.170852 -0.147223 0.100518 0.032286 0.650057 -0.047780 -0.150437 0.401040 0.476370 0.233739 -0.251755 0.280281 -0.487261 -0.442864 -0.537698 0.097079 -0.388318 0.043423 -0.057516 0.135874 0.296571 -0.183894 -0.016876 -0.194414 0.204871 -0.182966 -0.025963 -0.112830 -0.010271 -0.042072 0.459507 -0.353665 0.007053 0.112937 0.587262 -0.117308 -0.274231 -0.124832 -0.170976 -0.244103 0.329387 0.170745 0.301140 0.150760 0.095876 0.313397
少 -0.314841 0.173342 0.059774 -0.082262 -0.270232 -0.225809 -0.396747 0.365339 0.144954 -0.078493 -0.106685 -0.530919 0.123646 0.046473 -0.005359 -0.160716 0.359950 -0.229457 0.056789 -0.582385 -0.016822 -0.387933 -0.084686 -0.446399 -0.394095 0.030341 -0.052426 0.341582 -0.191464 0.778652 0.153636 -0.262330 0.225812 0.396731 0.036674 0.384732 0.087459 -0.025313 -0.094869 0.117092 -0.389926 0.028014 -0.450856 -0.444678 0.181572 -0.353790 0.102060 0.072526 -0.097777 -0.251245 0.462267 -0.539557 0.454972 0.278015 -0.660101 -0.280672 0.300030 -0.184372 -0.215894 -0.276332 -0.335673 -0.609848 0.058588 -0.524446 0.344429 -0.487461 0.332802 -0.685253 -0.439045 -0.124857 -0.374584 -0.040589 0.095792 -0.115244 0.109436 0.116234 0.020822 0.065569 -0.213604 -0.305981 0.001881 -0.112841 -0.203296 0.199508 0.335721 -0.120459 -0.076795 0.729639 0.375892 0.291596 0.190435 -0.141918 -0.298588 0.218619 -0.488027 0.545659 -0.097969 -0.210629 0.002433 0.131409 0.212389 0.005795 0.374188 -0.003924 0.294752 -0.093368 -0.325518 -0.149495 -0.283144 -0.262330 0.558520 -0.262420 0.368657 -0.193387 0.248076 -0.073967 0.035825 -0.348200 -0.528510 -0.483053 0.053472 0.352052 -0.079701 0.580080 0.151262 -0.164316 0.142330 -0.097342
商 -0.205289 0.068200 -0.002308 -0.803833 -0.353111 0.115585 -0.069981 -0.155108 0.249396 -0.755830 0.067839 -0.546110 -0.029537 0.358202 -0.159834 0.123327 -0.259190 0.004069 -0.084453 -0.572495 -0.474215 0.364805 0.385197 -0.625562 -0.311963 -0.247055 0.207541 0.724133 0.123795 -0.052501 0.082677 -0.685793 0.273449 -0.076983 0.243478 0.403712 0.206569 0.110632 0.257976 -0.380243 0.074300 -0.059555 -0.396733 -0.018537 -0.381271 -0.175386 -0.251862 0.354115 -0.825833 -0.714021 -0.056847 -0.034175 -0.152473 -0.384271 -0.366715 0.057182 -0.127680 -0.251289 0.421176 -0.484362 -0.005201 -0.168051 0.302661 0.139086 -0.055782 0.374604 0.111395 0.327611 0.360953 -0.152670 -0.548514 0.239262 -0.045967 0.045338 0.539708 -0.691679 0.140227 -0.130415 -0.033775 -0.001141 -0.156246 0.499662 0.193821 0.158405 -0.117480 0.122591 -0.459896 -0.306142 -0.018997 0.161840 0.138024 0.062032 -0.018014 0.196588 0.025696 0.101831 0.176721 0.608437 -0.120569 0.002016 -0.220646 -0.109479 -0.106241 0.021558 -0.528317 -0.445831 -0.131309 -0.219813 0.147834 -0.022598 -0.159491 -0.023013 0.234682 0.210871 -0.299885 -0.632508 0.134769 0.026621 0.071169 0.066609 0.018848 0.056438 0.253404 0.083022 -0.211221 -0.156145 0.212090 0.414576
这 0.016583 0.078149 0.029349 0.256172 -0.062779 -0.099682 -0.145330 0.176881 -0.161541 -0.364210 0.301291 0.106675 0.025989 -0.222773 -0.151518 0.380658 0.124414 0.173490 -0.240539 -0.202947 0.143843 0.066163 -0.163964 -0.107053 0.030372 0.297439 0.333612 0.079256 0.253516 0.106219 -0.015745 0.277867 -0.056881 0.423204 0.174630 0.100409 0.275338 -0.098573 0.296844 -0.346811 -0.162034 -0.089241 -0.658388 -0.031250 0.030422 0.115977 0.076176 -0.046649 -0.084653 -0.161708 -0.155065 -0.301073 -0.116388 0.079812 0.033302 0.176710 -0.316374 -0.241843 -0.440974 -0.176638 0.106574 0.360064 0.141184 -0.075300 0.282173 0.045756 -0.256985 -0.078583 -0.171614 0.294639 0.131056 0.191391 -0.157877 0.229120 0.120634 -0.182459 -0.230736 0.027588 -0.165369 0.141784 0.068440 0.075295 0.158592 -0.002924 0.268134 -0.203937 0.347990 -0.125307 0.225532 0.159142 0.109839 0.168280 -0.101471 -0.130578 -0.116813 0.196361 -0.027890 -0.082437 -0.017326 -0.035793 -0.058444 0.108311 0.288609 -0.097325 -0.096421 -0.093790 -0.075842 -0.116845 0.157149 0.174367 -0.050703 -0.008413 0.026613 -0.391247 -0.105250 -0.256124 0.241019 -0.245001 0.145941 -0.129667 0.369426 0.195912 -0.109249 0.275042 -0.124774 -0.107077 0.260943 -0.114090
行 0.063816 0.374891 0.299795 0.016984 -0.417873 0.325319 0.107332 -0.022009 0.234014 -0.429689 0.410056 0.236737 -0.050040 -0.024025 -0.172814 0.357546 0.150530 0.259947 -0.163537 -0.056069 -0.073673 -0.045084 0.154610 -0.276684 0.122749 -0.360140 -0.278716 0.163682 0.464020 0.310035 0.176500 0.027139 -0.232128 -0.151150 0.034765 -0.404577 -0.266207 0.201576 -0.021731 0.230438 0.095690 0.055776 -0.048610 -0.441734 0.046787 -0.218710 -0.228335 -0.193192 -0.494597 -0.432840 -0.447652 0.095340 -0.312917 -0.495089 -0.244613 -0.518546 0.310162 0.111860 -0.369046 -0.210100 -0.001284 -0.253908 -0.097081 0.062968 -0.254647 0.032022 -0.074083 0.146302 -0.354088 -0.367430 -0.038616 -0.050339 -0.227026 -0.102955 -0.450298 -0.157731 -0.536582 -0.114473 0.410179 0.248759 0.239919 0.532525 -0.180021 0.133801 0.345405 -0.031305 0.422936 0.469743 -0.168824 -0.069914 0.260711 -0.409118 0.061382 -0.011076 -0.495942 0.152384 0.129545 -0.145603 -0.654047 -0.096329 -0.151891 -0.030694 0.218335 0.058062 -0.239977 0.660038 -0.276554 -0.228494 0.246533 0.066397 -0.252753 0.370775 0.637459 -0.214411 0.462920 0.035227 0.549897 0.078157 -0.091240 0.041907 -0.331233 -0.253639 -0.179759 -0.134139 0.096375 -0.160964 0.038445 0.339936
关 -0.217726 -0.206677 0.096568 -0.057410 -0.071059 -0.436665 -0.072143 0.099395 0.091220 -0.335283 0.923304 -0.434851 -0.166245 0.060052 -0.535491 0.158237 0.238082 -0.639926 0.088218 0.028763 0.299727 -0.382512 -0.082214 0.155821 -0.012952 0.319561 0.465630 0.265700 0.832765 0.131879 -0.034637 -0.084984 0.452051 -0.047844 0.153832 0.152031 0.382099 0.139423 -0.211890 0.202738 0.437121 0.250984 -0.209361 -0.336401 -0.303997 -0.100456 -0.366378 0.132131 0.022256 0.143861 0.428841 0.185068 -0.051802 0.395781 0.281475 0.262373 -0.209025 0.019555 -0.197173 0.074535 0.028233 0.051734 0.175792 0.075975 0.137842 0.064014 -0.428536 -0.246781 0.538964 0.125189 0.211673 0.394546 -0.329731 0.053932 0.404378 -0.465863 0.020903 -0.103367 0.186708 0.034438 0.494160 0.210469 0.234270 -0.278024 0.251039 0.420240 0.013616 0.149935 0.370757 -0.147682 0.006930 0.467227 0.216025 -0.241700 -0.044002 0.096194 0.538067 0.028664 -0.257353 -0.044083 -0.091316 0.049540 0.094817 -0.121707 0.573420 -0.027267 -0.075305 -0.345981 -0.304945 0.374416 -0.281423 0.126958 0.131911 -0.144783 0.173343 -0.468793 0.404891 0.098341 0.049145 0.454822 0.209243 -0.256396 0.450815 0.103861 0.190747 -0.546133 0.040363 0.079815
逾 -0.190837 0.257127 -0.539240 0.230957 0.206099 0.145957 -0.412842 0.418640 0.021314 -0.620880 0.276483 -0.263182 -0.273292 -0.365059 -0.361212 -0.039781 -0.448101 -0.409426 -0.197298 0.157137 0.044498 0.521279 -0.118316 0.128080 -0.247957 -0.169147 0.333183 0.407047 0.382613 -0.145141 0.134342 -0.016296 -0.481564 -0.279030 0.162878 0.107509 0.088639 -0.535694 -0.283514 -0.104356 0.021955 0.080881 -0.067823 -0.042945 0.127125 -0.033954 0.427920 0.279545 -0.026159 -0.012174 0.565873 0.080537 -0.640116 0.314298 -0.430173 0.367506 -0.009456 0.023822 0.040187 -0.410300 0.290897 -0.023596 0.501517 -0.040209 0.055991 -0.257798 -0.055073 -0.251896 -0.157649 -0.276784 -0.008396 -0.073368 0.072079 -0.046220 -0.214262 0.122056 0.087426 0.253328 0.427131 0.777065 0.067377 0.081837 0.100909 -0.224495 0.483767 -0.263430 -0.588510 0.208519 0.537454 -0.021942 -0.167528 0.177836 -0.231390 0.094314 0.026607 -0.106025 0.376616 -0.028754 -0.057719 0.009551 0.105600 -0.231835 -0.191192 -0.356683 0.068305 0.309708 -0.140532 0.103971 -0.513968 0.069596 -0.278169 -0.320794 0.192250 -0.116420 0.365726 -0.106572 0.293316 -0.291206 -0.211080 -0.198902 0.211378 -0.148721 -0.286691 0.221442 0.372342 -0.218624 0.071407 0.472102
上 0.023189 0.343426 0.144732 -0.164095 0.191370 0.382142 -0.139308 0.351802 -0.111700 0.030316 0.098872 0.412826 0.191539 -0.036805 -0.352136 -0.064750 0.324184 -0.030455 -0.118872 0.068505 -0.043095 0.050051 0.143451 0.145501 0.085613 -0.272160 -0.057859 0.428630 -0.161963 0.064495 0.125642 -0.153968 0.355316 0.584834 0.198967 0.034397 -0.005134 -0.080630 0.235860 -0.242205 0.174018 0.303757 -0.193830 0.487281 -0.038930 -0.069491 0.036465 0.021705 -0.193965 -0.164244 -0.216372 -0.236540 -0.050430 -0.183556 -0.191764 -0.081438 -0.277530 0.127437 0.145084 0.062430 0.192345 -0.188293 0.083425 -0.047007 -0.169976 0.114921 -0.148349 -0.116544 0.051090 0.118609 0.264968 -0.125095 -0.050051 0.321770 0.233126 -0.102588 -0.180071 -0.130940 0.070644 -0.002935 0.107348 -0.159497 -0.035735 0.189281 -0.027601 -0.392487 0.038984 0.381906 0.352162 -0.025730 0.060050 -0.186189 -0.200870 -0.196823 -0.392266 0.399248 -0.130773 -0.135839 -0.178365 -0.100566 0.205661 0.058646 -0.068339 -0.489549 -0.245600 0.355941 -0.286282 -0.174105 0.380979 0.414751 -0.002675 0.070182 0.268071 0.016081 -0.013565 -0.135296 0.231077 -0.102449 0.318517 -0.037833 0.468149 -0.148900 0.431355 -0.053672 0.468875 0.020332 0.257834 0.136055
动 0.518209 -0.414791 -0.027941 -0.351317 -0.150948 -0.044375 -0.124614 -0.161650 0.023053 0.132808 0.100387 0.564796 -0.070085 0.024694 -0.001267 -0.098760 -0.594712 0.268849 0.309760 0.289324 0.315571 0.042342 0.113546 0.257678 0.356580 -0.229420 0.011301 0.614776 0.295649 0.179525 0.519239 -0.009592 -0.022322 -0.135102 0.000722 -0.286013 0.759834 -0.011332 -0.028618 0.146635 0.012268 0.328381 -0.374941 -0.550402 -0.089365 -0.176224 -0.085856 -0.387865 0.011535 -0.257959 -0.230982 -0.388201 0.159820 0.121207 -0.634218 0.324269 0.084349 -0.158181 0.393284 -0.679615 0.189180 0.108691 0.082268 -0.009012 -0.673764 0.033031 -0.259357 -0.127045 0.337521 -0.218498 0.162544 0.302446 -0.446174 -0.636621 0.021583 0.516487 -0.200044 -0.102125 -0.311329 -0.223866 -0.068904 -0.168626 0.143615 0.007446 -0.309880 -0.006109 0.111470 -0.056226 0.175909 -0.157279 0.691587 -0.186828 -0.032798 -0.089250 -0.438370 0.020079 -0.003878 -0.626598 -0.154335 0.170409 -0.058656 -0.229777 0.375668 0.359692 -0.250589 0.582190 -0.069688 -0.177342 -0.343417 -0.044296 -0.089172 -0.178931 0.616386 -0.230168 -0.460925 0.121405 0.563504 0.086890 -0.143842 -0.118791 -0.193880 -0.233652 0.359585 0.346822 0.081981 0.131396 0.239291 0.352720
如 0.440868 -0.170253 0.181751 -0.521822 -0.196505 -0.263508 -0.008199 -0.366487 0.073258 -0.228373 -0.268785 0.138892 -0.221244 -0.023573 -0.451252 -0.043072 0.292965 0.118048 -0.507143 0.148795 -0.017987 -0.143936 0.056810 0.692082 -0.476665 -0.144588 -0.489944 0.169961 0.420384 0.574975 0.175126 -0.191885 -0.078451 0.343677 -0.028960 -0.184832 0.253146 0.179387 0.544804 0.130373 -0.274478 -0.171378 -0.361519 0.175362 -0.154009 0.334547 -0.482135 0.345742 0.167537 0.304871 0.542092 -0.375735 -0.058757 -0.033025 -0.414041 -0.228191 -0.567381 0.128349 0.068550 0.028521 0.210355 0.243674 0.138438 0.114059 0.030933 0.252363 -0.069795 0.236407 0.114960 -0.598144 0.171183 -0.272393 -0.248506 0.272218 0.174678 0.244230 0.271345 0.184632 0.418314 -0.137348 -0.273503 -0.100827 0.007296 0.167644 0.319846 -0.179657 -0.407439 0.078966 0.400331 0.575522 -0.085746 -0.159799 -0.072278 -0.041333 0.313468 0.103690 -0.013130 0.369328 0.465289 -0.201723 0.385074 -0.142480 -0.123983 0.379528 -0.419802 0.554679 0.008986 0.200598 -0.072065 0.576680 0.424764 0.241047 0.282325 -0.087681 -0.013587 -0.654553 0.731972 0.171260 0.297998 0.419000 -0.268677 0.037764 -0.135416 0.140198 -0.542859 -0.069834 0.064903 0.114858
已 -0.246378 -0.004295 0.102161 0.189078 -0.265377 0.210261 -0.017492 -0.037835 -0.068525 -0.271778 -0.157339 0.408967 -0.318716 0.006090 -0.362131 -0.148230 -0.132604 0.212824 -0.081558 0.212117 0.524165 -0.217737 0.076827 0.126013 0.004441 0.157928 0.078147 0.203705 0.075374 0.052422 0.045276 -0.178055 0.096069 0.384698 0.227494 0.364872 0.247986 -0.114070 -0.057402 0.852381 0.130470 -0.115661 -0.423620 -0.608641 0.496285 0.122001 0.176200 0.041446 -0.205479 0.191233 0.026635 -0.092897 -0.209240 0.291773 -0.552529 0.363647 -0.447265 -0.211668 0.041932 -0.086296 -0.474183 -0.157597 -0.088198 0.238141 0.264475 0.277674 -0.258749 0.085136 -0.196726 0.029563 -0.043391 0.128586 -0.210977 0.017801 -0.077932 -0.178844 0.152484 0.054292 0.314751 0.327565 0.188891 -0.042126 -0.275918 0.461275 0.295404 0.025629 -0.012910 0.137270 -0.251780 -0.136293 0.054535 -0.160942 -0.071838 -0.450250 -0.136880 0.090100 0.002275 0.428851 -0.316072 -0.247544 0.112911 -0.381376 -0.071712 0.139438 -0.149960 -0.224731 -0.083775 -0.432044 0.244880 0.676938 0.018719 -0.113590 -0.049800 -0.566336 0.119210 -0.259286 0.279686 -0.154556 0.385761 0.024556 0.540010 -0.002373 -0.037044 0.052707 0.029923 -0.148347 -0.124769 -0.306783
机 0.040358 -0.375075 0.061373 0.465770 0.149457 -0.031899 -0.037915 0.132503 0.007878 -0.516910 -0.578481 0.283369 0.060490 0.118156 -0.291705 0.275089 -0.331559 -0.380476 -0.259994 -0.121193 -0.094604 -0.156946 -0.296747 0.456404 0.335560 -0.292005 0.291359 0.179331 -0.012657 0.292722 -0.008292 -0.336530 0.104250 -0.118169 -0.130949 0.507462 0.084441 0.613187 -0.374082 -0.014041 0.009307 -0.602995 -0.086904 0.290759 -0.094255 0.703922 0.351735 0.525952 -0.379807 -0.144847 -0.267537 0.299062 0.048779 -0.006025 0.107063 0.129629 0.114610 0.063809 -0.154790 -0.026047 -0.199610 -0.324523 0.138647 0.035221 -0.228196 0.051662 -0.518894 -0.077328 0.063324 0.350572 -0.453672 0.276835 -0.101430 0.717276 0.034811 -0.269505 -0.165960 0.355976 -0.005305 0.098039 -0.210285 0.186757 0.369376 0.186644 -0.514412 -0.203979 0.597283 0.310491 0.123671 -0.319182 0.082618 0.002658 -0.197437 0.270586 0.065466 0.386100 0.190802 0.063667 -0.088644 0.033654 -0.108366 -0.000308 0.248514 0.135312 -0.265175 0.269948 -0.174500 -0.170340 0.088267 0.345842 -0.041490 -0.321117 0.245518 -0.101766 -0.030952 -0.326026 0.461259 0.153437 -0.249053 0.117742 0.224947 -0.111742 -0.349155 0.384503 0.249162 -0.375991 -0.066214 0.422673
显 0.320564 -0.160407 -0.149060 -0.058034 0.223232 -0.133242 0.264573 0.166018 -0.280354 -0.342790 0.164070 0.083742 -0.179972 0.238818 -0.307875 -0.039280 -0.162435 0.187236 -0.201481 -0.119559 -0.067995 -0.097124 0.165184 0.071886 0.333634 -0.044577 0.212343 0.085531 0.289564 -0.099645 0.250741 -0.261460 0.454644 0.266045 0.809748 0.103669 0.157818 -0.141226 0.336585 0.144224 0.365057 -0.166078 -0.125278 -0.281283 0.459645 -0.399150 0.016247 -0.229924 -0.325993 0.002521 -0.476987 0.073302 -0.095967 0.001261 0.075768 0.033488 0.187889 -0.472881 0.084580 -0.280373 -0.214445 -0.260454 0.314905 -0.254487 -0.077719 0.140803 -0.709808 0.078289 -0.390516 -0.235636 -0.009012 -0.600857 0.075787 0.181732 -0.171113 0.108386 0.166509 0.159586 -0.231465 0.175670 0.050123 0.108210 0.099615 0.057579 -0.113623 -0.044106 0.200387 0.123028 0.223834 0.564750 0.120252 -0.073139 -0.150267 -0.028571 -0.092009 0.320217 -0.509178 0.386645 -0.304607 -0.334190 -0.297136 0.281795 -0.155981 -0.296643 -0.007006 0.049094 0.007211 -0.216036 -0.569915 0.917206 0.237246 -0.325158 0.436694 0.049955 0.367055 0.211377 -0.095502 0.348333 0.014992 0.028683 0.334687 -0.172870 -0.166413 0.218193 0.030519 0.328716 -0.278836 -0.227101
单 -0.224564 0.115521 -0.041817 0.237398 0.165889 0.340090 -0.110348 0.303706 -0.205394 0.270681 -0.140161 0.218158 -0.320895 -0.261895 -0.352387 0.159756 0.115243 0.360336 -0.122046 0.455545 0.211125 -0.130080 0.135835 -0.008397 0.126677 -0.345626 0.574293 0.294337 -0.143290 0.225779 0.142548 0.080138 0.391475 0.253282 -0.014967 -0.419537 0.505511 -0.335816 -0.038644 -0.140522 -0.370825 0.419431 -0.478473 -0.463021 0.194043 -0.397437 -0.368481 0.223295 -0.320857 0.193816 0.030737 -0.128168 -0.587818 0.282088 -0.212550 -0.231004 -0.530809 0.139583 -0.223550 -0.542705 -0.195305 0.066575 0.206527 0.065748 -0.056672 0.113286 -0.225385 0.301725 -0.335629 -0.254654 -0.328270 0.152251 -0.230021 -0.163089 0.004377 -0.309763 0.112386 0.105512 -0.280818 -0.167847 -0.176327 0.234292 0.314562 0.194956 0.297396 -0.328853 0.426593 0.272428 -0.150127 0.346421 -0.386511 0.223409 -0.402551 -0.105504 -0.037222 0.452015 -0.605953 0.276559 -0.108768 0.423428 -0.231132 -0.329390 -0.254226 -0.023863 -0.059972 0.287505 -0.052428 0.452671 0.228232 0.248943 -0.087335 -0.389351 -0.231710 -0.237921 -0.030475 -0.075537 0.126544 -0.079753 -0.309632 -0.214286 -0.222442 0.171348 0.261997 -0.045738 -0.451307 -0.343658 -0.394197 -0.104434
银 0.057375 -0.035398 0.339436 0.001172 -0.471611 0.536442 0.057394 -0.122495 -0.143948 -0.692672 0.419094 0.116062 0.093425 0.012935 -0.085065 -0.056652 -0.142647 -0.032044 0.019093 -0.083514 -0.250192 -0.028640 0.770891 0.093936 0.067070 -0.639650 -0.075736 0.358541 -0.042390 -0.240491 0.319484 0.231306 -0.038991 -0.101234 0.460693 0.036119 -0.320925 0.461583 0.273382 0.034227 0.260813 -0.270369 0.282245 -0.494981 0.227460 -0.332276 -0.297240 0.363432 -0.193870 -0.129447 -0.073802 -0.147447 -0.289579 -0.179366 -0.319483 -0.433591 -0.028931 0.492179 -0.048044 -0.006447 -0.259420 0.163484 -0.199206 -0.048959 0.132704 0.380341 -0.222182 -0.327989 0.025661 -0.359364 0.114826 0.177044 0.149114 0.208115 -0.391688 0.283161 -0.110396 0.099722 0.154391 0.184399 0.359339 0.010996 -0.160458 -0.393120 0.149427 -0.025640 0.367233 0.040393 -0.115485 0.259390 0.237272 -0.224818 0.205995 0.238647 -0.612846 -0.103320 0.182466 0.156274 -0.816130 0.146715 -0.287713 0.107863 0.646434 -0.334264 -0.103388 0.443514 -0.184874 -0.302972 0.463243 0.090166 0.054225 0.223913 0.458625 -0.397377 0.475732 -0.391750 0.983661 0.154742 0.003467 -0.154475 0.080086 0.092610 -0.405880 -0.264112 -0.329785 -0.299178 -0.168747 0.016270
自 0.162821 -0.026724 -0.085309 -0.449972 -0.342394 -0.520129 -0.124333 0.067266 -0.068826 0.038894 0.039994 0.168445 0.284905 0.054536 -0.133252 -0.047297 -0.328362 0.331718 -0.052628 0.140127 0.086417 -0.134449 0.209727 0.349693 0.416038 -0.808359 0.445410 0.255770 0.614494 0.190794 0.254032 0.213295 0.385356 0.240458 -0.119272 -0.131853 0.107701 -0.287096 0.246728 -0.025745 0.111342 0.067922 -0.032747 -0.429872 0.290016 0.034914 0.124167 -0.177811 0.047048 -0.181435 -0.167162 0.109988 0.187381 -0.288012 -0.604806 0.306851 -0.378189 -0.524690 -0.094987 0.131069 -0.149559 0.379486 -0.147183 0.270443 -0.463754 0.190517 -0.370350 -0.233129 -0.024333 -0.272410 0.179849 -0.043515 0.109110 -0.191688 -0.198413 -0.082557 -0.477862 -0.138589 0.095225 -0.138308 -0.118112 -0.335802 -0.019674 -0.289828 -0.148459 0.170326 -0.231945 -0.179133 0.311106 -0.199936 0.475399 0.133861 -0.115274 -0.004211 0.041100 0.139271 0.357717 0.180524 -0.472044 0.306428 -0.109140 0.205525 0.337601 0.303254 -0.164914 0.483410 0.512438 0.185281 -0.301381 -0.077106 0.391928 -0.485983 0.259447 -0.247514 -0.040760 0.121035 1.120545 0.207187 -0.303951 -0.352727 -0.128909 -0.016578 0.338749 0.269016 0.244688 -0.294877 0.073971 -0.068642
请 0.232645 -0.496146 -0.066788 0.210755 0.252338 -0.460965 -0.641844 -0.040495 -0.013838 -0.163856 0.122922 0.141767 0.089894 0.158079 -0.327549 0.144392 0.375579 0.134828 0.384102 0.525926 -0.071688 -0.201553 -0.107755 0.176500 -0.254813 -0.455184 0.328601 0.049177 -0.222746 -0.407653 0.167345 0.301284 0.350061 0.211017 0.186302 0.173460 0.108696 0.269494 0.637186 0.157710 0.076941 -0.047740 -0.329968 -0.175818 -0.128665 -0.203100 -0.139888 -0.201277 -0.383381 0.255143 -0.009147 -0.063061 -0.289769 -0.199882 -0.400035 -0.226369 -0.361646 -0.344879 0.129193 0.115438 0.235408 -0.328187 0.477763 -0.010786 0.186060 0.124916 -0.728412 0.122249 0.095042 -0.183178 0.000137 0.150517 0.475615 0.010185 -0.259979 0.271063 0.689702 -0.158115 -0.090693 -0.030904 0.054413 0.346001 -0.222196 -0.311667 0.264467 0.181365 0.044370 0.549735 -0.192182 0.188688 0.073886 -0.033905 -0.215454 -0.054775 0.243397 0.054252 0.453320 -0.384322 0.195739 -0.314302 -0.305663 0.080923 0.295319 0.008806 0.150056 0.188238 -0.188724 -0.262778 0.022124 -0.259430 0.445165 0.170596 -0.053234 0.180649 -0.139602 -0.647595 -0.070670 0.472411 -0.168818 -0.366864 0.039870 0.191131 0.015678 0.383742 -0.091228 0.190283 0.360561 0.437327
何 0.332362 0.031198 -0.152166 -0.488913 -0.293795 -0.096127 -0.408058 -0.396009 -0.183590 0.020664 -0.111645 0.181667 0.107222 0.322027 -0.608585 0.153100 0.214728 0.391038 -0.036625 -0.191362 0.239274 0.011652 0.329122 0.369746 0.255123 -0.116007 -0.073986 0.325410 -0.303403 0.205342 -0.118074 0.277222 0.349247 0.289779 -0.036117 0.600607 -0.062777 0.338318 -0.079302 0.261496 -0.516079 0.052968 -0.686333 -0.062527 -0.018227 -0.226787 -0.208312 0.635451 0.331418 -0.247157 0.243890 0.118208 -0.226721 0.692568 -0.169226 -0.067213 -0.050157 -0.812593 0.047245 -0.016706 -0.256687 0.315562 -0.211937 0.238985 0.072997 -0.270441 -0.148727 0.351603 -0.179114 -0.265380 0.217283 -0.543386 -0.284323 -0.243415 0.417213 -0.076505 0.402278 -0.193160 0.255513 -0.353794 0.064639 0.210642 -0.195497 -0.208328 -0.171108 -0.366918 0.107057 -0.097043 -0.020511 0.024670 -0.162739 -0.099827 0.007500 0.085914 -0.065398 0.294556 0.376770 0.415186 0.494538 -0.072971 0.208063 -0.107270 -0.452456 0.392815 0.219171 0.494538 -0.072899 0.204813 0.079730 0.124199 0.100086 0.163078 0.481444 -0.338020 -0.120610 -0.554697 0.711705 -0.110962 0.013046 -0.040664 -0.288474 -0.228964 -0.385490 -0.101447 -0.047216 -0.042819 -0.338292 0.301750
消 -0.096793 -0.328223 0.354333 -0.378264 0.269942 -0.210969 -0.322346 0.335600 -0.024531 -0.281061 -0.001443 -0.062283 -0.028557 0.136087 0.135895 0.309160 -0.188801 -0.106771 0.032294 -0.029182 -0.173357 -0.018040 -0.244180 -0.003789 -0.079650 -0.004979 -0.023007 -0.099093 -0.096652 0.248476 0.162958 0.294091 -0.006208 0.542694 -0.286297 0.279864 0.351914 -0.197734 -0.492467 -0.341376 -0.119602 0.396614 -0.011741 -0.327590 -0.005096 -0.075170 -0.065033 0.535898 -0.508248 0.157566 -0.295492 0.180239 -0.086661 -0.188154 -0.280875 -0.366338 -0.154447 -0.370017 -0.038628 -0.094441 0.361752 0.103923 0.538894 0.279106 -0.089320 0.129240 0.276236 -0.115241 -0.114237 0.238266 0.085097 -0.295147 -0.196635 -0.114792 -0.160297 0.027334 0.325297 -0.167779 -0.103251 -0.043677 0.432098 -0.221883 0.524300 -0.113874 0.283747 -0.024014 -0.120366 0.090308 0.094054 0.586426 0.058776 0.307023 0.177818 -0.218440 -0.061987 -0.155068 0.064381 -0.390716 -0.355949 0.002715 0.166149 0.179316 0.138231 -0.200180 0.616190 0.145963 -0.168999 0.299238 -0.217011 0.476158 -0.138957 -0.117648 0.473510 -0.347091 -0.087182 -0.423933 0.475802 0.122335 0.237310 0.562240 -0.443161 -0.129511 0.212080 0.427308 0.204424 0.308521 -0.241408 -0.246339
余 -0.081970 -0.194763 0.045614 -0.152295 -0.289494 -0.044085 -0.142488 -0.251284 -0.208818 -0.374328 -0.029285 -0.249340 0.043285 0.137695 -0.068790 -0.174896 -0.290294 -0.478144 -0.510175 -0.163837 0.340358 -0.077667 0.344944 0.115617 0.256294 -0.381672 0.118235 0.743089 0.577912 0.124615 0.388431 0.112818 0.393486 -0.099275 0.292143 -0.122282 -0.106865 -0.189714 0.040394 0.018470 0.452888 0.002752 -0.376696 -0.077607 0.095621 -0.104155 0.055573 0.094093 -0.017152 -0.529593 -0.238757 -0.025863 -0.021216 0.152713 -0.541669 -0.364238 -0.631816 0.009538 0.227000 -0.016965 -0.045069 0.281163 -0.329232 -0.166679 -0.656063 0.136682 -0.198574 0.151910 -0.024608 0.035318 0.120633 0.268254 0.072827 -0.312107 -0.704882 -0.492119 0.298860 0.051050 0.179860 -0.191150 0.287226 -0.687857 -0.127114 0.114467 0.193604 -0.128560 -0.094038 0.041842 0.331387 0.128203 -0.264980 -0.096586 -0.119937 -0.008297 -0.093297 0.120507 -0.232772 -0.427708 0.008668 -0.283121 -0.003200 -0.116179 0.259717 -0.009939 0.302129 0.690403 -0.125596 0.048698 0.223381 0.018888 -0.002853 -0.207237 0.538864 -0.016600 -0.258798 0.516971 0.369783 0.015582 -0.684324 0.124555 0.286511 0.264788 -0.242687 -0.173377 -0.254870 0.053417 0.311592 -0.145966
息 -0.263319 -0.218986 -0.276133 -0.111320 0.242561 0.340721 -0.163717 -0.171091 -0.092907 -0.613806 0.059433 -0.541552 0.730293 -0.472970 -0.554247 -0.062323 0.511236 0.368118 0.645828 0.174956 -0.423958 0.179191 0.130370 0.033711 0.062002 0.051548 -0.181829 0.389833 0.009116 0.138969 0.688051 -0.010104 -0.025626 0.042060 -0.015339 -0.299407 -0.153493 -0.382580 0.120116 -0.217687 0.087369 -0.029887 -0.105352 0.237394 0.485016 -0.540562 0.281995 0.283372 0.327542 0.221364 0.485130 -0.214810 -0.198778 0.567300 -0.419169 -0.021316 -0.113485 -0.470874 -0.713265 -0.343173 -0.130463 -0.226978 0.691835 -0.092755 -0.057650 -0.381903 0.016779 0.138649 0.250184 0.063796 -0.094001 0.175798 0.610111 -0.073040 -0.179770 0.092451 -0.119566 -0.181585 -0.000653 0.391445 0.597356 -0.011955 0.298692 0.581248 -0.011237 -0.190742 0.740569 0.242173 0.483584 0.178928 -0.023726 0.106299 -0.372453 -0.534293 -0.009088 -0.063771 -0.200774 0.134989 -0.261083 0.018533 0.466609 -0.399037 0.055936 0.330179 -0.242051 0.193027 0.213192 -0.080564 0.233880 -0.610597 0.207786 -0.259101 0.445807 0.037165 -0.015828 -0.253226 0.387732 -0.169257 0.044296 0.737127 -0.138465 0.082700 -0.412474 -0.237759 0.343452 -0.011038 -0.228936 0.258752
样 -0.597008 -0.251588 -0.152909 -0.321217 -0.205193 -0.244622 0.105938 -0.304723 0.326010 -0.092838 0.151482 0.236701 0.104736 -0.020932 -0.257183 -0.140097 0.675385 -0.216687 0.262755 -0.148155 0.047326 0.275395 0.320055 0.242190 -0.008222 -0.182740 -0.014294 0.426305 0.065230 0.283657 0.217471 -0.227470 0.146655 0.175957 0.138548 0.261998 -0.166022 -0.161412 0.000750 0.225020 -0.629932 0.268582 0.104322 -0.059150 0.258719 0.220824 0.046464 0.043920 -0.164774 0.483776 0.085663 -0.064788 0.095577 -0.178885 -0.174018 -0.212413 -0.144523 -0.187081 -0.105211 -0.251639 -0.214939 -0.221932 0.034979 0.354119 -0.105151 0.042228 -0.551392 -0.070873 -0.047700 -0.123524 -0.025049 -0.104580 -0.201644 -0.206030 0.354681 0.311914 0.124347 -0.093289 0.119622 -0.167626 0.140514 0.002106 0.219924 0.579053 -0.070284 0.020637 -0.550520 0.203514 -0.242617 0.228782 0.293827 0.258596 0.257996 -0.113324 -0.093096 -0.119737 -0.033351 0.272659 0.110944 0.342388 -0.147014 0.072963 -0.113447 0.125685 -0.239217 0.220572 0.037557 -0.132013 0.152916 0.228210 0.017091 0.077223 0.188635 0.130654 -0.088104 -0.641658 0.243821 0.115358 -0.130620 -0.130526 0.234148 0.065436 -0.335199 0.258685 0.247935 0.068830 0.379442 -0.113743
候 -0.575914 0.154850 0.090812 -0.005451 -0.471255 -0.498877 0.210259 -0.064597 -0.062490 0.152008 -0.363500 0.093487 0.078797 0.487737 -0.292758 0.010321 0.173038 0.295373 -0.074027 0.154532 0.598649 -0.094921 0.060581 0.058377 -0.591342 0.091006 0.076737 0.291274 0.110466 -0.401648 0.051446 0.182530 0.231859 0.364871 0.248364 0.442561 -0.253013 0.173468 -0.122788 -0.451903 -0.174048 -0.331247 -0.320443 -0.534521 0.114712 0.239062 -0.312345 0.011005 0.500110 0.487279 0.114578 -0.444476 -0.275239 -0.158034 -0.334052 0.015321 -0.095080 -0.155650 0.273151 -0.623927 0.311964 -0.096165 0.209032 -0.013567 -0.175612 0.467044 -0.296163 -0.615091 0.292053 0.087808 0.067075 0.072233 0.067423 -0.081230 -0.120261 -0.115725 -0.336371 -0.162264 0.236647 -0.055431 -0.614943 0.106583 0.355761 0.245664 0.164283 -0.083017 -0.481209 0.092636 -0.094483 -0.069928 0.151126 -0.254868 -0.235158 0.134682 -0.442038 0.345799 -0.148088 -0.224835 -0.269636 -0.171094 -0.068958 0.087322 -0.082693 0.093770 0.027977 0.368358 -0.185813 -0.308341 -0.064584 -0.178084 0.239857 0.146090 0.255219 -0.717807 0.301747 0.058702 -0.296821 -0.381919 -0.137291 0.091111 0.103818 -0.066694 -0.492001 -0.061583 0.404041 0.030202 -0.373572 0.160049
