1619 32
呗 -0.087418 0.018929 -0.155776 -0.133260 0.064516 -0.187857 -0.012114 0.003386 0.078764 -0.537601 0.229255 0.139257 0.013792 0.270104 -0.194492 0.133379 0.144008 0.210033 -0.077579 0.037959 0.234807 0.093334 0.147608 -0.037568 0.000321 0.123138 0.211217 0.274203 0.019696 0.171388 0.174742 0.031495
花 -0.173074 0.075750 -0.059930 0.032628 0.074057 -0.200130 0.014905 -0.111033 -0.033010 -0.527994 0.226756 0.289094 -0.008610 0.178587 -0.145137 0.227877 0.101557 0.190163 -0.112176 -0.015639 0.305563 0.136876 -0.041433 -0.116451 0.098790 0.023827 0.214596 0.319834 0.095587 0.334279 0.090549 -0.038958
么 -0.096151 -0.229430 -0.396365 -0.383207 0.025110 -0.144976 -0.178894 -0.233137 -0.072521 -0.522414 0.431644 0.328401 -0.020518 0.136697 -0.249656 0.142344 0.178842 0.077708 -0.033672 0.100693 0.261114 0.402656 0.264723 -0.220412 0.207429 0.201139 0.049833 0.292693 0.367884 0.053998 -0.278540 -0.011459
还 0.126405 -0.160015 -0.131201 -0.036165 -0.138558 -0.141927 -0.172267 0.229458 0.132202 -0.721385 0.417959 0.082276 0.290727 -0.168186 0.073867 0.280661 -0.175451 0.179453 -0.162200 0.469776 0.006571 0.148092 0.076886 0.094840 -0.199770 0.208958 0.181887 0.345598 0.216914 -0.136375 0.564791 0.309258
借 -0.112044 -0.187887 -0.377700 -0.458361 -0.069034 -0.177125 -0.080365 0.036595 0.273113 -0.628470 0.408897 -0.174540 0.171111 0.148184 -0.374002 -0.039832 0.432595 -0.014022 0.020310 0.289834 0.230420 -0.038827 0.313885 0.070596 -0.235344 0.226215 -0.044011 0.269939 -0.048245 -0.134087 0.380196 0.223768
我 0.076987 -0.111030 -0.397868 0.074163 -0.265099 0.005441 -0.209638 0.239131 -0.182882 -0.599912 0.317405 0.279415 -0.080885 -0.074307 -0.367198 0.146392 0.255877 0.053454 -0.156025 -0.142318 0.253527 -0.081680 -0.034164 -0.056097 -0.144138 -0.044260 0.236534 0.136526 0.452694 0.191821 0.033125 -0.095138
款 -0.008044 0.016711 0.071345 -0.011721 0.236447 -0.208437 0.110550 0.046714 0.072903 -0.650175 0.029384 0.089788 0.122804 0.134786 -0.069792 0.289580 -0.162365 0.350732 0.105463 0.251360 -0.021419 0.295675 0.253343 -0.011005 -0.099103 0.240373 0.305393 0.566500 0.260549 -0.147576 0.581319 0.187141
的 0.019772 -0.093057 -0.304577 -0.013090 -0.065066 0.009288 0.015054 0.144534 -0.117514 -0.637576 0.272420 0.086510 -0.129498 0.117237 -0.222813 0.122543 0.035281 0.095949 -0.150956 -0.088213 0.094153 0.186947 0.086415 -0.011044 0.155850 -0.151088 0.345279 0.164779 0.089458 0.157469 0.064781 0.049695
了 -0.082350 0.060654 -0.535888 -0.144344 -0.115964 -0.145600 -0.260823 0.122532 -0.047489 -0.486487 0.187623 0.424766 -0.237941 -0.140392 -0.445070 0.250195 -0.268720 0.055867 -0.109043 0.136446 0.284785 -0.075781 0.113957 -0.212433 -0.076734 0.237880 0.186418 0.291134 0.268503 0.193202 -0.054126 0.072663
用 -0.655082 0.112333 0.202410 0.185745 -0.266852 -0.106022 0.167494 0.032262 0.097465 -0.668237 -0.033200 0.291747 -0.120272 -0.135652 -0.306195 -0.332047 -0.057700 -0.050126 -0.388884 0.101439 0.207392 0.298568 -0.115170 -0.268282 -0.073789 0.047804 0.285792 0.286892 0.059530 0.219347 0.232067 -0.411801
不 -0.185176 -0.022024 -0.204377 -0.082303 -0.044951 -0.107250 0.070871 -0.131378 -0.009869 -0.359670 0.315654 0.193774 -0.151666 0.257046 -0.185650 0.016205 0.106624 -0.170672 -0.144597 0.039906 0.193339 0.152228 0.123085 -0.306225 0.101077 0.187066 0.130354 0.458941 0.141549 0.085311 -0.011919 -0.130125
怎 -0.077121 -0.092748 -0.428118 -0.313460 0.101295 -0.485025 -0.332502 -0.418892 0.084365 -0.403358 0.612702 0.142612 -0.250006 0.261372 -0.257796 0.407834 -0.021947 0.098225 -0.028629 0.019900 0.162030 0.220442 0.178255 -0.111518 0.349938 0.060122 -0.082924 0.350128 0.165879 0.180461 -0.316166 0.037953
吗 -0.172101 0.012884 0.175323 -0.089010 0.284685 -0.469058 0.213508 -0.121132 0.210019 -0.563141 0.200003 0.096071 0.100791 0.296927 0.005335 0.195535 -0.344895 -0.284620 -0.187988 0.291861 0.366477 0.168888 -0.009601 -0.229219 -0.060268 -0.105055 0.529945 0.324361 -0.467624 0.366933 0.477310 -0.077645
什 -0.000593 -0.199564 -0.268253 -0.503835 -0.043651 0.172831 -0.036910 -0.042264 -0.272036 -0.703796 0.203372 0.287532 0.310675 0.087145 -0.256463 0.080097 0.294541 0.196609 -0.183112 0.105227 0.297884 0.473981 0.297096 -0.388393 0.058312 0.217289 0.254603 0.206766 0.646104 0.067004 -0.202731 -0.213545
期 -0.195827 0.200693 -0.001496 -0.307438 0.104574 -0.276218 -0.058409 0.027171 0.254118 -0.734006 0.149257 0.169086 0.278119 -0.375752 -0.123306 0.322801 0.123229 0.078567 0.096222 0.795943 0.111026 0.426297 -0.109486 0.249252 0.017743 0.464264 -0.172269 0.631749 -0.331613 0.536923 0.373360 0.333817
是 0.186819 0.015312 -0.209439 -0.213908 -0.300840 0.093528 -0.184830 0.237020 -0.244715 -0.624367 0.306344 -0.039362 0.078407 0.103040 -0.013059 0.115773 -0.141073 -0.062048 0.013939 -0.138329 -0.093742 0.186430 0.122413 -0.080830 0.173122 0.056979 0.443153 0.203608 0.268284 0.124028 0.263237 -0.022076
额 -0.385277 -0.330851 -0.180043 -0.597753 -0.177409 -0.494890 -0.278503 -0.043749 -0.183389 -1.002519 0.069600 -0.288002 -0.121930 0.144528 0.750271 -0.162648 0.108547 0.104153 0.080393 -0.068323 0.437930 0.070215 0.342483 -0.141245 -0.200724 -0.158336 0.215380 0.086455 0.173076 0.385139 -0.013826 0.350217
能 -0.391185 0.128175 -0.145813 -0.044661 -0.111405 -0.187493 -0.119986 -0.288522 0.272110 -0.447517 0.141079 0.354542 0.168394 0.246101 -0.240357 0.100279 0.125857 0.019263 -0.220798 0.129002 0.595685 0.192835 0.213022 -0.055946 -0.124529 0.366713 0.379705 0.193697 -0.002402 0.396103 -0.008937 -0.099944
可 -0.324378 0.187535 0.086558 0.221596 0.179053 -0.140866 -0.111052 -0.099340 0.270091 -0.404860 0.216819 0.277859 0.030705 0.319123 0.141568 0.042992 -0.023083 -0.045829 -0.304297 0.343594 0.578276 -0.034737 0.238357 0.094287 -0.409391 -0.041002 0.455784 0.442093 -0.583081 0.369375 0.478514 -0.166748
以 -0.319295 0.171671 0.088106 0.307748 0.090444 -0.144969 -0.035506 -0.055941 0.258130 -0.417875 0.265326 0.290890 0.030772 0.242364 0.131959 0.082262 -0.075015 -0.005515 -0.358058 0.473934 0.644033 -0.064977 0.199925 0.092058 -0.280922 0.009494 0.437420 0.414848 -0.517173 0.373773 0.483415 -0.205170
有 0.094461 0.067800 -0.277671 -0.413436 0.147742 -0.276733 -0.002515 0.277719 -0.080143 -0.872636 0.017940 -0.053576 -0.174488 -0.201264 -0.051357 0.044349 0.287524 -0.154217 -0.132755 0.124302 -0.073078 0.448459 0.219530 -0.095551 0.291046 -0.092904 0.263123 0.047386 0.182611 -0.027608 0.180082 0.044382
为 0.082239 -0.201271 -0.445043 -0.320915 -0.036572 0.251083 -0.071041 -0.087092 -0.087928 -0.749389 -0.008057 0.347268 -0.019658 0.201415 -0.285647 -0.172508 0.394145 0.242922 -0.304755 0.011938 -0.013350 0.137042 0.068790 -0.372891 -0.162387 0.179409 0.053701 0.235784 0.754400 -0.009643 0.017637 -0.162305
付 -0.034360 0.271557 0.218326 0.487829 -0.081369 0.046092 0.227611 -0.401437 -0.226594 -0.430595 0.200294 0.131008 -0.302852 0.148025 0.142501 -0.222404 0.112526 -0.008230 -0.294434 -0.029662 -0.085921 0.078662 0.137272 -0.221089 0.311332 0.023695 0.315264 0.657638 0.376219 0.425855 0.596578 -0.058402
蚂 -0.071542 -0.228348 -0.392262 -0.447788 -0.143045 -0.077338 -0.005548 0.058285 0.477228 -0.713103 0.363026 -0.140496 0.226918 0.344342 -0.531089 -0.122765 0.533347 0.198800 -0.020848 0.139171 0.303763 0.026764 0.167406 0.097908 -0.374487 0.193877 -0.059456 0.231325 -0.028969 -0.195578 0.224305 0.108861
蚁 -0.207803 -0.208698 -0.360275 -0.364322 0.003504 -0.051291 0.097304 -0.009886 0.330232 -0.539725 0.371873 -0.176277 0.212215 0.415115 -0.537606 -0.317757 0.566762 0.236009 -0.077491 0.314731 0.222081 -0.073182 0.255701 -0.053033 -0.200962 0.274366 -0.045813 0.344080 -0.092397 -0.109193 0.383048 0.368233
分 -0.084419 0.113196 0.101614 0.062695 -0.290907 -0.284642 -0.315360 0.034995 0.001691 -0.956827 0.002004 -0.042688 0.041804 -0.160032 0.106485 -0.107751 0.072689 0.280977 -0.336796 0.400718 0.099970 0.400993 -0.241404 0.287194 -0.057226 0.409194 -0.539400 0.422073 -0.577814 0.395315 0.636420 0.100884
度 -0.344474 -0.138727 -0.310548 -0.516872 -0.363680 -0.537087 -0.447574 0.128186 -0.034387 -1.107874 0.176302 -0.568485 -0.152011 -0.163213 0.571560 -0.310971 0.090480 0.018223 0.209780 0.072229 0.713413 -0.150663 0.233373 -0.150874 -0.321066 0.025075 -0.323423 0.113137 0.244102 0.578630 -0.237130 -0.127657
开 -0.712430 0.103849 0.453694 0.457511 -0.281040 0.166212 -0.227110 0.037505 0.126411 -0.543152 0.372491 0.000001 0.247825 -0.137958 -0.634587 -0.056666 0.747971 -0.248519 -0.092509 -0.174336 0.248654 -0.301315 0.391455 -0.036114 0.275663 0.274475 0.506660 0.391854 0.674802 -0.230500 0.162908 -0.186813
没 0.266038 0.184142 -0.468198 -0.322586 0.098541 -0.209937 -0.116854 0.300402 -0.014789 -0.913768 -0.006073 0.045092 -0.302340 -0.003534 -0.062659 0.069466 0.097766 -0.022686 -0.003392 -0.111552 0.169526 0.241651 0.137249 -0.271785 -0.043213 0.027217 0.093886 0.209373 0.379291 -0.295340 -0.042591 0.142265
钱 -0.347895 0.131818 -0.567275 0.361036 -0.154612 -0.231940 -0.325272 0.080029 0.188163 -0.665677 0.091828 0.224363 -0.141769 -0.138140 -0.124588 0.234843 -0.235114 0.248703 0.037346 -0.293049 -0.023572 0.262680 0.641257 -0.162805 -0.153523 -0.099623 0.136953 0.336325 0.267254 -0.143284 0.459424 0.226499
支 -0.069455 0.156601 0.016299 0.381035 -0.000538 0.240577 0.452619 -0.392631 -0.143456 -0.400851 0.208309 0.094661 -0.423174 0.453743 0.050925 -0.426398 0.238412 -0.174233 -0.373896 -0.202583 0.079202 -0.017051 0.136493 -0.342535 0.197294 0.126740 0.406683 0.582433 0.551724 0.546150 0.556113 0.093633
通 -0.774660 0.293808 0.450846 0.282447 -0.223845 -0.118246 -0.339751 0.191884 0.168498 -0.581677 0.120168 0.102344 0.022648 0.211361 -0.578238 -0.001156 0.520112 -0.365420 -0.018238 -0.334344 0.317334 -0.357214 0.169417 0.116350 0.455637 0.262120 0.076561 0.339007 0.802670 -0.438628 0.320858 -0.219976
一 0.126044 0.275576 -0.305189 -0.072174 -0.018908 0.028195 -0.385849 -0.019319 -0.147414 -0.604463 0.131356 0.055903 0.142833 0.122187 -0.214952 0.135111 0.036801 -0.717098 -0.659293 0.259926 0.309208 0.190090 0.222014 0.417354 0.423704 0.292735 0.445772 -0.051118 -0.241366 0.306803 0.664164 0.266033
个 0.288232 0.231156 -0.450728 0.301118 -0.265167 0.235670 -0.173244 0.195730 0.168306 -0.753659 0.275362 -0.073153 0.038586 -0.233469 -0.053873 0.279790 0.321589 -0.327239 -0.179722 0.106222 0.587530 -0.121344 0.004376 0.467047 0.592260 0.540061 0.642711 0.129283 0.104111 0.656082 0.386448 0.345503
在 -0.133500 -0.011313 -0.347163 0.128626 -0.140153 0.093433 -0.060427 0.426005 0.024589 -0.320535 -0.038021 0.525659 -0.368001 -0.204586 -0.061207 0.138476 0.304413 0.259699 -0.493086 -0.151381 0.294222 0.155613 0.276458 0.163638 0.041066 -0.070176 0.559821 0.766506 -0.372935 0.061774 -0.133662 0.207062
宝 -0.442837 -0.009855 -0.488936 0.464073 -0.300287 0.394777 0.578818 -0.571157 -0.091480 -0.687304 0.446102 0.162515 -0.309662 0.173976 0.230844 -0.280775 0.347790 -0.032936 -0.317855 -0.044061 0.175087 -0.113496 0.009534 -0.333492 0.571845 -0.238382 0.512134 0.736444 0.187003 0.058880 0.337450 0.509868
提 0.078476 -0.708226 0.359894 -0.039078 -0.182245 -0.589408 -0.191899 0.965662 0.127649 -0.923682 0.789183 0.019763 0.112342 0.028958 0.404370 -0.260104 0.308196 0.404996 -0.354957 0.304780 0.095697 -0.173824 0.434264 0.175999 -0.038133 0.360846 0.060498 0.354668 -0.082423 -0.164524 0.177882 -0.089941
到 -0.226092 -0.031491 -0.596911 0.414521 0.331597 0.001691 -0.203349 0.184563 0.151315 -0.743934 0.003352 0.042504 -0.264451 -0.045222 -0.257081 0.087180 0.009961 0.156430 -0.061628 -0.331608 0.269774 0.712169 0.460342 0.293197 -0.158136 -0.075354 0.375223 0.179688 0.215382 -0.218630 0.348080 0.409375
时 -0.502897 0.112941 -0.076236 -0.471644 0.035068 0.105379 -0.468754 -0.123462 -0.083104 -0.925706 -0.090771 -0.096371 0.326023 0.563688 0.665460 0.167263 0.249768 -0.067255 -0.310672 0.464752 0.852594 0.430502 0.063393 0.605818 -0.044535 -0.176861 -0.230155 0.112119 0.603437 0.045282 0.055557 -0.256328
号 0.081832 0.240482 -0.529293 0.398928 -0.177152 0.608635 -0.132637 0.461749 0.533188 -0.581313 0.677137 -0.102052 -0.309088 0.058450 -0.177464 -0.243666 -0.399500 -0.182493 -0.019458 0.307601 0.464765 -0.381031 0.089812 0.493543 0.854842 0.221889 0.190547 0.543417 0.360751 0.710409 0.049453 0.085994
月 0.351408 0.067115 -0.373078 0.318194 -0.730918 0.399813 -0.441796 0.556293 0.318159 -0.862495 0.216573 -0.362658 0.481207 0.065358 0.179769 0.340294 0.274599 -0.200806 0.055278 0.686381 0.471625 0.461561 -0.151342 0.185621 0.256640 0.711820 0.079420 -0.201551 0.349245 0.505867 1.010082 0.500094
多 -0.654670 0.214441 -0.345915 -0.400988 0.064636 0.000658 -0.870100 0.050531 0.182898 -0.978568 0.055861 -0.004047 0.901534 0.044435 0.075576 0.332655 -0.291791 0.013201 -0.002148 -0.746789 0.144483 -0.103404 0.087138 -0.432277 -0.235528 -0.087511 -0.019711 0.287243 -0.329754 0.655495 0.751668 0.151557
账 0.159327 0.548923 -0.240854 0.352155 0.387615 0.316090 -0.295120 -0.026232 0.389826 -0.721464 0.683255 0.138843 -0.319966 0.182964 0.156941 -0.012657 0.420108 -0.137465 -0.091321 0.305831 0.293983 0.127203 -0.455337 0.453368 0.382337 -0.004076 0.640807 0.198945 0.635232 -0.009475 0.223526 0.764001
收 -0.361101 0.275921 0.306206 0.719551 -0.138723 -0.292768 -0.229098 -0.006929 0.272706 -0.788205 0.257494 -0.314344 -0.250091 0.214433 -0.212115 0.162438 -0.075874 -0.138532 0.931561 -0.468857 -0.396120 0.297719 0.324562 -0.177098 0.102706 0.161143 -0.188502 0.710696 0.831313 -0.031805 0.583103 -0.712108
退 -0.205152 0.052486 -0.416153 0.585672 -0.046768 -0.102174 -0.798527 0.287357 -0.504417 -0.518321 -0.122980 0.129554 -0.985778 0.168636 0.067292 0.397990 -0.272779 0.614560 0.409788 0.332639 -0.603506 0.259708 -0.050279 -0.046624 -0.418559 -0.116962 -0.051963 0.572707 0.947830 0.055328 0.530462 0.451092
要 -0.083330 -0.239187 0.180261 0.231670 -0.328508 -0.097043 -0.478992 0.218508 -0.040643 -0.721863 0.387060 0.254090 0.345949 0.585389 -0.221973 0.273023 -0.503630 0.008167 -0.076157 -0.445387 -0.007452 -0.103764 0.031159 -0.251274 0.233541 0.106747 0.085358 0.132786 0.048750 0.127518 0.351306 0.060881
费 -0.268776 -0.695957 0.104670 0.251425 0.213289 -0.440661 -0.304052 0.881861 0.630483 -0.285015 -0.399628 0.635078 -0.189405 0.146387 0.161125 0.308834 -0.235711 0.071764 -0.151629 -0.484972 0.330696 0.864470 -0.504314 -0.644550 0.046614 0.020189 0.079969 0.358672 0.479509 0.699720 0.609117 -0.133660
使 -0.651377 0.334397 0.319988 -0.010878 -0.325328 -0.231357 0.162860 -0.170284 0.075114 -0.570864 0.013956 0.287796 0.127882 -0.083871 -0.111368 -0.272977 -0.013506 0.018249 -0.400955 0.083274 0.258660 0.304881 -0.368897 -0.020884 -0.267986 0.136702 0.328100 0.676171 0.071521 0.373093 -0.041915 -0.445623
后 -0.216687 0.053583 -0.034219 0.141284 0.254435 -0.314631 -0.138973 0.073497 -0.181154 -0.699260 0.070071 0.057057 -0.139935 0.146016 -0.209896 0.578288 -0.390083 0.004583 -0.095185 0.684581 0.037494 -0.286065 -0.229857 0.081598 -0.387914 0.360639 0.184919 0.469736 -0.005716 0.145517 0.441883 0.241336
前 0.465420 -0.290316 -0.135092 0.175617 0.089889 -0.192771 -0.179108 0.623693 0.444372 -0.900054 0.735026 0.307865 -0.185226 0.139707 0.257462 0.167456 0.027909 -0.031320 -0.202557 0.764463 -0.287763 -0.345276 -0.243768 0.240572 -0.263870 0.499969 -0.273711 0.629300 -0.003663 0.253052 0.352344 -0.022087
卡 0.211677 0.469230 0.598849 0.067091 -0.486063 0.238644 0.206462 -0.318070 0.954294 -0.726758 0.303001 0.176459 -0.609866 0.047724 -0.628368 -0.088598 -0.503491 -0.070595 0.098701 -0.182909 0.565906 0.278464 0.816775 -0.933266 0.105409 -0.369716 0.017391 0.029304 0.689946 -0.069341 0.627722 0.144224
会 -0.514858 -0.251818 -0.021615 -0.681277 0.292369 -0.578648 0.410779 0.364265 0.167479 -0.794382 0.038296 -0.083846 -0.201311 -0.060870 -0.198491 0.164626 -0.233569 -0.132544 0.196189 0.484099 0.237350 0.312415 -0.220479 -0.214980 0.171319 -0.146009 0.375642 0.130973 0.076882 -0.107937 0.366895 0.287142
信 -0.779592 0.199921 0.657005 -0.312369 0.423307 0.015958 0.450159 0.156459 0.689933 -1.106394 0.760798 -0.489821 -0.344056 -0.161514 -0.395354 0.532566 -0.009860 -0.261938 0.364250 -0.073365 0.018157 -0.002734 0.246012 -0.647727 0.286098 -0.270491 -0.344434 0.282766 -0.036187 -0.152149 0.237104 -0.251511
手 0.096725 -0.924450 -0.170120 0.543277 0.177818 -0.171801 0.077253 0.343123 0.463969 -1.009356 0.571901 0.887187 -0.289030 0.320029 -0.351793 -0.149318 -0.330127 -0.252933 0.196960 0.214326 -0.025320 0.170174 -0.205766 -0.000196 0.849916 -0.405672 -0.420069 0.254275 0.302426 1.006318 0.438834 -0.082349
里 -0.192754 0.011236 -0.575370 0.237461 -0.080270 -0.061181 -0.051522 0.111835 0.344248 -0.530688 0.038515 0.106437 -0.787775 -0.307857 0.213091 0.444631 0.079573 0.626107 -0.352644 -0.720765 0.065059 0.284308 0.402184 -0.142503 -0.113073 -0.625674 0.241286 0.679143 0.117631 -0.269250 0.381752 0.472402
码 0.124225 -0.012231 -0.059726 1.031944 0.449167 -0.036482 -0.190050 -0.089276 0.283172 -0.545003 0.583975 -0.270801 -0.317013 0.191236 -0.810391 -0.430421 -0.283987 -0.324498 0.401890 -0.207577 -0.117741 0.059593 0.845989 0.023163 0.679764 0.047580 -0.314735 1.013095 0.638314 0.652185 0.438912 -0.675852
天 -0.010723 0.487314 -0.724367 -0.555725 -0.256013 0.042789 0.065465 0.785963 0.010171 0.020758 0.343634 0.208460 0.385531 -0.373902 -0.371399 0.447685 0.242654 -0.364966 0.516618 0.500087 0.497717 0.386047 0.140865 0.057003 -0.148892 -0.105573 -0.215997 1.013369 -0.196884 0.147935 0.882635 0.310706
现 0.159452 0.192082 -0.576375 0.231515 0.008857 -0.032318 -0.312015 0.573834 0.371838 -0.685642 0.064287 0.106048 -0.524807 -0.047954 0.060283 0.103141 0.092276 -0.064361 -0.239998 0.116527 0.302121 -0.131452 0.099356 0.074047 -0.286123 0.153653 -0.060572 0.461780 0.122111 0.371143 -0.336431 -0.270005
示 0.593946 0.453995 0.225200 -0.580691 0.274407 0.120360 -0.408607 0.381203 0.037910 -1.120085 0.396500 0.468831 -0.055159 0.191377 0.075997 -0.194591 0.391195 0.208533 -0.268062 0.252932 -0.670148 -0.107081 0.330002 -0.419247 0.525355 -0.187796 0.222546 0.511150 0.682487 -0.156949 -0.246516 0.578361
扣 -0.009143 -0.148173 -0.235455 0.060923 -0.670248 -0.525243 0.170443 -0.112320 0.404076 -0.403143 -0.098103 0.219164 0.082585 -0.182355 0.001997 0.194304 -0.624527 0.028222 -0.032845 0.234762 -0.021459 0.476370 -0.015590 -0.332442 0.083608 -0.766347 0.592251 0.476964 0.898405 -0.160430 0.763610 0.719101
少 -0.724078 0.377162 -0.246492 -0.075963 -0.105193 -0.092613 -0.518772 0.380936 0.232391 -1.375655 0.356917 -0.476261 0.782981 0.016843 -0.195760 0.022583 -0.311579 0.264635 0.299407 -0.622424 -0.286958 0.004273 -0.013255 -0.531904 -0.260912 -0.182256 -0.304068 -0.045027 -0.250260 1.365992 0.508239 0.353220
商 -0.023314 0.356158 0.231531 -0.665834 -0.355243 -0.051845 -0.405414 -0.214399 0.413192 -0.624555 -0.355587 0.239519 -1.074269 0.701149 -0.173516 0.356035 0.615897 -0.225536 0.523038 -0.231402 -0.477030 0.167006 0.528763 0.512623 -0.237658 0.321360 0.683902 0.172854 0.171558 0.673858 0.636690 -0.800086
这 0.189392 0.259348 -0.539213 0.340881 -0.198309 0.205801 -0.406666 0.199373 -0.003830 -0.698796 0.200805 -0.105675 -0.134374 -0.074541 -0.381329 0.264369 0.264419 0.002853 -0.391613 -0.120937 0.207636 0.074108 -0.339184 0.008824 0.292829 0.344899 0.530125 -0.164311 0.467879 0.119463 0.355349 0.166789
行 0.293056 0.212241 0.460482 -0.265445 -0.750085 0.266323 -0.138718 -0.435740 0.779043 -0.978838 0.442855 0.385471 -0.341285 0.047235 -0.454583 0.085297 -0.507235 -0.283814 -0.188644 0.371674 -0.311133 0.016040 0.969589 -0.442962 -0.379623 -1.050760 0.186728 0.003665 0.493642 0.132571 0.343321 0.301183
关 -0.780324 -0.394736 -0.079624 -0.039352 -0.293144 -0.117383 -0.760320 0.155950 0.650590 -0.015632 -0.018865 -0.439436 -0.456784 -0.562335 -0.867527 0.024451 0.514802 0.064182 -0.519058 -0.057534 0.002609 -0.806024 -0.418359 0.276717 0.005816 0.448862 1.046721 0.414732 0.763189 -0.312635 0.547257 0.291224
逾 -0.367823 0.266234 -0.432569 -0.737545 -0.367336 -0.212579 -0.253350 0.419362 -0.193576 -0.570083 0.519372 -0.127832 0.117304 -0.799657 -0.450782 -0.180393 -0.355077 -0.383138 -0.176131 0.618845 -0.086219 0.274740 -0.594755 0.426675 -0.441238 0.319591 -0.559889 0.731624 0.087187 -0.247380 0.758165 0.142501
上 0.060899 0.242830 -0.495490 0.088737 -0.400069 0.255979 -0.089948 0.296670 -0.125673 -0.670898 -0.016001 0.539990 -0.209486 -0.064690 -0.098942 0.057264 0.034006 -0.005155 -0.247120 0.106171 0.061798 -0.012777 0.114735 -0.023393 0.311243 -0.274402 0.393206 0.637883 -0.192571 -0.053958 0.035668 0.018743
动 0.427005 -0.059134 -0.053869 -0.005276 -0.472660 -0.945493 -0.151703 0.169184 0.892759 -0.534291 -0.152901 -0.197252 0.426097 0.412732 -0.073760 -0.043693 -0.293810 0.357602 0.501024 0.317720 0.354952 -0.179391 -0.134562 -0.320383 0.189168 -1.206326 0.583531 0.777491 0.399065 -0.103615 0.224089 0.664615
如 0.240908 -0.826559 0.178152 -0.206984 0.469704 -0.539476 0.168687 -0.399452 -0.199940 -0.716729 0.243748 0.294744 -0.382960 0.947269 -0.556007 0.658490 0.167042 0.431635 -0.200266 -0.582866 0.519028 -0.362191 -0.369818 1.010951 -0.154769 0.081721 -0.068890 0.494622 0.053301 0.382763 0.827816 0.376543
已 0.051004 0.526877 0.019257 -0.253286 -0.001983 0.542214 -0.313262 0.293105 0.102615 -0.783049 0.076494 0.622356 -0.434644 -0.202154 -0.573247 0.501086 -0.448706 0.686580 -0.085681 -0.084152 0.309164 -0.215048 -0.167963 0.100693 -0.137428 0.658421 0.146028 0.371963 0.763802 -0.152662 0.173386 0.689835
机 0.092389 -0.546050 -0.242097 0.232921 -0.382111 0.416049 -0.149020 0.500968 0.517936 -0.702731 0.076317 0.340122 -0.996521 0.351038 -0.320792 -0.149813 -0.557504 -0.644938 -0.307147 0.194141 0.253873 -0.195578 -0.295517 0.225262 1.039276 0.239852 -0.677999 0.699578 0.226369 0.401404 -0.037370 -0.439757
显 0.583847 0.293383 0.024535 -0.470004 0.066477 0.309455 -0.693682 0.506165 -0.251014 -0.757843 0.199872 0.683635 -0.034748 -0.264880 0.230301 -0.379124 0.187224 0.384467 -0.364501 -0.074904 -0.290042 0.006828 0.544105 -0.306982 0.367682 0.094029 0.404541 0.909229 0.491394 -0.529638 0.271466 -0.014502
单 0.233608 0.272693 0.092272 0.203029 0.635879 0.304427 -0.705638 0.386098 -0.382416 -0.539751 0.540780 0.035734 -0.422789 -0.140401 0.024325 -0.182084 0.090118 0.812656 0.025332 0.197112 0.207138 0.608650 -0.431417 0.377047 0.104642 -0.096007 0.354514 0.087981 0.269300 0.757389 0.357307 0.803661
银 0.432476 -0.507955 0.429439 -0.492764 -0.581118 0.555799 0.385520 -0.594041 0.539313 -0.844699 0.460420 0.294828 -0.855374 -0.260299 -0.453247 0.431686 -0.474494 -0.285984 -0.270005 0.039109 0.212660 0.162330 1.220289 -0.439980 -0.509619 -0.451657 -0.016437 0.258578 0.548772 -0.178716 0.727478 0.176768
自 0.299226 -0.473228 -0.461280 -0.186646 -0.631137 -0.734380 0.264944 -0.223978 0.800498 -0.148438 -0.117608 -0.350153 0.146549 -0.036307 0.142336 0.394041 -0.372695 0.046485 0.324665 0.110459 0.624069 -0.157226 -0.020663 -0.101566 0.071585 -0.644229 0.593448 1.195745 0.773679 -0.327063 0.472301 0.447504
请 -0.444467 0.005563 0.171809 0.235150 0.093834 -0.798226 -0.910715 0.393450 -0.373106 -0.651865 -0.137283 0.044210 0.148454 0.835118 -0.498932 -0.032329 0.671132 0.252504 0.326639 0.457413 0.523691 -0.481190 0.829228 0.130853 0.134762 -0.191342 -0.116543 0.388321 0.119862 -0.629109 0.619289 -0.113576
何 0.642567 -0.116644 0.473427 -0.356504 0.061108 -0.440979 0.241681 -0.185703 0.300813 -0.729344 0.610077 0.039048 -0.347081 0.587238 -0.515407 0.568112 0.189200 1.232120 0.145565 -0.310069 0.899132 -0.253944 -0.352799 0.473618 0.268089 0.127840 0.443597 0.639612 -0.277824 0.331718 -0.158355 -0.033351
消 -0.086804 -0.436845 0.269979 -0.072717 0.232266 -0.767404 -0.869062 -0.121443 0.495887 -0.376169 0.019125 0.543016 0.097458 -0.396095 0.130894 0.139088 0.436978 0.088697 0.013212 -0.575032 0.384504 0.367948 -0.703524 0.074982 0.292031 -0.467678 0.354717 0.492968 0.102217 0.207376 0.540789 -0.038596
余 -0.006799 0.124249 -0.610471 -0.132365 -0.629273 -0.308722 0.308501 -0.301897 0.068059 -0.595225 0.369430 -0.318510 -0.302624 0.045985 0.876640 -0.532566 -0.185442 0.311525 0.009992 -0.508827 0.391048 -0.049765 0.227064 -0.162071 -0.226363 -0.424008 0.287799 0.859788 0.469260 -0.150720 0.541456 0.803842
息 0.083987 -0.694129 0.039477 -0.243624 -0.669376 -0.108373 -0.838882 -0.065008 0.164500 -0.779434 0.681908 -0.471412 -0.072551 -0.517196 -0.107657 0.288047 -0.112789 0.319852 0.553407 0.363831 -0.142172 1.003844 -0.371000 -0.475590 0.550802 0.396082 -0.080289 0.378936 -1.143726 0.096350 0.755338 0.203814
样 -0.538609 -0.110237 -0.060072 -0.346217 -0.081621 -0.411105 -0.175634 -0.498147 0.354759 -0.328065 0.627997 0.019608 -0.352138 0.263028 -0.210264 0.382336 0.115980 -0.011389 0.313989 0.017441 0.269764 0.130694 0.162218 0.242246 0.363433 0.271283 0.095710 0.228941 -0.044914 0.176305 0.056057 0.299508
候 -0.475185 0.139125 -0.382185 -0.142092 0.295973 0.443992 -0.009217 -0.179798 0.238533 -0.847000 0.358390 0.032093 0.555448 0.614060 0.072617 0.241847 0.192401 -0.114471 -0.259570 0.351010 1.067350 0.379593 -0.261653 0.072309 -0.871854 0.043830 -0.168872 0.236468 0.970785 0.046576 -0.165673 -0.179076
次 0.012387 0.261119 0.097389 -0.252998 -0.018604 -0.207114 -0.480491 -0.149544 -0.058484 -0.349697 0.182343 0.286996 0.401802 -0.201665 0.097130 0.761036 -0.193148 -0.389510 -0.189952 0.306484 0.636989 -0.156463 0.630840 -0.025367 -0.076989 0.640731 -0.425031 0.418276 0.093122 0.699401 1.014414 0.606902
买 -0.676164 -0.070912 -0.127132 0.264424 -0.947188 0.635041 0.252382 0.391353 -0.729424 -0.776773 -0.547511 0.541580 -0.500996 -0.141677 -0.516495 0.590488 0.187303 -0.216053 -0.196486 0.250382 -0.610043 0.322449 -0.460938 0.344626 -0.197411 -0.496009 0.179659 0.807922 -0.046051 0.744542 -0.056483 -0.145414
申 -0.107369 0.276098 0.128633 0.264110 -0.288404 -0.735243 -0.540318 0.293914 0.111933 -1.091347 -0.290561 0.166032 0.578420 0.656410 -0.889995 -0.487342 0.663027 0.095978 0.766994 0.456078 0.199211 -0.393721 0.606619 0.167691 -0.165862 -0.555952 0.151318 0.419449 0.375457 -0.045509 0.056431 0.329269
下 0.420090 0.147943 -0.012093 0.423970 -0.102203 0.031001 -0.196065 0.254607 -0.176069 -0.822329 0.257408 -0.505553 0.301506 0.029634 0.051605 0.490381 0.299175 -0.222990 -0.323075 -0.163200 0.384285 -0.107173 -0.437287 0.381394 -0.159558 0.002328 0.530911 0.100291 0.029508 0.318714 0.423710 0.235067
办 -0.320547 0.082502 -0.442812 -0.214430 -0.256574 -0.518225 -0.358120 -0.138249 0.154138 -0.437411 0.443280 0.185791 -0.180485 -0.017890 -0.582760 -0.258684 -0.404040 -0.357414 0.010578 -0.002876 -0.051157 0.542451 0.241571 0.121322 0.589698 0.127939 -0.401260 0.754968 0.290912 -0.005180 -0.622046 0.437898
最 -0.316433 -0.306991 -0.487349 -0.301753 -0.409692 0.602160 -0.095155 0.240718 -0.160954 -1.140421 0.206631 -0.604558 0.779180 -0.299581 0.311073 -0.187684 0.112793 0.698155 0.745308 0.235151 0.411397 -0.288539 -0.348533 -0.191719 -0.354361 0.375151 -0.081430 0.677691 0.048007 0.492869 1.246810 0.163596
清 0.068665 -0.174186 0.275103 0.017035 -0.115518 -0.507683 -0.665494 0.584229 -0.198756 -0.716447 0.914455 0.586677 0.008561 -0.411484 -0.186881 0.100902 -0.176608 0.098322 -0.442988 0.694287 -0.037355 0.022322 -0.235920 0.365875 -0.346880 0.540393 -0.186677 0.179036 0.270391 0.062461 0.444576 0.634537
想 0.091721 -0.108282 -0.317918 0.190276 -0.296325 -0.492004 -0.108268 0.170288 0.024411 -0.497465 0.523640 0.334019 -0.392056 0.274830 -0.313894 0.617511 0.310846 -0.036170 -0.166053 -0.246262 0.521793 -0.482176 -0.179255 0.168586 -0.100109 0.134901 0.203574 0.112976 -0.028155 0.397073 -0.008207 -0.114310
闭 -0.257902 -0.254366 -0.020289 -0.148448 -0.078957 -0.656155 -0.485532 -0.368696 0.535362 -0.022197 0.225382 -0.458812 -0.030596 -0.562928 -1.064498 0.222117 0.574200 0.050644 -0.619266 0.593727 0.175866 -1.008178 -0.407863 0.252361 0.193519 0.550028 1.083012 0.685467 1.035224 0.154260 0.367772 0.095011
哪 0.131553 0.513495 -0.571196 0.315706 -0.068790 -0.353880 -0.102146 0.307624 0.032858 -0.504037 0.060708 -0.496361 -1.079371 0.635253 -0.224727 0.706053 0.187657 0.707129 -0.347211 -0.555777 0.283693 0.582528 0.332234 0.020989 -0.280987 -0.519440 -0.279405 0.422665 -0.485341 0.008304 0.077290 0.263950
日 0.295765 -0.320536 -0.629195 -0.146853 -0.248141 0.520620 -0.003993 0.108212 0.555871 -0.379790 0.528534 -0.745184 0.523611 0.311306 0.230025 0.324519 -0.202467 0.026165 0.467380 0.813757 0.352513 0.482972 -0.080396 0.532730 -0.325979 0.054270 -0.054275 0.891352 0.153401 -0.049865 0.902524 0.283316
经 0.215224 0.496293 0.022237 -0.058806 0.087519 0.156726 -0.423661 0.071338 -0.318898 -1.106855 0.254011 0.521196 -0.154687 -0.357607 -0.955616 0.175158 -0.536786 0.728206 0.010205 -0.024249 -0.096320 -0.674089 -0.042699 -0.103323 -0.177385 0.291193 -0.012633 0.414998 0.920578 0.408869 0.031066 0.570207
才 -1.142206 0.172616 -0.084968 0.076499 -0.238294 -0.143902 -0.594140 -0.436035 0.296719 -0.673007 0.348945 0.311386 0.521858 0.564452 -0.325861 0.092873 0.153279 -0.094964 0.037501 -0.155170 0.384124 0.130510 0.067896 -0.056759 -0.236439 -0.006150 0.015045 0.159291 0.029286 0.262405 0.080873 0.109309
和 -0.203308 0.116184 0.304948 -0.317939 -0.141970 0.124847 0.145666 -0.024059 0.267579 -0.734545 0.176393 -0.271212 -0.168341 0.197392 -0.525742 -0.495672 0.125601 0.023474 -0.108778 -0.240320 -0.112511 0.380878 0.374922 0.184200 0.349222 0.026395 0.851143 -0.047627 -0.081799 0.208683 0.435925 -0.440232
换 -0.210305 -0.459994 -0.159247 -0.050404 -0.239213 0.306580 -0.195658 -0.253564 0.805351 -0.848474 -0.220463 0.165069 -0.876603 0.078583 -0.600197 -0.482501 -0.036704 0.078281 -0.336728 0.393235 -0.428356 0.175515 0.198574 1.037218 0.548958 -0.038413 0.243991 0.714704 -0.436223 0.440596 -0.176883 0.124433
过 -0.113774 0.177336 -0.081870 -0.203071 0.175809 -0.087690 -0.289383 0.156912 -0.503107 -0.742365 -0.124847 0.191584 0.245865 -0.058931 -0.632310 -0.035904 -0.069928 -0.563158 0.090086 0.174013 0.448987 -0.131738 0.389117 0.222337 0.159624 0.231074 0.017494 0.792964 -0.006720 -0.203906 -0.168853 0.470522
就 -0.033221 0.070235 -0.469392 -0.093836 -0.234374 -0.156455 -0.229286 0.194887 -0.146747 -0.502431 0.132369 0.093335 -0.141754 0.006802 -0.196609 0.217542 -0.109454 -0.352775 -0.138584 0.130664 -0.056960 -0.208916 0.123255 -0.149631 -0.086762 0.134890 0.411519 0.413433 0.162837 0.038503 0.134135 -0.126513
回 -0.122979 -0.461353 -0.355382 -0.167379 0.487194 -0.399547 -0.723440 -0.248390 -0.453089 -0.326455 0.312990 0.246477 -0.870415 -0.035156 -0.074712 0.287235 -0.507612 0.080031 0.072146 -0.031738 0.050300 0.590518 0.623075 -0.074454 -0.277698 0.303539 0.269882 0.140423 0.829455 0.394883 -0.016635 0.639619
定 0.622108 -0.615739 0.833547 -0.175568 -1.114997 0.912295 0.130999 -0.140598 0.439396 -1.071648 0.234059 0.296907 -0.494149 0.020890 -0.155708 -0.233183 -0.759417 -0.103977 -0.014501 0.160470 0.368281 -0.107403 0.541323 0.195813 0.192790 -0.425886 0.204386 0.248189 0.745701 0.276523 0.063049 0.340687
贷 -0.032343 0.034685 -0.166430 -1.341087 -0.738124 -0.277633 -0.457571 -0.339147 0.453723 -0.543202 0.321646 0.049552 -1.507728 0.372347 -0.308079 -0.228344 0.670303 -0.438060 0.886342 0.479715 -0.311349 -0.138295 0.128448 0.276103 -0.229303 0.586972 0.472348 -0.068413 0.055397 0.339246 0.871450 -0.287985
金 0.037048 -0.074135 0.063416 -0.155528 -0.020372 0.202178 -0.623697 0.374540 -0.583206 -0.513565 0.347136 -0.446469 -0.641913 0.419736 0.550667 -0.397120 -0.253619 0.722458 0.370010 0.473983 0.230520 0.483842 -0.062274 -0.555229 0.008106 -0.043460 0.079195 0.111060 -0.036236 0.403115 0.358029 0.652028
面 -0.104466 0.526028 -0.661025 -0.121784 -0.198658 -0.271851 -0.004902 0.254234 -0.012900 -0.510429 0.399910 0.195775 -0.716449 -0.009827 0.219303 -0.087275 0.305919 0.364215 -0.569883 0.050872 0.066832 0.213702 0.205526 -0.480135 0.523804 -0.339472 0.038539 0.357678 0.125747 -0.477622 0.575231 0.470386
取 -0.248603 -1.023169 0.716067 0.280354 0.417333 -1.030678 -1.060684 -0.218692 0.107514 -0.477300 -0.306727 0.119575 -0.263407 -0.053282 -0.363024 0.336903 0.275899 0.553579 -0.307341 -0.429278 0.590869 0.270287 -0.432706 0.283860 0.096350 -0.146532 0.154996 0.223518 0.343861 0.195566 0.261146 0.055857
利 -0.480359 -1.020236 -0.307308 -0.501441 -0.373482 -0.279101 -0.205878 -0.246333 -0.095838 -0.850145 0.596129 -0.501674 0.636479 -0.003839 0.054502 0.487280 -0.095542 -0.190432 -0.146474 0.032244 -0.595667 0.840647 -0.010576 -0.025689 0.402305 0.229142 -0.034378 0.412521 -0.545707 0.069046 1.108900 0.752700
都 -0.004880 0.058392 -0.297742 -0.151471 -0.282802 0.160306 0.001636 0.225121 -0.123473 -0.611218 0.102978 0.085561 0.099597 -0.073126 -0.015911 0.360874 0.150612 -0.258575 -0.348320 -0.005738 0.137435 0.130431 0.312392 -0.293342 0.050698 0.174721 0.234616 0.112066 0.201003 0.151329 0.318878 0.014635
低 -0.223759 -0.682052 0.062938 -0.502122 -0.597285 -0.369622 -0.223139 0.170295 -0.352635 -1.244403 0.534475 -1.572783 0.409632 -0.752239 -0.194098 0.157120 -0.556658 0.453771 -0.019923 0.507855 -0.722317 0.044880 -0.098175 -0.118611 -0.714694 0.071294 -0.024853 0.111334 0.529209 0.590771 0.615933 0.094277
淘 -0.237244 0.438036 -0.353634 0.110413 -0.962479 0.395618 0.441939 -0.378736 -0.226995 -0.692714 0.000877 0.827297 -0.928339 -0.090315 0.436637 -0.053429 0.505143 0.205000 -0.057147 0.021465 0.183197 -0.161711 -0.300400 0.285803 0.197310 -0.179788 0.210962 0.933689 0.479054 0.362830 0.324601 -0.163520
但 0.321335 0.474672 -0.319773 0.027660 0.021322 0.092308 -0.127181 0.151961 -0.180804 -0.919315 0.024182 0.456049 -0.407564 0.015409 -0.214582 0.263295 -0.374507 0.133298 -0.193706 -0.173357 -0.103723 0.004438 0.006213 -0.186034 0.026775 0.149557 0.167591 0.558447 0.497773 -0.018045 -0.078866 0.264916
绑 0.782571 -0.678359 0.920075 -0.116130 -0.663306 1.037310 -0.278381 -0.249185 1.120781 -1.008376 0.386415 0.750105 -0.380078 -0.384118 -0.553916 -0.625542 -0.416973 -0.488938 -0.630113 0.140243 0.229530 -0.255498 0.531423 0.323125 -0.117522 -0.950259 0.012631 0.629291 0.684891 0.050213 0.220473 0.158328
家 -0.287271 0.189342 0.386146 0.244627 -0.547643 -0.129638 -0.039142 -0.334669 -0.381715 -0.688311 0.017196 0.457164 -0.667123 0.270356 -0.107965 0.383498 0.477607 0.031757 0.637111 -0.629145 -0.449105 -0.114014 0.146366 -0.257882 -0.025716 0.374232 0.129392 0.757572 0.889063 0.431736 0.943031 -0.914214
网 0.354245 0.119006 -0.079226 -1.468649 -1.336266 0.160390 -0.552784 -0.424387 0.449710 -0.272550 0.133913 0.408611 -1.477550 0.547181 -0.599019 -0.413716 0.559154 -0.278351 0.536324 0.146043 -0.128664 -0.420705 0.272116 0.104060 -0.584333 0.234995 0.748249 0.234769 -0.134484 0.305458 1.009012 -0.246595
只 0.319090 0.283491 -0.363901 0.053936 -0.645271 0.275466 0.052262 -0.003088 0.053035 -0.904285 -0.296298 0.044963 0.394844 -0.267689 -0.329490 -0.442344 0.547665 -0.256074 -0.380591 -0.142517 0.203367 0.414953 0.268704 0.111535 0.069991 0.505721 0.208621 0.319426 0.046990 0.561732 0.313107 0.038054
临 -0.137363 -0.480807 -0.149623 -0.110198 0.233833 -0.604285 -0.679737 0.032386 0.006587 -1.143015 -0.195451 -1.095163 0.096973 -0.448039 0.986315 -0.105499 0.926778 0.057912 -0.444491 0.140821 1.379921 -0.043153 -0.100902 0.187638 -0.696336 -0.285056 -0.938848 0.581683 0.603519 0.527328 -0.258904 0.075254
影 -0.553412 -0.261360 0.363963 -1.260333 0.521931 0.037073 0.961045 0.869206 0.149660 -1.080727 -0.392542 -0.370543 -0.698274 -0.718677 -0.893541 -0.411685 -0.336677 -0.533641 -0.153833 0.740557 0.641960 0.120397 -0.106309 -0.319294 -0.023023 0.327517 -0.144503 0.538532 -0.262969 -0.310065 0.797810 0.201222
续 -0.478244 -0.580896 0.244101 0.484173 -0.443649 -0.859499 -0.588100 0.275626 0.832936 -0.934899 -0.074948 0.507657 0.266245 0.373904 0.433435 0.082620 -0.874904 -0.031017 -0.482634 -0.144919 -0.784798 1.060326 -0.747337 -0.364855 0.351656 0.763252 -0.128434 0.754753 0.188584 0.354140 0.892591 -0.183059
响 -0.670629 -0.073091 0.356911 -1.148553 0.688368 -0.287699 1.139477 1.252132 0.115119 -1.268874 -0.147270 -0.345479 -0.719322 -0.549107 -0.565398 -0.609949 0.152872 -0.936558 0.111591 0.597360 0.556937 -0.034072 -0.615992 -0.199168 -0.338872 -0.281242 -0.098920 0.185141 -0.099139 0.065335 1.388801 -0.076921
证 0.392100 -0.116128 0.444078 0.515772 0.056433 -0.044731 -0.970766 0.350714 -0.065722 -0.903648 0.525999 0.240128 -0.334786 0.203785 -0.761116 -0.685812 -0.036315 -1.689755 0.738314 -0.342012 0.452101 0.307541 -0.112441 0.297247 0.176873 0.494329 0.013636 1.071165 -0.108738 -0.511205 -0.417872 0.719409
完 0.071556 -0.094031 0.051955 -0.115226 -0.506065 -0.344987 -0.709819 0.250351 -0.060016 -0.776082 0.163961 0.126952 0.087542 -0.403441 -0.113105 0.235557 -0.106512 0.196514 -0.307503 0.610778 0.100849 -0.053501 0.039717 -0.247259 -0.596018 0.646711 -0.089696 0.349661 -0.047200 -0.075969 -0.029999 0.481002
看 0.004359 0.312502 -0.370257 0.254574 -0.299734 -0.458704 -0.571181 0.291992 0.133625 -0.629468 0.792460 -0.093971 -0.297089 -0.263304 0.036238 0.221277 0.986783 0.031656 -0.108814 -0.598130 -0.152490 0.371005 -0.107687 0.687617 -0.313695 -0.613615 0.003954 0.144575 0.322678 0.010727 0.099301 0.609200
改 0.199148 -0.788076 0.278992 0.208677 -0.090415 0.505858 -0.081906 -0.210058 1.008079 -0.503012 -0.150266 -0.371015 -0.163302 0.288945 -0.225848 -0.379176 -0.284073 0.035468 0.061661 0.835203 0.005941 0.489584 0.383879 1.453882 -0.363531 0.187286 0.310648 1.070658 0.374273 0.404533 0.064091 0.034426
户 -0.488299 0.512204 0.128479 0.113213 0.244849 0.470590 -0.147695 0.034770 0.153942 -0.302847 0.916690 -0.053896 -0.509512 0.225470 -0.137713 -0.282066 0.502136 -0.008851 -0.107348 -0.199703 -0.083722 -0.446643 0.015014 0.202122 0.494950 0.343200 0.901381 0.470855 0.479024 0.443863 -0.041788 0.602023
之 0.014224 -0.188445 -0.257909 0.286504 -0.039811 -0.231554 -0.150582 0.708896 -0.395081 -0.858512 0.235566 0.125459 -0.126582 0.143980 -0.240705 0.178402 -0.528501 0.201172 -0.563432 0.501921 0.192615 -0.358453 -0.063326 0.288370 0.064187 0.566718 0.252607 0.444845 -0.149760 0.036025 0.236595 -0.081751
几 0.080622 0.112605 -0.787992 -0.172304 0.087193 0.575971 -0.217356 0.503127 0.250603 -0.637421 0.097837 -0.342488 0.733704 0.200608 -0.326454 0.339726 -0.237803 -0.259851 -0.136552 0.726510 0.372750 -0.002175 -0.264568 0.240968 -0.093312 -0.049133 0.208376 0.574804 -0.213732 0.311859 0.801302 -0.184578
结 -0.863095 -0.641489 0.447201 -0.478784 -0.363824 -0.090665 -0.284626 0.631483 -0.257740 -0.226106 1.625471 0.552271 0.300406 -0.126217 -0.214719 0.152108 -0.457250 0.024212 -0.320669 0.726336 0.393079 0.089621 -0.050616 0.968700 -0.327496 0.027698 0.118307 0.489250 0.741799 0.232966 -0.155101 0.139787
来 -0.164944 -0.062531 -0.590973 0.265540 0.211164 -0.246151 -0.653511 0.018138 -0.310895 -0.507533 0.382481 -0.042013 -0.900141 0.483809 -0.021296 -0.013909 -0.343222 -0.378549 -0.107227 0.469505 0.451357 0.137202 0.084416 -0.146842 -0.121837 0.195018 0.099358 -0.090436 0.092810 -0.017708 0.255381 -0.027323
成 0.472901 -0.307763 -0.155667 -0.464971 0.095671 -0.181491 -0.555441 -0.312511 0.455237 -0.771265 -0.777249 0.245539 -0.803366 0.607529 -0.344774 -0.430998 -0.087319 0.324312 0.065234 0.281937 -0.093997 0.150846 0.277378 -0.243042 -0.209231 0.990698 0.460620 0.482591 0.400768 -0.143088 0.337843 0.301774
查 0.084454 0.153253 -0.015574 0.043238 -0.204384 -0.273743 -0.433343 0.279797 0.220426 -0.661930 0.932402 -0.089138 -0.247676 -0.168947 0.031481 0.384111 1.047286 0.130815 -0.559967 -0.947986 -0.076274 0.573040 -0.347073 1.223291 -0.509091 -0.690185 -0.126978 0.053249 0.368662 0.051974 0.491194 0.754295
复 -1.343914 -0.133526 0.147837 -0.481801 -0.855848 -1.275697 -0.638919 0.502096 -0.089318 -0.623324 0.384625 -0.453121 0.621623 0.169119 -0.160264 -0.322511 -0.696861 -0.093899 -0.658744 0.190500 0.784343 0.551574 -0.100042 0.724422 -0.793708 0.225546 0.151738 -0.095808 1.250189 -0.158524 0.102356 -0.153921
限 -0.389996 -0.052522 -0.113096 -0.931048 0.030138 0.018271 0.180534 0.187670 0.125225 -0.670580 -1.096392 -0.272625 0.296903 -0.334949 0.361087 -0.384367 -0.166669 0.307721 -0.226855 -0.624518 0.260747 0.429359 0.468645 0.406474 0.396854 0.088714 -0.018068 0.698504 0.538198 0.710719 0.946596 0.169642
给 -0.126259 -0.247580 -0.416401 -0.004559 -0.043566 -0.339518 -0.459132 -0.057969 -0.128028 -0.184448 0.227712 0.078464 -0.266828 0.130138 -0.436075 0.388872 0.077974 -0.044065 -0.183503 -0.049261 0.296071 -0.149678 -0.071169 -0.269148 -0.265436 -0.220363 0.524648 -0.038842 0.350961 0.260577 0.110211 -0.135884
持 -0.007580 0.247582 0.810040 0.385381 -0.306474 0.186712 0.505213 0.310160 0.088336 0.181663 0.183583 0.056089 -0.300465 0.640623 0.121360 -0.135104 0.622448 0.174875 -0.321289 0.117518 -0.265705 0.801363 0.720083 -0.849981 0.102282 0.382202 0.474261 0.740829 0.958719 0.545162 0.544859 -0.274613
久 -1.113157 0.503062 -0.131781 -0.566635 -0.027721 -0.014268 -0.703319 0.191850 0.594450 -0.804586 0.157535 -0.143827 0.642540 0.435487 -0.404352 0.492170 -0.412351 -0.330479 0.102968 0.018264 0.113241 -0.917621 -0.260821 0.055414 -0.290590 0.003150 -0.150258 0.276538 0.378262 0.838715 0.055065 0.684175
把 -0.006999 -0.335224 -0.417519 0.144710 -0.272962 -0.190398 -0.433206 -0.256391 0.192623 -0.405270 0.438407 0.072042 -0.638549 0.109204 -0.538355 0.210037 0.029049 0.249697 -0.353310 -0.001124 0.142309 -0.425293 -0.098984 0.311072 -0.352745 0.295743 0.650890 0.033130 0.113676 0.248016 0.260001 0.259635
人 0.063868 -0.434932 -0.108205 0.089392 0.190670 0.014259 -0.669488 -0.571889 -0.034622 -0.475796 0.208033 -0.227299 0.091260 -0.257743 -0.463486 -0.058489 0.543206 -0.841593 0.157088 -0.455461 -0.144998 -0.123087 -0.108416 -0.496472 0.237392 -0.584134 0.481713 0.867805 -0.396330 -0.048951 0.559675 -0.614597
每 0.477747 -0.286033 -0.378057 0.056154 -0.425679 0.577043 -0.113462 0.421976 0.360135 -0.945602 -0.154128 -0.566364 0.948572 0.183793 0.008170 0.093847 -0.037398 0.259812 -0.078235 0.277535 0.410044 0.206561 -0.157816 0.066145 0.364957 -0.058962 0.265031 0.314039 -0.039014 0.436972 1.066010 -0.035689
录 0.037288 0.402664 -0.048637 -0.720485 0.268715 -0.730048 -0.243655 0.292849 0.421296 -0.165338 1.245695 0.219828 -0.822276 0.031143 -0.105880 -0.359686 0.013187 -0.239822 -1.109787 -0.686716 0.046699 -0.450965 -0.737198 0.028027 0.879247 -0.076064 -1.009345 0.694167 0.567550 -0.006916 0.801610 0.504966
出 -0.215745 -0.255514 -0.111820 0.043634 0.641657 -0.095381 -0.600151 0.366144 -0.414838 -0.612750 0.458410 0.370426 -0.189576 -0.283364 -0.117762 -0.197833 0.174829 0.203957 -0.045480 0.145993 -0.125803 0.255609 0.492379 0.314276 -0.124863 -0.433657 0.458267 0.333067 0.221067 0.233394 0.064142 0.444256
交 -0.272626 -0.036560 -0.006694 -0.169325 0.359633 -0.126485 -0.414018 0.797062 0.666418 0.525094 -0.134983 0.544288 -0.115256 0.625709 -0.227282 0.273344 0.462813 0.230228 -0.228684 0.382327 -0.186032 0.365660 -0.299556 -0.734487 0.054124 0.311351 0.194106 0.689182 0.730763 0.646864 0.426728 0.567331
去 -0.279122 -0.276423 -0.946278 0.275357 0.097547 -0.262541 -0.613956 0.139045 -0.283908 -0.167298 0.085518 0.185197 -1.013639 -0.088214 -0.155874 0.466705 -0.123386 0.004488 -0.406018 -0.192757 0.019693 -0.261498 0.629988 -0.253526 -0.128124 -0.447867 -0.044040 0.663080 -0.037663 -0.194934 0.228559 0.527148
需 -0.329348 -0.561562 0.392596 0.259765 -0.180802 -0.113017 -0.469208 0.218030 0.095211 -0.915811 0.364645 0.277130 0.697047 0.929643 -0.089900 0.153545 -0.313459 -0.184928 -0.043596 -0.534404 -0.367984 -0.069476 0.001108 -0.351691 0.402321 0.157255 -0.008013 0.314813 0.033074 0.150918 0.416365 0.264203
恢 -0.690707 0.382652 -0.026608 -0.709101 -0.638731 -1.045880 -0.963392 -0.012431 0.683009 -1.400390 0.095177 -0.053157 0.685103 -0.219385 -0.292658 -0.845319 -0.054959 -0.322277 -0.476348 0.873501 0.396523 0.065597 -0.414461 0.492759 -1.320233 -0.352327 -0.273252 -0.057701 1.384997 0.397260 -0.336896 0.523978
冻 -1.458855 -0.694989 -0.068126 -0.617524 -0.287731 0.430438 -0.396300 -0.005364 0.168265 -0.517507 1.718490 0.507923 0.278682 -0.423283 -0.345639 -0.700389 -0.129206 0.293407 0.455185 0.907170 0.283895 -0.450939 -0.500430 0.687765 -0.327819 -0.528702 0.225901 0.809810 1.368978 0.798586 -0.578298 0.411442
再 -0.519476 0.233154 0.104045 0.164967 -0.154062 -0.423708 -0.608261 -0.206363 -0.080464 -0.590975 0.048522 0.214246 0.285660 0.096668 -0.362868 0.377068 -0.186120 -0.330785 -0.598770 0.717299 0.502672 -0.447518 0.064232 0.253275 -0.453966 0.354130 0.120355 0.308578 -0.032799 -0.158697 0.628041 0.061218
那 -0.035174 0.062418 -0.615191 0.143581 -0.140799 -0.024642 -0.190524 0.344433 -0.168071 -0.620343 0.182400 -0.073452 -0.192247 0.084467 -0.024170 0.498390 0.041586 0.243404 -0.179878 -0.325065 -0.133596 0.146812 0.122319 -0.274472 -0.180068 -0.029812 0.185220 0.160932 0.115598 0.293592 0.214919 0.339124
算 -0.267680 -0.649539 -0.667165 -0.564166 -0.146869 -0.050908 -0.334015 0.167889 -0.058394 -0.438988 0.865536 -0.316088 0.346346 -0.044541 0.150953 0.654173 -0.321012 0.040936 0.183784 0.772474 -0.602774 0.833145 -0.520951 0.435767 0.253817 0.340706 -0.109717 0.713858 -0.033550 0.481985 0.713066 0.323859
东 -1.223130 0.319419 -0.333050 0.175422 -1.410693 0.171478 0.110668 0.326431 -0.875045 -0.936422 -1.099440 0.587864 -0.551555 -0.271007 -0.098661 0.625645 0.494039 -0.076615 -0.510338 0.175304 -0.066432 -0.090436 -0.613356 0.202456 0.229718 -0.387234 -0.282140 0.791307 0.367374 0.226513 0.548702 0.093996
升 -0.503415 -0.726284 -0.021876 -0.697977 -0.578797 -0.703246 -0.670682 0.591618 0.624829 -0.970125 0.176805 -0.583533 -0.525988 0.168488 0.619334 -0.031858 0.920683 -0.084218 0.369888 0.253564 -0.265076 -0.644539 0.779818 0.077563 -0.767927 0.265828 -0.187479 0.237852 0.164955 0.274887 0.006842 -0.095559
西 -0.819369 0.259470 -0.067706 0.614718 -1.297606 0.273248 0.207657 -0.060657 -0.973513 -1.251682 -0.194069 0.615751 -0.281498 -0.231294 -0.189467 1.238219 0.378756 0.002563 -0.417217 0.511339 -0.387137 0.421302 -0.033141 0.063007 -0.059201 -0.564426 -0.541756 0.564095 0.291076 0.001644 0.402770 -0.075837
点 0.199902 -0.185971 -0.685735 -0.037746 -0.091813 0.329471 -0.258222 0.690951 -0.187152 -0.140544 0.200960 -0.299010 0.089165 0.014102 0.187514 0.602589 0.031647 -0.146395 0.037919 0.551695 0.549380 -0.523924 0.062389 -0.285496 -0.027946 -0.264738 0.174451 1.016564 -0.141128 -0.008930 0.171689 0.122171
话 -0.428284 -0.563754 -0.721642 0.331469 -0.317606 -0.029020 -0.367958 0.591172 0.820215 0.107004 -0.279308 0.547221 -0.227669 0.724385 -0.026995 0.198466 0.151685 -0.147942 -0.273738 -0.012154 0.282709 0.754087 -0.217816 -0.843957 0.363371 0.339125 0.037095 0.331905 0.554212 0.584975 0.261523 0.388235
电 -0.530685 -0.763405 -0.276486 0.658574 -0.200814 0.075074 -0.421567 0.795353 0.679513 0.307694 0.095564 0.865679 -0.017266 1.047618 -0.016622 0.304406 0.917133 -0.499519 -0.542180 0.422608 0.222854 0.418524 -0.154782 -0.945945 0.258222 -0.250012 -0.306446 0.574256 0.497110 0.562199 0.436254 0.111178
也 -0.004266 0.186490 -0.339906 -0.150712 -0.168276 -0.169884 0.035281 -0.005975 -0.058276 -0.710031 0.157085 0.141736 -0.354246 -0.033264 -0.102269 0.193642 -0.334967 -0.226132 -0.321085 -0.035956 0.030515 0.100603 0.237769 -0.302218 0.076801 -0.103416 0.348672 0.166825 0.281235 0.037226 0.049909 -0.021806
记 -0.104498 0.892053 -0.395224 -0.433687 -0.098054 -0.943980 -0.208440 0.244400 0.357377 -0.402778 1.034944 0.153779 -0.468296 0.145077 -0.861634 -0.467453 -0.137617 0.187023 -0.911164 0.360022 0.025682 0.451198 -0.550526 0.518866 0.444461 -0.451413 -0.905259 0.074350 0.500644 -0.124310 0.930880 0.219141
功 0.164357 0.342559 0.279285 -0.038834 0.160713 -0.468836 -0.507322 -0.384158 0.334172 -0.581546 -0.121129 0.441822 -0.337221 0.203043 -0.427861 -0.255071 0.222549 0.131238 0.331926 0.061990 -0.438147 0.073392 0.220386 -0.479268 -0.393744 0.419044 0.523980 0.828570 0.782367 -0.037862 -0.173823 0.893632
充 -0.464162 -0.941355 -0.463788 0.598010 -0.519847 0.068288 -0.080571 0.977629 0.947279 0.412384 -0.336078 0.044237 -0.166607 -0.038711 -0.259020 0.050719 0.499131 0.059364 -0.451993 -0.143778 0.040023 0.543108 0.109055 -1.596139 -0.024014 -0.158858 0.142937 0.950333 0.369997 1.026767 0.020043 0.679533
另 -0.315320 0.404557 -0.078931 0.873710 -0.048195 1.217624 -0.758451 -0.384656 0.839167 -0.626746 0.956956 -0.255534 -1.249271 -0.690697 -0.373914 0.243722 0.453593 -0.320646 -0.815597 0.276354 0.463324 -1.285134 -0.354739 0.298172 0.763189 0.321882 0.250073 0.589290 0.793158 0.270374 0.213761 0.599259
法 -0.157126 0.440714 0.013630 -0.401617 0.016508 -0.091596 -0.443288 -0.688549 0.182994 -0.906795 0.279946 0.394494 0.141425 0.043257 -0.160662 -0.249123 -0.297004 0.333109 -0.393684 -0.200948 0.321468 0.323082 -0.198888 -0.298739 0.063694 0.051731 0.314995 1.354139 -0.146269 -0.604685 -0.578391 -1.043918
除 -0.219125 -0.541448 0.195380 -0.599145 -0.096362 -0.706848 0.148869 -0.438543 0.512056 -0.159313 1.084059 0.772855 -0.195908 -0.058957 -0.441778 -0.203177 -0.323109 0.291072 -0.365623 -0.175313 0.549755 0.620376 -0.533036 0.383563 0.210511 -0.848273 0.150386 0.217574 0.487182 0.012419 0.901747 0.816691
车 0.142275 -0.245821 0.206824 0.052616 0.390889 0.778149 -0.884835 0.104899 -1.392971 0.155773 0.121648 0.526420 -0.941121 0.855594 -0.567403 -0.274632 -0.046549 0.148430 -0.311885 1.606836 -0.175810 0.791781 -0.197840 -0.738374 -0.448328 -1.230952 0.221939 0.190680 0.291960 1.106838 0.822322 0.466359
转 -0.341046 -0.104770 -0.642752 0.436674 -0.355894 0.108670 -0.362996 -0.373409 0.662643 -0.551238 0.483571 -0.291831 -0.939836 0.125665 0.076778 -0.493553 0.221382 -0.193429 -0.285290 -0.469310 -0.173175 -0.272536 0.656801 0.470365 -0.245659 -0.132654 0.852141 0.297420 -0.069870 -0.020539 0.486770 0.702902
刚 -0.450376 0.587150 -0.942693 0.227507 -0.452144 0.460833 -0.673700 0.019056 -0.025006 -0.400564 -0.204584 0.287642 -0.167253 0.407594 -0.741478 0.287423 0.213191 0.132047 -0.155335 -0.242856 0.800295 -0.296683 -0.119489 -0.713215 -0.480783 -0.182595 -0.164450 0.268987 0.059824 -0.021676 0.049810 0.258265
全 0.581019 -0.532164 0.772213 0.088456 0.070716 -0.315459 -0.348224 0.453231 -0.319176 -0.757125 0.370029 -0.068390 0.071804 0.391722 -0.008201 0.115296 0.010616 -0.507092 -0.875463 -0.065877 -0.291758 0.121627 0.186519 0.180434 -0.658791 0.600978 -0.367623 0.946820 -0.074427 -0.315990 -0.316565 1.055380
间 -0.537063 0.053379 -0.168044 -0.233868 0.438444 0.605977 -0.141042 -0.177706 0.633626 -1.026574 -0.247976 -0.665159 0.855331 0.397602 0.384317 0.461592 -0.099205 -0.319091 0.261467 0.140156 1.008572 0.033566 -0.315836 0.163665 -0.609623 0.041643 -0.324294 0.698575 0.706465 0.119452 0.419734 0.363826
份 0.995725 0.260876 0.172624 0.091449 -0.465700 -0.114605 -0.550652 0.056345 -0.273392 -1.222592 0.272624 0.118732 -0.027635 -0.416793 -1.055200 -0.501305 0.192210 -1.048388 0.302030 -0.191395 1.221327 0.275300 -0.168234 0.084317 0.384890 0.385945 0.021060 0.329491 -0.341000 0.146920 -0.356901 1.423185
今 0.366220 0.261014 -0.789409 -0.536941 -0.337761 0.451499 -0.274959 0.703524 0.145100 -0.328468 0.020938 0.518681 0.199102 0.251734 -0.383252 0.221469 0.086740 -0.193150 0.079086 0.131631 0.112309 0.247302 -0.118509 0.442593 -1.012656 -0.576203 0.209599 0.579783 0.077808 -0.086664 0.754490 -0.034338
说 0.243956 0.050397 -0.087585 -0.361899 -0.067071 -0.009055 -0.080638 0.419926 -0.347328 -0.415194 0.297222 0.109167 -0.129920 0.221434 -0.290383 0.297549 0.300195 -0.103383 -0.157906 -0.197393 -0.189513 0.014204 -0.030611 -0.139285 0.003914 0.131169 0.366049 0.466789 0.383282 -0.250272 0.100717 -0.088801
嘛 -0.116114 -0.083919 0.058974 -0.011709 0.277200 -0.368808 0.220398 -0.100363 0.099321 -0.484314 0.295066 0.108226 0.137442 0.158763 0.055383 0.197441 -0.361893 -0.156303 -0.202203 0.317324 0.518705 0.058556 0.193488 -0.253339 -0.153242 -0.161868 0.529920 0.453144 -0.527454 0.378018 0.420449 -0.307733
无 -0.163823 0.390115 -0.088155 -0.336876 -0.293286 -0.097779 -0.222936 -0.192420 -0.064123 -0.941506 0.205205 -0.150131 -0.195322 0.451289 -0.610582 -0.810326 -0.174579 0.666584 -0.766573 -0.243892 0.312417 0.295687 -0.470387 -0.469371 -0.122726 0.389521 0.099271 0.994631 0.009855 -0.619498 -0.743715 -0.884436
帮 0.126633 0.057571 0.100106 -0.038119 -0.296692 -0.453208 -0.884457 -0.294551 -0.017304 -0.087601 1.224086 0.106984 -0.116355 -0.004245 -0.221904 0.606014 0.910404 -0.451770 -0.238219 -0.089732 0.804257 -0.640234 -0.317946 0.183033 -0.615281 -0.638505 0.377857 0.086727 -0.065179 0.171373 0.313194 0.078649
别 -0.221257 -0.758101 -0.044311 -0.155798 0.257124 -0.014690 -0.782178 -0.863860 -0.331801 -0.689531 0.187174 -0.038082 -0.481033 0.081788 -0.688471 -0.271338 0.424620 -0.944406 -0.549490 -0.253383 -0.416886 -0.167924 0.101218 -0.061349 0.407785 -0.640723 0.072616 0.384101 -0.193614 -0.070376 0.674579 -0.706739
意 0.523422 -0.294328 -0.378456 -0.997270 0.316352 0.503981 -0.135442 -0.264741 -0.730983 -0.688366 0.854528 -0.697295 0.193753 0.482072 -0.043534 -0.031649 0.169151 0.033385 -0.425107 -0.792403 0.164719 0.657866 -0.670533 -0.204119 -0.344648 0.358823 0.106182 0.610321 1.029757 -0.039041 -0.052222 -0.244420
被 -0.616260 -0.478499 -0.104538 -0.705766 0.123790 -0.528141 -0.103964 0.225871 -0.173901 -0.154721 0.568204 0.249676 0.198072 -0.025435 -0.713926 -0.206303 -0.494786 0.117548 -0.026875 0.149682 0.321097 -0.169455 -0.410433 0.243529 0.099680 -0.240658 0.811758 0.382305 0.935236 0.463450 -0.308716 0.108606
购 -0.382603 0.227812 0.776507 0.196509 -1.188266 -0.226102 0.305996 0.120701 -0.807701 -0.848507 -0.431177 0.609824 -0.548261 0.173634 0.030937 -0.136144 0.760754 0.428922 -0.263114 0.594124 -0.040719 0.746906 -0.310076 -0.100843 -0.093092 -0.027668 -0.209301 0.854644 -0.449627 0.874906 -0.073053 0.095885
更 -0.097898 -0.518372 0.146759 0.125139 -0.002617 0.428985 -0.067661 -0.556418 1.442163 -0.760035 -0.061285 -0.229659 -0.405924 0.253464 -0.429166 -0.542256 -0.275268 0.136855 0.272282 0.660531 0.624309 0.029896 0.480227 0.844799 0.279918 0.373247 -0.030252 0.861428 0.141771 0.327859 0.262126 0.243013
新 -0.706609 -0.156710 0.272210 0.306695 -0.315172 0.223571 -0.398343 0.062795 0.034198 -0.467093 0.149655 -0.274890 -0.291194 0.730488 -0.632497 -0.203355 -0.484702 -0.173936 0.036122 0.038957 1.293250 -0.557835 0.253202 0.657320 0.632479 -0.166622 0.154468 0.331978 0.031049 0.164570 -0.020870 0.136741
两 0.040217 0.309339 -0.461173 0.035030 -0.100401 0.370706 -0.084020 0.145830 -0.141523 -0.628408 -0.112766 0.353826 0.263050 -0.088115 -0.496446 -0.197603 -0.169597 -0.616790 -0.439059 0.483641 0.288658 0.277742 -0.054815 0.104995 0.294722 0.267844 0.634778 0.203033 0.018277 0.128403 0.991179 0.239627
高 -0.484922 -0.686098 0.041268 -0.380262 -0.282409 -0.271283 -0.530445 0.146792 0.343446 -1.107167 0.489057 -0.977477 0.142107 -0.145169 0.291703 0.135830 0.370677 0.156803 0.283497 -0.343939 -0.422236 -0.072535 0.560228 -0.262084 -0.895235 -0.026883 -0.320295 0.184119 -0.343443 0.944999 0.187468 0.006234
从 -0.219068 -0.052215 -0.582951 -0.032965 -0.657096 0.011719 0.090447 -0.362944 0.534218 -0.643676 -0.064605 0.010566 -0.077222 0.186850 -0.043566 0.132441 -0.361337 0.048139 -0.261109 -0.193593 0.320005 -0.006770 0.567920 0.006183 0.057176 -0.822531 0.483926 0.439632 0.242608 -0.275259 0.435687 0.925172
店 -0.301474 0.311393 0.562145 0.410196 -0.121746 0.003622 0.200397 -0.297276 -0.488325 0.076082 0.176068 -0.094184 -0.975765 0.187759 0.448995 0.687731 0.728451 -0.250026 0.711160 -0.440247 0.373004 0.359299 -0.209172 0.006081 -0.251109 -0.215241 0.337764 1.317334 0.235034 0.881445 0.239077 -0.563249
二 0.462512 0.719713 -0.512639 0.267377 0.103879 -0.398885 -0.526004 -0.037403 -0.287934 -0.464686 -0.493432 -0.616322 0.477055 -0.111213 -0.524187 -0.122316 0.372849 -0.367674 -0.146473 0.353445 -0.065830 0.612660 1.115047 0.278614 0.411292 0.262233 0.106571 0.958309 0.155222 0.583542 0.881322 -1.119156
果 0.605593 0.114825 0.101412 -0.089470 -0.403183 -0.301410 0.334532 0.575566 -0.011654 -0.552278 0.150139 0.215780 -0.286699 0.131266 -0.502631 0.805797 0.046620 0.680243 0.308029 0.141400 0.643749 -0.113609 -0.474092 0.636868 0.121469 0.372437 0.153136 0.720045 -0.052398 0.464597 0.202092 0.005836
啥 0.122453 -0.052727 -0.296720 -0.584132 0.036458 0.075328 -0.102865 0.084680 -0.295346 -0.715503 0.192132 0.233296 0.270691 0.014233 -0.283323 -0.044393 0.280058 0.219678 -0.166934 0.037111 0.433653 0.340369 0.254080 -0.525682 -0.054319 0.225534 0.369333 0.184279 0.562236 0.079515 -0.235898 -0.450350
找 -0.191067 -0.018984 -0.664240 0.630576 -0.015421 -0.289685 -0.687117 -0.351769 0.256267 0.116105 0.876162 -0.032489 -1.228444 -0.235448 0.105622 0.279857 0.918439 0.280562 -0.103386 -0.183210 -0.092214 0.508248 0.103427 0.058105 0.075653 -0.398552 -0.089836 0.793595 0.045716 -0.183002 0.327356 0.041077
设 0.417728 -0.599815 -0.068426 -0.252482 -0.308482 -0.823241 0.400508 -0.836641 0.324641 0.124993 -0.069077 -0.832054 0.146588 0.145720 -0.653760 0.360650 0.038875 1.074803 -0.658054 -0.106575 0.024720 -0.264033 0.536034 0.370171 0.352932 -0.204482 0.042981 1.347851 0.766888 1.156973 0.411435 0.628540
元 0.232505 0.144265 -0.588340 -0.115514 -0.360633 0.141339 -0.436795 0.325981 -0.213854 -0.490926 -0.181854 0.019282 0.117073 0.111496 -0.203204 0.282423 -0.105117 0.230062 -0.141578 -0.499728 0.200441 0.658380 0.116762 -0.258078 0.099579 -0.141281 -0.059470 0.294352 -0.098337 0.630114 0.062849 0.373183
事 -0.129626 0.195091 -0.970190 -0.667523 -0.109168 -0.567809 -0.966074 0.039817 -0.066708 0.054817 0.703546 -0.494874 -0.676561 0.006614 0.302727 -0.157980 -0.772949 -0.631727 -0.034491 -0.281772 -0.096600 0.713184 0.508177 0.012148 0.173557 0.379662 -0.180122 0.596127 1.037481 0.239953 -0.250492 -0.179753
直 -0.236964 -0.011044 -0.427994 -0.130886 0.130664 0.301630 -0.210415 -0.121452 -0.095748 -0.574979 0.068192 -0.230839 -0.512290 -0.039765 0.433074 0.253295 -0.284013 -0.561140 -0.375177 0.032785 0.168520 -0.463710 0.727178 -0.511995 0.134261 -0.167390 -0.050561 0.462865 0.472027 -0.220255 0.464476 0.092280
思 0.326669 -0.497818 -0.424932 -1.200473 -0.425719 0.894129 -0.706879 -0.161547 -0.997839 -0.467909 0.986379 -0.559110 -0.002202 0.483471 0.489197 -0.352592 -0.253355 0.248162 0.333383 -0.213065 -0.187279 0.819214 -0.856832 -0.447414 0.051530 0.385863 0.157794 0.665692 0.825285 0.201138 0.260583 -0.529896
好 -0.165787 -0.100360 -0.162258 -0.614267 -0.010676 -0.300983 -0.708818 0.018631 -0.271694 -0.021339 0.344914 0.089518 0.086339 -0.141505 -0.676224 -0.074757 0.176196 0.035103 0.062882 -0.163449 0.560812 -0.303283 -0.153009 -0.196335 -0.089815 -0.312647 0.228394 0.255817 0.109219 0.158959 0.569758 -0.327872
置 0.525461 -1.097729 0.415881 -0.088563 -0.132829 -0.711349 0.960927 -0.670927 -0.053469 -0.464976 -0.139611 -0.777971 -0.109072 -0.190753 -0.965623 -0.194396 -0.156920 0.834475 -0.552612 -0.203682 0.605774 0.200632 0.686001 0.102857 0.390074 -0.138339 -0.326206 1.036649 0.667056 0.398021 0.652950 0.791582
当 0.515196 0.239285 -0.335967 -0.404287 0.110669 0.142368 0.242282 0.867038 0.258397 -0.364710 0.272505 -0.083426 0.553082 0.612707 0.311171 0.184786 -0.079853 0.183854 -0.508650 0.334343 -0.148251 0.247199 -0.198928 0.144827 -0.447268 0.031588 0.558313 1.069408 -0.070189 -0.058541 0.803334 -0.088716
解 -0.898564 -0.835753 0.427086 -0.503389 -1.168839 0.193472 -0.303079 -0.157976 0.204307 0.018923 1.387931 0.414633 0.120825 0.182802 -1.025445 -0.443404 -0.469784 0.173627 -0.470289 -0.023847 0.498164 0.253523 -0.184057 0.991724 0.260949 -0.561788 0.439875 0.209115 0.760625 0.276821 -0.154514 -0.057065
明 0.466520 0.160780 0.009894 -0.049048 0.078909 0.277731 -0.036796 0.784327 -0.183315 -0.417478 1.164831 0.479497 -0.047046 -0.099367 -0.700137 0.210010 0.111331 -0.380590 0.556054 -0.246734 0.187917 0.371331 -0.193727 0.177515 -0.948210 -0.490725 0.292296 0.431621 0.278732 0.019262 0.331632 0.603138
变 0.289883 -0.659459 -0.457697 -0.681587 -0.279421 -0.187358 -0.614627 -0.110171 0.141500 -0.823411 -0.487598 -0.238515 -0.666572 0.033408 -0.072333 -0.648090 0.010364 0.203050 0.538660 0.376398 -0.400848 0.529997 0.633807 0.506106 -0.533755 0.127256 0.320266 0.401855 0.316619 0.376851 0.057451 0.404872
免 -0.360901 -0.285690 -0.041124 0.171056 0.248074 -0.487493 -0.459208 -0.380124 0.504870 -0.580234 -0.080225 -0.562566 -0.101226 0.237441 -0.015137 0.270097 0.419806 0.504091 -0.688783 0.172754 -0.365970 1.161129 -0.243707 0.128487 1.037425 -0.422501 -0.505808 0.671068 -1.033724 0.899877 0.416889 0.520533
密 0.252865 0.304624 0.177084 0.634301 -0.215331 -0.151936 -0.055650 -0.626046 0.584793 0.198094 1.071252 -1.280862 -0.422078 0.515711 -0.141729 -0.976398 -0.684920 0.164538 -0.651756 -0.299866 0.406612 0.014488 0.408333 -0.219526 0.497244 0.170767 -0.581286 1.368986 0.588117 0.574159 0.699237 -0.277458
降 -0.703158 -1.892830 -0.522498 -0.698253 -1.316705 -0.159532 -0.648918 0.202381 -0.471259 -0.920676 0.424061 -1.385142 -0.321797 -0.711746 0.002551 -0.420982 0.189060 0.017248 0.411857 0.492663 0.240983 -0.203419 -0.274522 -0.052410 -0.630891 0.226090 0.164878 -0.012271 0.342664 0.113127 0.493322 0.149927
货 -0.243601 -0.113857 0.356501 0.875230 -0.146438 -0.149713 -0.496801 0.197248 -0.687890 -1.332852 -0.416498 -0.248570 -0.823034 0.045242 -0.159256 0.860976 -0.308534 0.317177 0.713796 0.267564 -0.228847 0.362274 -0.238444 -0.107657 0.139253 0.415743 0.133831 0.555487 0.689998 -0.318835 0.141534 0.213095
身 0.756266 -0.500853 -0.033536 -0.096095 -0.632325 0.383450 -0.929421 -0.013165 -0.209518 -1.009111 0.461267 0.454980 -0.239614 -0.675906 -0.733976 -0.564210 0.354531 -1.528277 0.409563 -0.622868 1.843949 -0.090686 -0.040111 -0.067371 0.437959 0.662188 0.001855 1.004076 -0.572779 -0.705358 0.088785 0.665353
未 0.250029 0.698849 0.209334 -0.534354 0.713501 -0.081832 -0.408186 0.197255 -0.192075 -0.944644 0.451980 0.252731 -0.161171 0.572267 0.097658 0.160796 -0.173984 0.065641 0.208796 0.030861 0.042147 0.034101 -0.077489 -0.003487 0.111300 0.236506 0.053078 0.490084 0.349686 -0.413483 0.187355 0.692998
票 -0.567313 -0.179271 -0.296462 0.714420 0.112862 0.744716 -0.403772 0.344303 -0.790875 -0.534278 -0.603226 0.590778 -1.230001 0.465892 -0.760074 0.042027 -0.227767 0.442243 -0.427978 1.386736 -0.053465 0.675284 0.013778 -0.124216 -0.221054 -0.750317 -0.343621 0.568993 0.386773 0.278601 0.372940 0.189049
验 0.214741 -0.894538 0.387032 0.254514 0.563129 0.153886 -0.388358 0.328564 0.349830 -1.216546 0.130226 -0.063082 -0.539976 0.186867 -0.467682 -0.552200 -0.395367 -1.157315 0.506220 -0.998605 0.348840 0.747356 0.664246 0.061400 -0.112227 0.716666 -0.910594 1.461779 0.370326 -0.195611 -0.672798 0.350591
否 0.160424 0.326734 0.265182 -0.081913 0.207767 -0.208875 0.075079 -0.185439 0.237082 -0.405210 0.472364 0.157407 -0.034760 0.540056 -0.062479 0.486354 -0.082482 -0.189640 -0.012732 -0.010530 0.288621 -0.116515 -0.334875 0.111053 -0.418877 0.061275 0.327294 0.445872 -0.080411 0.245872 0.316252 0.171496
件 -1.378722 0.242258 1.039728 -0.298441 -1.096398 0.281066 -0.293944 1.262891 -0.584314 -0.151642 0.936493 0.294676 0.133855 0.755219 -0.555273 0.536322 0.723220 -0.056131 0.458290 -0.485120 0.550509 0.695347 0.784489 -0.074302 0.298372 0.682862 0.023768 0.310300 0.413669 -0.594388 -0.046965 0.219586
然 -0.297332 -0.295058 -0.390103 0.067908 -0.159575 -0.068926 -0.610028 0.125778 -0.783894 -0.902125 -0.374268 -0.069131 -0.454982 0.202311 -0.622519 0.441910 -0.407638 0.361655 -0.437543 0.539300 -0.025816 -0.405316 -0.177616 -0.039411 -0.079511 0.182793 0.464196 0.224839 0.190487 -0.154447 0.174678 -0.209442
对 -0.220563 0.211101 0.042010 -0.433820 0.758550 -0.247076 0.345101 0.117481 -0.255733 -0.865100 0.039061 -0.301906 -0.388761 -0.305864 -0.426281 -0.234662 -0.053425 -0.271615 -0.203997 0.174030 -0.085827 0.307107 -0.181361 -0.213903 0.313231 -0.039244 0.230342 0.294828 -0.013587 -0.131684 0.659441 0.164331
登 -0.133363 0.075148 -0.108739 0.402641 -0.484920 0.168406 -0.621198 0.197114 -0.201336 -0.446398 0.977498 0.375674 -0.623512 0.252033 0.194794 -0.841793 0.267863 -0.055510 -1.228697 0.693186 0.283534 -0.713198 0.092453 0.084062 1.651526 -0.302916 -0.560468 0.864266 0.640666 0.157549 0.174194 -0.032119
进 -0.125186 -0.031780 -0.543676 -0.010796 -0.138220 -0.061872 -0.497854 0.244373 -0.276424 -0.321729 0.262709 0.005857 -0.347057 0.389052 -0.004490 -0.317254 -0.004911 0.351636 -0.715627 -0.045207 0.572509 -0.163213 1.139784 0.067968 0.109188 -0.352010 -0.201888 0.511754 0.103393 -0.620219 0.333439 0.412230
积 -0.957654 -0.176493 0.300947 -0.330640 0.242157 0.369255 -0.450349 0.345024 0.692725 -1.163633 -0.573819 -0.397677 -0.722547 -0.062505 -0.392876 -0.283977 0.839744 0.567999 0.012989 0.264624 -0.014381 0.201844 -0.141675 -0.523155 0.579819 -0.173178 -0.465623 0.240336 -1.213648 0.444784 0.119792 0.218337
负 -0.069682 0.171355 -0.206651 -1.327449 0.178511 -0.783382 -0.196421 0.502465 -0.021364 -1.019242 0.367703 0.309326 -0.503329 -1.197434 0.566092 -0.619271 0.145852 0.402198 -0.196405 -0.272656 0.302393 0.193973 -0.309937 -0.378813 -0.524603 -0.133586 -0.902911 0.710591 0.467109 0.281252 0.561191 0.002620
又 -0.110345 0.050019 -0.480699 0.127947 -0.167638 -0.227464 -0.492052 -0.083332 -0.307463 -0.675020 -0.167599 0.367131 -0.274620 0.005149 -0.383619 0.609233 -0.454013 0.151733 -0.120783 0.296988 0.189269 -0.290425 0.106143 -0.192368 0.010399 0.112590 0.386260 0.301085 0.515446 -0.123525 0.099114 0.333936
品 -0.156232 0.512710 0.882175 -0.373599 -1.020553 -0.178503 -0.020408 0.020297 -0.778400 -0.596212 -0.024755 0.173053 -0.988343 0.253166 0.329825 0.230817 0.359317 0.096674 0.131353 -0.236190 -0.594444 0.478567 -0.237119 -0.042499 -0.189707 0.262130 -0.101968 0.588869 -0.339559 0.600716 0.335937 0.186076
帐 0.037685 0.599217 -0.290417 0.348423 0.349447 0.393684 -0.331453 -0.017085 0.411655 -0.636808 0.627363 0.079855 -0.421579 0.248380 0.016715 -0.068586 0.371774 -0.196117 -0.079241 0.263503 0.316158 0.037074 -0.374265 0.447271 0.585111 0.040923 0.496614 0.268398 0.718938 0.033459 0.227985 0.521724
超 -0.317315 0.846296 0.067997 -0.670581 -0.112819 0.146147 -0.204313 0.318574 -0.426200 -0.358204 -0.535729 0.136122 -0.482450 -0.058201 0.315078 0.117170 -0.085626 -0.669109 -0.220270 -0.212003 0.350877 0.227098 0.126065 -0.060126 -0.227954 -0.424991 -0.531202 0.759002 -0.336339 0.633858 0.352149 0.183278
包 -0.375147 0.578931 -0.205731 0.518870 0.163926 0.216406 -0.457414 0.107721 0.129999 -0.076431 -0.019557 -0.622981 -0.634107 -0.023234 -0.372628 -0.298000 -0.179632 0.275873 -0.486653 -0.367104 0.570395 1.450982 -0.252431 0.129187 -0.513533 -0.905090 0.061214 0.467974 -0.056423 -0.017825 0.340680 -0.031147
服 -0.395995 0.187012 0.073615 -0.018319 -0.014766 0.236521 -0.818733 -0.119617 0.262787 -0.022118 0.185177 0.475970 -0.163685 0.002872 -0.386680 1.036773 -0.045692 0.382997 0.229291 -0.554509 -0.529390 0.513696 -0.102113 -0.260705 0.363384 -0.023181 0.535464 1.018168 0.336869 0.023350 0.799026 -0.927184
重 -0.569084 0.270950 0.317270 -0.301508 -0.370349 -0.095022 -0.841642 -0.838013 0.640001 -0.517100 -0.473522 0.478677 0.051994 0.568496 -0.472674 0.287161 -0.155134 -0.402266 0.290926 0.642916 1.015260 -0.576594 -0.061171 0.294547 0.223047 -0.122532 -0.037829 0.289393 0.622722 0.474798 0.059493 0.224240
知 -0.196046 -0.507752 -0.206176 0.469933 -0.142865 -0.648552 0.366283 0.728844 0.035858 -0.782284 0.800192 -0.022960 -0.119576 -0.452712 -0.780246 0.709095 0.969086 -0.568683 -0.065635 -0.163486 0.077341 0.235081 -0.270566 -0.486364 -0.296794 -0.254815 -0.012546 -0.154706 0.826116 -0.103304 0.362146 -0.514795
条 -1.326311 -0.225394 0.829405 -0.411394 -0.354320 0.652499 -0.366431 0.591670 -0.564905 -0.240941 0.631787 -0.003046 0.186881 1.225652 -0.572752 0.217992 1.053499 -0.230775 0.511249 -1.086195 0.355187 0.167333 0.952769 -0.667535 -0.075846 0.596312 -0.329549 0.766196 0.702882 -0.489894 0.320905 0.702405
扫 -0.168921 0.174495 -0.163786 0.784101 0.246954 0.018522 -0.225822 -0.455607 -0.607770 -0.193008 -0.059143 -0.336553 -0.220442 -0.022091 -0.285210 -0.816444 0.341334 -0.801178 -0.128398 -0.479914 -0.220151 0.178442 0.848707 0.061200 -0.167211 -0.180843 -0.005493 1.282488 0.815013 1.005054 0.915149 -1.155176
系 0.517039 0.006376 0.451738 -1.291186 0.527670 0.420657 -1.054604 0.316304 0.409056 -0.468902 0.257397 -0.778555 0.037295 0.079152 -0.462309 0.409400 0.572215 0.020804 -0.186382 0.304395 0.239362 -0.863809 0.109406 -0.178488 0.794809 -0.616818 0.722653 0.529787 0.354520 -0.383922 0.233480 -0.226100
笔 0.297425 0.647165 -0.301042 0.206524 0.302057 -0.021273 -0.660495 0.607505 -0.153044 -0.359305 -0.079493 0.168003 -0.211694 -0.449319 0.338535 0.550697 0.302425 0.186899 -0.116963 0.060166 0.173582 0.614219 0.453894 0.031617 -0.058925 0.257342 0.228383 0.093277 0.622001 0.906819 0.680039 0.912519
方 0.881152 0.040057 -0.061376 0.569785 0.174741 -0.263877 0.238654 -0.733190 -0.000695 -0.769002 -0.136215 -0.929978 -0.426154 0.600137 -0.062129 0.010801 0.670614 0.082545 -0.091741 0.487287 -0.185977 0.214088 -0.285271 -0.323168 0.122842 0.176388 0.218215 1.225842 0.198964 -0.215442 0.318218 0.052530
十 0.631049 0.109112 -0.824268 -0.048136 -0.072042 -0.020001 -0.277036 0.139411 -0.079115 -0.532489 -0.612272 -0.469827 0.519045 -0.315187 -0.417855 0.477408 0.542721 -0.283515 -0.236601 0.574535 1.116717 0.674422 -0.220574 0.256780 0.230217 -0.373517 -0.546655 0.547815 -0.032141 1.184508 0.218080 0.027750
打 -0.405192 -0.087464 -0.071602 0.065019 0.452216 0.176856 -0.127345 0.466339 -0.148087 0.093041 0.916698 0.714317 -0.392933 0.145327 -0.669615 0.030326 0.273509 0.157453 -0.662240 0.157081 0.446260 -0.349327 0.040337 -0.865875 -0.145564 -0.570820 0.144663 0.133922 0.567288 0.131276 0.698861 -0.427878
外 0.017722 -0.054715 0.424990 0.464887 0.394835 0.715625 -0.665418 0.031481 0.375904 -0.732419 -0.275231 0.257981 -1.126694 -0.516702 0.524248 -0.121455 0.316098 -0.642738 -0.948154 -0.169890 0.901746 -0.621188 -0.552575 0.024539 0.167628 -0.073777 0.796707 0.476887 0.344218 0.547942 -0.184376 -0.051716
短 -0.189447 -0.666515 0.420455 -0.016508 0.536382 -0.262819 -0.148849 0.871737 1.461244 -1.184778 0.401757 -0.468080 -0.309957 0.287093 -0.305627 -0.030645 -0.143159 0.003937 0.649486 -0.068145 0.381302 0.444783 -0.285862 -0.174478 0.239487 0.810179 -0.156445 0.311682 0.856930 -0.744819 0.267998 -0.420883
欠 0.150870 0.015298 -0.306046 0.024100 -0.389662 -0.302476 -0.709153 0.673537 -0.005477 -0.583693 0.716067 0.204251 0.015243 -0.527347 0.221079 0.050846 0.301552 0.083636 0.006476 -0.122013 -0.471388 0.179496 0.091971 -0.197374 -0.557748 -0.140576 0.187906 0.138593 0.547693 -0.058461 0.530234 0.443887
部 0.269496 -0.227315 0.698814 -0.093292 0.015885 -0.068361 -0.674165 0.228233 -0.046927 -1.074874 0.467027 0.674025 -0.058761 -0.558022 0.511631 0.467033 -0.112016 -0.055574 -0.610376 0.280900 -0.308101 0.065254 0.144131 0.612373 -0.819677 0.724329 0.036432 0.652610 -0.224131 0.128894 0.333470 0.560163
你 0.138854 0.199295 -0.175860 0.031642 -0.323445 -0.278785 -0.596966 0.153608 0.030038 -0.256023 0.553361 -0.043216 -0.012410 0.282168 -0.116217 0.330072 0.391399 -0.486740 -0.889366 -0.686572 0.032949 -0.154964 -0.594354 -0.262383 -0.297307 -0.173059 0.593380 0.144955 0.555018 -0.047281 0.144813 -0.073493
认 0.525015 -0.314946 0.592022 0.858033 0.165503 0.065848 -0.602032 -0.269696 -0.843011 -1.182162 -0.455310 -0.608699 -0.220013 -0.135745 -0.790781 0.102596 -0.457187 -0.278428 0.849319 -0.504237 0.450227 0.084474 -0.550911 -0.391767 0.221611 0.563295 0.350195 1.320408 0.438597 -0.151365 -0.416499 0.607597
调 -0.522791 -1.048468 -0.553170 0.314861 -1.141238 -0.459564 -0.937353 0.330974 -0.524457 -0.489177 0.172695 -1.438715 0.303159 -0.092321 0.146760 -0.689554 -0.366031 0.415188 0.312514 0.374421 1.126685 0.030960 0.534307 0.735615 -0.629209 0.056983 0.355399 0.246425 0.607199 0.523656 0.274959 0.132838
让 0.347598 -0.329408 -0.056943 -0.043508 -0.283540 -0.235571 -0.552993 -0.322635 -0.136610 -0.385931 0.499612 0.474988 -0.044072 -0.110405 -0.466817 0.052363 0.167406 0.101134 -0.473560 -0.185321 0.099664 -0.438351 0.084782 -0.221110 0.126840 -0.254930 0.057998 0.345929 0.360273 -0.123135 0.366353 -0.145778
呀 -0.229068 0.013276 -0.460995 -0.279604 -0.112500 -0.111484 -0.407906 -0.031219 0.064211 -0.515182 0.441279 0.249724 -0.075949 0.072304 -0.024793 0.263444 0.117263 0.033889 -0.079950 -0.150569 0.155228 0.236692 0.333447 -0.265484 -0.100294 0.115750 -0.007644 0.182980 0.426499 0.049111 -0.128838 0.109827
值 -0.330443 -0.522145 -0.566390 0.149659 -0.253125 0.053289 0.013464 0.955935 1.163835 0.319403 -0.896487 0.118015 -0.449649 0.014800 -0.376797 -0.745034 0.287045 -0.100989 -0.786197 -0.343856 0.109231 0.619250 -0.058306 -1.451789 0.013020 0.188313 0.240606 0.844063 0.355818 1.224854 0.385279 0.607537
本 0.350732 -0.555191 0.050688 0.267310 0.115118 0.033399 -0.663834 0.164455 -0.212475 -0.885972 0.562477 -0.457312 0.103331 0.151672 0.045189 -0.136625 -0.080394 -0.029749 -0.492248 0.282219 -0.324233 0.234563 -0.139206 0.211218 0.103283 0.244510 0.727707 0.357978 -0.709984 -0.100945 0.446636 0.124578
物 -0.371806 0.533424 0.871609 0.179624 -1.263589 -0.011408 -0.056558 -0.544105 -0.751604 -0.798914 -0.147153 0.265084 -0.571710 0.134497 0.314231 -0.043421 0.570847 0.384311 0.440234 0.226003 0.120694 0.949492 -0.907478 -0.160210 -0.173027 -0.247422 -0.028233 1.077086 -0.501716 0.719157 -0.143285 0.328765
问 0.510161 -0.131381 0.172804 -0.124917 -0.449646 -0.549432 0.181989 0.321464 -0.362423 -0.554244 0.637859 -0.601409 -0.153634 -0.275734 -0.261807 0.460815 0.579762 -0.215618 -0.648171 -0.465852 -0.015945 -0.270894 -0.684114 0.014793 0.262825 -0.213889 0.005005 0.276673 0.808974 0.268158 0.057805 -0.283289
脸 0.186451 -1.009028 0.722702 -0.215197 0.059935 -0.062501 -2.007562 -0.891554 -0.119939 -0.249126 0.085835 0.636640 -0.113612 -0.020528 -0.356779 -0.424887 0.320253 -1.792496 -0.023909 -0.723872 0.270771 -0.356389 0.160804 -0.574177 -0.041888 -0.181312 0.143753 1.590659 -0.074520 -0.259357 -0.151129 -0.332292
制 -0.538488 0.231942 0.594339 -0.760279 0.704631 -0.656263 -0.003124 0.387911 -0.225582 -0.624876 -0.725357 -0.313130 0.353628 -0.743106 0.421944 -1.052914 0.080080 0.029720 0.255175 -0.188390 0.296484 0.655659 0.920294 0.276560 0.532510 -0.321974 0.452755 0.389863 1.026716 1.393564 1.082401 0.219242
权 -0.479033 -0.500645 0.651466 -1.215890 0.219349 -0.098282 -0.395002 -0.518532 -0.316005 -0.182958 0.679413 -0.126390 -0.187631 -0.876586 -1.165946 0.067743 0.262655 0.658425 -0.105005 -0.809461 1.178639 0.124677 -0.058027 -0.490966 1.028520 0.281920 -0.897017 0.604081 0.409057 0.323441 0.476118 0.444597
长 -0.433513 0.139757 0.201106 -0.627115 0.629644 0.569885 -0.472496 -0.103113 0.816218 -1.119794 -0.094422 -0.484289 1.147853 -0.114231 0.124891 0.236554 0.239947 -0.261577 -0.019590 -0.033431 0.323243 0.195957 0.107779 0.410670 -0.877262 0.055715 -0.244066 0.605522 0.430469 0.569684 0.539790 0.189880
麻 -0.522823 0.132510 0.961845 -1.192274 -0.010117 0.363456 -0.718425 0.285793 0.877088 -1.261473 0.539977 -0.336704 -0.409420 -0.907504 -0.497401 0.154539 0.215994 -0.320672 -0.487452 -0.292583 0.590002 -0.468947 -0.987006 -1.256765 -0.300220 -0.180762 -0.182603 -0.421519 -0.650849 0.372875 0.755120 -0.313939
中 0.418086 0.194236 0.063842 -0.334924 0.165600 0.055976 -0.097477 0.321291 0.140384 0.063551 -0.057856 -0.354457 -0.161666 0.642129 -0.152276 0.356071 -0.456434 -0.297349 -0.814108 -0.084733 0.242542 0.157589 0.083463 -0.087742 -0.153659 -0.210905 0.395037 0.919318 -0.068230 -0.099671 -0.417078 0.833349
吧 -0.102837 0.047004 -0.378897 -0.259805 -0.076362 -0.588452 -0.023781 -0.038725 0.067439 -0.514369 0.294391 -0.219881 -0.316506 -0.100173 -0.420683 0.311021 -0.012384 -0.481430 -0.183575 -0.031071 -0.006615 -0.011706 -0.199932 -0.372287 -0.188918 0.065690 0.597669 0.056436 0.066965 0.040077 0.203915 -0.032478
选 0.794130 -0.158320 0.147626 0.614656 -0.477426 0.180074 0.191191 -0.994422 -0.009043 -0.931904 -0.294561 -0.615950 0.236131 -0.030790 -0.482947 0.677887 0.722056 0.117288 -0.811557 0.470060 -0.008582 0.663047 0.273392 0.189156 -0.248394 0.409367 -0.346845 0.670476 0.311379 0.050741 0.454534 0.457742
够 -0.560799 -0.074237 -0.069638 -0.248888 -0.891594 -0.562470 0.075837 -0.082895 -0.234333 -0.896421 0.045043 0.244911 -0.134745 -0.115544 0.198623 -0.229340 -0.140316 -0.035114 -0.114124 0.059058 -0.009947 0.140719 0.597219 -0.273822 0.056994 -0.125324 -0.168812 0.524170 -0.147153 0.371513 -0.478083 0.199472
得 -0.052532 0.136794 -0.432094 -0.116335 0.042871 0.005281 -0.323790 0.216359 0.133144 -0.463052 0.265999 -0.237635 -0.129606 0.182528 -0.391622 0.158694 -0.050356 0.190066 -0.224631 -0.373686 0.310863 0.166058 -0.159487 0.136456 0.095855 -0.127308 -0.185771 0.183086 -0.023813 0.269114 -0.014681 0.054202
原 -0.040886 -0.533065 -0.394840 -0.295556 0.408423 0.274668 -0.148205 -0.121495 -0.356428 -1.149763 0.790965 -0.462328 -0.595153 0.318242 -0.517170 -0.509817 -0.115735 -0.446234 -0.076369 -0.081401 -0.150435 0.030848 -0.201794 0.375032 -0.556052 0.129026 0.455742 0.115507 0.867493 0.302388 -0.702469 -0.001420
红 -0.600160 0.525652 0.311620 0.560147 -0.140926 -0.142472 -0.348247 0.444846 -0.294536 0.171773 0.217211 -0.741868 -0.619528 0.046489 -0.479155 0.207043 -0.306020 0.265189 -0.441188 -0.456087 0.848106 1.493646 0.254006 0.404052 -0.023303 -0.782743 0.192204 0.190940 -0.058910 0.373977 0.262159 -0.171263
己 0.365576 -0.062490 0.014902 -0.028406 -0.483619 -0.725233 0.114057 0.008212 0.247897 -0.576362 0.354531 -0.279992 0.113837 0.302038 -0.307048 0.116970 -0.184276 0.252668 0.348050 0.062392 0.405747 -0.540721 0.000803 -0.222493 -0.047281 -0.732886 0.655156 0.370283 0.491900 0.047774 -0.046142 0.633312
接 -0.285897 -0.119834 -0.349053 0.383837 0.182998 -0.094545 0.046032 -0.488467 0.024721 -0.848627 0.110535 -0.274510 -0.540298 0.064812 0.509397 0.068571 -0.289395 -0.299511 -0.759704 -0.094628 0.250321 0.037825 0.666947 -0.169967 -0.496151 -0.255280 0.580169 0.351257 0.393758 -0.270903 0.565328 0.126042
入 0.057693 -0.234555 -0.430999 0.433601 -0.017831 0.072300 -0.516378 -0.279646 -0.306821 -0.585520 0.535113 -0.708655 -0.285360 0.697768 -0.025889 -0.557889 -0.075963 0.572910 -0.608264 -0.314476 -0.186708 -0.092189 0.559001 0.103008 0.370640 -0.423990 0.335688 0.638361 0.025285 -0.356602 0.272673 0.281958
芝 -1.109698 0.357734 0.433748 -1.189150 0.304038 0.602166 -0.209776 0.361250 1.051464 -1.316937 0.193657 -1.046015 -0.145574 -0.892083 -0.634895 0.206314 -0.188931 0.405272 0.194891 -0.105017 1.042150 -0.160960 -0.849799 -1.100433 0.271053 0.626055 -0.590249 0.068346 -0.237873 0.150569 0.964478 0.151092
先 0.076433 -0.518568 0.145855 0.312432 -0.156838 -0.413863 -0.207596 -0.592363 -0.184662 -0.502102 0.340071 -0.575288 -0.149151 0.240931 0.301322 0.431835 -0.182697 0.199072 -1.012420 0.654489 0.067003 0.314213 0.079240 -0.262021 0.028604 0.512709 0.172587 0.339585 -0.424286 0.148100 0.395921 0.437903
询 0.325039 0.514442 0.440473 0.243582 -0.458822 -0.739666 -0.180717 0.832342 0.394509 -0.759726 0.906306 -0.234500 0.156950 0.134104 -0.291241 0.008124 1.233381 0.027824 -0.141180 -0.926623 -0.365313 0.340829 -0.564588 1.195928 0.026386 -0.811109 0.159261 0.199334 0.374670 0.549397 0.030690 1.230550
合 -0.967431 0.208388 1.295622 -0.573799 0.084371 0.558431 -0.206245 0.516543 -0.181198 -0.258597 0.736942 -0.283659 0.032698 1.290607 0.015056 0.565450 0.615580 0.236803 0.365304 -0.392662 0.267469 0.611767 0.812867 -0.026611 0.569589 0.095881 0.456104 0.190727 0.940403 -0.415621 0.143867 0.256174
刷 -0.543603 -0.645852 0.379160 -0.014459 0.057682 -0.064411 -0.716415 -0.004996 -0.008555 -0.580612 -0.805659 0.191892 0.122500 -0.248546 -0.133329 -0.199819 0.235325 -1.162678 -0.079535 -0.678030 -0.014630 -0.329720 0.201172 -0.313110 0.128937 0.002535 -0.098129 1.435423 0.322961 0.001177 -0.313303 0.212268
友 -0.099766 -0.155580 0.393310 0.092019 -0.098620 -0.929512 -1.425903 -0.809905 -0.425834 0.517402 1.012222 0.148768 -0.337743 -0.357464 -0.424306 0.108649 0.868782 0.638057 -0.196196 0.496336 1.183895 -0.713710 -0.385023 -0.728205 0.086444 -1.239210 0.081976 0.750180 0.336180 -0.199982 1.283094 -0.662516
同 -0.191843 0.044188 0.191918 -0.525165 -0.165912 0.630719 -0.086930 -0.340138 -0.052593 -0.347429 0.259419 -0.252357 -0.140877 -0.036147 -0.212634 -0.404334 0.285897 -0.737752 0.094621 -0.284705 0.680839 0.646010 0.112450 0.385184 0.605228 0.240803 0.771099 0.148333 0.041591 0.255173 0.290957 0.085651
维 -0.089620 0.301185 -0.304645 0.609798 0.489411 -0.631597 0.189046 -0.322575 -0.144928 -0.206339 -0.003476 -0.945794 -0.584294 -0.070508 -0.907569 -0.489258 0.674715 -0.592051 0.402951 -0.634395 -0.007354 0.497475 1.169404 0.180447 -0.268462 -0.200338 -0.856951 1.223314 1.563386 1.036146 1.390377 -1.379691
迟 0.001577 0.008835 -0.209226 -0.265311 0.494000 0.937545 -0.352207 0.398163 0.725836 0.397258 0.524170 -0.404120 0.863668 -0.696174 -0.755601 0.415765 -0.092249 -0.471113 0.542913 0.873222 0.521372 0.603913 0.497165 0.392900 -1.294747 0.657293 -0.072303 1.482186 0.283424 0.249337 1.839088 0.263233
务 -0.150934 -0.256884 1.045852 -0.114706 -0.341883 -0.362238 -0.685316 0.579026 0.284177 0.222585 0.454320 -0.364152 -0.348661 0.635155 -0.288314 0.911328 -0.265643 0.560726 -0.009187 -0.675084 -0.226527 0.667505 0.057707 -0.106203 0.650384 0.183784 0.779709 0.121219 0.715650 0.388756 0.840722 -1.033264
按 0.308689 -0.574007 -0.302589 -0.048681 -0.421142 0.167835 -0.081335 0.260586 -0.014929 -0.813124 0.165359 -0.602026 0.509854 -0.066097 -0.047515 0.366001 0.049985 0.176122 0.232717 0.454203 0.123973 0.591586 -0.105245 0.260337 -0.237427 0.318491 -0.003613 0.637114 0.112554 -0.159161 0.361245 -0.023412
押 0.312739 0.450873 -0.057680 -0.096694 0.166822 0.625672 -1.463698 0.512615 -0.534195 0.173763 -0.218540 0.206409 -1.019761 0.521198 -0.258603 -0.851289 -0.243456 1.010337 -0.093147 0.452030 0.149720 0.684998 -0.279363 -0.493110 -1.231151 -0.652330 0.775677 0.380608 0.545211 0.653550 0.813473 0.684606
晚 -0.226820 0.336929 -0.787983 -0.484664 -0.479412 0.859314 0.245800 1.500371 0.550668 0.014027 0.370277 -0.088871 0.574596 -0.377613 -0.221076 0.471447 0.044494 -0.363234 0.364327 0.962376 0.595042 0.321672 0.357223 0.576321 -0.747127 -0.349343 -0.192535 1.043238 0.350645 0.074438 1.101187 0.305387
掉 -0.070336 -0.327615 -0.393372 -0.085119 0.097285 -1.002298 -0.238417 -0.154205 0.433222 -0.181219 0.383599 0.156894 -0.498946 -0.242843 -0.955367 0.235803 -0.155353 0.107215 -0.445516 0.223451 0.234189 -0.192004 -0.445305 0.014321 0.070572 -0.146450 0.483230 0.160498 0.308486 0.263702 0.199335 0.180698
注 -0.715920 0.282437 0.082526 0.882621 -0.017903 -0.007012 -0.599878 0.291748 0.135885 -0.390854 0.038839 -0.378124 -0.887279 -0.774020 -0.840854 -0.688330 0.154530 -0.401527 0.220409 0.357524 0.903593 -0.544631 -0.086948 0.657592 0.938787 0.412040 0.542470 0.602985 0.451704 0.734700 0.068654 0.387018
小 -0.177183 0.118048 -0.442901 -0.360926 0.302927 0.384533 -0.409589 0.459042 -0.718394 0.216010 -0.071574 -0.390941 -0.592458 0.288583 -0.778059 0.125205 -0.055056 0.142011 0.159339 0.360847 0.862045 -0.171793 -0.451823 -0.091329 -0.532860 -0.092437 0.472037 0.245609 0.095796 0.673764 0.271683 0.097559
实 0.082216 0.312224 0.707332 0.439217 0.019871 0.136266 0.173379 0.325297 -0.420418 -0.674933 -0.499286 -0.231509 -0.667465 0.156559 0.211101 -0.084251 0.213323 -0.553059 0.441137 -0.929931 0.870531 0.784572 -0.151874 0.144448 -0.175384 0.467559 0.474173 0.638651 0.504031 0.512322 -0.010446 0.503485
代 0.012300 -0.573506 0.172104 0.096257 -0.348470 -0.758268 -0.259461 -1.123603 -0.088689 0.358952 0.091776 0.544143 -0.041906 0.259840 0.005770 -0.394940 0.675997 -0.168259 -0.425166 -0.106738 0.828279 0.015441 0.152412 -0.874964 -0.072631 -0.497183 0.760810 0.842184 -0.061324 -0.131079 1.375625 0.033264
总 0.228027 -0.154596 -0.101913 -0.461961 0.147854 -0.219313 -0.633338 0.326112 -0.452377 -0.772891 0.237488 -0.185478 0.169558 0.297035 0.294877 -0.135927 0.003917 0.090012 -0.030094 -0.486340 0.027370 0.071133 0.122807 -0.204583 0.159909 -0.418888 0.129671 0.243452 0.079691 0.297256 -0.147083 0.079453
订 0.576700 0.452762 0.655831 0.290446 0.552185 -0.105811 -0.715815 -0.174741 -0.285340 -0.719573 -0.343247 0.899573 -0.582175 -0.264154 -0.136637 0.249542 0.565069 0.516142 0.019420 0.252170 0.138169 0.379676 -0.796365 -0.104499 0.162649 -0.645772 0.330220 0.479877 0.630878 0.737409 0.157783 0.690470
三 0.352808 0.168325 -0.701101 -0.328709 -0.329095 0.177625 -0.316383 0.264204 -0.093516 -0.750179 -0.439925 -0.130604 0.479222 -0.100456 -0.526363 -0.146485 0.027542 -0.270795 -0.324123 0.409345 0.046454 0.414425 0.105569 -0.007250 -0.023267 0.570745 0.006827 0.350673 -0.327543 0.804346 0.650725 0.250785
年 -0.154433 -0.207370 -0.423672 -0.526348 -0.308438 -0.091652 -0.471421 0.517984 -0.103677 -0.330948 -0.181483 0.071106 0.292198 -0.385769 0.078495 0.172280 0.074657 -0.620481 -0.071893 0.218031 0.777685 -0.083664 0.224635 -0.374691 0.173091 0.363732 -0.184859 0.171103 0.083215 0.598272 0.466660 0.593367
数 -0.289330 0.069171 -0.068903 -0.900591 0.293977 -0.404311 -0.589183 0.147099 -0.284386 -0.713360 0.014023 -0.041715 -0.037693 0.041054 0.504847 -0.390273 0.041317 0.160308 0.263597 0.642430 0.555126 0.150376 0.343174 -0.402834 0.403444 0.065387 -0.467278 0.135776 0.125357 0.445027 0.888369 0.089754
滴 -0.187822 -0.440409 -0.289552 0.657219 0.743904 0.358077 -0.112758 -0.212592 -0.001145 0.523908 1.102480 0.420683 -1.081399 -0.270396 -0.367239 -0.439958 0.789222 -0.579527 -1.586206 1.259124 0.978738 1.254087 0.358962 -1.491011 -1.253101 -1.870336 -0.476795 0.277479 0.418411 1.339134 1.162999 -0.592606
道 -0.639381 -0.011600 -0.130472 0.244898 -1.093538 -0.708219 -0.050853 1.042600 -0.271605 -0.238522 0.763695 -0.379108 -0.035704 0.063487 -0.424735 0.699204 0.367314 -0.181196 -0.038820 -0.086086 0.283389 0.390732 -0.038151 0.252113 -0.139473 -0.013207 0.450831 -0.105475 0.718037 -0.120034 -0.158437 -0.460664
删 -0.446771 0.183439 -0.077566 -0.214243 -0.789364 -0.914138 -1.099725 -0.383845 0.402838 -0.018776 1.578197 -0.053653 -0.715711 0.249552 -0.906275 -1.230079 0.230468 0.482962 -0.790861 0.023173 0.063423 0.772240 -1.718804 0.544726 -0.174986 -0.272852 -0.589930 0.254637 0.476566 -0.646393 0.927229 0.950444
足 -1.204999 -0.121134 0.201681 -0.965222 -1.053018 0.044328 0.214699 0.834182 -0.104685 -0.312427 0.414376 0.012402 0.123751 0.951132 0.410947 -0.137431 0.250088 0.642805 -0.183201 -0.594713 0.140093 0.229303 0.840784 -0.400895 0.265185 0.598244 -0.009860 0.899240 0.280869 -0.346676 -0.331573 0.616968
发 -0.357560 -0.224320 -0.006335 0.668711 0.448754 0.098590 -0.432955 0.524790 0.052662 -0.903937 0.105159 -0.300307 -0.280157 0.079264 -0.602984 0.437073 -0.440993 -0.271980 0.087425 0.092172 0.034416 0.716397 -0.125610 0.059252 0.040258 -0.363869 0.131315 0.253497 0.293634 -0.513008 -0.011846 -0.228017
授 -0.925276 -0.975577 0.379352 -1.323474 -0.071295 0.382609 -1.013090 0.190810 0.728232 0.322073 0.446568 -0.264875 -0.571646 -0.614767 -0.842596 0.016332 0.400899 1.032950 -0.246311 -0.563750 1.065535 -0.382698 -0.548470 -0.627185 0.890678 0.107432 -0.629267 0.617453 0.590304 -0.186170 0.581467 0.087587
加 -0.128699 -0.147082 0.459719 0.020956 -0.290033 -0.134427 -0.752889 -0.223659 -0.057349 -0.334123 -0.055423 -0.744500 -0.528240 -0.243279 -0.279257 -0.412536 -0.473703 0.043210 -0.518778 0.315600 0.156777 -0.244956 0.775256 -0.810980 -0.337999 -0.621607 0.416566 0.316742 -0.542271 1.299640 -0.304523 0.436144
性 -0.266172 0.101747 0.391659 -0.056631 -0.697573 -0.625195 -0.806938 -0.255887 0.036922 -0.728115 0.523195 0.466220 0.352321 -0.252093 0.131270 0.840731 -0.185206 -0.177488 -1.137124 0.902679 0.042254 -0.005802 0.524463 0.710109 -0.233160 0.901707 -0.698447 0.130451 0.048074 0.242391 1.682714 0.562389
他 0.102959 -0.386052 -0.070316 0.717462 -0.200790 -0.343933 -0.026864 -0.526439 -0.154373 -0.726320 0.305112 -0.163845 -0.674784 0.030202 -0.070214 0.169898 0.082143 -0.575275 -0.467202 0.117048 -0.160224 -0.199742 -0.467520 -0.437400 -0.047060 -0.072450 1.009608 0.484156 0.250361 -0.380756 0.193878 -0.060652
卖 -0.582900 -0.008185 0.242422 0.223453 -0.186329 0.363531 -0.404284 -0.430318 0.045978 -0.584034 -0.499527 0.763091 -0.871299 -0.241732 0.457053 1.090480 0.520215 -0.372299 0.040850 0.227359 -0.408838 -0.043356 -0.044040 -0.214941 0.112686 0.064135 0.623567 1.070273 0.597659 0.516552 0.048815 -0.769270
因 0.257443 -0.115096 -0.498463 -0.597510 -0.304783 0.043169 -0.055720 0.304403 -0.632612 -0.562964 0.426463 -0.180302 -0.361762 0.450761 -0.890236 -0.388918 -0.100735 -0.349311 -0.348100 0.116575 0.437082 0.257060 -0.415081 -0.242626 -0.069669 0.264584 0.394833 0.093096 0.646366 0.077197 -0.740272 -0.087013
跟 -0.166634 -0.089251 0.182470 -0.361691 -0.238728 0.223473 -0.028684 -0.182580 0.255388 -0.759499 0.159114 -0.305755 -0.384431 0.084762 -0.654244 -0.577842 0.002529 -0.273176 -0.040037 -0.124270 -0.170777 0.174720 0.383077 0.312510 0.574230 -0.090532 0.865345 -0.116952 -0.160017 0.318723 0.372045 -0.249147
双 0.265338 0.223453 0.199410 -0.245055 -0.010497 0.023846 -0.465768 -0.143053 -0.539878 -0.359762 -0.569941 -0.915228 -0.072094 -0.236721 0.550551 0.552854 1.081183 -0.138492 -0.431511 0.985556 1.122294 1.105803 0.154377 0.163073 0.279512 -1.061832 -0.256715 0.349753 -0.047518 1.095576 -0.162756 0.125481
延 -0.318694 0.527069 -0.153059 0.349031 -0.144698 0.563912 -0.672359 0.123793 0.822440 -0.664122 -0.106384 -0.448873 0.965279 -0.483467 -0.252185 -0.116624 0.249078 -0.135722 0.726428 0.478235 0.661391 0.252123 -0.475141 0.771513 -1.061231 0.095904 -0.541184 1.612759 -0.151342 -0.516352 1.827521 -0.251066
第 0.327728 0.424623 -0.390966 0.200431 0.199551 -0.060857 -0.249423 0.041480 -0.293544 -0.602854 -0.135924 0.004172 0.427495 0.104277 -0.519917 0.493369 0.119906 -0.134923 -0.594594 0.498729 0.524526 0.088652 0.245064 0.537028 0.031612 0.759688 -0.508740 0.359908 0.116862 0.456839 1.429768 0.204955
易 0.225714 0.725025 0.586262 -0.224795 0.380984 -1.208615 -0.444189 0.650425 -0.129623 0.181396 0.137312 0.646929 -0.856644 0.965311 -0.062995 0.147956 0.373000 0.336481 -0.494467 0.341363 -0.018905 0.197512 -0.382851 -0.548997 0.353951 0.558718 0.126281 0.438791 0.951166 0.202636 0.606749 0.484780
客 -0.467084 -0.255788 0.234891 0.316750 0.180029 0.141056 0.163860 -0.073100 -0.039880 0.057012 0.787322 0.107586 -0.272920 -0.116341 -0.552630 -0.028887 0.663188 -0.212809 0.246874 -0.735078 -0.321810 0.282254 -0.282736 -0.179767 0.161576 -0.318013 0.965402 1.043735 1.228663 0.513047 0.649924 -0.983883
醒 0.078377 -0.780231 0.549406 -0.150429 0.131888 -0.237399 -0.252984 0.856487 1.299937 -1.359874 0.539633 -0.469184 -0.493252 -0.244810 0.508842 0.649898 0.388974 0.214261 -0.054973 0.244660 -0.497411 0.184049 -0.179515 -0.342773 0.277553 0.107424 -0.028770 0.038037 0.532650 -0.797306 0.473240 -0.582772
修 0.183835 -0.773314 0.208594 0.057038 0.123388 0.315657 0.005643 -0.548218 1.403418 -0.065247 0.029636 -0.500387 -0.140120 0.442943 -0.164171 -0.226313 -0.416397 0.336957 0.250415 0.907191 0.678189 0.424028 0.329765 1.019832 -0.210660 0.372682 -0.201288 1.742697 0.203493 0.380993 0.042450 0.659586
失 0.515217 -0.412400 0.375360 -0.610248 -0.025243 -0.832933 -1.192912 0.309221 0.242730 -0.407813 -0.570692 -0.088067 -0.352634 0.481494 -0.505113 0.009930 -0.930336 -0.908652 -0.036578 -0.358578 0.241194 -0.043815 0.039327 -0.110957 0.479911 -0.341277 -0.288248 0.947538 0.533152 -0.505404 -0.334762 0.364006
生 -0.740744 -0.299770 0.298735 0.268489 -0.011483 -0.897205 -0.021139 0.283933 -0.042847 -0.284387 -0.335787 -0.348935 -0.375309 0.111726 -0.349851 0.574298 -0.257983 -0.528499 0.210908 0.677723 0.048681 1.172519 -1.067383 -0.603104 0.082407 0.102826 0.629321 0.416353 0.289716 0.184600 -0.192341 0.473171
确 0.152838 -0.118274 0.867509 0.937047 -0.324604 0.228039 -0.616616 0.143149 -0.394757 -1.431578 -0.436375 -0.681903 -0.052464 -0.083083 -0.218149 0.412306 -0.635327 0.494957 0.503790 0.052724 -0.077429 -0.086327 -0.323426 -0.460355 -0.081461 0.283618 0.540741 0.770276 0.670306 -0.092266 -0.331395 -0.046444
错 0.102846 -0.518765 -0.750847 0.396947 0.036940 -0.087988 -0.996068 0.082945 0.607510 0.039347 0.097872 -0.267262 -0.341777 0.481219 -0.743710 0.289395 -0.444203 -0.076133 0.103009 0.209041 0.278440 0.344638 -0.028397 -0.583077 0.055014 -0.129290 0.207781 0.697078 0.108655 -0.037393 -0.599921 0.146160
式 0.854241 -0.407709 0.127397 0.321495 0.253918 0.073129 0.031157 -1.355522 -0.049604 -0.218549 0.049900 -0.931181 -0.204790 0.518670 -0.255693 0.397334 0.641111 -0.038812 -0.794513 1.183764 -0.358766 0.929454 0.445925 -0.256441 0.320194 -0.003525 0.215699 1.130437 0.602263 -0.374313 0.475174 0.285480
主 0.164766 -0.191515 -0.061315 -0.162621 -0.423418 -1.061188 -0.149684 0.229365 0.315092 -0.402124 0.230266 0.023084 0.107508 0.694744 -0.041873 0.167562 1.040905 0.544408 0.770052 0.709724 0.802631 -0.682345 0.750079 0.429696 0.425636 -0.658013 0.240250 1.066543 0.538169 -0.672474 0.463376 0.666936
统 0.030923 -0.207205 0.338718 -1.165129 0.778850 0.679749 -1.675796 0.222026 -0.085242 -0.237981 0.008813 -0.684341 0.475945 0.180995 0.093466 0.741709 0.353084 -0.290493 -0.793637 0.711774 -0.231110 -0.906048 0.852470 -0.060335 0.176567 -1.081798 0.666004 0.707945 1.115057 -0.405972 0.323178 0.102959
些 -0.684724 0.021212 0.324921 -0.087342 -0.141599 0.206407 0.311016 0.558557 -0.270030 -0.017374 0.096519 -0.296901 -0.685403 -0.081667 0.142859 1.001792 0.795782 -0.101142 -0.245389 -0.610141 -0.207372 0.237781 0.399044 -0.143234 -0.309234 0.271185 0.580583 0.589190 -0.166957 0.520914 0.441779 0.148999
该 0.247164 0.456229 -0.316606 -0.233131 -0.000584 -0.232138 -0.400053 0.192650 -0.184392 -0.180256 0.604833 0.051280 -0.027716 0.618649 -0.098204 0.436310 -0.267841 -0.016044 -0.165886 -0.429847 -0.397120 0.309630 0.337726 0.288318 0.143548 0.345826 0.070931 0.688272 0.563853 0.609209 -0.242089 0.621031
作 -0.126993 -0.498222 0.416622 -0.825591 -0.516367 -0.913548 -0.068692 1.090632 0.007025 0.476244 0.600119 0.093281 0.336024 0.590760 -0.216158 0.150029 0.083188 0.179244 -0.503619 0.152490 -0.269593 0.341422 0.409120 0.778906 0.344263 -0.182118 0.466225 1.303124 0.293772 0.249107 -0.388778 -0.211316
咋 -0.201555 0.075594 -0.701248 -0.395637 0.033311 -0.572086 -0.320319 -0.093587 0.215725 -0.350737 0.668176 0.217237 -0.317065 0.184574 -0.360051 0.297373 -0.243706 -0.268452 -0.093481 0.092988 0.150166 0.084123 0.595106 -0.275940 0.450510 -0.074874 0.009702 0.317006 0.152357 0.114438 -0.393327 0.015409
六 0.708494 0.187984 -0.858384 -0.123243 -0.841245 0.590561 -0.503524 0.191785 0.684709 -1.171305 -0.495483 -0.550322 0.676480 -0.284793 -0.437833 -0.259646 0.727698 0.025984 -0.150266 0.403150 0.177572 0.746806 0.298428 0.158966 -0.172791 1.083221 -0.302234 0.378466 -0.222692 1.185326 0.732319 -0.152442
忘 0.204614 0.896701 -1.099788 -0.157437 -0.348638 -0.115483 -0.130616 0.431311 0.606467 -0.002184 0.949420 -0.689300 -0.425377 -0.371491 -1.085727 -0.508619 -1.192761 -0.350313 -0.505557 0.186171 -0.210382 -0.230154 0.032081 0.881589 0.612014 0.018777 -0.421126 1.143514 0.565263 0.337839 0.573885 0.135576
返 0.121551 -0.732532 0.071980 0.545648 0.344728 0.099218 -0.984644 0.764670 -0.148136 -0.407356 -0.355969 0.322207 -0.514556 -0.944059 0.442472 0.338321 -0.090961 0.121820 -0.021762 0.088142 0.997696 1.071706 0.429914 0.302380 -0.274509 -0.737852 0.889484 0.586902 0.382082 0.016526 -0.051572 -0.265934
微 -0.372623 0.779941 -0.015552 0.234048 -0.183452 -0.067885 0.057737 0.566872 1.171222 -0.331164 0.740126 -0.181995 -0.921235 -0.205651 -0.173808 -0.513750 0.229125 -0.099106 -0.447132 0.051598 -0.119107 0.574010 -0.039232 -0.621785 -0.610697 0.520421 0.758317 0.086919 -0.300668 -0.439448 0.677619 -0.519003
销 -0.761814 -0.196670 -0.183516 0.853335 -0.195411 0.407586 -0.926672 -0.668460 -0.220428 -0.383491 0.499317 -0.154047 -0.777473 -0.620181 -0.433486 -0.714297 0.277276 -0.208576 0.390908 0.388147 0.584953 -0.883989 -1.025831 0.691509 0.574089 0.252261 0.945672 0.937961 0.418122 0.212545 0.578178 0.187163
应 0.637277 0.720167 -0.281559 -0.284735 -0.538692 -0.407689 -0.417202 0.525434 -0.260822 -0.547823 0.463874 -0.304660 0.045500 -0.066617 0.106267 0.021077 -0.105039 0.180019 0.151242 -0.341185 -0.367625 0.513993 0.000260 -0.017825 -0.243351 0.155671 0.481614 0.403625 0.377056 0.631621 -0.143405 0.779406
停 -0.903738 -0.506646 -0.060794 -0.437022 -0.443829 -0.034410 -0.236913 0.529995 0.224927 -0.439557 0.369618 -0.159758 0.134646 -0.001985 -1.167354 -0.629600 -0.096525 0.034443 -0.485041 0.520507 0.162830 -0.372221 -0.380528 0.221790 -0.271720 0.272010 -0.060076 0.436584 0.780953 0.211490 -0.463329 -0.426726
险 -0.450685 -0.395519 0.186981 -1.321822 0.500150 0.383058 -0.408275 1.201191 -0.150786 0.213131 -0.277594 0.229455 -0.697278 0.611954 0.490760 0.204809 0.076645 -0.732865 -1.266676 0.039242 -0.906969 0.296216 -0.269162 0.296486 0.258048 -0.613702 0.205631 1.631816 0.779934 0.212143 -0.863808 0.380787
评 -1.176742 -0.274772 0.868133 -1.230185 -0.103024 0.800460 -0.873309 -0.053939 0.185763 -0.896651 0.232676 -0.894970 1.321253 0.703855 -0.051095 0.310611 0.407881 -0.719453 -0.584693 0.202818 0.367440 -0.164138 0.505942 0.362977 0.996090 -0.454652 -0.275676 -0.017917 0.598561 0.168201 0.632885 0.685024
起 -0.281876 -0.084737 0.041914 -0.066379 -0.155207 0.301238 -0.123220 -0.247797 -0.135079 -0.308667 0.542448 -0.202254 -0.404170 0.064151 0.119107 0.132949 -0.176218 -0.476152 -0.357511 0.180803 0.018422 0.357695 0.249357 0.034131 0.031603 0.329353 0.143609 0.222454 -0.305337 0.237045 0.283560 0.197620
大 -0.508667 0.461451 0.460476 -0.773631 0.057432 0.024315 0.072917 0.595626 -0.104215 -0.709979 -0.293412 -0.608614 0.077827 0.468229 -0.169121 0.076336 -0.274575 -0.505758 0.312144 -0.530312 0.185926 -0.049730 -0.146200 -0.166521 -0.445150 -0.090571 -0.123638 0.368191 -0.166033 0.823869 0.192211 0.242980
安 0.798352 -0.429095 1.136649 -0.613128 0.447774 0.517057 -0.708677 0.474109 0.062068 -0.305757 0.085844 -0.012904 -0.179874 0.716043 0.120354 -0.626015 0.421266 -1.232480 -0.602601 -0.727691 -0.162940 0.285855 0.170512 0.446274 -0.612097 0.056648 0.003757 1.741243 -0.032108 -0.620580 -0.214662 0.756685
核 -0.576797 -0.010130 0.190570 -0.027533 0.039113 -0.159939 -1.205439 -0.290397 -0.161552 -0.926914 -0.383720 -0.797164 0.562295 0.865322 -0.981318 -0.099992 0.488337 -1.304680 -0.436655 -0.569196 -0.015841 -0.774585 0.295955 0.291301 0.055816 0.260508 -0.651895 0.692862 0.686906 -0.555981 0.371660 0.998436
万 0.388396 -0.475848 -1.271242 -0.343799 -0.455476 0.272522 -0.613838 0.250764 -0.197039 -0.914943 0.043984 -0.390737 0.167350 -0.192936 -0.224574 0.060953 0.239661 -0.431731 0.083877 0.044166 0.030299 -0.010983 0.596165 -0.379500 -0.296641 0.363819 -0.177012 0.435632 -0.613526 0.834728 0.349460 0.520220
常 -0.542571 0.763113 0.093713 -0.584412 -0.552108 -0.069190 -0.195430 0.347366 0.763673 -0.552389 -0.455516 0.180568 -0.035826 -0.069128 0.106580 -0.685925 -0.497478 -0.389056 -1.113595 0.231408 0.456667 0.066580 -0.613118 -0.219608 -0.319456 1.053774 0.675209 0.553222 1.005184 0.216892 -0.093648 -0.300131
领 -0.628145 -0.303774 -0.400563 0.185626 0.150352 -0.353548 -1.131160 -0.096583 0.167104 -0.555014 -0.546485 -0.648953 -0.478012 -0.511119 0.259656 0.511571 0.548370 0.728341 -0.193910 -0.368410 1.066576 0.905178 0.196538 0.613678 -0.114586 -0.824584 -0.131505 0.643370 -0.495781 0.582162 -0.318021 -0.494625
审 -0.764160 -0.113110 0.347106 -0.335743 0.087105 0.165175 -1.014047 0.508057 0.074488 -0.915588 -0.742030 -0.715921 0.743555 1.317011 -0.936452 -0.151035 0.640477 -1.205466 0.080433 -0.213862 -0.101854 -0.490876 0.863867 0.041128 -0.345329 0.357938 -0.465057 0.567303 0.684514 -0.430785 0.479568 0.732890
符 -0.906806 0.520701 0.852549 -0.096804 0.011957 0.751697 -0.769803 0.857983 0.025233 -0.442857 1.246041 0.563949 0.345065 0.789771 0.182928 -0.435619 0.959193 -0.329169 0.871662 -0.654692 0.375666 0.798398 0.911760 0.003845 0.418622 0.311563 0.927775 0.802422 0.905661 -0.926289 0.127379 -0.030240
体 -0.215277 -0.196555 0.467869 0.351255 0.259238 0.356984 0.181796 0.380861 -0.616030 -0.646359 0.420557 0.060369 -0.500747 0.169165 0.210610 -0.200154 0.278829 -0.669167 0.890350 -1.001833 0.522315 0.511434 -0.446223 0.352779 -0.439618 -0.760254 0.189209 0.909347 -0.097870 0.616430 0.175839 -0.404660
