1575 128
呗 -0.074291 0.008756 0.043507 0.039107 -0.137979 -0.057382 0.178677 -0.187205 -0.051248 -0.236813 -0.058156 0.049557 0.233366 -0.047394 -0.218318 0.032401 0.045555 -0.011719 -0.123700 -0.131458 0.065788 -0.048139 0.009685 -0.127106 -0.093379 -0.017655 0.211684 0.200145 0.029068 -0.039410 0.009122 -0.216170 -0.068434 -0.075786 0.194099 0.058217 0.066835 0.125825 -0.148975 -0.048364 0.040926 0.024436 -0.223138 -0.139403 0.140060 0.035429 0.113843 0.088860 0.008607 0.183959 -0.295690 -0.162725 0.052870 0.204661 -0.168516 -0.161812 0.134865 -0.168810 -0.050225 -0.062459 0.083844 0.049739 -0.117751 -0.082189 0.008285 0.061956 -0.094133 -0.043975 0.101842 -0.059553 0.062738 -0.070291 0.029929 0.080755 -0.006095 -0.025638 -0.022261 0.197944 0.150590 0.032073 0.124216 0.078721 -0.145179 0.070022 -0.036207 -0.090960 -0.225127 0.013466 0.073195 -0.032052 0.066167 0.094659 0.141887 -0.071282 0.021704 -0.031170 -0.078082 -0.025937 0.012368 -0.091712 -0.075140 -0.110484 0.175624 0.157754 0.068789 0.239692 -0.156869 -0.033509 0.022265 -0.076895 0.147409 0.101881 0.305468 -0.151627 -0.116628 -0.216023 0.195609 -0.079581 -0.077976 0.298665 0.134550 0.039358 -0.237410 0.132200 0.115101 -0.086559 -0.130136 -0.199463
花 -0.063134 -0.231979 0.259280 -0.053714 -0.050435 -0.238655 0.241280 0.064961 0.128281 -0.050250 -0.284875 0.210270 0.109836 0.309119 -0.032952 0.113578 0.329806 0.067609 -0.104370 -0.059788 0.228675 -0.067975 -0.138865 0.110429 0.347148 0.017791 0.144610 0.130565 -0.182747 0.004250 0.179323 0.043286 -0.094878 0.123630 0.019841 -0.001701 -0.122774 0.112795 0.119521 -0.092454 -0.243069 0.170183 -0.063844 0.072095 0.093160 -0.044150 0.167947 -0.026393 0.032599 -0.049987 0.107370 -0.137069 -0.092227 -0.229661 -0.019426 0.206738 0.047228 -0.249405 -0.082354 -0.013620 0.109107 0.135954 0.124501 -0.231440 0.187912 0.200762 -0.200297 -0.175140 -0.054247 -0.122464 -0.046312 -0.022164 0.255027 -0.233721 -0.167943 0.257258 -0.022353 0.064910 -0.034709 0.021319 -0.114777 -0.093535 0.047013 0.292633 0.103547 -0.360202 -0.240751 -0.174899 0.092714 0.174575 0.026922 0.064565 0.086161 0.192965 -0.262938 0.224471 -0.004198 0.069568 -0.182544 -0.048719 -0.003301 -0.043279 -0.008846 0.060804 0.000453 0.057389 0.070585 -0.079400 -0.153986 0.158791 0.214927 0.140800 0.409365 0.064047 0.095116 0.077420 0.436986 0.113670 -0.008552 -0.291799 0.029416 0.126422 0.089048 -0.013784 0.049063 -0.212913 -0.124155 -0.087061
么 -0.081801 0.016658 -0.276985 0.107863 0.049271 -0.030553 -0.111062 -0.194494 0.137334 -0.362546 0.077840 0.020359 -0.151482 0.157318 -0.081180 -0.106495 0.122604 0.016745 0.407070 -0.163119 0.104915 -0.160380 0.045356 0.024459 0.064951 0.190091 0.013362 0.287544 0.108389 -0.125218 0.036542 -0.098724 -0.036340 -0.159271 -0.012488 -0.030083 0.178334 -0.070349 -0.322522 -0.050792 -0.276376 0.231503 -0.077843 -0.158570 0.217798 -0.035073 0.023842 0.106121 0.159535 0.109832 -0.230227 0.069677 0.288796 -0.040900 -0.072636 -0.064210 -0.059018 -0.114145 -0.272301 0.203330 0.196765 0.172625 0.129004 -0.267696 -0.168746 0.460570 -0.103258 -0.039094 0.156353 0.129111 0.014738 0.116595 -0.032535 -0.221390 -0.180788 -0.043894 0.231609 -0.134200 0.099959 0.052685 -0.046899 0.077487 0.104009 0.097897 -0.067935 -0.182066 -0.261100 0.091662 0.150646 0.242906 0.150486 -0.155279 -0.192857 -0.346731 0.331776 0.072740 -0.365905 0.069998 -0.098236 0.046368 0.088940 -0.048407 0.017442 -0.020770 -0.158896 0.193739 0.168496 -0.131404 0.140960 0.150894 0.185860 -0.257326 0.451849 0.403036 0.059627 -0.211101 0.297058 -0.125068 -0.305323 -0.123477 0.017330 0.116662 -0.228597 0.089601 0.300279 -0.018114 -0.232359 0.089805
还 0.271257 -0.117112 0.157520 0.215936 -0.136218 -0.157321 0.286335 -0.089990 0.215039 -0.253579 0.350213 0.029823 0.036836 -0.065189 0.075980 0.200840 -0.150174 0.166749 -0.024479 -0.005986 -0.031847 -0.021636 -0.065429 -0.055038 -0.144385 0.112148 0.110131 0.128296 0.038324 0.061378 -0.071537 0.105874 0.023955 0.068545 0.023050 -0.048313 -0.239025 0.132431 0.043682 0.009916 0.203255 0.138151 -0.247451 -0.113118 0.342501 0.096413 0.308883 -0.188124 0.228311 -0.062296 0.025780 -0.133736 -0.023345 0.091147 -0.263430 0.207978 -0.210737 -0.189231 -0.133639 -0.108382 0.009364 -0.019457 0.023363 -0.056338 -0.264321 0.065450 -0.344490 -0.143251 -0.032367 -0.068395 0.200239 -0.220994 0.182506 0.079005 -0.205094 -0.280365 0.061225 0.006121 -0.002028 -0.075659 0.099866 -0.015226 -0.051246 0.018131 0.182757 -0.141761 -0.028349 0.291922 0.116920 0.128077 0.362724 0.132942 -0.337664 0.058331 -0.255107 0.101851 -0.135924 -0.019546 0.036395 0.131439 -0.142173 -0.211944 0.146701 -0.093740 0.014891 -0.084886 -0.162899 -0.086138 0.009053 0.079312 -0.041812 -0.169894 0.015811 -0.103964 0.127094 -0.105080 0.168476 -0.040366 -0.240940 0.092227 0.424905 0.059008 -0.138358 -0.057849 0.081100 -0.013909 -0.010542 -0.246743
借 -0.040907 -0.116116 0.212828 -0.294969 0.154175 -0.421563 0.307712 0.005165 0.341998 -0.078323 0.050985 0.162025 0.016053 0.222605 -0.140822 0.053049 0.212653 -0.082226 -0.096967 -0.152503 -0.059396 -0.182176 -0.097117 0.063620 0.030230 0.374011 0.021225 0.108257 -0.013408 -0.138860 0.231749 0.242296 0.080846 0.110926 0.200314 -0.172168 -0.302301 0.263050 0.146235 0.219991 -0.001828 0.256352 0.275269 -0.283445 0.110830 -0.108924 0.065131 0.126219 0.131478 -0.070702 -0.127739 -0.158862 -0.103365 0.183374 -0.271534 0.287354 -0.253496 -0.043586 -0.410359 0.111285 -0.112633 -0.199326 -0.045745 -0.187494 0.170216 0.034782 0.068656 0.109026 0.192931 -0.101645 0.052745 0.168359 0.321158 -0.165979 -0.147850 -0.063371 -0.074332 -0.125899 -0.202632 0.222628 0.050572 0.119953 -0.050224 0.056289 0.171270 -0.387843 -0.363751 -0.169269 0.178915 0.076492 0.208579 0.008914 0.045595 0.177810 0.036885 0.093248 0.022148 0.201166 0.004932 0.300235 -0.242899 -0.006687 -0.104619 0.048327 0.152929 0.107919 -0.002348 -0.091270 -0.033690 0.231283 -0.311356 -0.442543 0.215417 -0.154807 -0.126209 -0.023474 0.381853 -0.174494 -0.105793 -0.310708 0.524171 -0.324742 -0.357564 -0.002001 0.097264 -0.098661 0.069463 -0.076046
我 0.018224 -0.055071 -0.005988 -0.061310 -0.030797 -0.069527 0.016705 0.195109 0.042522 -0.155425 0.191860 0.083353 -0.126797 0.065487 -0.263945 0.147609 0.226944 0.003289 -0.169925 -0.186641 0.229805 -0.050054 -0.035285 -0.099861 -0.139859 0.014216 0.073437 0.182246 0.054775 -0.057054 -0.126882 -0.238403 -0.062296 0.009769 -0.029144 0.215028 0.064990 0.179254 -0.114263 -0.168202 0.091894 0.183940 -0.220951 -0.015081 0.160863 0.036063 0.125282 -0.038320 -0.006495 -0.046095 -0.119274 -0.094456 0.019145 0.008797 -0.131155 -0.031627 -0.016431 0.173239 -0.127789 -0.296387 0.319888 0.049657 0.026710 -0.147145 0.058302 0.086055 -0.259105 0.047767 -0.119110 0.158400 -0.124536 -0.036156 -0.169865 -0.202717 -0.204137 -0.082717 0.012670 -0.172900 -0.091824 -0.048227 -0.179930 0.065408 -0.016122 0.060014 0.125559 -0.143106 -0.087947 0.068756 0.219726 0.209230 0.174485 -0.295365 0.024716 0.133712 0.078191 0.248965 0.116825 -0.102416 -0.033956 -0.016993 0.153527 0.094723 -0.011339 -0.225342 0.142053 0.082510 0.076304 0.005970 0.051113 -0.180491 0.137355 -0.010683 0.170253 -0.059185 0.143607 -0.193626 0.255719 0.078437 -0.166736 0.081546 0.170469 0.081269 0.057389 0.054949 -0.005599 -0.044990 -0.008766 0.111478
款 0.160931 -0.033932 0.116614 -0.099080 0.020794 0.023467 0.185183 -0.094578 -0.079212 -0.238656 0.090203 0.059309 0.124022 0.144240 0.160154 0.297793 0.088312 0.195606 0.086056 -0.064652 0.074803 0.134454 0.291777 -0.133558 0.021156 0.323289 0.100540 0.536167 0.257925 0.200797 0.041876 0.090436 0.161926 0.053270 0.003243 -0.001846 -0.120316 0.075445 0.224358 -0.066256 0.087127 0.317547 -0.207106 0.142902 0.061283 0.078775 0.288792 0.051475 -0.120594 0.119216 0.007352 -0.162377 -0.358201 -0.085725 -0.051526 -0.088263 0.021420 -0.403577 -0.250873 -0.157551 -0.141858 -0.007760 -0.024598 -0.228540 -0.139549 0.176784 -0.365337 -0.135008 0.028218 0.019552 0.018499 -0.174558 0.163025 0.232575 -0.045651 0.123996 0.043886 0.111823 0.272768 0.267188 0.183249 -0.023033 -0.152673 0.062725 -0.029961 0.099531 -0.181961 0.227852 -0.088047 0.049508 0.090740 0.033399 -0.298433 0.185553 0.004074 0.238930 0.035220 0.044366 0.050664 0.254159 0.106093 0.095177 -0.072668 -0.114387 0.271845 -0.032434 0.038510 -0.229775 -0.044614 -0.113457 0.026186 -0.079938 0.036928 0.025511 -0.077948 -0.098863 0.196660 -0.172400 -0.131047 -0.034218 -0.007623 0.016825 -0.086013 0.301388 -0.058519 -0.064666 -0.036643 -0.284754
的 -0.195321 -0.022166 0.086559 0.051775 -0.148048 -0.002939 0.105435 -0.067012 -0.199661 -0.344395 -0.042532 -0.013531 0.039703 0.107632 -0.118470 0.069764 -0.023035 0.248456 -0.014801 -0.037524 0.140960 0.112464 -0.032901 0.078197 -0.128157 0.063993 0.194026 0.106000 -0.003222 0.057149 0.077253 -0.130862 0.017171 -0.026287 0.023866 -0.059020 -0.082225 0.189775 -0.203963 -0.178859 -0.089432 0.218860 -0.140128 0.019335 0.003607 -0.077667 0.154419 0.127144 -0.016943 0.236926 -0.224558 0.087283 0.053777 0.007194 0.027033 -0.040018 -0.120925 -0.208740 -0.202724 -0.042193 0.096602 0.034352 0.132499 -0.053885 -0.085460 0.096675 -0.130863 0.023836 -0.080274 0.126344 -0.129470 -0.103422 0.112906 -0.180824 0.041437 0.064001 0.102468 0.043219 -0.149493 -0.153093 0.014421 -0.231526 0.123646 0.195466 0.048176 -0.023071 -0.021456 -0.045226 0.179489 -0.042925 0.101588 -0.023484 0.077103 -0.104648 0.112512 -0.143611 -0.001980 -0.003892 -0.135120 0.107182 0.041610 0.073987 0.051580 -0.004422 -0.056559 0.246009 0.048580 0.004076 0.060548 0.106738 0.026483 -0.099161 0.066917 -0.002558 0.030055 0.006140 0.313838 0.030821 0.164808 0.047152 0.206421 0.033011 0.001364 0.132086 -0.026916 -0.217777 -0.050039 -0.074824
了 -0.265544 0.095394 -0.044520 0.010384 -0.100748 -0.157709 0.004380 -0.100799 0.011325 -0.117017 0.089748 0.319952 -0.043649 0.039566 -0.336472 0.059004 0.125697 -0.092813 -0.050276 0.069269 0.192220 0.003835 0.046059 -0.040611 -0.022188 0.079428 -0.015097 0.070243 0.016508 0.001006 0.004383 0.024012 -0.112662 0.036577 0.048297 0.210235 -0.043742 0.063321 -0.099174 -0.190820 -0.081500 0.069428 -0.075145 0.301329 0.098546 -0.097299 0.096313 0.042658 -0.009909 0.010344 -0.394139 -0.129670 0.032611 0.193643 -0.054482 0.008940 -0.000433 -0.039769 -0.068391 -0.162370 0.139459 0.114436 -0.018921 -0.105202 0.078767 0.195611 -0.238304 -0.318356 -0.122092 -0.038602 0.125071 0.019694 -0.146024 -0.227663 -0.055990 0.014339 -0.078096 0.015934 -0.016333 -0.004204 0.216918 -0.062244 0.039860 -0.050082 0.105259 -0.040002 -0.101087 0.134323 0.127056 -0.022803 0.242905 -0.162225 -0.106323 -0.056869 -0.130036 0.192432 0.049934 0.099901 0.090585 0.018390 0.013132 0.026668 0.232455 -0.043654 0.160419 0.075315 0.113652 0.014963 0.082815 0.052790 -0.023365 -0.056755 0.284696 -0.074052 0.239277 -0.315379 0.268497 -0.109681 0.096493 -0.073446 0.094733 -0.002566 -0.071722 0.091773 -0.089676 -0.287393 -0.038441 0.095922
用 0.014549 0.166811 0.056773 -0.214817 -0.349212 0.048563 -0.090646 0.047356 0.106597 -0.117196 0.001278 -0.105176 -0.157022 0.029737 -0.130583 0.034616 -0.108426 -0.001253 -0.121554 -0.161972 0.298753 0.064192 -0.115454 0.064828 0.185451 -0.082442 0.246396 0.159375 -0.081146 0.099732 0.062466 -0.177687 0.069384 0.206681 0.107292 0.367576 -0.077469 -0.083149 -0.014545 -0.093321 0.007454 -0.021987 -0.167569 0.137484 0.185517 -0.057874 0.192139 0.104478 0.138431 -0.016133 -0.231127 -0.007832 0.076834 0.019916 -0.111414 0.032796 0.140644 -0.236642 -0.121835 -0.259737 -0.034151 -0.112479 0.090895 -0.128154 0.326847 0.220299 -0.053697 0.019219 0.033623 -0.160029 0.053180 -0.078442 0.091361 0.114807 -0.023570 -0.386225 -0.045674 0.089929 -0.073852 -0.036930 0.104468 0.029026 0.276887 0.320497 -0.417498 -0.324828 0.135080 -0.202233 0.123359 -0.030031 0.212558 -0.100888 0.438514 -0.092128 -0.052206 0.238095 -0.229514 0.038030 -0.245668 -0.085740 0.151105 0.214799 0.028928 0.119412 0.090038 -0.031628 -0.000398 -0.243441 -0.053528 0.055561 0.356036 0.022164 0.017330 -0.039426 0.208073 0.039193 -0.071118 -0.102232 0.058984 -0.192041 -0.046094 -0.296249 0.020297 0.266694 0.068553 -0.058674 -0.099392 -0.247122
不 -0.012149 -0.089835 0.062769 -0.244270 -0.099094 0.136725 -0.165128 0.035754 -0.108536 -0.243933 0.056743 -0.017429 0.069357 0.168695 -0.377320 0.147734 0.355588 0.146411 0.019553 0.055745 0.111417 0.026998 0.075857 0.094095 0.143550 0.206003 0.050563 0.213627 -0.008175 0.052466 -0.031982 -0.198870 0.128879 -0.068989 -0.184468 0.082160 0.298240 0.105695 -0.212987 -0.121837 -0.091451 0.124631 0.178147 0.168184 -0.076470 -0.035562 0.222144 0.107011 -0.067807 0.112655 -0.066267 0.217061 0.185342 0.023616 -0.121355 -0.067080 -0.150190 -0.194679 -0.077246 0.093777 0.101004 0.018930 0.013846 -0.026461 0.137268 0.141604 -0.048855 -0.055992 0.141888 0.211343 0.010647 -0.035915 0.181105 0.305014 -0.158603 0.078884 0.133554 -0.063136 -0.066370 0.045207 0.160659 0.081442 0.172784 0.131267 -0.026445 -0.289033 0.113260 0.091112 0.138005 -0.202720 0.342459 -0.003777 0.110324 0.432821 -0.091563 0.422927 -0.304977 0.068618 -0.186554 -0.165248 -0.122484 0.055306 0.163198 0.075800 -0.003938 0.257477 -0.159471 0.165389 0.167704 -0.060148 -0.093426 -0.081005 0.145093 -0.336801 0.021542 -0.216187 -0.060738 0.189852 -0.500233 0.067130 0.171592 0.052410 0.024825 0.053793 0.030197 -0.062730 -0.028122 -0.062150
怎 -0.200013 -0.338582 -0.216463 -0.163510 -0.117320 -0.351201 0.191066 -0.222800 -0.311490 -0.445028 -0.042155 0.366254 0.076990 0.061516 -0.068518 0.125268 -0.025935 -0.127193 0.127880 -0.084065 0.173198 0.003828 0.175168 0.045317 0.236206 -0.130032 -0.040039 -0.260636 0.034626 0.384415 0.051209 0.000749 0.209469 -0.059503 0.045987 0.233203 0.288059 0.042587 0.134913 -0.011860 -0.007414 0.486318 -0.010096 -0.028330 0.179877 0.012470 0.004070 -0.114169 -0.297329 0.238265 -0.063437 0.347812 -0.006551 0.036582 0.054865 0.251098 -0.308128 0.132254 -0.211159 -0.228524 0.204681 -0.008669 -0.204152 -0.054758 -0.115713 0.024595 -0.148093 -0.219328 -0.212536 -0.387935 -0.093275 0.339350 0.043451 0.167530 -0.348360 -0.030584 -0.058240 -0.154343 0.079310 0.407672 0.143002 0.164849 0.098202 0.237318 0.042290 -0.046715 -0.136624 0.057433 0.133733 0.345402 0.180572 0.038553 0.163063 -0.119730 -0.256682 -0.268710 -0.053396 0.293043 0.267984 -0.170486 0.627428 0.017071 0.080307 0.021162 -0.290283 0.060771 -0.124202 0.436089 0.091943 0.112122 -0.039460 0.014887 0.422419 -0.289486 0.001096 -0.398731 0.152641 -0.020566 0.266760 0.033282 0.095767 0.139797 -0.163702 0.121755 0.372240 0.301486 0.017875 0.102229
吗 0.041333 -0.117537 -0.250923 -0.146511 0.015294 0.202514 -0.094308 -0.216567 -0.133742 -0.300724 -0.203536 0.339830 -0.009768 0.249085 0.231738 0.180120 0.122565 0.128033 -0.033339 -0.171967 0.268149 0.025880 0.028836 -0.184174 -0.071610 -0.186456 0.233517 0.393647 -0.206193 0.346726 -0.010766 0.154757 0.294894 0.168054 0.007900 0.294052 -0.211096 0.105471 0.035013 -0.132585 -0.334071 0.476068 -0.252375 -0.014970 0.187374 0.063692 0.185150 0.116428 -0.125716 0.283513 -0.001175 0.278890 0.071568 0.221113 0.018184 0.328739 -0.021296 0.122215 -0.506941 -0.019638 -0.075294 -0.229465 0.064866 -0.367317 -0.416976 0.082413 0.095448 0.309390 0.237147 -0.359848 0.113593 -0.159568 0.325116 0.013942 -0.048531 -0.184110 -0.004678 -0.114362 0.142657 0.095815 0.099895 0.436873 -0.073376 0.228597 0.097982 -0.494876 0.085963 0.198662 0.172919 0.037433 0.000171 0.291275 -0.018386 0.165085 0.023801 -0.159516 -0.191227 0.053598 -0.114943 -0.360475 0.081635 -0.055649 0.289718 0.238466 0.009924 0.203346 -0.303989 -0.015789 -0.171619 0.262145 -0.178283 -0.093463 0.118364 0.050679 -0.062858 -0.008051 -0.084647 0.123057 0.029137 -0.068022 -0.399417 -0.108781 -0.152328 -0.119987 0.168918 0.067437 -0.335263 -0.146067
什 -0.255636 -0.174739 -0.068661 -0.068913 -0.185442 -0.229968 0.245461 -0.319694 -0.466450 -0.147316 0.160943 0.063269 -0.144917 0.066689 0.265970 0.225564 0.072197 0.486400 -0.139924 -0.054681 0.289315 -0.101758 0.007400 -0.010252 0.230837 0.198818 0.375754 0.053841 0.060421 0.223071 0.078500 0.043676 0.077747 -0.448217 0.083035 0.054690 0.325969 0.207304 0.087906 -0.024943 0.091792 0.167433 -0.224484 0.003865 -0.025776 0.087636 -0.012479 0.202272 -0.503832 -0.169831 -0.380414 0.306285 0.329766 0.053896 0.099782 0.157910 -0.145043 0.351795 -0.328824 -0.026581 0.186642 0.111144 0.209064 0.061065 -0.111727 0.122901 0.086199 -0.154218 -0.186596 -0.021037 -0.195892 0.034309 0.224583 0.024069 -0.510563 -0.319777 -0.098247 0.071283 -0.022697 0.110106 0.021254 0.323885 -0.092398 0.025590 0.291492 -0.098361 -0.230088 -0.178722 -0.177740 -0.071661 0.459319 -0.294008 0.285599 -0.116911 -0.022490 0.111229 0.038013 -0.035270 -0.198087 0.010858 0.093413 0.161071 0.040751 -0.471208 -0.360991 -0.057520 -0.079433 0.065540 -0.012182 -0.151395 0.445885 0.005364 0.249063 0.071775 0.205895 -0.089538 0.117337 0.105062 -0.096063 -0.052890 0.342989 -0.198094 -0.216809 0.257431 0.079596 0.362628 -0.371661 -0.159975
期 0.129106 0.087336 -0.204844 -0.027376 -0.045699 -0.133943 -0.050698 -0.031299 0.450931 -0.322854 0.060922 0.235710 0.024845 0.169549 0.068726 0.359498 -0.170840 0.366250 0.317525 0.016307 0.241690 -0.072209 -0.163474 0.290953 -0.114919 -0.189940 -0.350028 0.487809 0.045760 0.209186 -0.582434 -0.091476 -0.107874 -0.041579 0.143364 -0.096939 -0.148389 0.451859 0.230387 -0.320018 -0.115281 -0.321940 0.019771 -0.127074 0.085891 0.012566 0.024379 0.191155 0.081708 -0.093330 0.145524 -0.279523 -0.149614 0.199155 -0.318982 -0.049214 0.032064 -0.234007 -0.350482 -0.183337 -0.273374 -0.235636 -0.199246 0.114392 -0.069757 0.005007 0.361618 0.223761 0.088298 -0.110398 -0.022807 -0.061950 -0.009268 -0.075447 0.066408 -0.099522 0.007710 0.397669 0.119460 -0.067201 0.444286 -0.256175 -0.086613 0.396714 -0.046178 -0.144884 -0.244226 0.301162 0.077929 0.362532 0.429924 0.256036 -0.111509 0.067293 -0.181128 0.095011 -0.051781 0.195930 0.072862 -0.072700 0.170914 0.008406 0.015498 -0.406695 0.055126 0.001221 -0.212914 -0.023046 0.118036 -0.004899 -0.066954 -0.324348 0.105307 -0.194309 0.110657 0.051999 0.177447 -0.294903 -0.064519 0.104319 0.374681 -0.074100 -0.269017 0.365888 -0.122634 0.139834 0.102658 -0.333105
是 -0.162921 -0.055090 -0.059601 -0.125380 -0.064998 0.057376 0.106722 -0.161299 -0.162160 -0.453810 -0.069476 -0.025359 0.163600 0.063715 0.073113 -0.037672 0.014199 -0.057956 -0.039048 -0.098451 0.055337 0.083032 0.159228 -0.187737 -0.057577 -0.008844 0.011422 0.221083 -0.067784 -0.046037 0.063142 0.014529 0.153359 0.111107 0.242010 0.014801 -0.141135 0.009377 -0.092878 -0.309481 -0.046157 -0.057598 -0.320194 -0.022150 0.100840 -0.223205 0.077386 -0.050720 -0.299784 -0.128992 0.116835 0.017604 -0.127682 0.187369 -0.245068 0.030013 0.090590 0.042442 0.022229 0.113397 0.055168 0.019733 0.030545 -0.388591 0.013661 0.030819 -0.322849 -0.028972 -0.195724 -0.030458 -0.105608 -0.040962 0.168735 -0.389526 0.019460 0.217919 -0.226598 -0.109949 -0.063030 0.066389 -0.045237 -0.139607 -0.127504 -0.009789 0.027170 -0.065570 0.086667 0.133094 0.010181 0.163282 0.426544 -0.038210 0.168626 -0.009708 0.026194 0.181010 -0.024563 -0.046476 -0.055612 -0.017615 -0.029980 0.214615 -0.142504 -0.127740 -0.093315 0.141653 -0.211069 -0.130201 -0.090391 0.090510 0.051435 -0.142013 0.045973 0.148390 0.039938 0.068088 0.333608 -0.178531 0.141280 0.344494 0.131602 -0.000259 0.039666 0.172533 0.064059 0.019422 -0.048335 -0.168364
额 -0.137324 -0.316338 -0.060786 -0.092257 -0.127610 -0.173068 0.172712 0.110513 -0.132474 -0.436128 -0.178138 -0.005027 0.121676 -0.177599 0.267932 -0.061000 0.049706 -0.368197 0.185270 -0.376450 0.727545 0.078641 -0.233734 -0.083018 0.138234 0.259067 0.346483 0.234665 0.341581 0.072509 -0.034302 0.102524 0.174315 0.304720 0.021601 -0.103620 -0.139746 0.108159 0.134012 -0.004035 -0.121497 0.188527 0.123982 -0.416508 0.241649 -0.101435 -0.077435 0.135077 0.314998 -0.350232 -0.184696 0.040389 0.319359 0.002577 -0.231938 -0.217184 0.090888 -0.099134 -0.168206 -0.270147 -0.170329 -0.067806 -0.229897 0.121204 -0.271400 0.009509 -0.174138 -0.088061 -0.055129 -0.050578 -0.551778 0.000634 -0.167685 -0.013641 -0.425498 0.175629 0.041291 0.123326 -0.101303 0.100163 -0.046874 -0.367274 0.043242 0.113059 0.094494 -0.090183 -0.159810 0.265087 0.297776 -0.361877 0.083456 0.116167 -0.204076 -0.126640 0.018357 0.530016 0.062207 -0.230230 0.360293 -0.267978 -0.071086 -0.010318 0.164729 0.222211 -0.248755 0.187011 0.274262 0.165170 0.139213 -0.097505 0.066824 -0.079912 0.102070 -0.055481 -0.298094 -0.038583 0.037816 -0.423203 -0.105541 -0.195672 0.282153 -0.136062 -0.071604 0.014934 -0.214800 0.281874 -0.011760 -0.129402
能 0.170614 0.059633 0.193324 -0.011469 -0.106967 -0.130497 -0.051340 -0.267164 0.344948 -0.148701 0.328643 0.029710 0.035752 0.265652 0.003896 -0.054320 0.148349 -0.403781 0.023902 -0.089276 0.131956 -0.178696 0.120731 0.127653 0.008087 0.208934 -0.036896 0.009975 0.055173 0.359617 -0.177001 -0.114214 0.043006 0.215285 -0.058050 0.330034 0.287910 0.231995 -0.154676 -0.157813 -0.192503 0.129135 -0.198426 -0.063548 -0.065518 0.035830 0.278848 0.131066 0.019242 0.065576 -0.321960 -0.001672 0.092205 0.294887 -0.116767 -0.214150 0.106770 0.005174 -0.081913 -0.064298 -0.196412 -0.280991 -0.307582 -0.262369 0.077169 0.235791 -0.208068 0.092289 -0.072255 0.209476 0.033178 0.117397 0.269092 -0.285647 -0.141619 -0.023008 -0.003422 0.217027 -0.311506 -0.013608 -0.135577 0.015095 0.098165 0.112616 0.260743 -0.119011 -0.045992 -0.212940 -0.102034 -0.101148 0.251569 -0.058192 -0.122155 -0.055071 -0.072446 0.372371 -0.189031 0.248167 0.185029 0.205474 0.135457 0.128275 0.202524 -0.024975 0.131818 -0.077314 -0.204720 0.010173 0.031522 0.365902 0.165091 0.491727 0.460713 -0.027354 0.015663 -0.192800 -0.062225 0.136884 0.097639 -0.125495 -0.135891 -0.030577 0.002877 0.345548 0.166020 -0.159680 -0.033235 -0.031940
可 0.006804 0.343189 0.102782 0.310648 0.069058 -0.114543 0.026810 0.011051 0.208708 0.036357 -0.046062 0.328670 0.181512 0.149460 0.244093 0.146099 0.193069 -0.432138 -0.088796 -0.201213 0.151641 0.056879 -0.121408 0.036844 -0.232639 0.064104 0.065331 0.112837 0.085125 0.450191 -0.152108 -0.071972 0.119193 0.261735 0.050475 0.242591 -0.115189 0.060176 -0.043132 -0.118202 0.036835 0.219566 -0.339563 -0.144734 0.174000 0.021470 0.063962 0.062839 0.192189 0.198836 -0.222133 0.129172 -0.074480 -0.009428 -0.219981 -0.162969 0.597702 -0.121967 0.047301 -0.277782 0.008855 -0.353870 0.056252 -0.083996 -0.076317 -0.180214 -0.038863 -0.218864 -0.095022 -0.114512 -0.151158 -0.223625 0.543948 -0.154220 -0.001226 -0.214926 0.102676 -0.103593 -0.219633 0.158605 0.012403 0.125345 0.030058 0.089210 -0.059029 -0.484447 -0.163090 0.134618 -0.052762 0.110002 0.143344 0.046581 -0.269192 0.085899 -0.047734 0.202149 0.171661 0.304954 -0.178529 0.301893 -0.016849 0.136329 0.067121 0.238937 0.159884 0.171517 -0.234065 0.058834 0.069110 0.478607 -0.106495 0.067758 0.377249 -0.051588 -0.003954 -0.225999 -0.231812 0.404840 0.281764 0.124045 -0.126529 0.044103 -0.145921 0.081582 0.097038 0.031959 -0.014325 -0.116769
以 0.380864 -0.147579 0.010988 -0.283401 -0.120144 0.128579 -0.149333 -0.183327 0.323395 -0.216411 0.294188 0.372424 0.232799 -0.024277 0.084795 -0.144184 0.001450 -0.231458 -0.019923 0.164236 0.184920 0.066083 -0.151230 -0.106011 0.045095 -0.167317 0.044220 0.099875 -0.059048 0.223317 0.184546 0.111141 0.126808 0.292438 -0.032690 0.379293 -0.215326 0.222293 0.182175 -0.199224 0.057554 0.142731 -0.255985 -0.107996 -0.122924 0.207231 0.216117 0.329973 0.293067 0.091975 -0.253114 0.202938 0.130444 0.160965 0.051774 -0.106505 0.394185 -0.169953 -0.120795 -0.040392 0.151775 -0.179000 -0.018717 -0.198939 -0.239030 -0.217780 0.091822 0.212903 -0.208858 0.238228 -0.146309 -0.221339 0.324351 -0.084007 0.130118 0.122098 -0.173711 -0.247286 0.006729 -0.040504 0.204441 0.322830 0.101076 0.265991 0.234443 -0.213844 -0.214011 -0.041173 -0.032454 0.053699 0.050037 0.323289 0.043049 0.052834 -0.254843 0.052917 -0.081620 0.137514 0.075764 -0.019901 -0.261875 0.233509 0.154482 0.114716 0.009710 -0.092071 -0.123321 0.028723 -0.053527 0.383769 0.208720 0.118844 0.367607 0.030616 -0.204932 -0.249153 -0.073812 0.007851 -0.047808 0.015261 -0.033662 0.127700 -0.142757 0.359750 -0.012470 -0.238016 0.090321 -0.364148
有 -0.062953 -0.080539 0.046615 -0.002402 -0.174298 -0.063296 0.093966 0.106956 -0.025551 -0.480455 0.126844 -0.299326 0.040484 -0.253154 -0.024176 0.102550 0.252982 0.219186 -0.055124 -0.094796 -0.130675 0.052131 0.064187 0.241281 0.058998 -0.049875 0.180223 -0.148999 0.041670 -0.073452 0.001295 0.041191 0.212373 0.177772 0.219679 0.023134 -0.028671 0.323027 0.145655 -0.124690 -0.299046 0.073191 -0.031773 -0.027151 -0.075041 -0.076584 0.351771 0.334511 -0.074408 0.070584 -0.190114 -0.032077 -0.295754 0.196614 -0.085021 0.181528 -0.048899 -0.102956 -0.182426 -0.117171 -0.098363 -0.265742 0.169756 0.066694 0.015018 -0.139951 -0.056302 0.036388 -0.079991 -0.074891 -0.194834 -0.075854 0.124899 -0.133400 0.089383 0.019346 -0.090343 0.107217 0.079604 -0.124908 0.099875 -0.387111 0.246466 0.278341 0.101565 0.072091 -0.086681 0.235245 0.088505 -0.132509 0.121747 -0.307244 -0.061895 -0.215891 0.078362 0.071569 -0.172188 0.033654 -0.149762 -0.093939 -0.192982 0.011560 0.168559 -0.134638 0.048271 0.203213 0.369442 0.028419 -0.305465 0.065946 -0.056753 -0.056954 0.037837 0.047846 -0.138918 -0.251560 0.326385 -0.211492 -0.157649 0.011291 0.044622 0.014315 -0.446717 0.055430 0.168322 0.263190 -0.290832 0.196930
为 0.012146 0.238276 0.196099 -0.381422 -0.188042 -0.392306 0.055949 0.096949 -0.192491 -0.133481 0.088632 0.035075 0.099143 -0.270390 -0.364300 0.054776 0.117342 0.092183 -0.307066 -0.419434 0.416585 0.066048 0.382932 -0.011668 -0.180123 0.092008 0.033941 -0.221213 0.135110 -0.102853 -0.193958 -0.216097 -0.095613 -0.022692 -0.101206 -0.016241 -0.046394 -0.187809 0.175404 0.305537 -0.278933 0.163997 -0.173467 0.075811 0.106849 0.144218 0.371084 -0.023618 -0.178025 0.197156 -0.028254 0.190627 -0.028929 0.327965 -0.068076 0.363548 -0.077317 0.300405 -0.248979 0.054121 -0.115044 0.269145 -0.294429 -0.364817 0.048717 0.552853 -0.257688 0.142655 -0.120451 0.119947 0.125878 -0.024825 0.195395 0.040326 -0.151874 0.325290 0.060783 0.129700 -0.086036 -0.185914 0.029632 -0.103634 0.292186 0.078712 0.072447 -0.123135 0.222778 0.089022 0.360163 -0.014915 0.065452 -0.074818 0.330832 0.080581 0.117990 -0.092458 0.123497 0.217214 0.156567 -0.143116 0.173836 0.047108 0.134986 -0.300747 -0.216505 -0.196524 0.108029 0.044302 0.261963 0.164258 0.061708 -0.092529 0.391130 -0.131073 -0.009348 -0.418011 0.245044 -0.157149 -0.034071 0.264454 0.094125 0.069386 0.064457 -0.014360 0.077829 0.114478 -0.094310 -0.198327
付 -0.089029 -0.123676 0.359790 0.213588 -0.161501 0.076115 -0.151356 -0.076150 -0.251118 -0.255736 -0.090113 -0.282699 0.026718 0.019118 0.200771 0.224988 0.010478 -0.084817 -0.246385 0.021297 0.292197 -0.307651 -0.166671 -0.354046 0.261745 -0.099509 -0.015527 0.086063 0.016865 0.042339 -0.160705 0.213000 -0.041431 0.069711 0.060113 0.129619 0.328230 0.061019 0.061821 -0.024689 -0.183554 -0.106595 -0.256439 0.052962 0.138330 0.152009 0.409595 -0.046159 0.127378 -0.142674 0.065419 0.108698 0.047233 -0.329380 0.122621 -0.050858 -0.127390 -0.050292 0.044610 -0.464995 0.022749 -0.023813 0.205254 -0.259940 -0.033137 0.194814 -0.218236 0.191028 -0.049964 -0.023011 -0.058461 -0.214457 0.248894 0.190590 -0.145594 0.268584 0.096749 0.049029 -0.316126 -0.274066 0.186532 -0.038444 0.266732 0.173281 -0.051290 -0.417194 0.096112 -0.092157 0.114054 0.012488 0.110930 -0.006356 0.055570 -0.258641 -0.172234 0.025670 -0.087437 0.061956 -0.228291 0.055074 -0.109062 0.057740 0.106920 0.116645 0.092766 0.337029 -0.227606 0.016028 -0.430093 -0.083354 0.153147 0.125087 0.350141 -0.054249 -0.106343 -0.021103 0.087132 0.017274 -0.172944 0.185690 0.073362 0.251379 -0.016347 -0.166664 -0.106243 -0.241056 0.087666 0.111945
蚂 0.138771 0.200035 0.305702 -0.169547 0.024386 -0.247838 -0.021229 -0.144909 0.007950 -0.167041 0.180742 0.201684 -0.066919 0.384620 -0.204072 -0.100964 0.076959 0.036553 0.095390 -0.087595 0.247845 -0.345385 -0.040580 -0.164870 -0.242751 0.184148 0.002254 0.090499 0.147400 -0.187325 0.092134 -0.129529 0.083901 -0.131462 0.188167 -0.186865 -0.193503 0.294131 0.088278 -0.067285 -0.038393 0.108444 -0.009227 -0.087766 0.217438 0.161939 -0.012431 0.200918 -0.083445 -0.171844 -0.356710 -0.199344 -0.044598 -0.002248 -0.306322 0.161020 -0.219045 -0.093215 -0.293876 0.028430 0.088537 -0.120866 -0.242966 -0.275799 0.080875 -0.187054 -0.008090 0.080247 0.017935 -0.160739 -0.186398 0.046567 0.045933 0.167205 -0.083418 -0.231477 0.124448 -0.175721 -0.069803 0.262345 -0.100525 0.174016 0.043129 -0.006484 0.288180 -0.205936 -0.058611 -0.100423 -0.008390 -0.025969 0.153815 -0.086856 0.031382 -0.177300 0.326262 0.009675 0.184367 0.064550 -0.041255 0.105304 -0.142814 -0.234921 -0.288047 0.287077 0.027275 0.254409 0.010741 -0.038234 0.086686 0.212042 -0.213438 -0.136650 0.204783 -0.223674 -0.299406 -0.104100 0.238157 -0.220840 -0.262718 0.040901 0.196870 -0.121236 -0.503338 0.228954 -0.004570 -0.083962 0.228021 -0.304460
蚁 -0.111860 -0.036951 -0.005486 -0.028144 0.140321 -0.296401 0.264665 -0.221945 0.359794 -0.324354 0.120555 0.238950 0.035515 0.125219 -0.103136 0.406433 0.106293 0.028396 -0.141685 -0.319461 -0.184863 0.110100 -0.006197 0.210199 -0.184817 0.240484 0.000626 0.243547 0.142598 0.084161 0.412417 0.185126 0.113376 0.258083 0.145380 0.139882 -0.190634 0.096511 -0.183619 0.147715 0.223191 0.066791 0.082010 -0.269489 0.061649 -0.184701 -0.057014 0.124993 0.084394 0.128950 -0.230746 -0.184820 0.220428 0.422976 -0.180688 0.261661 -0.104381 -0.027711 -0.104896 -0.040449 -0.137586 -0.101587 0.043390 -0.147106 0.036068 0.098197 -0.041899 0.276890 0.384149 -0.063192 -0.006720 0.014369 -0.064695 0.148219 0.028983 0.061457 0.061941 0.070377 0.272291 0.045024 -0.201749 0.164020 -0.082195 -0.102300 -0.049640 -0.048435 -0.459592 -0.080329 0.062619 -0.043637 0.140949 0.035439 0.226966 0.218849 0.216147 0.079911 0.054644 0.158769 0.084910 0.347808 -0.001544 0.129407 0.130247 -0.052997 0.152244 0.209433 -0.036593 0.203055 0.174725 0.115766 0.008778 -0.248691 0.093074 -0.088892 -0.192640 -0.119935 0.260813 -0.058698 0.044475 -0.056988 0.447206 -0.122480 -0.384383 0.212055 0.044027 0.021677 0.005200 -0.133851
分 0.085917 0.202900 -0.221104 -0.015300 -0.050744 -0.012024 -0.087906 0.016332 0.041090 -0.083411 -0.273975 -0.129104 -0.117542 0.108942 -0.161481 0.324369 -0.074104 0.015444 0.136609 0.174359 0.126606 -0.113977 -0.214685 0.219112 -0.329875 0.130713 0.085875 0.224949 -0.195777 0.199982 0.235743 -0.281413 0.007901 0.213998 -0.296039 0.221071 -0.205940 -0.110141 0.183997 -0.414353 -0.410328 -0.057119 -0.213957 -0.626961 0.376173 0.257320 0.141454 0.412193 0.168290 -0.193332 0.031243 -0.280567 0.001253 0.213333 0.024834 0.281815 0.248010 -0.320205 -0.182170 -0.340182 -0.295439 -0.123768 0.089830 -0.273527 0.246029 -0.122467 0.290443 -0.012830 -0.007973 -0.195684 -0.123183 0.011804 -0.089519 0.094085 -0.104053 0.015110 -0.152893 0.310003 0.009712 0.052752 0.411330 -0.169562 0.023866 0.362707 0.236206 0.246280 -0.194001 -0.222870 0.087568 0.041874 0.471427 0.452335 -0.349142 0.071127 -0.235451 0.027677 -0.022421 -0.057884 -0.049164 0.303371 0.239176 0.248632 0.127765 -0.499908 -0.268286 0.480191 -0.074208 -0.127181 0.317064 -0.095110 -0.329475 0.194367 0.060212 0.107591 -0.071022 -0.208194 -0.030732 -0.250571 0.053645 -0.073657 0.123472 -0.062420 -0.122603 0.068030 -0.126396 0.023154 -0.028854 -0.475591
度 0.115003 -0.071801 -0.109293 0.107366 -0.124398 -0.101790 -0.077139 0.594925 0.168522 -0.247035 0.248248 0.003108 -0.249221 0.047968 0.268581 -0.173621 -0.056242 -0.164099 0.080245 0.191014 0.134388 -0.295414 -0.129986 0.061983 -0.355962 0.085432 -0.014170 -0.086058 0.158648 0.162597 0.280442 -0.271373 0.235210 -0.057521 0.239904 0.170046 -0.270842 0.010391 0.233060 -0.097333 -0.300897 -0.316977 0.077445 -0.137615 0.305710 -0.328694 -0.084328 0.114293 0.146237 -0.272141 -0.281859 -0.043562 0.485371 0.104601 -0.321367 -0.429549 0.131909 -0.023733 -0.379181 -0.113972 0.162812 -0.054125 0.004121 -0.327038 0.005983 -0.154719 -0.552065 -0.262221 -0.236133 -0.212974 -0.358731 0.345315 0.013213 0.272349 -0.157721 0.084343 0.070097 0.107153 0.212503 0.195076 -0.002542 -0.415531 0.050066 0.011295 0.428895 -0.051735 -0.430695 0.311706 0.278155 -0.164311 0.028318 0.136001 0.143631 -0.057555 0.123438 0.173837 -0.170899 -0.173180 0.150061 0.121873 0.111942 0.209674 0.274334 0.016381 -0.320793 0.098275 0.164447 0.124794 0.018323 -0.398993 0.079010 -0.056491 0.398194 0.030939 -0.242607 -0.409609 0.276464 0.106209 -0.192022 -0.497265 0.278337 -0.343738 -0.149594 -0.316648 -0.173045 0.154002 0.125676 -0.585814
开 -0.370994 -0.116901 0.283542 -0.197566 -0.113622 0.070796 -0.425966 -0.079261 0.067385 -0.188612 0.477756 0.039202 0.141581 -0.026533 -0.082404 -0.036074 -0.051105 -0.193722 -0.338345 -0.133747 0.226840 -0.512121 -0.308044 0.066922 0.394229 0.123425 0.256427 0.123353 0.196703 0.096096 -0.015994 -0.117855 0.245164 0.581187 0.333241 0.189972 0.441213 -0.103832 0.120543 0.214291 -0.238449 0.208008 -0.040209 0.070406 0.209644 -0.244735 -0.094519 0.137200 -0.225329 -0.244350 0.077008 -0.285842 0.028577 -0.221098 0.128611 0.182724 -0.047762 0.061855 0.117113 -0.095269 0.145528 0.005319 0.109070 -0.173286 0.389132 -0.132995 -0.287556 -0.085023 0.182393 -0.145812 -0.082261 0.234238 0.210940 0.287177 0.125636 0.048834 0.186677 0.060825 -0.016826 -0.423552 0.045728 0.181345 -0.248345 0.468114 -0.335213 0.108598 0.082750 0.143629 0.062431 -0.047078 0.066017 -0.124119 -0.005637 0.013731 0.121293 -0.204389 0.073056 -0.376900 -0.140697 0.456272 -0.001772 0.175852 0.055121 -0.088910 0.301773 -0.095549 -0.076889 -0.201831 0.192817 0.181384 0.280219 0.110591 0.126961 0.063753 0.288751 -0.295386 0.268679 -0.222436 -0.213741 0.236617 0.313874 -0.177416 0.023847 0.203807 -0.154125 -0.126313 -0.035861 -0.056584
没 -0.172113 0.011260 -0.136914 0.146983 -0.058997 0.022833 -0.019867 0.078989 -0.256113 -0.454897 0.323231 -0.175543 -0.053113 -0.073585 -0.341601 0.233079 0.218007 0.025772 0.073537 0.008775 0.461016 -0.119772 0.240230 0.253043 -0.028712 0.238411 -0.148009 0.084669 -0.061729 -0.214829 0.370224 -0.100709 0.259456 0.260741 -0.176266 0.008634 0.116014 0.268448 0.129490 -0.113023 0.132606 0.005130 -0.093647 0.166557 0.082271 -0.115246 0.306820 0.165084 -0.171506 0.076030 -0.297955 0.231819 0.120334 0.061399 -0.219353 0.142099 0.205421 -0.067261 0.106222 0.167294 -0.090284 0.085664 0.306500 0.222357 -0.116853 0.217616 -0.079506 -0.189455 0.132165 -0.419683 -0.198164 0.040009 0.135851 -0.094444 -0.183505 0.133648 0.212017 0.062422 -0.152866 0.113875 0.213538 -0.112737 -0.168990 0.280186 0.157449 -0.140185 0.075119 0.234002 -0.210533 0.020219 0.126984 -0.259851 0.000281 0.064347 0.245108 0.182467 -0.154895 -0.084707 0.238819 -0.291619 -0.084877 -0.119306 0.226385 -0.063024 0.190040 0.189690 0.479702 0.144037 -0.153309 0.074191 -0.122382 -0.181076 0.028523 -0.220367 -0.233034 0.192877 0.588493 0.346549 -0.264314 0.152902 0.124156 0.059126 -0.102521 -0.018930 -0.065801 0.015668 -0.003882 0.098184
钱 0.075603 0.203767 -0.000172 0.055710 -0.179875 -0.157114 -0.119369 0.316528 -0.078884 -0.397005 0.391680 -0.157135 -0.141579 0.151083 -0.200622 0.247928 -0.093356 0.141781 0.090442 -0.205764 -0.009490 0.024362 0.366382 -0.185825 -0.002802 -0.142158 0.211302 0.209715 0.217802 0.311112 0.072361 -0.004893 0.074830 0.346980 -0.206005 -0.046009 -0.191738 -0.177167 0.107042 -0.036493 -0.032698 0.320563 -0.287005 0.152737 0.003100 0.073299 0.174325 0.024098 0.134193 -0.054287 -0.135798 -0.019216 -0.227041 -0.275767 -0.463135 -0.085663 0.063403 0.044734 -0.045795 0.023237 -0.076383 0.082810 -0.059702 -0.312211 -0.218472 0.113476 -0.178855 -0.491225 0.177947 0.271182 -0.417192 -0.014229 -0.127288 0.139345 -0.067728 0.202826 -0.264275 -0.163829 0.222959 0.138299 -0.009566 0.027690 -0.173754 -0.046113 0.089648 -0.128464 -0.292471 0.082822 0.005031 -0.035807 0.012265 -0.036748 -0.198638 0.179128 -0.035964 0.266504 0.032555 -0.154388 -0.049267 0.178459 0.134859 -0.083956 -0.041482 0.157904 -0.005966 0.040104 -0.007878 0.097163 -0.224352 0.004857 0.290046 -0.050270 0.171324 -0.186268 0.240748 -0.061720 0.213338 -0.189858 -0.120677 0.034875 -0.052975 -0.285815 -0.187319 0.243821 -0.162034 0.156227 0.233883 0.062180
支 -0.113720 -0.211902 0.140787 0.312819 0.186775 0.184398 -0.168551 -0.035271 0.131242 -0.495136 -0.103165 -0.166683 -0.121333 -0.016560 0.112875 0.569927 0.222141 0.040552 -0.530693 -0.293835 0.152032 -0.022454 0.341071 0.102423 0.316098 -0.002014 0.082158 0.154331 0.185800 0.189936 0.357708 0.070002 -0.007915 0.047244 -0.033250 0.392870 0.065435 0.003126 0.017877 -0.282525 0.078394 -0.086548 -0.067788 0.107583 0.359417 0.012682 -0.255530 0.098528 0.296759 0.069726 -0.068748 -0.032205 0.141145 -0.108475 0.073503 -0.078492 -0.134526 -0.286572 0.054907 -0.173548 -0.122338 0.247587 0.200133 -0.306383 0.036851 0.159416 -0.325030 0.550917 -0.099852 0.182204 -0.197092 -0.254435 0.219953 0.369097 -0.126952 0.185626 0.257725 0.053778 -0.117268 -0.048744 -0.150029 -0.331801 0.191619 0.093665 -0.147226 -0.268227 -0.120686 -0.186693 0.037384 -0.028689 0.096045 -0.131763 0.326158 -0.015092 -0.266351 0.070396 0.042759 0.263344 -0.106174 -0.144285 0.080196 0.233645 0.023223 0.058430 0.041695 0.373271 -0.121967 -0.137158 -0.156197 0.067860 0.381000 -0.199121 0.221468 -0.028704 0.018817 -0.060970 -0.066269 -0.058865 0.366502 0.237390 -0.018250 0.001484 -0.116567 0.205653 -0.111406 -0.417234 -0.064228 0.054479
通 -0.224355 -0.487115 0.044828 -0.314373 -0.337630 0.176174 -0.519192 -0.154825 0.153051 -0.087697 0.154782 -0.014991 0.140426 0.247470 -0.660549 -0.201855 0.017942 -0.147406 -0.195559 -0.480537 0.297182 -0.257046 -0.221778 0.066507 0.164824 0.174856 0.163279 0.042400 0.349007 -0.163550 0.033953 0.110427 0.245082 0.000423 0.478818 0.233399 0.258212 0.015219 -0.271852 -0.275476 -0.102846 -0.054062 0.212088 0.085782 0.306446 -0.277639 -0.030496 0.010457 0.110763 -0.024357 0.143568 0.124721 0.003976 -0.328805 -0.108542 0.294067 0.045434 0.189601 0.187035 0.020661 -0.343966 0.102408 0.089603 -0.106111 0.203732 -0.367720 -0.396460 0.050445 0.152983 0.161630 -0.163862 -0.029957 0.279396 0.293833 0.231611 -0.286649 0.411277 0.201483 -0.234772 -0.094802 -0.010072 -0.052406 0.269076 -0.143229 -0.096998 -0.204147 -0.086438 -0.345325 -0.014322 -0.009833 0.408009 0.284706 0.039443 -0.098831 -0.086788 -0.017836 0.047206 -0.144867 -0.177116 0.311521 0.234728 -0.121443 0.364841 -0.075103 0.013572 -0.195513 0.174896 -0.158512 -0.175670 -0.232349 0.120303 -0.100031 0.106614 -0.097583 0.558328 -0.194628 0.393062 -0.193071 0.098222 0.135048 0.020657 -0.070850 -0.247883 0.476965 -0.082141 0.232951 0.019417 -0.110061
一 -0.387335 0.057735 -0.265646 0.131728 0.079220 -0.147759 0.253204 -0.031668 0.487495 -0.403669 -0.035833 -0.167668 0.144500 0.256573 -0.170013 0.204297 -0.104697 -0.219633 -0.056141 -0.283050 0.025844 -0.310716 -0.186478 0.087262 0.053266 -0.111082 0.157517 0.379458 0.154392 0.075474 0.142383 0.120435 0.181070 -0.156269 0.284930 0.149289 0.239996 0.041348 0.289496 -0.502265 -0.296697 0.404581 -0.144606 0.098130 0.171812 0.264684 0.393583 0.032064 -0.222224 0.252871 -0.124345 -0.376572 -0.190545 -0.179710 -0.093088 0.174989 0.194842 0.030322 -0.055264 0.063841 0.109429 0.174819 0.148772 -0.142025 -0.120830 -0.147939 0.125593 0.332813 -0.041372 0.088915 0.151493 -0.075679 0.333257 -0.294684 0.139458 -0.368449 -0.127703 -0.071979 0.046755 -0.100834 0.026165 0.003916 0.037870 0.375545 0.198330 -0.162247 0.156544 0.278862 0.061793 0.202616 0.098947 0.134724 0.149533 -0.034315 0.020538 -0.014210 -0.017116 -0.188342 0.288018 0.054016 -0.225812 0.222581 0.264613 -0.156152 -0.348270 -0.002099 0.042989 0.240465 0.040919 -0.020698 0.024507 -0.104527 0.018450 -0.249506 0.037341 -0.225408 -0.140120 -0.036147 0.066810 -0.069444 0.337736 0.224866 -0.088042 -0.037653 -0.146267 -0.287683 0.223839 -0.326871
个 -0.214457 -0.005250 -0.116413 -0.011284 -0.017842 -0.010480 0.085235 -0.169828 -0.074581 -0.117702 0.326064 -0.246427 0.131328 -0.252995 -0.197161 0.012729 -0.061852 0.015659 -0.400843 0.017957 -0.117075 -0.267199 -0.148809 0.177369 -0.404889 0.225314 0.148091 0.391523 -0.091193 0.160543 0.354992 0.285500 0.197330 0.308021 0.137804 0.029649 0.090883 0.146825 -0.000293 -0.614344 -0.170586 0.192066 -0.186757 -0.160655 -0.012415 -0.054428 0.125980 0.018719 -0.263553 -0.355480 -0.249798 -0.430773 -0.253078 -0.180615 -0.018533 0.003358 0.095323 -0.120579 -0.305333 -0.058849 -0.088855 0.020090 -0.003446 -0.150849 -0.157082 0.129912 0.050873 0.261833 -0.110819 0.105853 -0.110986 0.023385 -0.169907 -0.045788 0.257669 -0.005541 0.231865 0.306323 -0.495783 -0.151871 0.138438 0.139561 0.397475 0.031655 0.061030 -0.287435 -0.318258 0.442125 0.317900 0.083228 0.078843 0.020059 0.051258 0.132518 -0.200957 -0.008950 0.039019 0.196482 -0.066849 -0.319684 -0.082627 0.020516 -0.064317 -0.127507 -0.201691 0.055667 -0.263501 0.071722 0.250058 -0.156647 0.108594 0.175026 0.221925 -0.225541 0.419305 0.015403 0.501628 0.247647 -0.094193 0.021009 0.219705 0.276635 -0.278788 -0.071474 0.043856 -0.206383 0.371180 -0.133614
在 0.055465 0.220634 0.141301 0.170871 0.002165 -0.059108 0.015369 0.081439 0.329786 -0.148384 -0.139900 -0.121332 0.204476 0.053717 -0.157827 -0.048210 0.321626 0.191410 -0.271742 -0.107302 -0.051933 -0.022144 0.112233 -0.121476 -0.305315 0.272167 0.310205 0.283384 0.006862 -0.071642 -0.047652 -0.032712 -0.108240 -0.044465 0.177778 0.218847 -0.230884 0.082299 -0.113308 -0.135278 -0.301704 0.169902 -0.130368 0.370003 -0.050845 -0.007953 0.416370 0.251809 -0.288832 -0.371332 -0.381470 0.242996 0.086730 0.244582 0.050800 -0.180596 0.175111 -0.034516 -0.137464 -0.169912 0.085495 -0.000959 0.020350 0.020800 -0.185094 -0.030566 0.029126 -0.211258 0.073516 0.101617 -0.258974 0.078107 -0.129724 0.002805 0.221633 0.146762 0.059082 -0.289598 0.009741 -0.126653 0.105779 0.233004 0.075570 0.304016 -0.358579 0.005239 0.085916 -0.225052 0.286330 0.088059 0.173979 0.016242 -0.027287 -0.010132 -0.307302 0.058853 0.066534 -0.010692 0.168845 -0.107418 0.204807 -0.091613 0.148507 0.171488 -0.072838 0.341940 0.083605 0.079816 -0.199312 0.248400 0.181982 -0.308007 0.297362 -0.287678 0.120287 -0.061260 0.207480 -0.002754 0.336152 -0.014207 0.243920 -0.051669 0.180659 -0.003966 0.158673 -0.076748 -0.193997 -0.030758
宝 -0.300286 -0.040215 -0.046357 -0.056108 0.081583 -0.308417 -0.417894 0.168597 -0.268801 -0.217155 -0.222965 0.014194 -0.001831 -0.086032 -0.215948 -0.220588 -0.026544 0.048377 -0.337967 -0.002373 0.038066 -0.257478 -0.292436 -0.147249 0.213682 -0.012812 0.008705 0.749910 0.270621 0.182447 0.226375 -0.162844 0.083065 -0.142080 -0.208945 0.247888 0.186054 -0.088474 -0.002585 -0.140865 0.247101 0.124424 -0.170958 0.373579 -0.003028 -0.195626 0.398761 0.168432 -0.021569 -0.291063 -0.070941 0.028535 0.006324 -0.011873 -0.062616 -0.153721 0.237442 -0.192203 -0.032272 -0.335861 -0.116522 0.026011 0.237785 -0.352541 -0.103147 0.518021 -0.328384 0.540789 -0.233704 0.139840 -0.195713 0.114247 0.425095 0.034898 -0.159786 0.334693 -0.184495 0.102139 0.022230 -0.189251 -0.298012 -0.284335 -0.034715 0.280028 0.180256 0.310546 -0.210092 -0.089582 0.008135 0.002769 -0.333768 -0.068860 0.375443 -0.105087 -0.184521 -0.022620 -0.021585 -0.009670 -0.533120 0.184931 0.144240 0.030546 0.039424 0.137733 0.258689 0.369005 -0.128469 -0.048089 -0.338316 0.318492 0.014324 -0.184907 -0.136213 -0.207580 -0.133813 -0.196485 0.153183 0.368152 0.051077 0.196062 0.377817 0.347695 -0.341957 0.058492 0.119279 0.103439 -0.218740 0.198933
提 0.014221 -0.139458 0.293984 -0.076270 -0.162548 -0.119464 0.151649 0.309020 -0.163996 -0.127082 -0.090725 0.174341 -0.016281 0.242795 -0.097410 0.517680 -0.190400 -0.091994 0.276729 0.066604 0.082193 -0.192148 0.160864 -0.356912 -0.453223 0.368458 0.015956 -0.032088 -0.097909 -0.610967 -0.043546 -0.170193 0.392552 0.203309 -0.095382 0.038912 0.056502 0.330966 -0.052729 0.292668 -0.007003 0.096017 0.182803 0.036271 0.353891 -0.164747 -0.091267 -0.090658 0.052477 -0.005631 -0.041020 0.024039 0.203964 -0.118549 -0.381176 0.436515 0.321680 -0.082717 -0.018251 -0.440069 -0.194332 -0.199463 -0.213055 0.023991 -0.153004 -0.453805 -0.176486 0.224191 0.012424 0.235707 0.149806 -0.191927 -0.294853 0.168135 0.097957 -0.252639 -0.295664 0.121185 0.099029 -0.122366 0.266067 -0.001976 -0.001250 0.681545 -0.024537 0.122451 -0.192796 0.128276 -0.051097 0.414826 0.137972 0.169435 -0.020573 0.276369 0.118164 0.094764 -0.456886 -0.116962 -0.090719 -0.033916 -0.163525 0.345437 0.195250 0.016241 -0.598947 0.299153 0.212111 -0.154313 -0.252404 0.239412 0.023118 0.110219 0.297698 0.033080 0.258299 -0.165991 0.326615 0.018656 0.060410 -0.040900 0.609200 -0.135030 -0.071142 0.067819 0.025734 -0.036474 -0.157732 -0.269417
到 -0.060631 -0.098449 0.375626 0.115324 0.002952 -0.182497 0.017484 0.416608 -0.115796 -0.560381 -0.213475 -0.059081 0.249454 -0.259531 -0.421793 -0.054172 -0.188700 0.288545 0.109325 -0.045547 -0.135278 0.013201 0.139225 -0.000273 -0.031360 0.212057 -0.092703 0.200544 0.073609 -0.063666 0.036192 0.082629 -0.164779 0.548548 0.067544 0.266552 -0.138571 -0.067676 0.145506 -0.100498 -0.209712 0.368542 -0.041920 0.032345 -0.206585 -0.026663 0.012831 0.378872 0.177854 -0.130426 -0.246901 -0.183235 -0.251963 -0.086857 -0.102412 0.223891 -0.145371 -0.183910 -0.098420 -0.042187 0.280407 -0.268335 0.210271 0.229743 -0.376590 0.429224 -0.248996 -0.237580 -0.253389 0.031665 -0.222750 -0.049185 0.311062 0.112972 -0.144049 -0.318500 -0.093182 -0.226138 0.002370 0.018620 -0.325677 0.047980 0.056473 0.222830 -0.337005 -0.098076 -0.085326 0.028750 0.149929 -0.118915 0.324398 0.071806 -0.198726 -0.302271 -0.038394 0.055213 -0.094676 -0.410570 0.266457 0.321866 0.094197 -0.227066 0.023973 -0.257313 0.002594 0.174222 0.038535 0.165306 -0.259424 0.248162 0.201731 0.103515 0.071913 -0.048838 0.063182 -0.000457 0.280177 0.205361 0.038982 0.172121 -0.027625 -0.111870 0.041833 0.422536 0.085726 0.116082 0.326488 -0.203402
时 -0.004242 -0.364975 -0.527215 0.142005 -0.243344 -0.581421 0.082607 -0.026306 0.159641 0.047277 -0.118917 0.393018 0.012464 -0.078955 0.135787 -0.401781 0.180787 0.087902 0.202037 0.047662 0.287591 0.132909 0.220807 -0.013639 -0.063761 0.434670 0.121261 0.237799 0.371553 -0.232039 0.084199 -0.463196 0.080262 0.303080 0.058332 0.501411 0.084704 -0.157912 0.172089 -0.142732 -0.418196 -0.266749 -0.164724 -0.352706 -0.300490 -0.157928 -0.122585 0.259064 -0.099165 0.296563 0.040552 -0.460326 0.166494 -0.248344 0.206504 -0.307249 0.122498 -0.062314 -0.066770 -0.176705 -0.274462 0.048681 -0.150934 0.133350 0.033093 0.273314 -0.266042 -0.027802 0.138241 0.041666 -0.047502 0.175268 0.483074 -0.084854 -0.339161 0.011667 0.001436 -0.122863 -0.121965 -0.270453 0.156883 -0.074506 -0.066035 0.047843 0.214896 -0.395504 -0.095458 0.299973 0.049636 0.153472 0.089093 -0.020909 0.056350 -0.059033 -0.031201 0.147953 0.120055 0.004581 -0.012298 -0.282098 0.142470 0.051438 0.529077 0.085724 -0.285329 -0.281006 0.079768 -0.201442 -0.027805 0.247753 -0.288417 -0.180924 0.399788 -0.193351 0.111557 0.056656 -0.028454 0.044042 -0.231731 0.159224 0.480179 -0.201326 -0.286333 -0.061905 -0.183436 0.407292 -0.249331 -0.578903
号 -0.300889 -0.288490 0.180672 0.188659 0.113672 -0.252494 -0.063685 0.324737 -0.102211 -0.374659 0.080725 0.136621 0.056885 0.147666 -0.155604 0.099529 -0.280168 -0.014524 -0.222780 0.528010 -0.045467 -0.344852 -0.126320 0.341455 -0.263992 -0.013365 0.264815 0.239553 0.061868 0.349486 0.281844 -0.085260 0.368369 -0.025257 0.071203 0.262551 -0.395304 -0.059044 -0.244610 -0.190051 -0.318261 -0.174965 -0.236926 -0.062156 0.292654 -0.062494 -0.150456 0.638005 0.243127 0.140066 -0.113775 -0.362565 -0.490031 -0.059135 0.420800 -0.306012 0.260408 0.124309 0.051372 -0.170342 -0.458332 0.395626 0.110859 -0.263589 -0.152184 0.140527 -0.156449 0.417245 -0.201010 0.092624 0.322490 0.297900 -0.214971 0.011417 0.082645 0.238419 -0.189225 -0.394480 -0.239629 -0.096729 0.101143 0.313613 0.458919 0.139622 -0.022856 -0.204089 -0.062981 0.474777 0.125268 -0.024600 0.462808 0.239191 0.151878 0.118328 0.192015 0.216255 0.227585 -0.074921 -0.050249 -0.144151 -0.084890 -0.102094 -0.517850 0.145333 0.299813 -0.251306 -0.438470 0.103552 0.120104 -0.037415 0.047901 -0.192642 0.208734 -0.451891 0.756108 -0.087593 0.558405 0.078734 -0.083443 0.073680 0.243309 0.253399 -0.235323 0.128555 0.268592 0.086557 0.226583 0.284248
月 0.366960 -0.066027 -0.156783 -0.273087 0.100973 -0.257906 0.090658 -0.007221 0.338090 0.143845 0.045093 0.107241 -0.061027 -0.149535 0.307912 0.238127 -0.311350 -0.233118 -0.189499 -0.003768 0.080675 0.101312 -0.043160 0.071260 -0.615209 0.155449 0.189883 0.122035 -0.057275 0.186300 0.096146 -0.115959 -0.107831 0.236099 -0.320090 0.039798 0.141935 0.270644 0.386513 -0.500243 -0.220331 0.212978 -0.041657 -0.355787 0.147196 -0.311657 0.298190 -0.199157 -0.056159 -0.002569 -0.134606 -0.449722 -0.052869 0.277364 -0.240140 0.066921 0.098932 0.019511 -0.151559 -0.095316 -0.400223 0.453760 0.513184 -0.205208 -0.368536 0.392895 -0.068844 -0.053975 0.305302 -0.169043 -0.256748 0.155894 -0.101742 -0.007624 0.186619 -0.199893 -0.179433 0.009539 -0.115684 -0.111468 -0.057814 -0.354958 0.137246 0.363213 0.199293 -0.280619 0.223076 0.407109 0.173776 0.035659 0.636352 -0.060800 -0.225184 -0.119661 -0.221227 -0.045344 -0.156037 -0.050874 0.083802 0.087212 -0.251680 -0.508172 -0.075462 -0.305446 -0.151575 -0.153989 -0.611513 -0.425707 0.102307 -0.251779 -0.133809 -0.056587 -0.350290 -0.252556 0.344009 -0.110957 0.355782 0.186943 -0.084305 -0.095333 0.490540 0.311732 -0.548830 0.439860 0.211456 -0.140487 -0.073034 -0.527186
多 0.030419 0.005943 -0.235219 -0.516934 -0.125940 0.222652 -0.016739 0.191658 0.118628 -0.358178 -0.433196 -0.192040 0.070920 -0.065377 -0.203325 0.232984 -0.139518 -0.090018 -0.180622 -0.391077 -0.021431 0.039924 -0.237883 0.133640 -0.416615 -0.192790 -0.217363 0.177763 0.047345 0.502893 0.299126 -0.054602 -0.081196 0.244587 0.240579 -0.155426 0.044867 0.080473 0.041302 0.126977 -0.432411 -0.126578 -0.086824 -0.142765 0.328537 0.042117 0.019388 0.002226 -0.117431 -0.226278 -0.299776 0.108461 0.319523 0.386960 -0.132039 0.046314 -0.173525 -0.159529 -0.661296 0.150012 -0.063413 -0.396516 0.114908 -0.145284 -0.101289 -0.048119 0.388311 -0.440270 -0.042283 0.238380 -0.049737 0.445340 0.214673 0.160651 -0.476119 -0.105715 -0.128865 -0.239194 -0.258812 0.036407 0.035643 0.236642 -0.137424 0.193634 0.436882 -0.192029 0.178645 0.765227 0.119030 0.504735 -0.049031 0.245115 -0.228410 0.274764 0.225081 0.100670 0.437997 -0.228379 -0.257217 0.204821 0.355926 0.207092 0.554756 0.148705 -0.036110 -0.095471 0.051578 -0.157826 -0.380044 -0.159964 0.104500 -0.068006 0.265037 0.028407 0.036033 0.323906 0.034262 -0.074523 0.089195 -0.093298 0.091053 0.236595 -0.485377 0.448914 -0.159264 -0.254191 -0.270056 -0.187680
账 -0.096651 -0.033537 0.226620 0.120193 0.084858 -0.233012 -0.107393 -0.004611 -0.088212 -0.036406 0.189780 -0.138385 0.154969 0.007682 -0.378065 -0.025564 -0.029707 0.002206 -0.344080 0.057548 -0.175653 -0.010200 -0.036378 -0.027016 0.126548 0.154956 0.021160 0.091707 0.271021 0.220424 0.151421 0.202231 0.426678 -0.160922 0.163849 -0.003355 0.145871 0.096642 -0.131979 -0.105680 -0.260008 0.415725 -0.285411 0.065182 0.199580 0.295043 -0.332186 -0.208213 -0.036880 -0.044960 0.174405 -0.458623 -0.151131 -0.022542 0.217773 -0.575642 0.363846 -0.373170 -0.117786 -0.222042 -0.135420 0.074814 0.326612 0.187948 -0.291954 0.409654 -0.229679 0.226989 -0.324956 0.055300 -0.178508 -0.277640 -0.103122 -0.081233 -0.368705 0.230829 0.199872 0.046586 -0.009212 -0.340830 -0.138506 0.239105 0.171311 0.295262 0.280153 -0.082898 0.228833 0.106219 0.490725 0.404700 0.594369 -0.230647 -0.049165 0.266378 -0.102488 0.173909 -0.419405 0.115976 -0.021619 0.013675 -0.070549 -0.175288 -0.280297 0.138137 -0.026328 -0.001349 0.082605 0.171531 -0.083120 0.266621 -0.082590 0.217156 0.216600 -0.094218 0.238920 0.012611 0.282306 0.000642 0.130046 -0.023516 0.235437 -0.151610 -0.692358 0.250797 0.004712 -0.172005 0.415699 -0.232604
收 -0.246482 -0.385795 0.202961 0.190151 -0.555400 0.175781 -0.167685 -0.076342 -0.169378 -0.343067 -0.237140 0.043872 -0.324336 0.049779 -0.481833 0.194228 -0.032986 -0.359744 0.308272 -0.061369 -0.441315 0.115423 0.056923 -0.199300 0.200124 -0.348926 0.211537 -0.416995 0.464309 -0.123364 -0.082749 -0.003338 0.347001 0.371089 0.019446 -0.305785 0.140300 0.147545 0.130677 0.059035 -0.199183 -0.268691 0.076722 0.015314 0.044493 0.112679 0.291733 0.230819 -0.165307 0.091948 0.425897 -0.090102 0.036876 -0.259156 -0.305434 -0.065590 -0.143637 0.367485 -0.260894 -0.161588 -0.247429 0.018140 0.561808 -0.436985 0.059525 0.382963 -0.437213 0.205276 0.186577 -0.067332 -0.385412 0.055628 0.441228 0.467385 0.167630 0.137736 0.277608 0.161689 -0.061387 -0.077878 0.418418 0.425562 0.158155 -0.004818 0.264881 -0.150398 -0.084390 -0.113802 -0.182317 0.165402 0.144163 0.329805 -0.016914 -0.150241 0.020497 0.067770 0.219418 -0.311637 0.064172 0.318294 0.093161 0.467065 0.193926 -0.030191 0.357300 0.259742 -0.154868 -0.210106 -0.008530 -0.044660 0.238468 -0.100837 0.198185 -0.127494 0.430899 0.183791 0.249851 -0.349132 0.058651 -0.156282 0.083838 -0.298028 -0.117596 0.070587 0.134611 0.057266 -0.030770 0.045557
退 -0.241150 0.071953 0.043354 0.454760 -0.626165 0.014291 -0.120894 0.226650 -0.294356 -0.050545 -0.023421 0.180213 -0.270900 -0.419522 -0.697641 0.194087 -0.098410 0.193437 0.524045 0.324645 -0.007026 -0.251654 0.100286 -0.164314 -0.164955 -0.420922 0.234566 0.132740 0.219981 -0.061025 -0.217455 0.049109 0.169482 0.032871 -0.304742 0.108122 0.028191 -0.032528 0.279021 0.211514 -0.035064 0.365013 -0.269259 -0.335929 -0.198998 0.253314 0.004698 0.023022 0.302759 0.191271 -0.134598 -0.137469 -0.022142 -0.024776 -0.422655 0.237354 0.004330 0.137377 0.017380 -0.052764 -0.235431 0.087309 0.423661 0.071068 -0.380320 0.346205 -0.189264 -0.237985 0.188943 0.121987 -0.357912 0.045013 0.102686 -0.015838 -0.322305 0.183320 0.075259 0.025173 -0.046561 0.043621 0.157345 -0.176697 0.511014 -0.139775 0.087251 0.040156 0.335712 -0.160121 0.148266 0.190965 0.437033 -0.095330 -0.271629 -0.033528 -0.433973 0.735282 -0.228868 0.053015 -0.129943 -0.028655 0.228108 0.104100 -0.309704 -0.169118 0.384556 0.051577 -0.039708 0.027220 -0.536723 -0.190512 0.164300 -0.668399 0.243463 0.161871 -0.274365 -0.097655 0.274750 -0.025964 0.297315 -0.118740 0.460014 -0.021766 0.364737 0.063782 -0.240418 -0.317628 0.267979 -0.342963
要 -0.156511 -0.176392 0.315598 -0.256406 0.027358 -0.090682 0.119750 -0.080546 0.077754 -0.030181 -0.171522 0.165165 -0.101388 -0.032110 -0.024330 0.385155 0.056142 -0.154211 0.415224 -0.367319 0.115472 0.091634 -0.278024 0.050628 -0.098712 0.239876 -0.024897 -0.257634 -0.306702 0.345824 0.247449 0.079651 0.306930 0.233101 0.179710 0.208884 0.528005 0.118131 -0.393998 0.221378 -0.121960 -0.200579 -0.480904 -0.082815 0.043462 0.044412 0.416260 0.130224 -0.252330 -0.019658 -0.344548 -0.164286 0.041837 -0.077128 -0.305678 0.030661 0.078838 0.100934 -0.263554 0.146953 -0.098695 -0.014591 -0.062397 -0.092545 0.151672 0.084828 -0.062235 -0.096822 -0.046620 0.294587 0.085093 -0.317829 0.287521 0.106684 -0.162363 0.234258 -0.125176 -0.035755 -0.100576 -0.081162 0.291918 -0.112672 0.120649 0.081989 0.220957 0.286443 -0.141642 0.302595 -0.029344 0.137840 0.098611 0.174899 -0.113136 -0.212972 0.296204 0.129395 -0.131315 0.040821 0.034546 -0.020849 0.190324 0.114250 -0.005562 0.137182 -0.022720 0.229501 -0.129255 -0.296639 -0.139156 0.140814 0.052841 -0.221225 -0.025214 0.088491 0.307895 -0.035570 0.296508 0.124917 0.096483 0.051736 0.398011 -0.050863 0.243211 0.298639 0.082308 -0.216188 0.541350 0.111114
费 0.017764 -0.272069 0.133415 -0.106392 -0.055327 0.314010 -0.125678 0.112000 0.069852 -0.005888 -0.411177 -0.083145 0.049330 0.498758 0.030804 0.697447 -0.202602 0.374824 -0.197387 0.365532 0.189332 0.375621 0.299927 0.096084 -0.164219 0.368387 0.338419 0.368303 -0.121495 0.243222 0.209954 -0.080121 -0.005439 0.317038 0.078035 -0.144059 0.436820 -0.074710 0.272153 0.095334 0.100808 0.059239 0.036329 -0.434582 -0.170903 0.300585 -0.049207 0.130678 -0.446806 0.081740 -0.184533 -0.131789 -0.277260 0.338809 -0.258492 -0.163090 0.121675 0.093018 -0.007055 0.203296 -0.021293 0.113349 0.132732 -0.250638 0.321835 0.121614 -0.315673 -0.141927 -0.073098 -0.203459 -0.162250 -0.089306 -0.291671 -0.047939 -0.198129 -0.613721 -0.058946 0.148534 -0.143982 -0.296579 0.274671 -0.393233 0.321696 0.152835 0.120483 -0.103080 0.121418 -0.299422 0.400435 0.098329 -0.386962 0.453623 -0.144112 -0.287638 -0.158204 0.531083 0.026825 -0.112260 -0.119937 -0.126889 0.043327 -0.413168 0.189061 0.310801 0.432825 -0.124003 0.214754 0.454218 -0.402783 0.159726 0.230536 -0.177240 0.677185 0.277333 -0.010309 -0.108276 0.194409 -0.395624 -0.179724 0.221658 -0.107245 -0.123758 0.223940 0.502831 0.566396 -0.452630 -0.146064 -0.277263
使 0.126743 0.123680 0.001546 -0.011327 -0.226745 -0.128336 -0.331327 -0.126788 0.295704 -0.336439 0.215351 0.096414 -0.085067 0.339751 0.156634 -0.070479 0.032812 0.048234 -0.114768 -0.362782 0.213907 -0.034457 -0.132005 -0.202695 -0.037745 0.541698 0.114358 0.300760 -0.186249 0.228458 0.007151 -0.146335 0.076334 0.239294 0.091918 0.015410 0.006556 -0.216843 -0.062654 -0.093373 -0.126366 -0.486224 -0.262607 0.052859 0.361053 -0.180424 0.028063 0.180051 -0.091451 0.118463 -0.338786 0.196817 -0.223452 -0.180577 0.133585 0.215567 0.061234 -0.104040 -0.065149 -0.033204 0.180049 -0.037975 0.160745 -0.068255 0.082722 -0.104433 -0.420267 -0.068373 -0.006705 -0.003011 -0.054681 0.073594 0.128693 0.246259 0.270816 0.010280 0.091608 0.158287 0.064934 -0.295400 0.142752 -0.045904 0.183101 0.254513 -0.045969 -0.269157 0.114895 -0.264499 0.239669 -0.008621 -0.083664 0.100247 0.075058 -0.256264 -0.446973 0.352256 0.030068 -0.101668 0.027640 -0.233452 -0.081821 0.101565 0.387053 -0.402259 0.246185 0.040241 -0.247300 0.415383 -0.126713 0.022170 0.286995 -0.070627 0.278335 0.137097 0.025215 0.161311 -0.519049 0.175359 0.114644 -0.185810 0.051325 -0.131081 -0.371117 0.217072 0.004787 -0.109565 -0.041801 -0.169508
后 -0.329504 0.024820 -0.108955 0.049427 -0.267620 0.073226 -0.245265 -0.085356 -0.125034 -0.198007 -0.271156 0.093446 0.100104 0.252920 -0.133263 0.187035 0.329201 -0.095551 0.025668 0.459573 0.158451 -0.052408 -0.074491 -0.096108 -0.091715 0.099533 -0.055288 0.252470 -0.003136 0.318208 -0.214073 0.553538 -0.217460 0.179473 0.193877 0.162739 -0.205837 0.264653 0.246827 -0.015334 -0.209266 -0.003138 -0.331835 0.217532 0.307064 -0.056686 0.044786 0.126895 0.360746 0.070509 -0.497141 -0.174701 -0.212646 -0.014497 -0.265182 0.136269 -0.044285 -0.088892 -0.242505 0.028610 0.202993 0.073451 0.217489 0.128111 -0.325675 0.016332 -0.040391 -0.148099 0.072055 -0.187432 0.193921 -0.256945 0.002943 -0.017701 -0.110556 0.144056 -0.081527 0.536051 0.043932 -0.126998 0.132375 -0.053721 -0.273506 0.145478 0.211326 0.140939 0.125598 0.211287 -0.075849 0.044945 0.146122 0.150119 -0.214032 -0.001216 -0.153395 -0.044134 -0.126454 0.193220 0.145213 0.117152 0.144406 0.270027 0.213262 -0.051388 0.062202 0.159954 -0.067334 -0.258792 0.209310 0.280611 -0.253440 -0.311087 0.199753 -0.336275 0.319528 -0.110320 -0.013115 0.037735 -0.181481 0.107510 0.164825 -0.144191 -0.086602 0.028307 -0.125698 -0.118998 -0.123185 -0.470569
前 -0.064913 -0.235073 -0.236957 -0.034118 -0.222089 0.024647 0.165261 0.405363 0.277213 0.146233 -0.075435 0.396266 -0.017923 -0.182257 -0.279545 0.250115 -0.188702 -0.102902 -0.116170 -0.184409 0.081521 -0.178875 0.130162 0.070362 -0.236723 0.347783 -0.069269 0.087508 0.116568 -0.004698 -0.079676 0.235625 0.495686 -0.071919 -0.372303 0.319415 -0.357453 0.116757 -0.194560 -0.059123 -0.632970 -0.125460 -0.260514 0.207417 0.227609 0.340406 0.612203 -0.097101 -0.097245 -0.275447 -0.175541 -0.454462 -0.039815 0.047578 -0.012552 0.204258 -0.138829 0.000991 -0.071302 -0.062403 0.307623 0.103508 0.318794 0.090063 -0.208076 -0.093337 -0.062738 0.248343 0.072073 -0.431366 -0.433152 -0.278554 -0.218764 -0.005981 -0.290923 -0.141283 -0.095482 0.314698 0.043362 -0.223331 0.583155 -0.100496 -0.023571 0.233394 -0.088440 -0.085740 -0.095727 0.172161 -0.121285 0.024156 -0.215806 -0.065770 -0.123611 0.369300 -0.072661 0.257302 -0.341265 0.018147 -0.040666 0.122623 -0.134171 -0.113877 -0.198195 -0.051334 0.016596 0.203887 -0.435979 0.211227 0.244958 -0.140540 -0.432538 -0.427116 0.442839 -0.005064 0.364535 0.078644 0.068024 -0.183005 -0.188263 0.285001 0.431769 0.094591 -0.199580 0.005464 -0.054502 -0.120859 -0.139326 -0.097847
卡 0.056364 -0.354990 0.332640 0.040477 -0.135716 -0.148441 -0.343434 0.044401 -0.162248 -0.235888 -0.050577 -0.140826 -0.199613 0.014146 0.114684 0.383323 0.347440 -0.082527 -0.006883 -0.127632 -0.095759 0.123091 -0.064588 -0.092722 0.431424 -0.208065 0.054638 0.132431 0.053179 0.062039 0.025376 -0.101346 0.052985 -0.385045 0.079360 -0.206140 -0.280973 -0.242244 -0.030745 -0.283415 0.133070 0.136889 -0.029931 -0.397960 -0.013508 -0.195587 0.238677 0.034363 0.172625 -0.276591 -0.198813 0.114000 -0.456972 -0.085545 -0.269717 -0.117205 -0.220369 0.241624 0.175295 -0.041139 -0.748046 0.097059 0.038743 -0.574855 0.049596 0.342065 -0.244483 0.035871 0.152533 -0.087154 -0.211520 -0.225355 0.256327 0.294714 -0.357440 0.333762 0.158105 -0.386112 0.493380 0.264648 0.685283 -0.048706 -0.218007 0.261505 0.126320 -0.245013 0.128459 -0.179028 0.175242 -0.114978 0.047195 -0.337032 0.281314 0.432183 0.461493 -0.088127 -0.059121 -0.708981 -0.023229 0.064284 -0.097319 -0.145974 0.555954 0.119971 0.130680 0.249635 -0.055234 0.261600 0.010614 0.201817 0.264615 0.116423 -0.019982 -0.140569 0.665093 -0.524755 0.178387 -0.005745 0.110593 -0.155866 -0.222078 0.204215 -0.261408 0.776817 -0.039277 -0.472524 0.140109 0.199067
会 -0.118483 -0.369087 -0.078524 -0.007000 -0.445799 -0.369234 0.113935 0.002617 -0.170104 -0.343309 0.075777 -0.047596 -0.276079 0.013440 0.446685 0.008731 -0.035841 -0.273990 -0.132407 0.159969 -0.093456 -0.292357 0.042955 0.017664 -0.202538 0.203088 -0.189524 0.368547 0.123951 -0.042073 -0.059919 -0.136359 -0.061139 -0.006116 0.298811 -0.147526 0.136676 0.277876 -0.123603 -0.036896 -0.223870 0.117513 -0.419624 0.290684 0.201744 0.129222 -0.263804 0.376561 -0.077133 0.290132 -0.297347 -0.062889 -0.231314 0.439982 -0.421014 0.374692 0.198308 -0.141623 -0.022672 0.040477 -0.180294 -0.055970 0.036151 0.004302 -0.261964 0.067326 -0.093497 -0.011725 0.093226 -0.491722 0.205289 -0.169092 0.196813 -0.269976 -0.143251 -0.180462 0.004891 0.276664 -0.077773 0.069022 0.037373 0.117335 -0.061025 0.141286 0.138225 0.246676 -0.301329 0.208059 0.303355 -0.379611 0.003009 0.068580 -0.161526 0.102643 0.173573 0.447005 -0.141237 0.029701 -0.141058 -0.214771 -0.040686 0.010302 0.298876 -0.155816 0.195014 0.057437 0.334383 0.072349 0.010434 0.432920 -0.237767 -0.130903 -0.057118 -0.048996 -0.313856 -0.182835 0.309974 -0.175242 0.100287 -0.376095 -0.092566 -0.323507 0.086655 0.404435 0.240461 -0.220071 -0.122970 -0.098808
信 -0.303532 -0.155925 0.130972 -0.483722 0.070763 -0.280453 -0.007172 -0.277079 0.072007 -0.585115 -0.453972 0.044441 -0.235949 -0.064441 -0.408878 0.008681 0.142238 -0.134646 0.137657 0.130864 0.379372 -0.285361 0.295231 -0.498914 0.080530 0.039799 0.265444 -0.146842 0.415699 -0.201623 0.014664 0.347414 0.017583 0.130775 -0.417798 -0.237297 -0.150183 0.438110 -0.258517 0.056369 0.148269 -0.299236 0.097838 -0.175178 0.032170 -0.172171 0.373202 0.687509 -0.189190 0.374269 0.276119 -0.000903 0.092408 -0.125901 -0.495361 -0.211857 -0.125121 0.026895 -0.154851 0.015796 -0.392137 -0.303018 0.038628 -0.316932 0.084701 -0.672765 -0.380370 0.145028 0.340461 -0.121150 -0.033768 0.101713 0.487621 0.295362 -0.189032 -0.030248 -0.226432 0.561070 0.073236 -0.389696 0.187220 0.340028 -0.545020 0.399037 -0.180944 -0.376349 -0.371954 0.496132 0.284109 0.136618 -0.034228 -0.200820 0.192457 0.025929 -0.358415 0.292353 -0.185955 -0.223674 -0.575271 0.111825 0.046341 -0.495900 0.168537 -0.034015 0.071018 -0.148213 0.184382 0.450988 0.320649 -0.203429 0.091525 0.044588 0.125004 0.226592 0.274985 -0.121012 -0.049495 0.007587 -0.035250 -0.190613 -0.302392 -0.148624 -0.211879 0.316366 0.183741 -0.303933 0.079260 0.257392
手 -0.257199 -0.477286 -0.162660 -0.097479 0.264113 -0.181158 -0.118815 0.286873 -0.288008 -0.018371 -0.051218 0.440407 0.002582 0.090405 0.046251 0.487116 -0.136739 -0.243947 -0.030817 0.053729 0.400051 -0.407329 -0.135361 0.229680 -0.129211 -0.229002 -0.022262 0.334166 0.187559 0.307906 0.240109 -0.392046 0.137923 0.041446 0.126245 0.224845 -0.043182 -0.113299 -0.627477 -0.058303 -0.310595 -0.092403 -0.580019 0.474292 0.239677 0.367386 0.240271 0.175632 0.054401 -0.405717 0.231728 -0.074828 -0.311859 0.118887 -0.519631 -0.239674 -0.448406 0.024100 0.129128 0.105367 -0.233277 -0.252436 0.248831 0.085573 -0.500167 0.461101 -0.532274 -0.040594 0.223664 -0.024011 -0.035826 -0.190652 -0.149792 0.452064 0.121801 -0.111875 -0.817016 -0.070643 -0.255784 -0.247414 0.359076 -0.209422 0.215941 0.503695 0.152954 -0.141438 0.202412 -0.372713 0.220265 0.319425 -0.006287 0.308003 0.240718 -0.078115 0.159496 0.364979 -0.080344 0.385471 -0.016735 0.057648 -0.363955 0.059328 0.004870 -0.072274 -0.484313 0.099612 0.088212 -0.034658 0.432999 -0.445107 -0.084160 -0.250993 0.141690 0.099419 0.144591 -0.119856 0.378916 0.311579 0.149837 0.167499 -0.334437 -0.213145 0.123220 0.302468 0.410351 0.010982 0.225077 0.123444
里 -0.170560 0.044569 -0.094245 0.205266 0.018733 -0.261646 0.215441 0.009470 -0.083129 -0.013023 -0.006695 -0.030492 0.012523 0.039592 -0.337211 -0.090668 -0.195471 0.286765 -0.363568 -0.219836 0.001728 0.459341 0.223108 0.218600 -0.344481 -0.184739 -0.082376 0.411262 -0.156090 -0.047036 0.208178 0.042991 0.206835 0.425079 -0.124492 -0.008280 0.114686 -0.004552 -0.131415 0.150866 0.072437 0.085256 -0.195303 0.053804 -0.070392 -0.071287 -0.045426 0.219776 0.081811 -0.088109 0.018206 0.265534 -0.175278 -0.366620 -0.281550 -0.113328 -0.203369 0.244685 0.077611 -0.079913 -0.176350 0.174356 -0.044495 0.185232 -0.236591 0.218847 -0.015391 -0.294280 -0.222208 0.429765 -0.530011 -0.220135 0.347087 0.080422 -0.190245 0.012149 0.008597 -0.273494 -0.112632 0.175427 0.106862 0.137913 -0.065940 0.555251 0.145341 0.161280 -0.068727 0.090958 0.156732 -0.097145 0.041343 -0.157145 -0.099296 -0.320092 -0.420613 0.354640 -0.075527 -0.322652 -0.189643 0.427595 0.582870 -0.208257 0.020790 0.112558 -0.020322 0.698077 0.424323 -0.151076 -0.262819 0.217247 -0.101018 -0.167228 0.425518 -0.427449 0.017908 -0.323593 0.233935 -0.309263 -0.156245 0.204331 -0.005854 -0.110084 0.098373 -0.072417 -0.050629 -0.032620 0.005766 0.008988
码 -0.309397 -0.742858 0.213770 0.205618 0.070457 0.046004 -0.314344 0.025958 -0.132108 0.098013 -0.005582 0.228202 -0.008401 -0.060236 -0.347667 0.403437 0.013011 -0.240078 0.226645 -0.002435 0.103732 0.274302 0.106898 0.024094 0.476160 -0.247727 0.099508 0.242052 0.414619 -0.053211 -0.286914 -0.251867 0.320394 0.327335 0.219418 -0.084823 -0.173266 0.467532 0.072753 0.332326 0.081893 -0.125514 -0.095947 0.087133 0.194601 0.204889 -0.160999 0.449573 0.189387 -0.526444 -0.015006 0.184603 0.092784 -0.155629 -0.009694 -0.246869 0.080090 -0.250628 -0.390179 -0.288663 -0.278085 0.240178 0.268527 -0.182834 0.035183 0.369849 -0.569247 0.504925 -0.198227 -0.093872 -0.084902 0.399285 0.444498 0.153938 0.201432 0.003984 0.187907 0.002932 -0.510447 -0.302055 0.108680 -0.087807 0.074453 0.144578 -0.505453 -0.358681 0.107854 -0.151514 -0.255717 0.218482 0.381068 0.094344 0.479861 0.408897 -0.331429 -0.262938 0.381777 -0.551013 -0.036928 0.151251 0.040941 -0.146031 0.274501 0.179807 -0.416346 0.370099 -0.215751 -0.130501 0.165544 -0.225936 0.132279 -0.286561 0.368509 -0.047711 0.346814 -0.202247 0.039171 -0.248754 -0.190965 -0.006892 -0.008683 0.174399 -0.284920 0.401501 0.758865 -0.564709 0.665631 0.594678
天 0.087624 -0.055940 -0.506139 0.010233 -0.365610 -0.348449 -0.200113 0.509651 0.101039 0.156211 0.504799 0.145938 0.296734 -0.113075 -0.130215 0.520327 -0.099812 -0.184683 0.091963 0.215526 -0.081430 0.308122 0.440955 0.293930 -0.364782 0.218699 -0.119881 0.598622 0.030955 -0.040585 0.399182 0.096691 -0.241787 -0.149246 0.239406 -0.144861 -0.489792 0.248021 0.232782 0.096894 -0.136149 0.105186 -0.039326 -0.127075 0.074338 -0.011735 0.348141 0.170080 -0.202024 -0.020620 -0.102094 0.095041 -0.003775 -0.377067 0.104369 0.332859 0.047443 -0.616414 -0.301397 -0.291668 0.024531 -0.032078 0.151632 -0.420114 -0.108789 -0.278597 0.183013 0.030086 0.402852 0.089007 0.039134 -0.012637 0.537807 -0.011531 0.111009 -0.342591 -0.417693 0.089404 0.162852 -0.288779 0.256439 -0.103800 -0.099985 -0.088943 0.063443 -0.321735 0.176759 0.020659 0.511044 -0.241100 0.375218 0.037764 -0.390854 -0.304631 -0.105676 0.202865 0.278549 0.124385 -0.078585 -0.395277 0.346055 -0.231120 -0.132008 -0.248293 0.020951 0.312692 -0.177207 -0.206039 -0.124051 -0.048148 0.125189 0.242090 0.022635 -0.186520 0.035354 -0.171100 0.180134 -0.168795 -0.019147 0.128519 0.288934 -0.224724 -0.406352 0.193761 0.058508 -0.191475 -0.052854 0.023614
现 -0.304994 0.190820 -0.122831 -0.201097 0.213866 -0.150162 0.226470 0.317808 0.178613 -0.212904 0.394556 0.182673 -0.183245 0.125528 -0.428279 -0.086248 -0.101855 0.036049 -0.165064 0.137009 0.143576 0.175495 -0.330299 0.011656 -0.139621 0.169785 0.442016 0.006359 -0.020137 -0.137197 -0.037982 -0.098878 0.216699 0.110319 0.012900 0.359327 -0.251179 -0.037856 0.119699 0.035000 -0.262221 -0.248242 -0.161395 0.071997 -0.126940 0.278357 -0.156447 -0.340473 -0.162696 0.340541 -0.101072 -0.134096 -0.084366 0.037983 -0.246777 -0.184779 0.105292 -0.185429 -0.209898 -0.043467 -0.061805 -0.212961 0.538579 -0.235217 0.042321 0.082774 0.016653 0.002982 0.070528 0.101508 -0.186183 -0.139764 0.017250 -0.100471 -0.249597 0.028104 0.148192 0.027765 -0.182751 0.324605 -0.051507 -0.273466 0.078081 0.203947 0.346093 0.091837 -0.225196 -0.075046 0.270544 -0.000688 0.250049 0.009578 0.194285 -0.074455 -0.088805 0.080272 0.109687 -0.112030 0.282228 -0.002055 -0.134880 -0.141955 0.038279 -0.156440 0.010674 0.301625 -0.239508 0.087268 0.149629 -0.076832 0.093489 -0.111818 0.283965 -0.081219 0.385022 -0.185197 0.228540 0.047942 -0.458879 0.236049 0.019446 0.027647 0.079096 0.372282 0.066831 0.021173 -0.354255 -0.025446
示 -0.083195 0.184050 -0.249365 -0.091841 0.327591 -0.245050 -0.060642 0.170991 -0.345354 -0.195230 0.019883 -0.163190 0.018451 -0.038043 -0.381860 -0.119995 0.321891 0.049902 -0.073053 -0.172305 0.074589 -0.097458 0.375495 0.057460 0.286096 -0.113489 0.120708 0.004894 0.163607 0.117717 -0.007844 -0.031332 -0.089996 -0.402346 0.278437 0.016698 0.095805 -0.305244 -0.184623 0.485969 -0.067943 -0.143455 -0.534506 -0.281795 0.206187 -0.180380 0.118340 -0.134682 -0.220477 -0.289351 -0.442380 -0.070886 -0.012340 -0.128524 -0.085862 0.212077 -0.120581 -0.207322 -0.115158 0.351978 -0.523791 -0.452080 0.356019 0.153118 -0.450159 0.191876 -0.516727 0.262143 -0.490868 -0.138052 -0.385382 -0.496915 -0.007429 0.092241 -0.026030 0.138132 0.421840 -0.022219 0.111268 0.026702 0.274776 -0.281592 -0.073463 0.027207 0.048650 -0.203544 0.005261 0.060928 0.114610 0.243269 0.304236 0.049846 -0.140284 0.225178 0.020589 -0.024269 -0.284700 0.085133 -0.457864 0.231879 -0.262754 0.156164 -0.468756 -0.411969 -0.238353 -0.160321 0.148574 0.313108 0.331827 0.497986 0.557473 -0.018013 0.342404 -0.334695 0.274494 -0.175800 0.499044 -0.348688 -0.012215 0.418544 0.065854 0.168607 -0.044342 -0.152375 0.032556 0.102648 -0.426822 -0.146682
扣 0.272088 0.035206 -0.010377 0.335495 -0.602363 -0.441181 -0.206181 -0.087009 0.130359 -0.115658 0.150747 -0.275163 -0.358531 -0.115073 -0.045262 0.167814 -0.007113 0.273465 0.171838 0.366416 0.046424 0.403006 -0.050029 -0.344184 0.148526 -0.037107 0.142592 0.287007 -0.064793 0.037772 0.299746 0.374110 0.180400 0.038047 -0.303962 -0.269438 0.253858 0.096177 -0.258170 -0.248232 0.306593 0.120736 -0.524328 -0.331915 -0.054809 -0.135789 -0.021716 -0.316481 -0.018353 -0.484994 0.236711 -0.066922 -0.291281 0.028730 -0.157838 0.062472 -0.226798 -0.087807 0.021389 -0.313520 0.084619 0.165712 -0.126969 -0.383618 -0.555600 0.038384 -0.232640 -0.256485 0.301248 -0.062205 -0.016947 -0.519789 0.473646 0.252817 -0.225719 0.011176 -0.122636 -0.203783 -0.348318 -0.184356 0.513319 -0.503324 0.084643 0.006524 0.241327 -0.297548 0.089198 0.119678 0.048077 0.168875 0.170931 -0.036456 0.181092 -0.070355 0.127112 0.250208 -0.196770 -0.292114 -0.165588 0.089284 -0.163813 0.149930 0.300618 -0.206810 0.518840 -0.018897 -0.071721 -0.166570 -0.298919 0.508103 0.123742 0.002892 -0.172232 -0.468027 -0.471450 -0.563350 0.357516 -0.390427 0.190590 0.023550 0.203951 -0.246070 0.193948 0.186547 0.165162 0.073043 0.035285 0.068404
少 -0.092894 0.173819 -0.602173 -0.450001 -0.089918 -0.045916 -0.368220 0.433937 0.005464 -0.467062 -0.693583 0.034189 -0.006147 0.059365 0.049193 -0.021264 -0.153520 -0.046816 0.548699 -0.162234 0.160534 0.233318 -0.065261 -0.044404 -0.068434 -0.395428 0.010311 0.114253 0.018123 0.665381 0.580112 0.174299 0.162953 -0.014269 0.275430 -0.144848 -0.209183 0.238305 -0.102541 0.058530 0.101542 -0.037588 -0.179629 -0.176649 -0.099690 -0.033564 0.225068 0.626538 -0.333454 0.102549 -0.085824 -0.473265 0.169559 0.530827 -0.658106 0.510269 -0.000556 0.276447 -0.217855 -0.080758 -0.123497 -0.346216 0.518323 -0.195308 -0.095364 -0.156258 0.124607 -0.326085 0.120746 0.187883 0.035649 0.105492 0.044766 0.681843 -0.420358 -0.162270 0.217073 -0.132628 -0.931016 0.194300 -0.164841 -0.325789 0.049001 0.519262 0.148806 -0.262369 0.166659 0.255319 0.509311 0.521297 -0.216376 0.295263 -0.211227 0.634201 -0.070045 -0.104032 0.073549 -0.265650 0.264568 0.149911 0.267083 0.131369 0.213682 0.388474 -0.093427 0.018788 -0.054582 -0.461543 0.258429 -0.051058 0.384479 0.415406 0.112694 0.223372 -0.319236 0.039745 0.190055 -0.021499 -0.187147 0.086868 0.418906 0.145152 -0.626602 0.025791 -0.220663 -0.054308 -0.031699 -0.189868
商 -0.401319 -0.401897 0.284529 -0.357521 -0.373899 0.207687 -0.133770 0.171112 0.217415 -0.168183 0.044133 -0.013666 -0.188984 -0.295974 -0.112848 -0.256280 -0.037420 0.015170 0.030266 -0.260429 -0.402500 -0.028966 0.049119 -0.005370 -0.107547 -0.095645 0.135739 0.016605 0.351162 0.462514 -0.530166 -0.316386 0.473919 0.111903 0.177238 -0.120852 0.039109 0.165327 0.140340 0.017207 -0.127758 0.249682 -0.133683 -0.324654 -0.002140 -0.244210 0.370251 0.120430 -0.574964 -0.206932 -0.197553 -0.001709 -0.497744 -0.414431 0.017550 -0.395508 -0.052428 0.203854 0.924318 -0.279585 -0.078397 -0.172416 0.264173 -0.570697 -0.389867 0.491988 -0.007956 0.351752 0.591029 -0.611291 -0.351847 -0.336079 -0.087983 0.321262 0.329404 0.123254 -0.136491 0.296303 0.033056 0.468259 -0.244890 0.019807 -0.303615 -0.061393 0.430438 -0.345753 -0.161348 -0.283241 0.304953 0.312837 0.222195 -0.302301 0.201545 0.069812 0.050335 0.354599 0.404489 0.433114 -0.375490 0.010129 0.328686 0.307152 0.352603 0.351137 -0.499936 0.255376 0.241847 -0.414219 -0.165462 -0.218644 -0.151786 0.135136 0.546368 0.358885 -0.044909 -0.381358 -0.150023 -0.141133 -0.134578 -0.114188 0.321367 0.126005 0.069768 0.258759 -0.689171 -0.329289 -0.170191 -0.410339
这 -0.257091 -0.134270 0.106614 -0.080502 0.322829 -0.400171 0.108514 0.075244 -0.263218 -0.335287 0.147372 -0.153841 -0.368678 -0.075527 -0.294587 0.237526 0.059460 0.093400 -0.233684 -0.153004 -0.080048 -0.096160 -0.135208 0.021269 -0.059858 0.098096 0.047126 0.092451 0.152544 -0.128230 0.183166 -0.067847 0.271949 -0.205436 -0.130862 0.158732 0.117114 -0.010138 0.368074 -0.315970 -0.088840 0.306244 -0.189939 -0.081700 0.122040 -0.164965 0.110108 -0.073087 -0.158855 0.128632 -0.363412 -0.335814 -0.045264 0.190085 0.023778 0.069545 -0.060780 0.112513 -0.142607 0.134744 0.284682 0.473204 0.187485 0.093438 -0.064326 0.126437 0.041861 -0.261727 -0.132212 0.015437 -0.096024 -0.015788 -0.043881 0.045894 0.219517 0.346749 -0.107677 -0.219151 -0.268028 -0.343229 0.093004 -0.177980 0.215095 0.250742 0.084789 -0.010798 0.062513 0.211722 0.229617 0.159421 0.503028 0.145645 -0.075264 -0.185929 -0.140803 0.167569 -0.313408 0.023841 0.095878 0.110243 0.036033 0.211193 0.162409 -0.053373 -0.161471 -0.204997 -0.228628 -0.044713 -0.213163 0.112681 -0.131510 0.085312 0.069082 0.017511 0.217106 0.035995 0.030931 0.008009 -0.022276 0.142367 -0.012382 0.201868 -0.162889 0.003078 0.061179 -0.480183 0.218306 0.137420
行 -0.249313 0.079573 0.266431 -0.559164 0.099095 0.214672 0.159374 -0.057609 0.051391 -0.268755 0.208386 -0.051738 -0.196416 -0.424669 -0.114886 0.170795 -0.181640 0.195985 -0.136860 -0.046484 0.239356 -0.011170 0.172762 -0.423637 0.238810 -0.416401 -0.171210 0.581132 -0.152041 0.091190 -0.291927 0.165034 -0.143575 -0.187412 0.373133 0.051510 -0.018440 -0.466507 -0.080791 -0.306482 0.331475 -0.228956 -0.138173 -0.059226 0.189510 -0.220434 0.599511 0.006683 -0.186390 -0.301861 0.014175 -0.066896 -0.105308 0.019981 -0.179345 -0.291321 -0.071460 0.016096 0.008093 -0.013623 -0.588384 -0.023735 -0.004232 0.254025 -0.268925 0.030424 -0.581721 -0.191763 0.288041 0.127288 -0.162076 -0.026765 0.601210 0.175763 -0.279368 -0.379972 -0.027133 -0.282231 0.350902 0.073104 0.436447 -0.211198 0.213637 -0.300803 0.229429 -0.254912 -0.279598 0.005949 0.010596 0.286685 0.138890 -0.460106 0.307117 0.321006 0.272032 -0.019798 0.072508 -0.395500 0.116376 0.082191 -0.343831 -0.152351 -0.032875 0.017645 0.109438 0.190207 -0.090756 -0.047660 0.075540 0.620502 -0.211849 0.102744 0.423186 -0.411114 0.050190 -0.459919 0.226914 0.022331 0.178774 -0.566966 0.014311 -0.561100 -0.081765 -0.017938 -0.041331 -0.620124 -0.259147 0.488209
关 -0.250557 -0.377252 0.565154 0.193438 0.053310 -0.039939 -0.288269 -0.115427 0.354546 -0.008081 0.533982 -0.357896 -0.193977 0.092597 -0.655772 0.066174 0.299234 -0.036685 -0.151179 -0.128196 0.404670 -0.419852 -0.153906 0.119987 -0.086754 0.079562 0.256209 0.645486 0.231389 0.284943 -0.089662 0.322348 0.807183 -0.180227 -0.115641 0.000675 -0.015921 -0.458679 -0.256989 -0.082519 0.052141 0.393099 -0.071964 -0.276765 -0.310697 -0.432185 -0.466339 -0.132766 0.177770 -0.322697 -0.448315 0.129387 -0.313051 0.310336 -0.319396 0.266882 0.050593 0.160688 0.153635 0.126261 0.023116 -0.084121 0.136053 0.009409 0.434225 -0.222076 -0.527611 0.121906 -0.052501 -0.090953 0.175557 0.235094 0.141958 -0.064397 0.322334 -0.217181 0.014521 -0.193860 -0.306739 -0.198267 0.268563 0.378029 -0.150347 0.461145 -0.197349 0.667897 -0.007279 0.092725 0.473389 -0.183756 0.164421 -0.075006 0.322303 -0.133766 -0.260054 0.032048 0.321769 -0.028615 -0.079694 -0.054002 0.375211 -0.195492 0.177369 -0.154424 -0.042796 -0.270929 -0.247541 -0.465212 -0.119340 -0.008885 -0.305580 -0.113939 0.091251 -0.078695 0.141827 -0.155633 0.244225 -0.259191 -0.339807 0.054645 -0.136278 -0.080753 -0.007409 -0.130727 -0.063904 -0.166494 -0.151425 -0.692731
逾 0.493904 0.332509 -0.262039 0.080987 -0.097554 -0.054083 -0.184949 0.197425 0.039753 -0.238763 0.800339 0.090289 0.081518 -0.178778 -0.090853 0.411219 -0.556270 0.053681 0.087684 0.299567 0.234876 -0.100883 -0.238333 -0.293254 0.024622 0.359768 -0.313951 0.064959 0.457590 -0.457939 0.089114 0.617872 0.302173 0.070568 0.088557 0.141880 0.027118 -0.144234 -0.564865 -0.178278 -0.102234 -0.236000 0.072234 -0.091838 0.588441 -0.063142 0.365046 0.051004 0.069699 -0.036246 0.170559 -0.171537 -0.438535 0.380933 0.056797 0.129025 0.095524 -0.078075 -0.215327 -0.014290 -0.075216 0.056869 0.773036 -0.111021 0.140081 -0.367059 -0.110514 -0.152574 0.266495 -0.619237 0.241891 0.320805 0.132641 -0.197510 -0.385117 -0.266378 -0.280893 0.185476 -0.177478 0.397269 0.135751 0.163796 -0.043432 0.172036 -0.105906 0.201185 -0.078470 -0.118979 0.756483 -0.124537 0.425944 0.339570 -0.513090 -0.018429 0.033413 0.423707 0.257918 0.306363 -0.193130 0.008533 0.491323 0.398168 0.258854 -0.141220 -0.097558 -0.135271 -0.222809 0.153325 -0.054671 0.136060 -0.459945 -0.135146 -0.279570 0.000865 0.053286 -0.285034 0.243752 -0.394533 -0.406902 -0.259853 0.461544 -0.099106 -0.260580 0.290680 -0.118036 0.080264 -0.069605 -0.181293
上 -0.253922 0.157973 -0.280261 -0.250658 -0.122242 -0.202995 -0.059368 0.337860 0.062004 -0.267636 0.347056 0.274425 -0.160618 0.106788 -0.186917 -0.280204 -0.080509 0.173169 -0.349507 0.021284 0.339694 0.073646 0.141073 0.278060 0.070518 -0.280107 0.113237 0.216541 0.126964 0.022398 0.090720 -0.095905 0.055505 0.110270 0.117196 0.058070 0.016924 0.260281 0.052337 -0.004966 0.174199 0.223523 -0.263941 0.146207 0.337915 -0.133603 0.372500 -0.121775 -0.085245 0.077988 -0.408206 -0.170967 -0.198839 -0.147709 0.182594 -0.181486 0.003150 0.242608 0.022575 -0.042330 -0.065424 -0.036164 0.292263 -0.213440 0.065293 -0.066252 0.101157 0.052119 -0.059448 0.294215 -0.107624 -0.245016 0.257332 -0.043351 0.191715 -0.154369 0.147950 -0.380502 0.077046 0.005672 0.003767 -0.217262 0.270504 0.093830 -0.023250 0.201569 -0.089682 0.338448 0.089250 0.131993 0.117054 -0.216956 -0.030266 0.135155 -0.333247 0.441783 -0.066958 -0.053792 0.202969 -0.011632 0.186106 -0.008548 -0.028217 -0.313193 0.039706 0.496473 0.070366 0.033830 -0.085870 0.182802 0.011395 0.133916 0.387099 -0.349613 -0.047967 0.208309 0.052244 -0.156668 0.074958 0.041575 0.077609 0.216547 0.096572 -0.127378 0.332420 0.003075 0.124508 0.180245
动 0.227671 -0.897778 0.013689 -0.035061 -0.229630 -0.103037 -0.271696 0.116274 0.042632 0.380560 -0.040356 0.002656 -0.412146 0.076300 -0.036446 0.113957 -0.075458 0.619334 0.144630 -0.123321 0.126219 -0.110490 0.143298 -0.261398 -0.096134 -0.068654 -0.108160 0.286323 -0.498432 0.082777 0.488647 0.267223 0.142687 -0.151489 0.143853 -0.464285 -0.190391 0.316564 -0.074686 0.560542 -0.126662 0.206478 -0.389746 -0.292266 0.222924 -0.176309 0.092185 -0.346140 -0.328126 -0.301744 -0.257191 -0.294516 -0.055038 0.358559 -0.047236 -0.037763 0.197351 -0.094798 -0.303354 -0.006371 -0.639425 0.090500 -0.058499 0.006158 -0.551448 -0.095892 -0.302092 0.055379 0.050939 0.071970 -0.299397 -0.024420 -0.228570 -0.097453 -0.288117 0.041973 -0.054012 -0.059831 0.025786 -0.221276 0.123005 -0.141091 -0.218789 -0.022913 -0.253501 -0.462086 -0.513171 0.086225 0.124847 -0.144772 0.290607 0.040950 -0.137677 -0.525366 0.340879 0.254188 0.130680 -0.737582 -0.056674 0.074916 0.023999 0.291614 0.258082 0.167480 0.470013 0.322608 -0.171629 0.025806 0.182004 0.392351 -0.529658 0.222083 0.695845 -0.834225 -0.331934 -0.490604 0.144566 -0.088536 0.349972 -0.072953 -0.109482 0.100221 0.431121 0.448780 -0.278203 0.098254 -0.173425 0.018623
如 0.328276 -0.385784 0.409083 -0.043129 -0.018611 0.068753 0.337483 -0.116198 -0.044417 -0.757817 -0.736278 0.784779 -0.129250 0.130690 -0.690458 0.195693 -0.005504 -0.211215 -0.062995 0.199336 0.376387 0.214430 -0.054021 0.277656 -0.175318 0.254394 -0.158385 0.101797 0.473434 0.269606 -0.038860 -0.189430 0.103993 0.318546 0.437179 0.169706 0.508244 -0.173249 0.068314 -0.238376 -0.372625 0.122402 -0.305196 -0.050508 0.357795 -0.144134 0.035907 -0.493505 0.320177 0.119581 -0.304794 0.221787 -0.123480 0.127964 0.194289 0.143153 -0.344973 -0.108636 -0.725436 0.132934 -0.135345 -0.193129 -0.447562 -0.296295 -0.310734 -0.135952 -0.197308 0.284235 0.275293 -0.531264 -0.040107 0.110100 0.164783 -0.125869 0.244321 0.130796 0.354986 -0.036900 0.192322 -0.585479 -0.150693 0.409956 0.068250 0.209157 0.084632 -0.080058 0.082829 -0.119865 0.626217 0.571001 -0.285374 -0.152768 -0.088669 0.105284 0.439759 0.550668 -0.306644 0.378765 0.424937 0.232689 0.607228 -0.175859 -0.028263 0.053121 -0.129413 0.409618 -0.159517 -0.134253 0.139921 0.239068 -0.023885 0.257115 0.199968 -0.232392 -0.357885 -0.209222 -0.031179 0.374717 0.032760 0.485032 -0.146372 0.129561 0.035419 0.040566 -0.291311 0.085858 -0.128740 0.054201
已 -0.288024 -0.008716 0.641813 0.117384 -0.029162 -0.224100 0.129010 0.024211 -0.166356 -0.357928 0.284602 0.200786 -0.111282 -0.078893 -0.653009 0.207531 0.095581 -0.096484 0.292072 0.022201 0.149637 -0.052398 0.220183 0.054564 -0.009520 0.022920 -0.427886 0.083295 0.334702 0.114694 0.049957 0.195516 -0.088559 0.006394 0.151969 0.494261 -0.223659 -0.322037 -0.285140 0.076396 0.292577 0.086474 -0.331483 0.149594 0.103149 -0.286516 0.080899 -0.023988 -0.363888 0.024728 -0.352760 -0.052860 -0.113414 0.315433 0.110582 0.064848 -0.305181 -0.165500 -0.146771 0.080853 -0.228566 0.267547 0.395624 -0.205126 -0.181656 0.163176 0.090414 -0.145653 -0.503084 0.269587 -0.357952 0.084418 -0.083520 -0.398492 -0.307210 0.146324 0.389082 -0.239774 0.032491 -0.395217 0.348538 0.395271 -0.059299 0.115314 0.326694 -0.181258 0.337380 0.350762 0.005669 0.248403 0.029492 -0.273990 -0.119513 -0.155831 -0.499586 -0.038537 -0.270915 0.027899 -0.158891 -0.255786 -0.052393 0.084879 -0.112866 -0.186917 0.252474 -0.224603 0.332828 -0.485292 -0.063764 -0.353051 -0.375640 -0.151396 -0.125069 0.161436 0.205614 -0.373508 0.426469 -0.112094 0.002923 -0.077570 0.198792 0.057101 0.179932 0.298853 -0.131533 -0.163991 -0.339960 -0.528740
机 -0.094025 -0.003817 0.113172 0.169116 0.151812 -0.097650 -0.411585 -0.078790 -0.262813 -0.314584 -0.077664 0.430503 -0.237707 0.362667 -0.419347 0.149236 0.068571 -0.264443 -0.327925 0.087828 0.174319 -0.080274 0.124341 -0.053428 0.000681 -0.440632 0.234595 0.139951 0.218663 0.718537 0.183468 -0.152659 -0.099786 -0.194409 -0.131692 0.045256 -0.237703 -0.284024 -0.046550 0.045262 -0.000176 -0.376030 -0.490882 0.055509 -0.078105 0.565683 0.249855 -0.077979 0.018247 -0.594142 0.071088 -0.048692 -0.158513 -0.183528 0.549092 0.040699 0.097387 -0.037749 -0.121532 -0.154950 0.247103 0.338993 0.239920 0.129338 0.085745 -0.048840 -0.645442 0.299935 0.178863 0.126901 0.024289 0.110258 -0.259581 0.080128 0.723155 -0.279767 -0.457849 -0.013906 -0.212726 0.084447 -0.112352 -0.278487 0.238069 0.409216 -0.020192 -0.001534 0.189684 0.278002 -0.029523 0.094927 0.429999 -0.251099 0.533884 0.235191 0.215974 0.200203 -0.323859 0.241779 0.080028 -0.065608 -0.080023 -0.152735 0.340405 0.369568 -0.210465 0.400996 -0.014050 0.320556 0.124648 -0.055694 -0.287210 -0.420702 0.378444 0.329285 0.484160 -0.298123 0.465545 0.041340 -0.137853 -0.386936 0.213528 0.016117 -0.143687 0.500476 0.233893 0.178973 0.193613 -0.010553
显 0.120267 0.295149 -0.165880 0.055648 -0.191771 -0.385603 -0.186291 0.257224 -0.597532 -0.295795 0.222519 -0.028939 0.220307 -0.012052 -0.296695 0.036215 0.150780 0.243768 -0.330356 -0.364280 -0.158237 -0.109568 0.043620 0.051452 -0.323582 0.133799 0.174855 -0.220746 0.442248 -0.277713 0.001805 0.269604 -0.030702 -0.229355 -0.146923 0.024455 0.493782 -0.149299 -0.032635 0.241021 0.090124 0.054341 -0.248062 0.033420 0.439185 -0.013835 0.014231 0.266589 -0.127117 -0.378197 -0.223281 0.121509 0.061648 0.113755 -0.088334 0.391072 0.471020 -0.265043 -0.185470 0.002054 -0.407786 -0.230322 0.100668 -0.271444 -0.446693 0.271300 -0.287717 -0.233663 -0.273682 0.456254 -0.168315 -0.337112 -0.129604 0.170208 0.211519 0.026772 0.227005 -0.298389 0.073807 0.107157 0.293586 0.187049 -0.050246 0.102339 -0.203725 -0.072914 0.489000 0.300714 -0.196963 0.577016 0.173395 -0.276245 0.248129 0.067048 -0.086372 0.264806 0.366681 0.224569 -0.147591 -0.104211 -0.328824 0.122156 -0.335352 -0.493960 -0.404619 0.224695 0.148628 -0.121799 -0.259674 0.209749 0.080014 0.018265 0.656404 0.207266 0.209160 -0.183708 0.196852 -0.169274 0.061556 0.033580 0.570825 0.347878 0.135064 0.259038 -0.087721 -0.052815 -0.788188 0.125069
单 0.185344 -0.160587 0.008250 0.391122 0.267617 -0.021896 0.047739 0.419328 -0.163818 0.056186 0.168843 0.274017 0.079366 0.023479 -0.073965 0.063645 -0.041562 0.446668 0.108463 -0.092545 0.292843 -0.104526 0.050349 -0.502811 0.040256 0.170979 -0.165948 0.289031 0.243432 0.475116 -0.095399 0.237408 0.113193 0.057553 -0.133303 0.277978 0.300771 -0.120846 0.199935 -0.453443 -0.030334 0.319449 -0.281242 -0.577860 0.156075 -0.207138 0.012646 0.289479 0.094382 0.512903 -0.114376 -0.228342 -0.481540 -0.004462 -0.085255 -0.156937 0.014531 -0.168739 -0.378225 -0.053497 -0.363308 -0.157772 0.317110 -0.114472 -0.272435 -0.119431 0.102114 -0.246928 -0.181612 0.115521 -0.160846 0.267476 -0.132388 -0.049043 -0.132545 0.043499 -0.208949 0.492118 -0.060847 -0.076231 -0.129000 -0.243456 0.487662 0.020468 -0.076728 -0.594624 0.398600 -0.243338 -0.178693 0.395556 -0.018952 0.007757 -0.208665 -0.147664 -0.125986 0.090288 -0.438083 0.222392 0.265859 0.279859 -0.261069 -0.100851 -0.175604 -0.367478 -0.055063 0.348480 -0.325922 0.250987 -0.314095 -0.586570 0.258723 0.063165 0.165699 -0.320225 -0.305679 0.063778 0.993224 -0.255424 -0.092874 0.094598 0.334448 -0.069340 0.310740 -0.059599 -0.188428 -0.436550 -0.172362 -0.298650
银 -0.067965 0.076106 0.280683 -0.022451 -0.248726 -0.352039 -0.022663 -0.123706 -0.207346 -0.738048 0.163250 -0.085540 -0.249254 -0.439405 -0.002263 0.104570 0.034400 0.333469 -0.365535 0.196146 -0.028174 0.068478 0.032241 -0.187849 0.343266 -0.213973 -0.115715 0.559522 0.380217 0.113488 0.056184 0.036476 0.111449 0.228547 -0.235846 0.383964 -0.411548 -0.025393 -0.114396 -0.393962 0.239180 0.171589 0.294487 -0.554628 0.498275 0.290778 0.336370 -0.058652 -0.381244 -0.389758 -0.187241 0.321833 0.264478 -0.059529 -0.036575 -0.278614 0.030698 0.244003 0.230547 -0.024826 -0.444718 -0.158543 -0.031957 -0.198679 0.223964 0.096823 -0.148407 -0.053417 -0.116643 -0.191503 0.325048 -0.255244 0.459296 0.353024 -0.324403 -0.147005 -0.037342 -0.565550 0.808539 0.058383 0.810861 -0.267025 -0.214537 -0.139691 0.388473 -0.231908 -0.089912 -0.208036 0.071926 0.245013 -0.207400 -0.841634 0.061248 -0.022582 0.281288 0.344505 0.199105 -0.421655 -0.123468 0.297440 -0.278215 -0.522677 0.304676 -0.190212 -0.396182 0.413280 -0.127282 -0.127712 0.280110 0.154594 -0.060755 -0.364383 0.041135 -0.134447 0.228205 -0.224356 0.164581 -0.144512 0.092680 -0.106320 0.151492 -0.625615 0.024832 0.147947 0.179015 -0.650047 0.014510 0.294584
自 0.118697 -0.602290 -0.141837 -0.356519 -0.623643 -0.650075 0.203187 0.008644 -0.141543 -0.266608 0.329149 -0.168412 -0.345987 0.052783 -0.197720 0.036054 0.284636 0.277999 0.280464 -0.066771 -0.087376 -0.191563 0.047946 -0.166345 -0.198872 0.228593 -0.074453 0.448311 0.263893 0.406546 0.012222 0.631030 0.416799 0.193928 -0.341611 -0.351078 0.031235 0.326828 -0.127119 -0.287127 0.283172 -0.167895 -0.159511 -0.021978 0.165137 -0.115493 -0.327742 -0.365027 -0.053630 -0.249768 0.247559 -0.412614 0.095211 -0.278231 -0.201854 -0.088885 0.202427 -0.116590 -0.673477 0.108838 0.006109 0.211098 -0.058088 -0.045380 -0.417650 0.215642 -0.094527 -0.088984 -0.231363 0.224194 0.398354 0.002555 -0.314914 0.356763 -0.258635 -0.308400 -0.245620 -0.287935 0.135667 -0.291996 0.149261 -0.083085 -0.214364 0.257459 -0.041255 -0.380015 0.086520 0.026766 0.205627 -0.211630 0.012447 -0.085909 -0.037031 0.036663 0.259886 0.053952 0.285717 0.072086 -0.053372 0.264698 -0.110743 -0.067971 0.282928 0.553484 0.496085 0.642932 -0.231761 -0.224321 0.009798 0.268663 -0.371371 -0.038216 0.318988 -0.369079 -0.212647 -0.433500 0.315134 -0.201657 0.437867 0.237604 -0.058236 0.081038 0.539947 0.545739 -0.066717 0.279934 -0.215252 -0.045653
请 -0.094056 0.032291 0.289984 -0.450551 -0.022215 -0.292696 -0.084997 0.017397 -0.424884 -0.074592 0.182231 0.135323 0.032877 0.384650 -0.092148 -0.113019 0.280787 -0.138322 0.284478 0.010265 0.083267 -0.138241 0.451799 0.420008 -0.094841 0.000904 0.304269 0.382181 0.167870 -0.087606 0.016040 0.101049 0.179086 -0.050775 0.131125 0.575353 0.007454 0.550569 0.282563 0.013369 -0.162006 0.404820 -0.160409 -0.408169 0.282896 0.054139 -0.038497 -0.538520 0.448724 0.264064 -0.252460 -0.086928 0.444204 0.133620 -0.584388 0.095878 -0.058294 -0.062676 0.111176 -0.201394 0.019507 0.242143 0.121977 0.098872 0.317676 -0.311313 -0.134489 0.180506 0.087082 -0.150590 0.235633 0.061942 0.243052 0.014524 0.325668 0.339802 0.191182 0.292979 -0.004661 -0.165841 0.386780 0.454399 0.416807 -0.317433 -0.084987 0.152663 -0.199431 0.230072 0.067605 0.537346 -0.110813 0.351444 -0.119985 -0.221791 0.245731 0.084260 0.486948 -0.271947 -0.412330 0.727990 -0.180121 -0.162310 0.221166 0.126838 -0.111056 0.062013 0.124534 0.012463 -0.218997 0.007135 0.303262 0.103645 0.524242 -0.036790 0.147074 -0.213815 0.008506 0.097012 -0.205218 0.057401 0.428429 -0.223543 0.026565 0.565057 -0.518380 0.524871 0.176352 -0.144247
何 0.053307 -0.577325 0.293073 -0.202085 0.030436 -0.770468 0.300792 -0.774134 -0.306513 0.146521 -0.420945 0.246678 0.057885 0.233801 -0.216711 0.161879 0.049691 -0.198606 0.045415 0.049829 0.314617 -0.444282 0.098071 0.049179 0.385081 -0.145564 0.143144 0.206927 0.014545 0.394615 0.369733 -0.047671 0.546289 0.270812 0.345210 0.152657 -0.276104 0.309971 -0.235393 -0.412981 0.341582 0.101686 -0.384870 0.042629 0.240238 -0.194585 -0.211530 0.248576 -0.060919 -0.149231 -0.153453 0.342037 -0.177152 0.242718 0.123634 -0.172394 -0.167799 0.206908 -0.364942 0.175178 0.191416 -0.052355 -0.210105 0.025510 -0.627835 -0.146673 0.092884 0.236755 0.288830 -0.277645 0.047984 0.098671 -0.031259 -0.076460 0.016375 -0.136507 0.945936 0.332768 0.493884 -0.242962 -0.078953 0.232160 0.156137 0.275646 0.327573 -0.203447 -0.266794 -0.159537 0.478034 0.378523 -0.081297 -0.094543 -0.402089 -0.105960 -0.024476 0.054194 -0.333850 -0.031146 0.296197 0.131311 0.592406 0.119067 -0.340140 0.009333 -0.116970 0.814482 -0.303096 -0.032544 -0.277954 -0.157971 0.187641 0.405354 0.552629 0.279227 0.209924 -0.415251 -0.034444 0.276765 -0.489319 -0.086135 0.025939 0.280151 -0.004531 0.353677 0.081662 0.015444 -0.405569 -0.058491
消 0.188718 -0.290015 -0.138555 -0.072353 -0.002384 -0.011345 0.037679 0.110884 0.069461 0.116173 -0.103307 -0.198894 0.229924 0.188502 0.266050 -0.173588 0.255832 -0.286152 -0.418762 -0.495195 0.138127 -0.003718 -0.504818 -0.341594 -0.004366 0.441601 0.069318 -0.235511 0.147059 0.270602 0.251081 -0.072146 0.013789 0.305307 -0.019692 -0.032222 -0.006022 0.216239 -0.140949 0.110299 0.031022 0.584917 -0.374544 -0.042310 -0.034244 0.028612 0.062890 0.166275 0.042100 -0.076400 0.212176 -0.289202 0.190901 -0.023801 -0.543416 -0.403983 -0.499438 -0.445444 -0.266703 0.149336 -0.017846 -0.188821 0.248039 -0.028361 0.452392 0.009708 -0.058979 -0.084793 0.020891 -0.117046 0.129286 0.063109 -0.055266 0.254850 0.466545 -0.250342 0.098481 -0.066326 0.206985 -0.247379 0.311072 0.094171 0.482889 -0.001255 0.132238 0.147284 -0.175814 0.136796 0.116256 0.662506 0.424822 0.162237 0.159235 -0.096841 -0.147482 0.602104 0.014884 -0.548222 -0.009733 -0.479382 0.475370 -0.115604 0.344159 -0.261495 -0.121539 0.201647 -0.140124 0.151211 -0.373829 0.202982 -0.344822 -0.205030 0.122781 -0.223441 -0.297665 -0.439065 0.415191 -0.118789 0.187294 0.295707 -0.301575 -0.257616 -0.146789 0.092296 -0.121914 -0.293390 -0.510925 -0.105003
馀 -0.067056 -0.048474 -0.039289 0.252228 -0.459273 -0.740374 -0.229275 0.143237 -0.005365 -0.454559 -0.027115 -0.226619 -0.024370 -0.438651 0.183180 0.234147 -0.261015 0.131958 -0.198123 0.164664 0.126271 -0.088121 -0.232069 -0.351654 -0.321728 -0.032250 0.096970 0.235251 0.064673 0.132794 0.279969 0.083580 0.338412 0.118560 -0.102060 -0.241486 0.061693 -0.212700 0.098652 -0.024061 -0.228348 0.069835 0.024886 -0.200437 0.188571 -0.072246 0.058011 -0.443117 -0.206107 -0.114736 0.383251 -0.040654 0.331694 -0.192372 -0.418299 -0.434409 -0.020774 -0.190260 -0.305703 -0.119982 -0.428850 0.558704 0.071775 -0.534599 -0.480160 0.276234 -0.297762 -0.367552 -0.406422 0.095350 -0.100561 -0.034991 0.000204 -0.074640 -0.080727 -0.168373 0.188990 -0.270186 0.160274 0.223364 -0.012001 -0.429501 -0.372514 0.441471 0.085565 -0.220963 -0.413113 -0.054243 0.064608 -0.227800 -0.191033 0.059666 0.203182 0.388763 -0.292088 0.083418 -0.487388 -0.001487 0.177095 0.285389 -0.215394 -0.191391 -0.089012 -0.186128 0.439471 0.643071 0.106381 0.043813 -0.302612 0.124282 -0.079811 0.016408 0.410239 -0.667861 -0.395952 -0.197409 -0.242248 -0.304380 -0.106453 -0.108589 0.194140 -0.268397 -0.209986 0.031302 -0.572110 0.236915 0.072156 0.126042
息 -0.359901 -0.232274 -0.013181 0.008502 -0.425154 0.220037 0.203452 0.124757 0.107787 0.301172 0.315111 -0.355286 -0.075383 0.169882 0.198686 0.156952 -0.357121 -0.095909 -0.038497 0.215455 0.256842 0.219899 -0.045185 -0.158395 -0.129778 -0.320956 -0.705446 0.169422 -0.261539 -0.321137 0.599594 -0.015478 0.073336 0.274701 -0.008232 -0.405720 0.208528 -0.012132 0.221082 -0.027056 -0.254150 0.191809 -0.113305 0.356956 0.318991 -0.210599 0.266978 0.366696 0.498940 -0.048622 -0.092201 -0.471739 -0.012996 0.482169 -0.673965 -0.163327 -0.369349 -0.140034 -0.471435 -0.343622 -0.642972 0.072973 0.246029 -0.211708 -0.286687 -0.692563 -0.225563 -0.236267 -0.082112 -0.443161 0.002022 -0.447720 0.043515 -0.451107 0.255308 -0.200142 0.250147 -0.363275 0.449705 0.408994 0.093678 -0.324493 0.044916 0.432742 0.273375 -0.184048 0.137936 0.314669 0.393829 -0.010756 0.039011 0.118220 0.002326 0.076513 -0.123271 -0.156542 0.375588 0.838844 0.195664 0.356866 0.476190 -0.344660 0.407831 -0.127561 -0.180542 0.041405 -0.294444 0.558464 0.339356 -0.186978 0.129937 -0.149218 0.273127 0.569956 0.125027 0.130044 0.302580 0.183185 -0.073488 0.425414 0.595424 -0.365765 0.009694 0.413310 0.517608 -0.465109 0.145013 -0.466275
样 0.116791 -0.330038 0.357224 -0.184615 -0.154042 0.082164 0.102747 0.009208 -0.111394 -0.295056 0.042822 0.090011 0.043484 0.018663 -0.163118 -0.252781 0.450977 -0.318537 0.222107 0.315679 0.143902 0.050090 0.096532 0.640197 0.311803 0.027286 -0.248339 0.289975 0.090384 0.125168 0.111489 -0.087137 0.149548 0.039376 -0.066504 -0.252640 0.194205 -0.282125 -0.188431 -0.090867 -0.193701 0.285970 0.210732 -0.365098 0.506223 -0.073494 0.292439 0.185925 -0.127485 0.263062 0.128901 -0.160754 0.068170 0.049608 -0.344260 -0.132936 -0.182900 -0.114342 -0.112284 -0.345652 0.116364 -0.221101 -0.116253 0.049436 -0.231626 0.047782 -0.136856 0.100808 -0.036793 -0.000068 -0.067862 -0.092070 -0.143443 -0.009416 0.144943 -0.327678 0.135474 -0.210602 -0.126766 0.160585 -0.265726 0.399574 -0.092036 -0.046883 -0.114190 0.098103 -0.349999 0.153201 -0.115544 0.385050 -0.381954 0.081247 0.171949 -0.312068 -0.481015 0.147683 -0.257939 0.211846 -0.135697 -0.214464 0.271297 0.030549 0.216806 0.202310 0.177908 0.347337 -0.340579 -0.399979 0.270155 0.068924 -0.009376 0.232863 0.449110 -0.074603 -0.105612 -0.310384 0.275141 -0.103851 -0.094309 -0.322535 0.124215 0.265486 -0.333941 0.306467 0.280722 0.034553 0.027129 -0.010160
候 0.024433 0.192448 0.067588 -0.001011 -0.125891 -0.571513 -0.153425 -0.319541 0.026223 0.309085 0.043522 0.348693 0.171430 -0.204021 0.122284 0.456967 0.494175 0.189703 -0.199396 -0.031362 0.620943 0.232525 0.108934 0.248239 -0.205337 0.525100 -0.184292 -0.101631 0.103692 -0.225102 0.159267 -0.251107 0.369706 -0.186605 0.297075 0.222933 -0.203233 -0.507002 0.376375 -0.110660 -0.006503 -0.258075 0.106571 -0.020963 0.159004 0.459079 -0.020683 0.334809 0.115728 0.422246 -0.328634 -0.227173 0.213799 0.177444 -0.018714 0.348286 0.022686 0.807105 -0.314791 0.228382 0.523076 -0.100714 -0.034729 -0.325376 -0.276194 0.453958 -0.289147 0.270300 0.339465 0.239075 -0.119325 0.124075 0.278352 0.132546 -0.590801 0.250093 0.095646 -0.219890 0.059456 0.158152 -0.414566 -0.111591 0.213526 0.417106 0.093892 -0.281415 0.246974 0.381475 -0.038354 0.528389 0.134039 -0.027408 -0.253660 -0.096928 -0.101326 -0.115195 0.217525 -0.161311 -0.358818 -0.380287 -0.112831 0.009188 0.480099 -0.095745 0.189119 0.122737 0.150897 -0.263120 0.489704 0.032993 -0.061662 0.170025 0.261824 -0.682828 -0.045975 -0.146340 0.106816 -0.049507 -0.087308 0.040146 0.103539 -0.328718 -0.323571 0.244474 0.053987 -0.038449 0.052433 -0.637172
